{"learner":{"attributes":{"scikit_learn":"{\"_estimator_type\": \"classifier\"}"},"feature_names":["realized_vol_20","hour_cos","ret_60","price_vs_ema_trend","hour_sin","day_of_week_sin","ret_30","position_in_range_20","price_vs_ema_fast","macd_hist","volume_trend","trend_slope_pct","hl_ratio","volume_ratio","day_of_week_cos","ema_full_alignment","ret_15","body_to_range_ratio","ret_5","ret_1","close_position_in_candle"],"feature_types":["float","float","float","float","float","float","float","float","float","float","float","float","float","float","float","float","float","float","float","float","float"],"gradient_booster":{"model":{"gbtree_model_param":{"num_parallel_tree":"1","num_trees":"300"},"iteration_indptr":[0,1,2,3,4,5,6,7,8,9,10,11,12,13,14,15,16,17,18,19,20,21,22,23,24,25,26,27,28,29,30,31,32,33,34,35,36,37,38,39,40,41,42,43,44,45,46,47,48,49,50,51,52,53,54,55,56,57,58,59,60,61,62,63,64,65,66,67,68,69,70,71,72,73,74,75,76,77,78,79,80,81,82,83,84,85,86,87,88,89,90,91,92,93,94,95,96,97,98,99,100,101,102,103,104,105,106,107,108,109,110,111,112,113,114,115,116,117,118,119,120,121,122,123,124,125,126,127,128,129,130,131,132,133,134,135,136,137,138,139,140,141,142,143,144,145,146,147,148,149,150,151,152,153,154,155,156,157,158,159,160,161,162,163,164,165,166,167,168,169,170,171,172,173,174,175,176,177,178,179,180,181,182,183,184,185,186,187,188,189,190,191,192,193,194,195,196,197,198,199,200,201,202,203,204,205,206,207,208,209,210,211,212,213,214,215,216,217,218,219,220,221,222,223,224,225,226,227,228,229,230,231,232,233,234,235,236,237,238,239,240,241,242,243,244,245,246,247,248,249,250,251,252,253,254,255,256,257,258,259,260,261,262,263,264,265,266,267,268,269,270,271,272,273,274,275,276,277,278,279,280,281,282,283,284,285,286,287,288,289,290,291,292,293,294,295,296,297,298,299,300],"tree_info":[0,0,0,0,0,0,0,0,0,0,0,0,0,0,0,0,0,0,0,0,0,0,0,0,0,0,0,0,0,0,0,0,0,0,0,0,0,0,0,0,0,0,0,0,0,0,0,0,0,0,0,0,0,0,0,0,0,0,0,0,0,0,0,0,0,0,0,0,0,0,0,0,0,0,0,0,0,0,0,0,0,0,0,0,0,0,0,0,0,0,0,0,0,0,0,0,0,0,0,0,0,0,0,0,0,0,0,0,0,0,0,0,0,0,0,0,0,0,0,0,0,0,0,0,0,0,0,0,0,0,0,0,0,0,0,0,0,0,0,0,0,0,0,0,0,0,0,0,0,0,0,0,0,0,0,0,0,0,0,0,0,0,0,0,0,0,0,0,0,0,0,0,0,0,0,0,0,0,0,0,0,0,0,0,0,0,0,0,0,0,0,0,0,0,0,0,0,0,0,0,0,0,0,0,0,0,0,0,0,0,0,0,0,0,0,0,0,0,0,0,0,0,0,0,0,0,0,0,0,0,0,0,0,0,0,0,0,0,0,0,0,0,0,0,0,0,0,0,0,0,0,0,0,0,0,0,0,0,0,0,0,0,0,0,0,0,0,0,0,0,0,0,0,0,0,0,0,0,0,0,0,0,0,0,0,0,0,0,0,0,0,0,0,0,0,0,0,0,0,0],"trees":[{"base_weights":[-1.2816573E-3,-2.3041758E-1,1.3162744E-1,1.4135022E-1,-2.6265943E-1,6.9330156E-2,3.860041E-1,1.2916602E0,1.15609296E-1,-3.4883878E-1,-1.4564142E-1,1.3889547E-1,-4.126066E-2,1.0298886E0,3.563686E-1,3.5181604E-2,9.347927E-2,-7.117654E-4,1.4375086E-2,-1.3227949E-2,-2.1541072E-2,-7.390405E-4,-9.3086725E-3,9.300015E-3,1.4569017E-4,-6.0814093E-3,5.742098E-3,7.869784E-2,3.598705E-2,1.5335462E-2,2.6397083E-2],"categories":[],"categories_nodes":[],"categories_segments":[],"categories_sizes":[],"default_left":[0,0,0,0,0,0,0,0,0,0,0,0,0,0,0,0,0,0,0,0,0,0,0,0,0,0,0,0,0,0,0],"id":0,"left_children":[1,3,5,7,9,11,13,15,17,19,21,23,25,27,29,-1,-1,-1,-1,-1,-1,-1,-1,-1,-1,-1,-1,-1,-1,-1,-1],"loss_changes":[7.504481E2,1.0849448E2,2.4707724E2,2.1107323E1,8.385248E1,9.640583E1,5.7913696E1,3.2097473E0,1.5836472E1,3.2910706E1,1.8728073E1,4.925963E1,6.0729042E1,2.081514E1,2.4721344E1,0E0,0E0,0E0,0E0,0E0,0E0,0E0,0E0,0E0,0E0,0E0,0E0,0E0,0E0,0E0,0E0],"parents":[2147483647,0,0,1,1,2,2,3,3,4,4,5,5,6,6,7,7,8,8,9,9,10,10,11,11,12,12,13,13,14,14],"right_children":[2,4,6,8,10,12,14,16,18,20,22,24,26,28,30,-1,-1,-1,-1,-1,-1,-1,-1,-1,-1,-1,-1,-1,-1,-1,-1],"split_conditions":[1.0023555E-3,-3.8292396E-3,2.290899E-3,-9.659258E-1,8.0118614E-4,1.0791009E-3,-2.0060215E-8,1.16462156E-1,5E-1,2.5881904E-1,-5E-1,7.0710677E-1,1.6094953E-3,-1.3247404E-2,7.0710677E-1,3.5181604E-2,9.347927E-2,-7.117654E-4,1.4375086E-2,-1.3227949E-2,-2.1541072E-2,-7.390405E-4,-9.3086725E-3,9.300015E-3,1.4569017E-4,-6.0814093E-3,5.742098E-3,7.869784E-2,3.598705E-2,1.5335462E-2,2.6397083E-2],"split_indices":[0,3,0,4,0,3,9,10,1,1,4,4,0,3,1,0,0,0,0,0,0,0,0,0,0,0,0,0,0,0,0],"split_type":[0,0,0,0,0,0,0,0,0,0,0,0,0,0,0,0,0,0,0,0,0,0,0,0,0,0,0,0,0,0,0],"sum_hessian":[2.4638664E4,9.044749E3,1.5593915E4,7.2128436E2,8.323465E3,1.2527913E4,3.066002E3,1.4130043E1,7.071543E2,4.7913887E3,3.532076E3,7.690439E3,4.8374746E3,1.3260503E2,2.933397E3,8.695411E0,5.434632E0,4.0346707E2,3.0368723E2,2.3660212E3,2.4253674E3,8.360638E2,2.6960122E3,5.711146E3,1.979293E3,3.1938245E3,1.64365E3,4.5868294E1,8.6736725E1,2.278415E3,6.549818E2],"tree_param":{"num_deleted":"0","num_feature":"21","num_nodes":"31","size_leaf_vector":"1"}},{"base_weights":[1.851737E-3,-2.2350274E-1,1.2959719E-1,7.5229052E-3,-2.6860106E-1,7.160994E-2,3.7565118E-1,1.4905566E-1,-2.2291562E-1,-3.3780736E-1,-1.6552618E-1,2.2033693E-1,1.7576518E-2,1.0614524E0,3.4295824E-1,4.4522476E-3,4.156336E-2,-1.373438E-2,9.817654E-3,-2.0378586E-2,-1.0636634E-2,-1.0410698E-2,3.1737608E-4,2.1249592E-2,8.36025E-3,2.7542906E-3,-4.845392E-3,7.025861E-2,4.08878E-2,7.7392566E-3,2.0096673E-2],"categories":[],"categories_nodes":[],"categories_segments":[],"categories_sizes":[],"default_left":[0,0,0,0,0,0,0,0,0,0,0,0,0,0,0,0,0,0,0,0,0,0,0,0,0,0,0,0,0,0,0],"id":1,"left_children":[1,3,5,7,9,11,13,15,17,19,21,23,25,27,29,-1,-1,-1,-1,-1,-1,-1,-1,-1,-1,-1,-1,-1,-1,-1,-1],"loss_changes":[7.12417E2,9.3295746E1,2.2528876E2,4.777866E1,5.3326965E1,1.0271679E2,6.69104E1,3.7004215E1,1.2182461E1,3.8930756E1,2.2113617E1,3.690399E1,4.028157E1,9.578522E0,3.1806702E1,0E0,0E0,0E0,0E0,0E0,0E0,0E0,0E0,0E0,0E0,0E0,0E0,0E0,0E0,0E0,0E0],"parents":[2147483647,0,0,1,1,2,2,3,3,4,4,5,5,6,6,7,7,8,8,9,9,10,10,11,11,12,12,13,13,14,14],"right_children":[2,4,6,8,10,12,14,16,18,20,22,24,26,28,30,-1,-1,-1,-1,-1,-1,-1,-1,-1,-1,-1,-1,-1,-1,-1,-1],"split_conditions":[9.976696E-4,-2.6206418E-3,2.316153E-3,7.0710677E-1,8.0650684E-4,2.0634921E-1,-2.0060215E-8,1.5934705E-9,2.5747848E-1,7.275023E-2,3.7037275E-9,-5.130493E-3,7.0710677E-1,-1.0697687E-2,1.4316061E-3,4.4522476E-3,4.156336E-2,-1.373438E-2,9.817654E-3,-2.0378586E-2,-1.0636634E-2,-1.0410698E-2,3.1737608E-4,2.1249592E-2,8.36025E-3,2.7542906E-3,-4.845392E-3,7.025861E-2,4.08878E-2,7.7392566E-3,2.0096673E-2],"split_indices":[0,3,0,4,0,7,9,9,10,10,9,18,4,3,12,0,0,0,0,0,0,0,0,0,0,0,0,0,0,0,0],"split_type":[0,0,0,0,0,0,0,0,0,0,0,0,0,0,0,0,0,0,0,0,0,0,0,0,0,0,0,0,0,0,0],"sum_hessian":[2.4744158E4,8.95146E3,1.5792698E4,1.4620322E3,7.4894277E3,1.278242E4,3.0102776E3,9.062007E2,5.5583154E2,4.4785493E3,3.0108787E3,3.4048977E3,9.377522E3,1.3475641E2,2.875521E3,8.345579E2,7.164278E1,4.953068E2,6.0524742E1,2.872522E3,1.6060271E3,2.4118325E3,5.990461E2,6.9941895E2,2.7054788E3,7.0642344E3,2.3132883E3,5.2854248E1,8.190216E1,6.876645E2,2.1878567E3],"tree_param":{"num_deleted":"0","num_feature":"21","num_nodes":"31","size_leaf_vector":"1"}},{"base_weights":[-3.633888E-3,-7.560461E-2,2.3920958E-1,9.168807E-2,-1.23936504E-1,6.8112284E-1,1.9606361E-1,1.5764996E-1,-6.150285E-2,-2.0543355E-2,-1.836593E-1,1.0388144E0,5.9477454E-1,5.3147215E-1,1.7337476E-1,2.713259E-2,6.780602E-3,-6.0839006E-3,1.627875E-2,-1.0481405E-2,3.6201056E-3,5.7114224E-4,-1.0052998E-2,6.363851E-2,1.0334285E-2,3.0763915E-2,-2.4670912E-2,2.1341799E-2,7.661273E-2,7.840393E-3,3.317007E-2],"categories":[],"categories_nodes":[],"categories_segments":[],"categories_sizes":[],"default_left":[0,0,0,0,0,0,0,0,0,0,0,0,0,0,0,0,0,0,0,0,0,0,0,0,0,0,0,0,0,0,0],"id":2,"left_children":[1,3,5,7,9,11,13,15,17,19,21,23,25,27,29,-1,-1,-1,-1,-1,-1,-1,-1,-1,-1,-1,-1,-1,-1,-1,-1],"loss_changes":[4.3192267E2,1.541593E2,1.0747647E2,4.3204277E1,9.132027E1,1.4490982E1,3.9013092E1,2.520813E1,3.003083E1,9.524322E1,3.1837769E1,1.811644E1,9.561737E0,3.2995483E1,3.89769E1,0E0,0E0,0E0,0E0,0E0,0E0,0E0,0E0,0E0,0E0,0E0,0E0,0E0,0E0,0E0,0E0],"parents":[2147483647,0,0,1,1,2,2,3,3,4,4,5,5,6,6,7,7,8,8,9,9,10,10,11,11,12,12,13,13,14,14],"right_children":[2,4,6,8,10,12,14,16,18,20,22,24,26,28,30,-1,-1,-1,-1,-1,-1,-1,-1,-1,-1,-1,-1,-1,-1,-1,-1],"split_conditions":[1.8841854E-3,-2.724276E-3,-4.4077667E-3,7.0710677E-1,-2.5881904E-1,-2.0060215E-8,-1.1071575E-8,-1.1988733E-8,-6.814345E-5,-4.3388373E-1,-2.4468007E-3,7.0710677E-1,3.863877E-9,2.9872905E-4,1.3348714E-3,2.713259E-2,6.780602E-3,-6.0839006E-3,1.627875E-2,-1.0481405E-2,3.6201056E-3,5.7114224E-4,-1.0052998E-2,6.363851E-2,1.0334285E-2,3.0763915E-2,-2.4670912E-2,2.1341799E-2,7.661273E-2,7.840393E-3,3.317007E-2],"split_indices":[12,3,8,4,4,9,9,9,11,5,18,4,9,11,11,0,0,0,0,0,0,0,0,0,0,0,0,0,0,0,0],"split_type":[0,0,0,0,0,0,0,0,0,0,0,0,0,0,0,0,0,0,0,0,0,0,0,0,0,0,0,0,0,0,0],"sum_hessian":[2.4710316E4,1.9062164E4,5.6481523E3,4.2722197E3,1.4789945E4,5.003266E2,5.1478257E3,2.9865398E3,1.28568E3,5.4161914E3,9.373754E3,9.396375E1,4.0636282E2,3.2389255E2,4.823933E3,1.5965567E2,2.826884E3,1.1137015E3,1.719785E2,1.784509E3,3.6316824E3,7.674429E2,8.606311E3,7.26762E1,2.1287552E1,3.9953265E2,6.830198E0,2.9521613E2,2.8676422E1,4.668192E3,1.5574098E2],"tree_param":{"num_deleted":"0","num_feature":"21","num_nodes":"31","size_leaf_vector":"1"}},{"base_weights":[-2.1424436E-4,-2.0682666E-1,1.1564449E-1,8.54282E-3,-2.523476E-1,6.117226E-2,3.5343823E-1,1.846935E-1,-1.3388349E-1,-3.1972012E-1,-1.5121506E-1,2.0128779E-1,1.2614115E-2,8.0782944E-1,3.0853856E-1,1.3045873E-2,-1.0292242E-2,-1.4110751E-2,2.5305017E-3,-1.854616E-2,-6.744639E-3,-5.579068E-3,-1.8092396E-2,4.676291E-2,9.403133E-3,2.7850296E-3,-5.7485243E-3,4.509926E-2,1.5829755E-2,1.4380052E-2,5.142941E-2],"categories":[],"categories_nodes":[],"categories_segments":[],"categories_sizes":[],"default_left":[0,0,0,0,0,0,0,0,0,0,0,0,0,0,0,0,0,0,0,0,0,0,0,0,0,0,0,0,0,0,0],"id":3,"left_children":[1,3,5,7,9,11,13,15,17,19,21,23,25,27,29,-1,-1,-1,-1,-1,-1,-1,-1,-1,-1,-1,-1,-1,-1,-1,-1],"loss_changes":[5.903947E2,8.689041E1,2.046341E2,3.886187E1,4.9748047E1,8.747438E1,5.964807E1,2.0700577E1,2.3467312E1,4.1434937E1,2.4359467E1,3.180075E1,5.251199E1,1.1711273E1,3.9930786E1,0E0,0E0,0E0,0E0,0E0,0E0,0E0,0E0,0E0,0E0,0E0,0E0,0E0,0E0,0E0,0E0],"parents":[2147483647,0,0,1,1,2,2,3,3,4,4,5,5,6,6,7,7,8,8,9,9,10,10,11,11,12,12,13,13,14,14],"right_children":[2,4,6,8,10,12,14,16,18,20,22,24,26,28,30,-1,-1,-1,-1,-1,-1,-1,-1,-1,-1,-1,-1,-1,-1,-1,-1],"split_conditions":[9.976696E-4,-4.101809E-3,2.3433117E-3,2.5881904E-1,8.0650684E-4,-1.272703E-3,-4.6924194E-3,-5.5580156E-5,8.2194083E-4,2.0388389E0,9.749279E-1,-2.0060215E-8,7.0710677E-1,1E0,6.2487116E-3,1.3045873E-2,-1.0292242E-2,-1.4110751E-2,2.5305017E-3,-1.854616E-2,-6.744639E-3,-5.579068E-3,-1.8092396E-2,4.676291E-2,9.403133E-3,2.7850296E-3,-5.7485243E-3,4.509926E-2,1.5829755E-2,1.4380052E-2,5.142941E-2],"split_indices":[0,6,0,4,0,8,8,11,0,13,5,9,4,14,0,0,0,0,0,0,0,0,0,0,0,0,0,0,0,0,0],"split_type":[0,0,0,0,0,0,0,0,0,0,0,0,0,0,0,0,0,0,0,0,0,0,0,0,0,0,0,0,0,0,0],"sum_hessian":[2.4660459E4,8.859841E3,1.5800617E4,1.5459122E3,7.3139287E3,1.285742E4,2.9431975E3,6.9108936E2,8.548228E2,4.3873945E3,2.926534E3,3.3075806E3,9.54984E3,2.6228036E2,2.680917E3,5.787557E2,1.12333694E2,4.7356018E2,3.8126266E2,3.4342246E3,9.531701E2,2.4652014E3,4.6133234E2,5.6625237E1,3.2509553E3,7.1398755E3,2.4099636E3,2.1895653E2,4.3323822E1,2.6072715E3,7.364549E1],"tree_param":{"num_deleted":"0","num_feature":"21","num_nodes":"31","size_leaf_vector":"1"}},{"base_weights":[6.7753036E-4,-2.5147006E-1,8.604573E-2,1.2030257E-1,-2.6828954E-1,1.308118E-2,2.4598701E-1,1.3121939E0,6.345081E-2,-2.7308825E-1,7.9418874E-1,6.662897E-2,-1.2575492E-1,2.0295326E-1,5.151679E-1,3.637631E-3,1.0797427E-1,3.406154E-2,-1.1865923E-3,-1.4886065E-2,-3.6743009E-3,6.304214E-2,-3.673151E-2,6.883605E-3,-1.4183836E-3,1.5728805E-3,-1.0620813E-2,1.9879255E-2,7.81834E-3,3.004973E-2,2.0026735E-3],"categories":[],"categories_nodes":[],"categories_segments":[],"categories_sizes":[],"default_left":[0,0,0,0,0,0,0,0,0,0,0,0,0,0,0,0,0,0,0,0,0,0,0,0,0,0,0,0,0,0,0],"id":4,"left_children":[1,3,5,7,9,11,13,15,17,19,21,23,25,27,29,-1,-1,-1,-1,-1,-1,-1,-1,-1,-1,-1,-1,-1,-1,-1,-1],"loss_changes":[5.317551E2,3.912628E1,2.1536153E2,1.8193375E1,3.0780457E1,9.424572E1,6.677936E1,1.25042515E1,1.4093688E1,2.9216919E1,2.083332E1,6.1755527E1,4.8090916E1,4.5099487E1,3.238057E1,0E0,0E0,0E0,0E0,0E0,0E0,0E0,0E0,0E0,0E0,0E0,0E0,0E0,0E0,0E0,0E0],"parents":[2147483647,0,0,1,1,2,2,3,3,4,4,5,5,6,6,7,7,8,8,9,9,10,10,11,11,12,12,13,13,14,14],"right_children":[2,4,6,8,10,12,14,16,18,20,22,24,26,28,30,-1,-1,-1,-1,-1,-1,-1,-1,-1,-1,-1,-1,-1,-1,-1,-1],"split_conditions":[8.663101E-4,-4.374813E-3,1.782997E-3,-9.659258E-1,1.6183794E-2,7.0710677E-1,3.4295574E-3,-7.017153E-3,-7.0710677E-1,2.6344088E-1,4.0562486E-4,5.077775E-4,-3.6516853E-3,1.7460318E-1,1E0,3.637631E-3,1.0797427E-1,3.406154E-2,-1.1865923E-3,-1.4886065E-2,-3.6743009E-3,6.304214E-2,-3.673151E-2,6.883605E-3,-1.4183836E-3,1.5728805E-3,-1.0620813E-2,1.9879255E-2,7.81834E-3,3.004973E-2,2.0026735E-3],"split_indices":[0,3,0,1,2,4,0,6,4,10,11,3,2,7,14,0,0,0,0,0,0,0,0,0,0,0,0,0,0,0,0],"split_type":[0,0,0,0,0,0,0,0,0,0,0,0,0,0,0,0,0,0,0,0,0,0,0,0,0,0,0,0,0,0,0],"sum_hessian":[2.4701004E4,6.2467627E3,1.8454242E4,2.6985104E2,5.976912E3,1.2674241E4,5.780001E3,1.0737591E1,2.5911343E2,5.951195E3,2.5717302E1,9.147338E3,3.526903E3,4.9857495E3,7.942512E2,5.045176E0,5.6924148E0,3.085146E1,2.2826198E2,5.296555E3,6.546394E2,1.9929642E1,5.7876596E0,5.2333994E3,3.9139385E3,1.2534305E3,2.2734727E3,9.605076E2,4.0252422E3,6.723012E2,1.2195001E2],"tree_param":{"num_deleted":"0","num_feature":"21","num_nodes":"31","size_leaf_vector":"1"}},{"base_weights":[-4.3789996E-3,-1.9740798E-1,1.0325346E-1,1.2498348E-1,-2.2666916E-1,2.057408E-2,2.4713771E-1,7.30936E-1,9.410658E-2,-2.883974E-1,-1.3654618E-1,7.3346674E-2,-7.034062E-2,6.174683E-1,2.1153322E-1,-8.439949E-3,5.3402383E-2,1.9888778E-3,2.067881E-2,-1.818285E-2,-9.323693E-3,1.5471297E-3,-9.0657035E-3,4.716877E-3,-8.305829E-3,-4.6667526E-3,6.594341E-3,4.876849E-2,2.6418705E-2,8.933801E-3,2.3577675E-2],"categories":[],"categories_nodes":[],"categories_segments":[],"categories_sizes":[],"default_left":[0,0,0,0,0,0,0,0,0,0,0,0,0,0,0,0,0,0,0,0,0,0,0,0,0,0,0,0,0,0,0],"id":5,"left_children":[1,3,5,7,9,11,13,15,17,19,21,23,25,27,29,-1,-1,-1,-1,-1,-1,-1,-1,-1,-1,-1,-1,-1,-1,-1,-1],"loss_changes":[5.1272394E2,8.338931E1,1.884591E2,1.3625261E1,4.4981873E1,4.8291622E1,7.599332E1,1.1047424E1,1.2138167E1,3.673413E1,2.4729168E1,3.2032238E1,1.7205917E1,1.5292419E1,4.4923157E1,0E0,0E0,0E0,0E0,0E0,0E0,0E0,0E0,0E0,0E0,0E0,0E0,0E0,0E0,0E0,0E0],"parents":[2147483647,0,0,1,1,2,2,3,3,4,4,5,5,6,6,7,7,8,8,9,9,10,10,11,11,12,12,13,13,14,14],"right_children":[2,4,6,8,10,12,14,16,18,20,22,24,26,28,30,-1,-1,-1,-1,-1,-1,-1,-1,-1,-1,-1,-1,-1,-1,-1,-1],"split_conditions":[9.976696E-4,-2.641193E-4,1.782997E-3,-9.659258E-1,8.0650684E-4,1E0,-4.1774455E-3,-5.290277E-9,9.749279E-1,0E0,-4.568818E-3,7.2271846E-9,2.481041E-3,-7.721296E-3,3.5533558E-3,-8.439949E-3,5.3402383E-2,1.9888778E-3,2.067881E-2,-1.818285E-2,-9.323693E-3,1.5471297E-3,-9.0657035E-3,4.716877E-3,-8.305829E-3,-4.6667526E-3,6.594341E-3,4.876849E-2,2.6418705E-2,8.933801E-3,2.3577675E-2],"split_indices":[0,11,0,1,0,15,8,9,5,5,2,9,12,8,0,0,0,0,0,0,0,0,0,0,0,0,0,0,0,0,0],"split_type":[0,0,0,0,0,0,0,0,0,0,0,0,0,0,0,0,0,0,0,0,0,0,0,0,0,0,0,0,0,0,0],"sum_hessian":[2.4675248E4,8.833102E3,1.5842146E4,7.3445605E2,8.0986455E3,1.0062215E4,5.779931E3,3.3882923E1,7.005731E2,4.8042197E3,3.2944258E3,6.367157E3,3.6950576E3,5.0468356E2,5.2752476E3,9.398737E0,2.4484188E1,6.003251E2,1.0024804E2,2.761101E3,2.0431187E3,6.947024E2,2.5997234E3,5.8550347E3,5.121226E2,3.3187515E3,3.7630634E2,9.7506424E1,4.0717712E2,4.6858486E3,5.893992E2],"tree_param":{"num_deleted":"0","num_feature":"21","num_nodes":"31","size_leaf_vector":"1"}},{"base_weights":[6.018814E-3,-2.2716706E-1,9.0678945E-2,-1.3231716E-1,-3.0423713E-1,4.438435E-2,2.9914966E-1,1.3575785E-1,-1.6248845E-1,-3.8802537E-1,-2.366769E-1,1.7180604E-1,8.278079E-3,6.5850675E-1,2.5571197E-1,6.688348E-2,5.146088E-3,-1.234366E-2,-2.714133E-3,-2.1031534E-2,4.1637724E-4,-2.1064046E-3,-1.4058937E-2,1.1785429E-2,1.9836072E-4,3.9677215E-3,-2.0831358E-3,1.6680984E-2,4.1976575E-2,1.1993895E-2,4.29476E-2],"categories":[],"categories_nodes":[],"categories_segments":[],"categories_sizes":[],"default_left":[0,0,0,0,0,0,0,0,0,0,0,0,0,0,0,0,0,0,0,0,0,0,0,0,0,0,0,0,0,0,0],"id":6,"left_children":[1,3,5,7,9,11,13,15,17,19,21,23,25,27,29,-1,-1,-1,-1,-1,-1,-1,-1,-1,-1,-1,-1,-1,-1,-1,-1],"loss_changes":[4.871283E2,4.796231E1,1.746783E2,2.3888603E1,2.0348846E1,6.81511E1,5.1044373E1,1.1521988E1,2.417788E1,2.0900696E1,1.7375015E1,3.506732E1,4.0991432E1,2.0319061E1,2.7689835E1,0E0,0E0,0E0,0E0,0E0,0E0,0E0,0E0,0E0,0E0,0E0,0E0,0E0,0E0,0E0,0E0],"parents":[2147483647,0,0,1,1,2,2,3,3,4,4,5,5,6,6,7,7,8,8,9,9,10,10,11,11,12,12,13,13,14,14],"right_children":[2,4,6,8,10,12,14,16,18,20,22,24,26,28,30,-1,-1,-1,-1,-1,-1,-1,-1,-1,-1,-1,-1,-1,-1,-1,-1],"split_conditions":[8.855323E-4,-5.5651163E-4,2.2656766E-3,-4.374813E-3,-4.3388373E-1,1.5686275E-1,-1.3249932E-8,-9.659258E-1,9.047619E-1,5.6860805E-9,-5E-1,7.0710677E-1,-2.5881904E-1,2.8072179E-3,6.2487116E-3,6.688348E-2,5.146088E-3,-1.234366E-2,-2.714133E-3,-2.1031534E-2,4.1637724E-4,-2.1064046E-3,-1.4058937E-2,1.1785429E-2,1.9836072E-4,3.9677215E-3,-2.0831358E-3,1.6680984E-2,4.1976575E-2,1.1993895E-2,4.29476E-2],"split_indices":[0,3,0,3,5,7,9,4,17,9,4,4,4,0,0,0,0,0,0,0,0,0,0,0,0,0,0,0,0,0,0],"split_type":[0,0,0,0,0,0,0,0,0,0,0,0,0,0,0,0,0,0,0,0,0,0,0,0,0,0,0,0,0,0,0],"sum_hessian":[2.467257E4,6.5708525E3,1.8101717E4,2.947768E3,3.6230845E3,1.4814055E4,3.2876626E3,2.9750443E2,2.6502637E3,1.6137971E3,2.0092875E3,3.2693289E3,1.1544726E4,3.5212927E2,2.9355332E3,6.2860045E0,2.912184E2,1.4876945E3,1.1625692E3,1.4911633E3,1.2263382E2,3.748032E2,1.6344843E3,2.3671584E3,9.0217053E2,4.7642725E3,6.780453E3,1.2762317E2,2.245061E2,2.8625745E3,7.29587E1],"tree_param":{"num_deleted":"0","num_feature":"21","num_nodes":"31","size_leaf_vector":"1"}},{"base_weights":[-2.531017E-3,-8.0844805E-2,1.4306468E-1,6.7438096E-2,-1.210875E-1,4.5955962E-1,1.0918359E-1,1.3002956E-1,-7.678355E-2,-3.490198E-2,-1.6968107E-1,5.4936045E-1,1.4904161E-1,5.7507858E-2,2.260324E-1,9.597885E-3,1.2420105E-3,1.3355329E-2,-6.136079E-3,-8.573832E-3,1.9254516E-3,-3.3342931E-3,-1.0083086E-2,2.239297E-2,5.0960924E-2,3.3428647E-2,-1.0948436E-3,9.572844E-3,1.4608473E-3,1.4779391E-2,4.6749352E-3],"categories":[],"categories_nodes":[],"categories_segments":[],"categories_sizes":[],"default_left":[0,0,0,0,0,0,0,0,0,0,0,0,0,0,0,0,0,0,0,0,0,0,0,0,0,0,0,0,0,0,0],"id":7,"left_children":[1,3,5,7,9,11,13,15,17,19,21,23,25,27,29,-1,-1,-1,-1,-1,-1,-1,-1,-1,-1,-1,-1,-1,-1,-1,-1],"loss_changes":[2.8123688E2,9.572323E1,9.240219E1,3.0929298E1,5.281726E1,2.3086624E1,4.7032204E1,1.5542896E1,1.6425182E1,4.5643677E1,2.6536621E1,3.0046097E1,1.6854628E1,2.0469925E1,2.196476E1,0E0,0E0,0E0,0E0,0E0,0E0,0E0,0E0,0E0,0E0,0E0,0E0,0E0,0E0,0E0,0E0],"parents":[2147483647,0,0,1,1,2,2,3,3,4,4,5,5,6,6,7,7,8,8,9,9,10,10,11,11,12,12,13,13,14,14],"right_children":[2,4,6,8,10,12,14,16,18,20,22,24,26,28,30,-1,-1,-1,-1,-1,-1,-1,-1,-1,-1,-1,-1,-1,-1,-1,-1],"split_conditions":[1.4316061E-3,-2.724276E-3,-1.028076E-8,7.0710677E-1,-2.5881904E-1,7.0710677E-1,2.762219E-3,1.9565217E-1,-1.3194063E-3,-4.3388373E-1,-2.8600614E-3,1.7949348E-2,-1.0697687E-2,-1.1300617E-2,8.181818E-1,9.597885E-3,1.2420105E-3,1.3355329E-2,-6.136079E-3,-8.573832E-3,1.9254516E-3,-3.3342931E-3,-1.0083086E-2,2.239297E-2,5.0960924E-2,3.3428647E-2,-1.0948436E-3,9.572844E-3,1.4608473E-3,1.4779391E-2,4.6749352E-3],"split_indices":[12,3,9,4,4,4,12,7,19,5,2,2,3,2,20,0,0,0,0,0,0,0,0,0,0,0,0,0,0,0,0],"split_type":[0,0,0,0,0,0,0,0,0,0,0,0,0,0,0,0,0,0,0,0,0,0,0,0,0,0,0,0,0,0,0],"sum_hessian":[2.4662496E4,1.6037286E4,8.62521E3,3.4228394E3,1.2614447E4,8.320861E2,7.793124E3,2.3872705E3,1.035569E3,4.549343E3,8.0651045E3,6.4441E2,1.8767615E2,5.405319E3,2.3878057E3,1.5015498E3,8.8572064E2,1.2105395E2,9.14515E2,1.5899884E3,2.9593542E3,1.9123806E3,6.152724E3,5.3242834E2,1.1198165E2,4.5454014E1,1.4222212E2,9.407466E2,4.4645723E3,1.5645085E3,8.23297E2],"tree_param":{"num_deleted":"0","num_feature":"21","num_nodes":"31","size_leaf_vector":"1"}},{"base_weights":[-6.105293E-4,-8.665317E-2,1.8221639E-1,-2.3397085E-1,-2.3353972E-2,4.1178048E-1,1.4784095E-1,-8.388793E-2,-2.80118E-1,9.920865E-2,-5.3969607E-2,8.849531E-1,3.6937684E-1,1.23662435E-1,3.8586646E-1,4.2095825E-2,-4.8092953E-3,-9.755509E-3,-1.8264199E-2,-4.5323074E-3,6.485441E-3,2.1856421E-4,-6.0209227E-3,8.951764E-2,3.4607064E-2,2.2984466E-2,9.261444E-3,3.220049E-3,9.508916E-3,1.2194599E-2,3.8876068E-2],"categories":[],"categories_nodes":[],"categories_segments":[],"categories_sizes":[],"default_left":[0,0,0,0,0,0,0,0,0,0,0,0,0,0,0,0,0,0,0,0,0,0,0,0,0,0,0,0,0,0,0],"id":8,"left_children":[1,3,5,7,9,11,13,15,17,19,21,23,25,27,29,-1,-1,-1,-1,-1,-1,-1,-1,-1,-1,-1,-1,-1,-1,-1,-1],"loss_changes":[3.8885242E2,1.5672351E2,6.2304565E1,3.4931854E1,4.412955E1,2.0097473E1,3.951346E1,1.3636603E1,2.7829102E1,1.3630224E1,3.6486412E1,1.2589783E1,1.5593491E1,2.4606934E1,3.4905342E1,0E0,0E0,0E0,0E0,0E0,0E0,0E0,0E0,0E0,0E0,0E0,0E0,0E0,0E0,0E0,0E0],"parents":[2147483647,0,0,1,1,2,2,3,3,4,4,5,5,6,6,7,7,8,8,9,9,10,10,11,11,12,12,13,13,14,14],"right_children":[2,4,6,8,10,12,14,16,18,20,22,24,26,28,30,-1,-1,-1,-1,-1,-1,-1,-1,-1,-1,-1,-1,-1,-1,-1,-1],"split_conditions":[1.5362813E-3,8.0650684E-4,-3.1334537E-3,1.4285715E-1,-1.3459199E-3,-2.4673085E-8,3.4295574E-3,-1.1071575E-8,2.5881904E-1,9.198829E-4,4.3388373E-1,-7.0710677E-1,2.9411766E-1,6.234898E-1,7.0710677E-1,4.2095825E-2,-4.8092953E-3,-9.755509E-3,-1.8264199E-2,-4.5323074E-3,6.485441E-3,2.1856421E-4,-6.0209227E-3,8.951764E-2,3.4607064E-2,2.2984466E-2,9.261444E-3,3.220049E-3,9.508916E-3,1.2194599E-2,3.8876068E-2],"split_indices":[0,0,8,7,8,9,0,9,1,0,5,1,20,14,1,0,0,0,0,0,0,0,0,0,0,0,0,0,0,0,0],"split_type":[0,0,0,0,0,0,0,0,0,0,0,0,0,0,0,0,0,0,0,0,0,0,0,0,0,0,0,0,0,0,0],"sum_hessian":[2.4716299E4,1.6807402E4,7.9088965E3,5.0498765E3,1.1757526E4,1.0277192E3,6.8811772E3,1.1888209E3,3.8610554E3,2.3489707E3,9.408556E3,8.197669E1,9.457425E2,6.248906E3,6.3227136E2,1.4204907E1,1.174616E3,1.9350859E3,1.9259695E3,3.2449344E2,2.0244773E3,5.0102744E3,4.3982817E3,1.2165022E1,6.981167E1,6.3285345E2,3.128891E2,3.3066204E3,2.9422854E3,4.659329E2,1.6633846E2],"tree_param":{"num_deleted":"0","num_feature":"21","num_nodes":"31","size_leaf_vector":"1"}},{"base_weights":[3.8855423E-3,-1.5875243E-1,9.2948675E-2,1.04693905E-1,-1.9083779E-1,5.19688E-2,2.6883602E-1,1.860833E-1,-4.1610073E-2,-2.576388E-1,-9.290306E-2,1.16157345E-1,-3.1733736E-2,4.091731E-1,1.8549117E-1,1.2691343E-2,-1.1460572E-3,8.1193345E-3,-1.1641892E-2,-3.761499E-3,-1.4479818E-2,-7.452654E-3,2.0635135E-3,3.3137195E-3,1.0658245E-2,-4.210767E-3,3.5048865E-3,3.655609E-2,1.7189482E-2,-1.7424211E-3,1.4552948E-2],"categories":[],"categories_nodes":[],"categories_segments":[],"categories_sizes":[],"default_left":[0,0,0,0,0,0,0,0,0,0,0,0,0,0,0,0,0,0,0,0,0,0,0,0,0,0,0,0,0,0,0],"id":9,"left_children":[1,3,5,7,9,11,13,15,17,19,21,23,25,27,29,-1,-1,-1,-1,-1,-1,-1,-1,-1,-1,-1,-1,-1,-1,-1,-1],"loss_changes":[3.5747827E2,7.38479E1,1.14905334E2,1.1317583E1,5.0877808E1,6.950928E1,3.509494E1,8.659742E0,1.3330652E1,2.6921783E1,2.3818085E1,3.5395493E1,3.0018816E1,2.316864E1,4.4064575E1,0E0,0E0,0E0,0E0,0E0,0E0,0E0,0E0,0E0,0E0,0E0,0E0,0E0,0E0,0E0,0E0],"parents":[2147483647,0,0,1,1,2,2,3,3,4,4,5,5,6,6,7,7,8,8,9,9,10,10,11,11,12,12,13,13,14,14],"right_children":[2,4,6,8,10,12,14,16,18,20,22,24,26,28,30,-1,-1,-1,-1,-1,-1,-1,-1,-1,-1,-1,-1,-1,-1,-1,-1],"split_conditions":[9.976696E-4,-2.3701822E-4,2.3433117E-3,7.0710677E-1,9.411765E-1,5.077775E-4,-2.869673E-9,9.659258E-1,-3.7568198E-3,-2.0345803E-3,1.21076E-1,5E-1,1.6094953E-3,-9.345794E-3,-7.0710677E-1,1.2691343E-2,-1.1460572E-3,8.1193345E-3,-1.1641892E-2,-3.761499E-3,-1.4479818E-2,-7.452654E-3,2.0635135E-3,3.3137195E-3,1.0658245E-2,-4.210767E-3,3.5048865E-3,3.655609E-2,1.7189482E-2,-1.7424211E-3,1.4552948E-2],"split_indices":[0,11,0,4,17,3,9,1,3,3,10,1,0,18,4,0,0,0,0,0,0,0,0,0,0,0,0,0,0,0,0],"split_type":[0,0,0,0,0,0,0,0,0,0,0,0,0,0,0,0,0,0,0,0,0,0,0,0,0,0,0,0,0,0,0],"sum_hessian":[2.4676322E4,8.730976E3,1.5945347E4,9.473689E2,7.783606E3,1.2934073E4,3.011274E3,6.0868774E2,3.3868118E2,4.625564E3,3.1580422E3,7.320361E3,5.6137124E3,1.119605E3,1.891669E3,4.596283E2,1.4905943E2,1.6385245E2,1.7482874E2,6.9055786E2,3.935006E3,2.2264885E3,9.3155383E2,4.836427E3,2.4839338E3,3.7049941E3,1.9087184E3,1.862873E2,9.333176E2,6.1292065E2,1.2787483E3],"tree_param":{"num_deleted":"0","num_feature":"21","num_nodes":"31","size_leaf_vector":"1"}},{"base_weights":[3.5357182E-3,-2.0525813E-1,6.95467E-2,-2.2271952E-1,7.852433E-2,3.188301E-2,2.4073203E-1,-1.8462388E-1,-3.6060515E-1,-3.3309424E-1,1.8664154E-1,1.8348387E-1,1.0755277E-2,2.2231095E-1,8.7061036E-1,-9.460718E-3,6.231438E-2,-3.0597516E-3,-2.2553565E-2,2.5893966E-2,-2.3945322E-2,3.8317285E-2,5.1406207E-3,8.294679E-3,2.4238465E-2,2.175581E-3,-4.099432E-3,2.299151E-2,9.350934E-3,5.3829856E-2,6.405055E-4],"categories":[],"categories_nodes":[],"categories_segments":[],"categories_sizes":[],"default_left":[0,0,0,0,0,0,0,0,0,0,0,0,0,0,0,0,0,0,0,0,0,0,0,0,0,0,0,0,0,0,0],"id":10,"left_children":[1,3,5,7,9,11,13,15,17,19,21,23,25,27,29,-1,-1,-1,-1,-1,-1,-1,-1,-1,-1,-1,-1,-1,-1,-1,-1],"loss_changes":[3.3928528E2,2.9334473E1,1.2056876E2,2.91362E1,1.5381385E1,4.9098507E1,3.878755E1,2.8994598E1,3.2548264E1,9.29643E0,1.3117509E1,9.784325E0,4.0892273E1,2.7324097E1,1.675322E1,0E0,0E0,0E0,0E0,0E0,0E0,0E0,0E0,0E0,0E0,0E0,0E0,0E0,0E0,0E0,0E0],"parents":[2147483647,0,0,1,1,2,2,3,3,4,4,5,5,6,6,7,7,8,8,9,9,10,10,11,11,12,12,13,13,14,14],"right_children":[2,4,6,8,10,12,14,16,18,20,22,24,26,28,30,-1,-1,-1,-1,-1,-1,-1,-1,-1,-1,-1,-1,-1,-1,-1,-1],"split_conditions":[8.567374E-4,5.721248E0,2.5174506E-3,8.660254E-1,-7.0710677E-1,-2.0417445E-3,6.2487116E-3,1.7286588E-2,-1.9501679E-3,-6.140165E-3,-2.40024E-3,-1.6301579E-3,7.0710677E-1,-4.4077667E-3,1E0,-9.460718E-3,6.231438E-2,-3.0597516E-3,-2.2553565E-2,2.5893966E-2,-2.3945322E-2,3.8317285E-2,5.1406207E-3,8.294679E-3,2.4238465E-2,2.175581E-3,-4.099432E-3,2.299151E-2,9.350934E-3,5.3829856E-2,6.405055E-4],"split_indices":[0,13,12,1,1,8,0,2,3,2,18,18,4,8,14,0,0,0,0,0,0,0,0,0,0,0,0,0,0,0,0],"split_type":[0,0,0,0,0,0,0,0,0,0,0,0,0,0,0,0,0,0,0,0,0,0,0,0,0,0,0,0,0,0,0],"sum_hessian":[2.4614213E4,5.911648E3,1.8702564E4,5.5694536E3,3.421945E2,1.5331454E4,3.3711099E3,4.366837E3,1.202617E3,7.0438965E1,2.7175552E2,1.8736062E3,1.3457849E4,3.2773704E3,9.3739395E1,4.3542046E3,1.2632052E1,2.7976468E2,9.228523E2,9.693919E0,6.0745045E1,3.2714645E1,2.3904088E2,1.7726061E3,1.0100013E2,9.946254E3,3.5115942E3,4.214597E2,2.8559106E3,7.523261E1,1.8506779E1],"tree_param":{"num_deleted":"0","num_feature":"21","num_nodes":"31","size_leaf_vector":"1"}},{"base_weights":[-1.2655397E-3,-1.6563629E-1,6.8167835E-2,-5.4878347E-2,-2.2323668E-1,1.1084879E-2,1.7843647E-1,3.0262983E-1,-8.020619E-2,-1.7726494E-1,-3.9295474E-1,6.0119126E-2,-7.580498E-2,4.754739E-1,1.5257892E-1,1.7089928E-2,-2.983003E-2,-7.7834153E-3,7.763579E-4,-1.1133462E-2,5.298923E-4,-2.0619392E-2,1.1073357E-2,1.4642398E-2,2.3486696E-3,2.2544833E-3,-6.5320055E-3,1.2346714E-2,3.1420954E-2,6.2840492E-3,1.8493274E-2],"categories":[],"categories_nodes":[],"categories_segments":[],"categories_sizes":[],"default_left":[0,0,0,0,0,0,0,0,0,0,0,0,0,0,0,0,0,0,0,0,0,0,0,0,0,0,0,0,0,0,0],"id":11,"left_children":[1,3,5,7,9,11,13,15,17,19,21,23,25,27,29,-1,-1,-1,-1,-1,-1,-1,-1,-1,-1,-1,-1,-1,-1,-1,-1],"loss_changes":[2.8060754E2,4.655078E1,1.0878656E2,2.2666515E1,3.7339767E1,4.8538204E1,4.5140396E1,6.126153E0,1.6888823E1,3.2274834E1,1.2351746E1,2.224367E1,2.7256506E1,1.619529E1,3.161612E1,0E0,0E0,0E0,0E0,0E0,0E0,0E0,0E0,0E0,0E0,0E0,0E0,0E0,0E0,0E0,0E0],"parents":[2147483647,0,0,1,1,2,2,3,3,4,4,5,5,6,6,7,7,8,8,9,9,10,10,11,11,12,12,13,13,14,14],"right_children":[2,4,6,8,10,12,14,16,18,20,22,24,26,28,30,-1,-1,-1,-1,-1,-1,-1,-1,-1,-1,-1,-1,-1,-1,-1,-1],"split_conditions":[9.291103E-4,-1.2032742E-3,1.782997E-3,-8.7174345E-3,8.660254E-1,1.1561507E-3,-4.4077667E-3,-2.724276E-3,9.047619E-1,1.106295E-3,1.1513328E-2,-1.065459E-8,-2.2252093E-1,-1.8799787E-2,2.5559105E-2,1.7089928E-2,-2.983003E-2,-7.7834153E-3,7.763579E-4,-1.1133462E-2,5.298923E-4,-2.0619392E-2,1.1073357E-2,1.4642398E-2,2.3486696E-3,2.2544833E-3,-6.5320055E-3,1.2346714E-2,3.1420954E-2,6.2840492E-3,1.8493274E-2],"split_indices":[0,3,0,6,1,3,8,3,17,8,2,9,14,6,2,0,0,0,0,0,0,0,0,0,0,0,0,0,0,0,0],"split_type":[0,0,0,0,0,0,0,0,0,0,0,0,0,0,0,0,0,0,0,0,0,0,0,0,0,0,0,0,0,0,0],"sum_hessian":[2.4583645E4,7.300261E3,1.7283383E4,2.498936E3,4.801325E3,1.1389477E4,5.8939062E3,1.6410866E2,2.3348274E3,3.7806243E3,1.0207009E3,7.2814175E3,4.1080596E3,4.6974268E2,5.4241636E3,1.582031E2,5.9055634E0,1.305414E3,1.0294135E3,3.0447349E3,7.3588947E2,9.8996466E2,3.0736284E1,3.8739282E2,6.894025E3,1.2816871E3,2.8263723E3,1.9003296E2,2.7970972E2,4.828981E3,5.9518274E2],"tree_param":{"num_deleted":"0","num_feature":"21","num_nodes":"31","size_leaf_vector":"1"}},{"base_weights":[9.602231E-4,-1.9293204E-1,6.1744027E-2,-1.1360833E-1,-2.612492E-1,-4.608006E-3,1.5114695E-1,-1.2104115E-1,7.1195406E-1,-3.0434686E-1,-9.777366E-2,6.704692E-2,-6.49139E-2,3.5267743E-1,1.2062314E-1,-7.1132593E-3,3.7176043E-3,-8.378801E-3,5.014648E-2,-1.2174497E-2,-2.6211917E-2,-3.959454E-3,-4.055831E-2,6.254596E-3,-3.6380542E-4,-4.5632664E-4,-9.455644E-3,3.1939607E-2,1.4517455E-2,5.333919E-3,2.0484453E-2],"categories":[],"categories_nodes":[],"categories_segments":[],"categories_sizes":[],"default_left":[0,0,0,0,0,0,0,0,0,0,0,0,0,0,0,0,0,0,0,0,0,0,0,0,0,0,0,0,0,0,0],"id":12,"left_children":[1,3,5,7,9,11,13,15,17,19,21,23,25,27,29,-1,-1,-1,-1,-1,-1,-1,-1,-1,-1,-1,-1,-1,-1,-1,-1],"loss_changes":[2.9063892E2,3.1832535E1,1.1138593E2,1.6830048E1,2.2204117E1,4.6581432E1,4.911685E1,1.1230701E1,6.5604305E0,3.3229996E1,8.634484E0,2.125838E1,4.0546463E1,1.842044E1,2.7920303E1,0E0,0E0,0E0,0E0,0E0,0E0,0E0,0E0,0E0,0E0,0E0,0E0,0E0,0E0,0E0,0E0],"parents":[2147483647,0,0,1,1,2,2,3,3,4,4,5,5,6,6,7,7,8,8,9,9,10,10,11,11,12,12,13,13,14,14],"right_children":[2,4,6,8,10,12,14,16,18,20,22,24,26,28,30,-1,-1,-1,-1,-1,-1,-1,-1,-1,-1,-1,-1,-1,-1,-1,-1],"split_conditions":[8.567374E-4,-5.2252866E-4,1.5362813E-3,2.156722E-3,2.0388389E0,-6.6734006E-4,-3.1334537E-3,3.9608653E0,-7.986913E-3,8.660254E-1,4.0556197E-3,-1.3630508E-9,7.818315E-1,-7.0710677E-1,4.082984E-3,-7.1132593E-3,3.7176043E-3,-8.378801E-3,5.014648E-2,-1.2174497E-2,-2.6211917E-2,-3.959454E-3,-4.055831E-2,6.254596E-3,-3.6380542E-4,-4.5632664E-4,-9.455644E-3,3.1939607E-2,1.4517455E-2,5.333919E-3,2.0484453E-2],"split_indices":[0,3,0,16,13,3,8,13,2,1,18,9,5,1,0,0,0,0,0,0,0,0,0,0,0,0,0,0,0,0,0],"split_type":[0,0,0,0,0,0,0,0,0,0,0,0,0,0,0,0,0,0,0,0,0,0,0,0,0,0,0,0,0,0,0],"sum_hessian":[2.465824E4,5.884234E3,1.8774008E4,2.7249707E3,3.159263E3,1.0776725E4,7.997282E3,2.7019844E3,2.298625E1,2.4988767E3,6.6038635E2,4.924491E3,5.8522334E3,1.0496434E3,6.947639E3,2.4378442E3,2.6414017E2,5.829561E0,1.7156689E1,1.9598572E3,5.390194E2,6.453119E2,1.507442E1,2.7648438E3,2.1596475E3,4.0397034E3,1.8125303E3,1.8513168E2,8.645118E2,6.630028E3,3.1761115E2],"tree_param":{"num_deleted":"0","num_feature":"21","num_nodes":"31","size_leaf_vector":"1"}},{"base_weights":[1.7812681E-4,-1.4156899E-1,7.628765E-2,2.3104781E-2,-1.7470263E-1,5.367891E-2,2.8970966E-1,1.2660123E-1,-1.5051699E-1,-2.3795448E-1,-8.301447E-2,5.849161E-3,1.0817789E-1,2.0149468E-1,5.54448E-1,5.3174654E-3,4.0138613E-2,2.9078664E-3,-1.3363756E-2,-1.3449865E-2,-3.1835772E-3,-7.2558224E-3,1.2221003E-3,3.0256927E-3,-4.6300846E-3,2.5675017E-3,8.672032E-3,2.059322E-2,3.1102088E-3,-2.6321575E-2,3.090551E-2],"categories":[],"categories_nodes":[],"categories_segments":[],"categories_sizes":[],"default_left":[0,0,0,0,0,0,0,0,0,0,0,0,0,0,0,0,0,0,0,0,0,0,0,0,0,0,0,0,0,0,0],"id":13,"left_children":[1,3,5,7,9,11,13,15,17,19,21,23,25,27,29,-1,-1,-1,-1,-1,-1,-1,-1,-1,-1,-1,-1,-1,-1,-1,-1],"loss_changes":[2.6519934E2,4.687062E1,7.71368E1,2.5895266E1,4.1418762E1,3.7697834E1,3.5561768E1,1.2190852E1,1.3145363E1,2.2842072E1,1.9506538E1,4.1477425E1,2.5047836E1,3.3672245E1,2.6763588E1,0E0,0E0,0E0,0E0,0E0,0E0,0E0,0E0,0E0,0E0,0E0,0E0,0E0,0E0,0E0,0E0],"parents":[2147483647,0,0,1,1,2,2,3,3,4,4,5,5,6,6,7,7,8,8,9,9,10,10,11,11,12,12,13,13,14,14],"right_children":[2,4,6,8,10,12,14,16,18,20,22,24,26,28,30,-1,-1,-1,-1,-1,-1,-1,-1,-1,-1,-1,-1,-1,-1,-1,-1],"split_conditions":[9.976696E-4,-2.6206418E-3,2.905569E-3,7.0710677E-1,9.375E-1,1.508066E-3,7.0710677E-1,4.5454547E-1,-6.6364342E-3,9.659258E-1,7.275023E-2,1.1561507E-3,6.234898E-1,0E0,6.702413E-4,5.3174654E-3,4.0138613E-2,2.9078664E-3,-1.3363756E-2,-1.3449865E-2,-3.1835772E-3,-7.2558224E-3,1.2221003E-3,3.0256927E-3,-4.6300846E-3,2.5675017E-3,8.672032E-3,2.059322E-2,3.1102088E-3,-2.6321575E-2,3.090551E-2],"split_indices":[0,3,0,4,17,0,1,7,6,4,10,3,14,5,12,0,0,0,0,0,0,0,0,0,0,0,0,0,0,0,0],"split_type":[0,0,0,0,0,0,0,0,0,0,0,0,0,0,0,0,0,0,0,0,0,0,0,0,0,0,0,0,0,0,0],"sum_hessian":[2.4579412E4,8.586284E3,1.5993128E4,1.4380647E3,7.14822E3,1.44631E4,1.5300283E3,9.0141986E2,5.3664484E2,4.2283315E3,2.9198884E3,7.7042363E3,6.758864E3,1.1497455E3,3.8028284E2,8.7696387E2,2.4455978E1,1.9265305E2,3.4399176E2,3.588122E3,6.402096E2,1.8504204E3,1.069468E3,4.954399E3,2.7498372E3,3.6147495E3,3.1441145E3,4.5669983E2,6.9304565E2,2.0502071E1,3.5978076E2],"tree_param":{"num_deleted":"0","num_feature":"21","num_nodes":"31","size_leaf_vector":"1"}},{"base_weights":[-3.6633157E-3,-1.3198502E-1,6.514854E-2,7.477986E-2,-1.60862E-1,3.1772733E-1,4.8063185E-2,5.4415334E-2,5.950238E-1,-2.1277529E-1,-8.547709E-2,6.161531E-1,2.6933694E-1,2.3981448E-2,1.6114278E-1,4.3365955E-3,-1.874259E-2,6.464695E-2,4.3236325E-3,-1.1845137E-2,-1.0513606E-3,-7.0944387E-3,4.0482948E-4,3.464919E-2,-1.3179137E-2,6.1466824E-3,1.8054588E-2,3.3496104E-3,-2.1261566E-3,1.40044885E-2,4.169067E-3],"categories":[],"categories_nodes":[],"categories_segments":[],"categories_sizes":[],"default_left":[0,0,0,0,0,0,0,0,0,0,0,0,0,0,0,0,0,0,0,0,0,0,0,0,0,0,0,0,0,0,0],"id":14,"left_children":[1,3,5,7,9,11,13,15,17,19,21,23,25,27,29,-1,-1,-1,-1,-1,-1,-1,-1,-1,-1,-1,-1,-1,-1,-1,-1],"loss_changes":[2.1779741E2,5.142978E1,6.924357E1,1.1105921E1,2.9525986E1,1.4389961E1,4.0941074E1,1.4154938E1,1.3794469E1,2.0672928E1,1.6288208E1,9.795925E0,1.1699741E1,3.5478874E1,2.4365227E1,0E0,0E0,0E0,0E0,0E0,0E0,0E0,0E0,0E0,0E0,0E0,0E0,0E0,0E0,0E0,0E0],"parents":[2147483647,0,0,1,1,2,2,3,3,4,4,5,5,6,6,7,7,8,8,9,9,10,10,11,11,12,12,13,13,14,14],"right_children":[2,4,6,8,10,12,14,16,18,20,22,24,26,28,30,-1,-1,-1,-1,-1,-1,-1,-1,-1,-1,-1,-1,-1,-1,-1,-1],"split_conditions":[9.976696E-4,-2.2426323E-4,-3.630488E-3,-2.1296133E-4,9.411765E-1,-2.0060215E-8,2.3433117E-3,-2.5018763E-3,-4.078009E-9,1.3086103E-3,7.275023E-2,-6.536428E-3,1.858769E-3,1.1561507E-3,0E0,4.3365955E-3,-1.874259E-2,6.464695E-2,4.3236325E-3,-1.1845137E-2,-1.0513606E-3,-7.0944387E-3,4.0482948E-4,3.464919E-2,-1.3179137E-2,6.1466824E-3,1.8054588E-2,3.3496104E-3,-2.1261566E-3,1.40044885E-2,4.169067E-3],"split_indices":[0,11,8,3,17,9,0,16,9,8,10,16,0,3,5,0,0,0,0,0,0,0,0,0,0,0,0,0,0,0,0],"split_type":[0,0,0,0,0,0,0,0,0,0,0,0,0,0,0,0,0,0,0,0,0,0,0,0,0,0,0,0,0,0,0],"sum_hessian":[2.4662127E4,8.608387E3,1.6053739E4,1.0544196E3,7.5539673E3,1.0152738E3,1.5038466E4,1.0163869E3,3.8032635E1,4.4713833E3,3.082584E3,1.3905876E2,8.76215E2,1.2399991E4,2.638475E3,9.4644867E2,6.993822E1,1.5014888E1,2.3017746E1,3.9710916E3,5.002919E2,1.9230293E3,1.1595546E3,1.2823479E2,1.08239765E1,3.3914014E2,5.370749E2,7.5305015E3,4.8694893E3,1.0412272E3,1.5972479E3],"tree_param":{"num_deleted":"0","num_feature":"21","num_nodes":"31","size_leaf_vector":"1"}},{"base_weights":[2.5156818E-3,-1.2965053E-1,7.4469194E-2,5.686691E-2,-1.5809211E-1,3.3767635E-1,5.6481488E-2,9.235891E-1,3.638274E-2,-2.0910591E-1,-8.9669354E-2,6.4918345E-1,2.8773892E-1,3.2166228E-2,1.912987E-1,6.940811E-2,-2.7813439E-3,2.0990628E-4,1.7493818E-2,-1.368346E-2,-5.983344E-3,-1.8091927E-3,-1.0971747E-2,3.8771342E-2,1.0100224E-2,1.7241426E-2,-3.101926E-3,3.2249663E-3,-3.2869193E-3,1.9261772E-3,1.2987437E-2],"categories":[],"categories_nodes":[],"categories_segments":[],"categories_sizes":[],"default_left":[0,0,0,0,0,0,0,0,0,0,0,0,0,0,0,0,0,0,0,0,0,0,0,0,0,0,0,0,0,0,0],"id":15,"left_children":[1,3,5,7,9,11,13,15,17,19,21,23,25,27,29,-1,-1,-1,-1,-1,-1,-1,-1,-1,-1,-1,-1,-1,-1,-1,-1],"loss_changes":[2.3415332E2,4.6061295E1,7.5434425E1,2.0305513E1,2.6246094E1,1.553038E1,4.8906338E1,1.2199783E1,1.13242655E1,2.4837479E1,2.2323645E1,7.5917854E0,1.7646187E1,4.0040558E1,2.381253E1,0E0,0E0,0E0,0E0,0E0,0E0,0E0,0E0,0E0,0E0,0E0,0E0,0E0,0E0,0E0,0E0],"parents":[2147483647,0,0,1,1,2,2,3,3,4,4,5,5,6,6,7,7,8,8,9,9,10,10,11,11,12,12,13,13,14,14],"right_children":[2,4,6,8,10,12,14,16,18,20,22,24,26,28,30,-1,-1,-1,-1,-1,-1,-1,-1,-1,-1,-1,-1,-1,-1,-1,-1],"split_conditions":[1.0023555E-3,-3.0551741E-3,-3.630488E-3,-9.659258E-1,8.0118614E-4,-2.0060215E-8,2.4676565E-3,-1.4552645E-9,1.4453672E-9,0E0,7.818315E-1,7.0710677E-1,5.652174E-1,7.0710677E-1,-7.0710677E-1,6.940811E-2,-2.7813439E-3,2.0990628E-4,1.7493818E-2,-1.368346E-2,-5.983344E-3,-1.8091927E-3,-1.0971747E-2,3.8771342E-2,1.0100224E-2,1.7241426E-2,-3.101926E-3,3.2249663E-3,-3.2869193E-3,1.9261772E-3,1.2987437E-2],"split_indices":[0,3,8,4,0,9,0,9,9,5,5,4,20,4,4,0,0,0,0,0,0,0,0,0,0,0,0,0,0,0,0],"split_type":[0,0,0,0,0,0,0,0,0,0,0,0,0,0,0,0,0,0,0,0,0,0,0,0,0,0,0,0,0,0,0],"sum_hessian":[2.4619521E4,8.67787E3,1.5941651E4,1.1477518E3,7.5301187E3,1.0178858E3,1.4923766E4,2.4916512E1,1.1228353E3,4.311665E3,3.2184531E3,1.3800655E2,8.798792E2,1.2645319E4,2.2784463E3,1.6508802E1,8.407709E0,1.01981616E3,1.0301917E2,2.5019417E3,1.8097236E3,2.2807146E3,9.377387E2,1.0667747E2,3.132908E1,7.5656E2,1.23319214E2,9.506733E3,3.1385862E3,7.0593317E2,1.5725131E3],"tree_param":{"num_deleted":"0","num_feature":"21","num_nodes":"31","size_leaf_vector":"1"}},{"base_weights":[-3.4932029E-3,-1.4762188E-1,5.5969875E-2,-4.4432536E-2,-2.0135947E-1,3.0107383E-2,1.9840685E-1,8.074529E-2,-1.4733556E-1,-2.434225E-1,-2.8859302E-2,1.2581226E-1,-2.1199835E-3,7.1392447E-1,1.818698E-1,2.4950486E-3,3.005206E-2,-1.0073203E-2,6.5546497E-3,-7.043948E-4,-1.3415906E-2,-5.0298157E-3,5.103179E-3,1.254288E-2,4.9733086E-3,3.5472827E-3,-2.7247388E-3,4.365664E-2,-9.915817E-3,1.4726142E-2,5.437899E-3],"categories":[],"categories_nodes":[],"categories_segments":[],"categories_sizes":[],"default_left":[0,0,0,0,0,0,0,0,0,0,0,0,0,0,0,0,0,0,0,0,0,0,0,0,0,0,0,0,0,0,0],"id":16,"left_children":[1,3,5,7,9,11,13,15,17,19,21,23,25,27,29,-1,-1,-1,-1,-1,-1,-1,-1,-1,-1,-1,-1,-1,-1,-1,-1],"loss_changes":[2.1063324E2,3.9778976E1,6.4070816E1,3.1713457E1,3.4219498E1,4.5428467E1,2.2548248E1,1.7748552E1,2.0404991E1,2.1640625E1,8.722987E0,1.2168213E1,4.216866E1,1.2271763E1,2.1280525E1,0E0,0E0,0E0,0E0,0E0,0E0,0E0,0E0,0E0,0E0,0E0,0E0,0E0,0E0,0E0,0E0],"parents":[2147483647,0,0,1,1,2,2,3,3,4,4,5,5,6,6,7,7,8,8,9,9,10,10,11,11,12,12,13,13,14,14],"right_children":[2,4,6,8,10,12,14,16,18,20,22,24,26,28,30,-1,-1,-1,-1,-1,-1,-1,-1,-1,-1,-1,-1,-1,-1,-1,-1],"split_conditions":[9.291103E-4,-1.2032742E-3,2.4676565E-3,2.5881904E-1,1.106295E-3,-1.2972268E-3,-7.721296E-3,2.6815446E-4,8.663101E-4,1.641791E-1,8.3216524E-4,-3.630488E-3,-2.5881904E-1,1E0,0E0,2.4950486E-3,3.005206E-2,-1.0073203E-2,6.5546497E-3,-7.043948E-4,-1.3415906E-2,-5.0298157E-3,5.103179E-3,1.254288E-2,4.9733086E-3,3.5472827E-3,-2.7247388E-3,4.365664E-2,-9.915817E-3,1.4726142E-2,5.437899E-3],"split_indices":[0,3,0,4,8,8,8,8,0,7,0,8,4,14,5,0,0,0,0,0,0,0,0,0,0,0,0,0,0,0,0],"split_type":[0,0,0,0,0,0,0,0,0,0,0,0,0,0,0,0,0,0,0,0,0,0,0,0,0,0,0,0,0,0,0],"sum_hessian":[2.4573533E4,7.1767925E3,1.7396742E4,2.4588562E3,4.717936E3,1.4725229E4,2.6715137E3,1.1092864E3,1.3495698E3,3.7923018E3,9.256344E2,3.7087205E3,1.1016508E4,8.0974464E1,2.5905393E3,1.0488483E3,6.043812E1,1.1304053E3,2.1916455E2,3.7178955E2,3.4205122E3,5.9845197E2,3.2718243E2,6.428602E2,3.06586E3,4.5990713E3,6.4174365E3,6.9043755E1,1.1930706E1,1.0175064E3,1.5730328E3],"tree_param":{"num_deleted":"0","num_feature":"21","num_nodes":"31","size_leaf_vector":"1"}},{"base_weights":[3.0704944E-3,-1.4369361E-1,4.8328638E-2,-1.4741646E-1,7.7983433E-1,4.056555E-3,1.4347667E-1,-8.600484E-2,-2.0831557E-1,1.3331465E0,-2.6512314E-2,4.4691436E-2,-1.0163368E-1,1.2209732E-1,3.256976E-1,6.047319E-3,-5.5319085E-3,-1.306724E-2,-3.4052643E-3,8.969688E-2,3.2170203E-2,3.1474584E-3,-8.976816E-3,-3.5540245E-2,-4.5213797E-3,1.3527401E-2,4.1771205E-3,2.0969117E-2,-1.6966928E-2],"categories":[],"categories_nodes":[],"categories_segments":[],"categories_sizes":[],"default_left":[0,0,0,0,0,0,0,0,0,0,0,0,0,0,0,0,0,0,0,0,0,0,0,0,0,0,0,0,0],"id":17,"left_children":[1,3,5,7,9,11,13,15,17,19,-1,21,23,25,27,-1,-1,-1,-1,-1,-1,-1,-1,-1,-1,-1,-1,-1,-1],"loss_changes":[1.6307112E2,2.0034935E1,7.903696E1,2.1516632E1,1.8074413E1,5.5011032E1,2.3130005E1,1.4666164E1,2.146547E1,3.5233536E0,0E0,3.7890404E1,2.4144852E1,3.0484818E1,3.9126938E1,0E0,0E0,0E0,0E0,0E0,0E0,0E0,0E0,0E0,0E0,0E0,0E0,0E0,0E0],"parents":[2147483647,0,0,1,1,2,2,3,3,4,4,5,5,6,6,7,7,8,8,9,9,11,11,12,12,13,13,14,14],"right_children":[2,4,6,8,10,12,14,16,18,20,-1,22,24,26,28,-1,-1,-1,-1,-1,-1,-1,-1,-1,-1,-1,-1,-1,-1],"split_conditions":[8.567374E-4,1.6183794E-2,1.782997E-3,-6.3982676E-4,5.291005E-3,7.0710677E-1,2.5559105E-2,-6.5173116E-3,1.1868778E-1,-2.5881904E-1,-2.6512314E-2,7.984639E-9,-2.1604514E-2,-1.657243E-2,8.660254E-1,6.047319E-3,-5.5319085E-3,-1.306724E-2,-3.4052643E-3,8.969688E-2,3.2170203E-2,3.1474584E-3,-8.976816E-3,-3.5540245E-2,-4.5213797E-3,1.3527401E-2,4.1771205E-3,2.0969117E-2,-1.6966928E-2],"split_indices":[0,2,0,2,16,4,2,6,10,4,0,9,2,2,4,0,0,0,0,0,0,0,0,0,0,0,0,0,0],"split_type":[0,0,0,0,0,0,0,0,0,0,0,0,0,0,0,0,0,0,0,0,0,0,0,0,0,0,0,0,0],"sum_hessian":[2.4548158E4,5.78478E3,1.8763379E4,5.762864E3,2.1916075E1,1.2806597E4,5.956781E3,2.8715679E3,2.8912957E3,1.5416623E1,6.4994507E0,9.251138E3,3.5554597E3,5.333768E3,6.2301276E2,3.0460504E2,2.566963E3,2.0966606E3,7.946349E2,7.7591887E0,7.6574345E0,8.555785E3,6.9535236E2,6.2451363E1,3.4930083E3,1.0975338E3,4.2362344E3,5.466365E2,7.6376305E1],"tree_param":{"num_deleted":"0","num_feature":"21","num_nodes":"29","size_leaf_vector":"1"}},{"base_weights":[2.1167665E-3,-5.394235E-2,1.0694325E-1,5.576568E-2,-9.3048416E-2,2.5527698E-1,8.509724E-2,3.2019767E-1,-2.7912317E-2,1.1325693E-1,-1.1389622E-1,7.05793E-1,2.217284E-1,7.962042E-2,5.9231675E-1,2.8188245E-3,2.0846104E-2,4.714449E-3,-6.6294554E-3,8.96419E-3,-9.094645E-3,-1.0402321E-2,-3.7752073E-3,2.2379778E-2,7.046844E-2,1.3861147E-2,2.6820877E-3,1.6925676E-3,6.524671E-3,4.2091392E-2,-9.332562E-3],"categories":[],"categories_nodes":[],"categories_segments":[],"categories_sizes":[],"default_left":[0,0,0,0,0,0,0,0,0,0,0,0,0,0,0,0,0,0,0,0,0,0,0,0,0,0,0,0,0,0,0],"id":18,"left_children":[1,3,5,7,9,11,13,15,17,19,21,23,25,27,29,-1,-1,-1,-1,-1,-1,-1,-1,-1,-1,-1,-1,-1,-1,-1,-1],"loss_changes":[1.4470053E2,6.883902E1,2.7754005E1,9.332738E1,5.0892647E1,1.6350182E1,2.0677944E1,2.5811707E1,4.100753E1,2.1214664E1,3.8796265E1,1.26713295E1,9.535343E0,1.7222546E1,1.5736908E1,0E0,0E0,0E0,0E0,0E0,0E0,0E0,0E0,0E0,0E0,0E0,0E0,0E0,0E0,0E0,0E0],"parents":[2147483647,0,0,1,1,2,2,3,3,4,4,5,5,6,6,7,7,8,8,9,9,10,10,11,11,12,12,13,13,14,14],"right_children":[2,4,6,8,10,12,14,16,18,20,22,24,26,28,30,-1,-1,-1,-1,-1,-1,-1,-1,-1,-1,-1,-1,-1,-1,-1,-1],"split_conditions":[1.4908402E-3,-5E-1,-3.1334537E-3,-2.2252093E-1,-4.6465127E-3,-8.660254E-1,6.2487116E-3,-1.9501679E-3,-3.783681E-5,9.659258E-1,7.656711E-4,2.5631299E-3,1.5E-1,6.234898E-1,0E0,2.8188245E-3,2.0846104E-2,4.714449E-3,-6.6294554E-3,8.96419E-3,-9.094645E-3,-1.0402321E-2,-3.7752073E-3,2.2379778E-2,7.046844E-2,1.3861147E-2,2.6820877E-3,1.6925676E-3,6.524671E-3,4.2091392E-2,-9.332562E-3],"split_indices":[0,4,8,14,3,1,0,3,11,4,0,0,7,14,4,0,0,0,0,0,0,0,0,0,0,0,0,0,0,0,0],"split_type":[0,0,0,0,0,0,0,0,0,0,0,0,0,0,0,0,0,0,0,0,0,0,0,0,0,0,0,0,0,0,0],"sum_hessian":[2.462025E4,1.6041712E4,8.578537E3,4.215012E3,1.18267E4,1.0988776E3,7.4796597E3,1.0123209E3,3.2026914E3,1.0846082E3,1.0742092E4,7.397236E1,1.0249052E3,7.401573E3,7.808616E1,2.7235336E2,7.399676E2,1.4775029E3,1.7251885E3,8.869501E2,1.9765804E2,3.1092478E3,7.6328438E3,5.596113E1,1.8011232E1,7.695602E2,2.5534497E2,3.8980676E3,3.5035059E3,5.909924E1,1.8986917E1],"tree_param":{"num_deleted":"0","num_feature":"21","num_nodes":"31","size_leaf_vector":"1"}},{"base_weights":[-7.6142495E-4,-1.0889859E-1,5.7123635E-2,1.0336295E-1,-1.2853691E-1,2.6965033E-2,1.6064432E-1,6.501474E-2,5.989309E-1,-1.8940844E-1,-3.9560616E-2,5.4765478E-2,-5.9188236E-2,1.463753E-1,6.384771E-1,4.3376308E-4,1.7582549E-2,4.3862473E-2,-3.7877534E-3,-1.0592577E-2,-2.1137342E-4,-7.2612674E-3,1.824447E-4,7.7215955E-3,1.1963247E-3,-6.5927054E-3,4.6257E-3,1.631866E-2,5.787806E-3,6.8246922E-3,4.5442816E-2],"categories":[],"categories_nodes":[],"categories_segments":[],"categories_sizes":[],"default_left":[0,0,0,0,0,0,0,0,0,0,0,0,0,0,0,0,0,0,0,0,0,0,0,0,0,0,0,0,0,0,0],"id":19,"left_children":[1,3,5,7,9,11,13,15,17,19,21,23,25,27,29,-1,-1,-1,-1,-1,-1,-1,-1,-1,-1,-1,-1,-1,-1,-1,-1],"loss_changes":[1.5373515E2,3.5716858E1,4.9925858E1,1.3701457E1,4.2434204E1,2.967947E1,2.4422058E1,1.088503E1,9.87665E0,1.932956E1,1.4556992E1,2.8780298E1,3.334379E1,1.9242096E1,1.3887463E1,0E0,0E0,0E0,0E0,0E0,0E0,0E0,0E0,0E0,0E0,0E0,0E0,0E0,0E0,0E0,0E0],"parents":[2147483647,0,0,1,1,2,2,3,3,4,4,5,5,6,6,7,7,8,8,9,9,10,10,11,11,12,12,13,13,14,14],"right_children":[2,4,6,8,10,12,14,16,18,20,22,24,26,28,30,-1,-1,-1,-1,-1,-1,-1,-1,-1,-1,-1,-1,-1,-1,-1,-1],"split_conditions":[1.0023555E-3,-3.8292396E-3,2.4130049E-3,-2.4401066E-3,9.411765E-1,7.0710677E-1,6.2487116E-3,-6.31845E-4,8.638376E-4,1E0,6.317227E-4,1.9565217E-1,1.5461779E-3,-6.407456E-3,6.057963E-3,4.3376308E-4,1.7582549E-2,4.3862473E-2,-3.7877534E-3,-1.0592577E-2,-2.1137342E-4,-7.2612674E-3,1.824447E-4,7.7215955E-3,1.1963247E-3,-6.5927054E-3,4.6257E-3,1.631866E-2,5.787806E-3,6.8246922E-3,4.5442816E-2],"split_indices":[0,3,12,2,17,4,0,18,2,14,0,7,0,18,12,0,0,0,0,0,0,0,0,0,0,0,0,0,0,0,0],"split_type":[0,0,0,0,0,0,0,0,0,0,0,0,0,0,0,0,0,0,0,0,0,0,0,0,0,0,0,0,0,0,0],"sum_hessian":[2.4556787E4,8.561773E3,1.5995015E4,7.242924E2,7.8374805E3,1.2388311E4,3.6067034E3,6.739391E2,5.0353302E1,4.6523823E3,3.1850981E3,9.366878E3,3.0214326E3,3.5041272E3,1.0257601E2,5.6467065E2,1.0926842E2,3.5381596E1,1.4971706E1,4.14905E3,5.033325E2,9.237562E2,2.2613418E3,2.2116294E3,7.155249E3,2.0432399E3,9.7819275E2,5.0708066E2,2.9970466E3,3.6763477E1,6.581253E1],"tree_param":{"num_deleted":"0","num_feature":"21","num_nodes":"31","size_leaf_vector":"1"}},{"base_weights":[-1.1137599E-3,-3.8408708E-2,1.1849897E-1,2.6563974E-2,-6.938086E-2,2.614879E-1,9.210644E-2,2.1122359E-2,6.674823E-1,2.601841E-2,-1.10032365E-1,7.040125E-1,2.201452E-1,8.5541494E-2,4.4143182E-1,-3.5406442E-4,6.64178E-3,3.8821526E-2,-9.189378E-3,-9.379046E-3,6.3403137E-3,2.8485507E-3,-6.406046E-3,1.03187645E-2,4.481913E-2,1.6773967E-2,5.3609493E-3,9.6521055E-4,5.7111993E-3,4.837221E-2,-1.2648975E-2],"categories":[],"categories_nodes":[],"categories_segments":[],"categories_sizes":[],"default_left":[0,0,0,0,0,0,0,0,0,0,0,0,0,0,0,0,0,0,0,0,0,0,0,0,0,0,0,0,0,0,0],"id":20,"left_children":[1,3,5,7,9,11,13,15,17,19,21,23,25,27,29,-1,-1,-1,-1,-1,-1,-1,-1,-1,-1,-1,-1,-1,-1,-1,-1],"loss_changes":[1.0970096E2,3.7730907E1,2.200412E1,2.1053026E1,4.924663E1,1.6363201E1,1.1238628E1,1.8921757E1,4.957695E0,8.172105E1,2.6910332E1,7.0324364E0,1.0788712E1,9.200031E0,3.348387E1,0E0,0E0,0E0,0E0,0E0,0E0,0E0,0E0,0E0,0E0,0E0,0E0,0E0,0E0,0E0,0E0],"parents":[2147483647,0,0,1,1,2,2,3,3,4,4,5,5,6,6,7,7,8,8,9,9,10,10,11,11,12,12,13,13,14,14],"right_children":[2,4,6,8,10,12,14,16,18,20,22,24,26,28,30,-1,-1,-1,-1,-1,-1,-1,-1,-1,-1,-1,-1,-1,-1,-1,-1],"split_conditions":[1.8841854E-3,-3.9284606E-3,-5.284728E-3,2.9600395E-3,-5E-1,-8.660254E-1,4.971501E-2,4.8306767E-5,5.6626876E-3,-4.3388373E-1,-3.9694356E-3,-4.3388373E-1,1.6E-1,-2.2252093E-1,0E0,-3.5406442E-4,6.64178E-3,3.8821526E-2,-9.189378E-3,-9.379046E-3,6.3403137E-3,2.8485507E-3,-6.406046E-3,1.03187645E-2,4.481913E-2,1.6773967E-2,5.3609493E-3,9.6521055E-4,5.7111993E-3,4.837221E-2,-1.2648975E-2],"split_indices":[12,2,18,19,4,1,2,11,18,5,16,5,20,14,5,0,0,0,0,0,0,0,0,0,0,0,0,0,0,0,0],"split_type":[0,0,0,0,0,0,0,0,0,0,0,0,0,0,0,0,0,0,0,0,0,0,0,0,0,0,0,0,0,0,0],"sum_hessian":[2.4589252E4,1.8745797E4,5.8434556E3,6.0509175E3,1.2694879E4,9.081334E2,4.935322E3,6.0015894E3,4.9328106E1,3.7929805E3,8.901898E3,7.543531E1,8.326981E2,4.846256E3,8.906624E1,4.792588E3,1.2090018E3,4.3900227E1,5.427878E0,1.2154E3,2.5775803E3,8.693737E2,8.032525E3,2.1970228E1,5.346508E1,4.1027545E2,4.2242267E2,1.4657079E3,3.3805479E3,5.0383366E1,3.868287E1],"tree_param":{"num_deleted":"0","num_feature":"21","num_nodes":"31","size_leaf_vector":"1"}},{"base_weights":[1.7281447E-4,-1.3037793E-1,3.570054E-2,-5.7266068E-2,-2.0305522E-1,-8.149553E-3,9.6516885E-2,-1.2828876E-1,5.3476766E-2,-1.4813787E-1,-5.0659114E-1,4.0337328E-2,-6.270315E-2,2.5710097E-1,7.622643E-2,-1.0442293E-2,1.200782E-3,4.0041744E-3,-2.7618933E-2,-9.680399E-3,1.7381279E-2,-3.7399952E-3,-3.218577E-2,6.9821025E-3,1.6810694E-4,4.131449E-3,-5.1077525E-3,1.7081415E-2,6.459512E-3,3.0049575E-3,1.1629465E-2],"categories":[],"categories_nodes":[],"categories_segments":[],"categories_sizes":[],"default_left":[0,0,0,0,0,0,0,0,0,0,0,0,0,0,0,0,0,0,0,0,0,0,0,0,0,0,0,0,0,0,0],"id":21,"left_children":[1,3,5,7,9,11,13,15,17,19,21,23,25,27,29,-1,-1,-1,-1,-1,-1,-1,-1,-1,-1,-1,-1,-1,-1,-1,-1],"loss_changes":[1.1403873E2,2.7916817E1,5.155067E1,2.0655556E1,4.3807014E1,2.9714169E1,2.6340668E1,1.9643303E1,1.6585453E1,5.0475697E1,2.3764992E1,2.1828049E1,3.0323103E1,9.72266E0,1.8101025E1,0E0,0E0,0E0,0E0,0E0,0E0,0E0,0E0,0E0,0E0,0E0,0E0,0E0,0E0,0E0,0E0],"parents":[2147483647,0,0,1,1,2,2,3,3,4,4,5,5,6,6,7,7,8,8,9,9,10,10,11,11,12,12,13,13,14,14],"right_children":[2,4,6,8,10,12,14,16,18,20,22,24,26,28,30,-1,-1,-1,-1,-1,-1,-1,-1,-1,-1,-1,-1,-1,-1,-1,-1],"split_conditions":[8.3216524E-4,2.5881904E-1,1.5362813E-3,6.234898E-1,2.9098919E-9,4.3388373E-1,-3.4923973E-3,9.698876E-10,6.4182193E-3,1E0,-2.2252093E-1,-2.2252093E-1,-5.24576E-3,2.2222222E-1,3.4295574E-3,-1.0442293E-2,1.200782E-3,4.0041744E-3,-2.7618933E-2,-9.680399E-3,1.7381279E-2,-3.7399952E-3,-3.218577E-2,6.9821025E-3,1.6810694E-4,4.131449E-3,-5.1077525E-3,1.7081415E-2,6.459512E-3,3.0049575E-3,1.1629465E-2],"split_indices":[0,1,0,14,9,5,8,9,6,14,14,14,6,20,0,0,0,0,0,0,0,0,0,0,0,0,0,0,0,0,0],"split_type":[0,0,0,0,0,0,0,0,0,0,0,0,0,0,0,0,0,0,0,0,0,0,0,0,0,0,0,0,0,0,0],"sum_hessian":[2.458502E4,5.2581016E3,1.9326918E4,2.6228936E3,2.635208E3,1.1230166E4,8.0967515E3,1.5981597E3,1.0247338E3,2.2335068E3,4.017012E2,5.945404E3,5.284762E3,9.06051E2,7.1907E3,1.0451361E3,5.530236E2,9.829508E2,4.1782986E1,2.0467953E3,1.8671153E2,9.746763E1,3.0423358E2,1.611598E3,4.3338057E3,1.1276903E3,4.157072E3,5.4379645E2,3.6225458E2,6.520565E3,6.701354E2],"tree_param":{"num_deleted":"0","num_feature":"21","num_nodes":"31","size_leaf_vector":"1"}},{"base_weights":[8.06417E-4,-4.6060026E-2,9.644024E-2,4.8056487E-2,-8.018062E-2,4.43592E-1,8.786996E-2,-8.527768E-2,1.193306E-1,1.5905637E-2,-1.2391086E-1,8.09898E-1,2.1549203E-1,4.347125E-2,1.5452059E-1,7.3241345E-3,-8.837682E-3,1.6579792E-2,3.4639754E-3,-4.4865953E-3,3.2769453E-3,-1.0688013E-2,-4.6739057E-3,-8.7133525E-3,4.6466954E-2,3.1217411E-2,-1.112226E-3,-5.36016E-4,5.833031E-3,1.5720805E-2,5.648581E-3],"categories":[],"categories_nodes":[],"categories_segments":[],"categories_sizes":[],"default_left":[0,0,0,0,0,0,0,0,0,0,0,0,0,0,0,0,0,0,0,0,0,0,0,0,0,0,0,0,0,0,0],"id":22,"left_children":[1,3,5,7,9,11,13,15,17,19,21,23,25,27,29,-1,-1,-1,-1,-1,-1,-1,-1,-1,-1,-1,-1,-1,-1,-1,-1],"loss_changes":[1.1007566E2,5.2934395E1,2.3946808E1,4.169674E1,5.0838852E1,1.5904453E1,2.3312824E1,3.2443413E1,3.0318996E1,1.9850609E1,2.2688248E1,8.962326E0,1.1884094E1,1.8787064E1,2.0861664E1,0E0,0E0,0E0,0E0,0E0,0E0,0E0,0E0,0E0,0E0,0E0,0E0,0E0,0E0,0E0,0E0],"parents":[2147483647,0,0,1,1,2,2,3,3,4,4,5,5,6,6,7,7,8,8,9,9,10,10,11,11,12,12,13,13,14,14],"right_children":[2,4,6,8,10,12,14,16,18,20,22,24,26,28,30,-1,-1,-1,-1,-1,-1,-1,-1,-1,-1,-1,-1,-1,-1,-1,-1],"split_conditions":[1.5362813E-3,-5E-1,-2.0060215E-8,-4.3388373E-1,-3.9284606E-3,-2.5881904E-1,6.123234E-17,-3.5598706E-3,0E0,8.663101E-4,7.386795E-4,-3.315245E-2,-1.3247404E-2,2.2656766E-3,1.8888889E-1,7.3241345E-3,-8.837682E-3,1.6579792E-2,3.4639754E-3,-4.4865953E-3,3.2769453E-3,-1.0688013E-2,-4.6739057E-3,-8.7133525E-3,4.6466954E-2,3.1217411E-2,-1.112226E-3,-5.36016E-4,5.833031E-3,1.5720805E-2,5.648581E-3],"split_indices":[0,4,9,5,2,1,1,2,5,0,0,2,3,0,7,0,0,0,0,0,0,0,0,0,0,0,0,0,0,0,0],"split_type":[0,0,0,0,0,0,0,0,0,0,0,0,0,0,0,0,0,0,0,0,0,0,0,0,0,0,0,0,0,0,0],"sum_hessian":[2.4555854E4,1.647993E4,8.0759224E3,4.384333E3,1.2095598E4,1.9259528E2,7.883327E3,1.5269102E3,2.857423E3,3.783066E3,8.312531E3,7.235507E1,1.2024021E2,4.7334272E3,3.1499001E3,4.31706E2,1.0952041E3,5.4340814E2,2.314015E3,1.2085709E3,2.574495E3,2.1004624E3,6.212069E3,7.711019E0,6.464405E1,4.338987E1,7.685034E1,2.720032E3,2.013395E3,6.474033E2,2.5024968E3],"tree_param":{"num_deleted":"0","num_feature":"21","num_nodes":"31","size_leaf_vector":"1"}},{"base_weights":[2.4597659E-3,-3.0721711E-2,1.0854561E-1,2.0544535E-2,-7.304771E-2,2.9809728E-1,8.920186E-2,2.3990774E-1,9.428041E-3,2.191844E-2,-1.1063996E-1,4.0249485E-1,1.6460495E-1,7.6319106E-2,2.7076715E-1,2.4649778E-2,4.7665997E-3,-2.5791032E-4,5.973657E-3,-1.3392576E-3,5.1961E-3,6.8510585E-3,-6.3396753E-3,2.8957263E-2,1.2023269E-2,2.715464E-2,3.398018E-3,6.158886E-3,9.595129E-4,1.7858252E-2,-1.883159E-2],"categories":[],"categories_nodes":[],"categories_segments":[],"categories_sizes":[],"default_left":[0,0,0,0,0,0,0,0,0,0,0,0,0,0,0,0,0,0,0,0,0,0,0,0,0,0,0,0,0,0,0],"id":23,"left_children":[1,3,5,7,9,11,13,15,17,19,21,23,25,27,29,-1,-1,-1,-1,-1,-1,-1,-1,-1,-1,-1,-1,-1,-1,-1,-1],"loss_changes":[8.647507E1,4.060795E1,2.1402199E1,2.0621387E1,3.6602554E1,7.4135246E0,1.2380344E1,1.4825485E1,1.2938512E1,1.1621549E1,2.940696E1,8.405724E0,8.701023E0,1.3277458E1,1.9844332E1,0E0,0E0,0E0,0E0,0E0,0E0,0E0,0E0,0E0,0E0,0E0,0E0,0E0,0E0,0E0,0E0],"parents":[2147483647,0,0,1,1,2,2,3,3,4,4,5,5,6,6,7,7,8,8,9,9,10,10,11,11,12,12,13,13,14,14],"right_children":[2,4,6,8,10,12,14,16,18,20,22,24,26,28,30,-1,-1,-1,-1,-1,-1,-1,-1,-1,-1,-1,-1,-1,-1,-1,-1],"split_conditions":[1.8841854E-3,-6.6734006E-4,-7.0221378E-3,-1.065459E-8,-2.2252093E-1,2.2222222E-1,1.4662325E-2,0E0,2.2988076E0,9.767442E-1,-4.761905E-3,9E-1,-1.272336E-2,4.3388373E-1,1E0,2.4649778E-2,4.7665997E-3,-2.5791032E-4,5.973657E-3,-1.3392576E-3,5.1961E-3,6.8510585E-3,-6.3396753E-3,2.8957263E-2,1.2023269E-2,2.715464E-2,3.398018E-3,6.158886E-3,9.595129E-4,1.7858252E-2,-1.883159E-2],"split_indices":[12,3,18,9,14,20,3,5,13,17,2,17,18,5,14,0,0,0,0,0,0,0,0,0,0,0,0,0,0,0,0],"split_type":[0,0,0,0,0,0,0,0,0,0,0,0,0,0,0,0,0,0,0,0,0,0,0,0,0,0,0,0,0,0,0],"sum_hessian":[2.4562162E4,1.8710496E4,5.8516655E3,8.461419E3,1.0249077E4,5.3962415E2,5.3120415E3,4.064051E2,8.055014E3,2.9063367E3,7.3427407E3,3.009047E2,2.3871942E2,4.9623496E3,3.4969183E2,1.4631386E2,2.6009122E2,7.1131553E3,9.418585E2,1.82364E3,1.0826967E3,4.4872415E2,6.8940166E3,1.4196223E2,1.5894246E2,4.704219E1,1.9167723E2,2.7247925E3,2.2375571E3,3.0918024E2,4.0511593E1],"tree_param":{"num_deleted":"0","num_feature":"21","num_nodes":"31","size_leaf_vector":"1"}},{"base_weights":[-3.527692E-3,-1.2442801E-1,3.278606E-2,-1.8400256E-1,-5.166632E-2,9.067026E-3,1.4279214E-1,-8.598905E-2,-2.7506885E-1,-1.2981947E-1,5.251612E-2,3.653979E-2,-7.002696E-2,1.3072234E-1,5.0381637E-1,-6.3192286E-3,1.376677E-2,8.274654E-2,-1.4301534E-2,-5.646869E-3,-4.0411513E-2,-4.7235747E-4,1.1003645E-2,3.6390887E-3,-5.7239685E-4,-8.088554E-3,1.7049359E-4,1.3771824E-2,5.4331655E-3,3.4301568E-2,-1.2962951E-2],"categories":[],"categories_nodes":[],"categories_segments":[],"categories_sizes":[],"default_left":[0,0,0,0,0,0,0,0,0,0,0,0,0,0,0,0,0,0,0,0,0,0,0,0,0,0,0,0,0,0,0],"id":24,"left_children":[1,3,5,7,9,11,13,15,17,19,21,23,25,27,29,-1,-1,-1,-1,-1,-1,-1,-1,-1,-1,-1,-1,-1,-1,-1,-1],"loss_changes":[1.0785473E2,2.457135E1,4.928142E1,2.778582E1,2.083344E1,3.3774277E1,1.4468117E1,2.2006409E1,3.4827057E1,1.65579E1,1.1400719E1,2.0068945E1,2.7004177E1,1.029163E1,1.5266268E1,0E0,0E0,0E0,0E0,0E0,0E0,0E0,0E0,0E0,0E0,0E0,0E0,0E0,0E0,0E0,0E0],"parents":[2147483647,0,0,1,1,2,2,3,3,4,4,5,5,6,6,7,7,8,8,9,9,10,10,11,11,12,12,13,13,14,14],"right_children":[2,4,6,8,10,12,14,16,18,20,22,24,26,28,30,-1,-1,-1,-1,-1,-1,-1,-1,-1,-1,-1,-1,-1,-1,-1,-1],"split_conditions":[8.567374E-4,0E0,2.553286E-3,2.5881904E-1,9.4827586E-1,7.0710677E-1,6.2487116E-3,3.324374E-3,-4.5624012E-4,3.7661317E-4,1.5162037E-1,5.077775E-4,-1.8369701E-16,-4.4077667E-3,1E0,-6.3192286E-3,1.376677E-2,8.274654E-2,-1.4301534E-2,-5.646869E-3,-4.0411513E-2,-4.7235747E-4,1.1003645E-2,3.6390887E-3,-5.7239685E-4,-8.088554E-3,1.7049359E-4,1.3771824E-2,5.4331655E-3,3.4301568E-2,-1.2962951E-2],"split_indices":[0,5,12,1,17,4,0,16,11,11,10,3,1,8,14,0,0,0,0,0,0,0,0,0,0,0,0,0,0,0,0],"split_type":[0,0,0,0,0,0,0,0,0,0,0,0,0,0,0,0,0,0,0,0,0,0,0,0,0,0,0,0,0,0,0],"sum_hessian":[2.4562412E4,5.672973E3,1.888944E4,3.1175E3,2.555473E3,1.55407E4,3.3487397E3,1.5031471E3,1.6143529E3,1.4602029E3,1.0952701E3,1.1535396E4,4.0053032E3,3.2425173E3,1.0622249E2,1.3529977E3,1.5014935E2,7.821013E0,1.6065319E3,1.4265275E3,3.36754E1,8.003967E2,2.9487338E2,6.57215E3,4.9632466E3,1.7801947E3,2.2251084E3,4.2630817E2,2.8162092E3,8.5922104E1,2.0300385E1],"tree_param":{"num_deleted":"0","num_feature":"21","num_nodes":"31","size_leaf_vector":"1"}},{"base_weights":[-5.2597835E-3,-4.8988014E-2,8.32714E-2,3.0831859E-2,-7.7954166E-2,3.0877405E-1,6.636737E-2,2.1575229E-1,-2.875974E-2,-1.040624E-3,-1.13076836E-1,2.6959476E-1,1.1076698E0,-9.261301E-3,9.9258944E-2,-3.1162148E-2,1.3510833E-2,5.781193E-3,-5.6183827E-3,2.18546E-3,-5.3444267E-3,-7.0937383E-3,-1.4672644E-3,5.7732025E-3,2.089413E-2,-0E0,6.88516E-2,6.385869E-3,-2.9270598E-3,9.555447E-3,3.411147E-3],"categories":[],"categories_nodes":[],"categories_segments":[],"categories_sizes":[],"default_left":[0,0,0,0,0,0,0,0,0,0,0,0,0,0,0,0,0,0,0,0,0,0,0,0,0,0,0,0,0,0,0],"id":25,"left_children":[1,3,5,7,9,11,13,15,17,19,21,23,25,27,29,-1,-1,-1,-1,-1,-1,-1,-1,-1,-1,-1,-1,-1,-1,-1,-1],"loss_changes":[9.510098E1,3.8026054E1,3.0909962E1,4.8275623E1,3.2590652E1,1.7191246E1,1.88056E1,4.9021675E1,4.001257E1,1.7937216E1,1.995858E1,1.2273735E1,7.6870728E0,1.5476306E1,1.4983307E1,0E0,0E0,0E0,0E0,0E0,0E0,0E0,0E0,0E0,0E0,0E0,0E0,0E0,0E0,0E0,0E0],"parents":[2147483647,0,0,1,1,2,2,3,3,4,4,5,5,6,6,7,7,8,8,9,9,10,10,11,11,12,12,13,13,14,14],"right_children":[2,4,6,8,10,12,14,16,18,20,22,24,26,28,30,-1,-1,-1,-1,-1,-1,-1,-1,-1,-1,-1,-1,-1,-1,-1,-1],"split_conditions":[1.5362813E-3,-5E-1,-1.3249932E-8,-2.2252093E-1,-3.9284606E-3,2.851418E-3,-7.0710677E-1,-1.3834526E-2,-1.2032742E-3,8.660254E-1,1.1868778E-1,6.234898E-1,1.277889E-2,2.6086956E-1,-1.0040406E-2,-3.1162148E-2,1.3510833E-2,5.781193E-3,-5.6183827E-3,2.18546E-3,-5.3444267E-3,-7.0937383E-3,-1.4672644E-3,5.7732025E-3,2.089413E-2,-0E0,6.88516E-2,6.385869E-3,-2.9270598E-3,9.555447E-3,3.411147E-3],"split_indices":[0,4,9,14,2,16,4,2,3,4,10,14,2,7,2,0,0,0,0,0,0,0,0,0,0,0,0,0,0,0,0],"split_type":[0,0,0,0,0,0,0,0,0,0,0,0,0,0,0,0,0,0,0,0,0,0,0,0,0,0,0,0,0,0,0],"sum_hessian":[2.4562932E4,1.6442646E4,8.120286E3,4.3776523E3,1.2064993E4,5.64249E2,7.556037E3,1.0661522E3,3.3115E3,3.7832327E3,8.281761E3,5.3984296E2,2.4406084E1,2.290037E3,5.266E3,6.3980633E1,1.00217163E3,1.2139469E3,2.0975532E3,2.6593394E3,1.1238932E3,6.161119E3,2.1206418E3,2.6617996E2,2.7366296E2,5.0898523E0,1.9316233E1,6.04993E2,1.6850441E3,1.3276163E3,3.9383835E3],"tree_param":{"num_deleted":"0","num_feature":"21","num_nodes":"31","size_leaf_vector":"1"}},{"base_weights":[1.623253E-3,-1.20134614E-1,3.0702168E-2,-1.571363E-1,7.3352214E-3,4.555202E-1,2.5956806E-2,-1.1354657E-1,-3.1254676E-1,-2.4566332E-1,8.816945E-2,7.7424175E-1,2.5357845E-1,8.633299E-3,1.134957E-1,-1.0211099E-3,-1.00341095E-2,2.2431215E-2,-1.824355E-2,-2.7444845E-2,-5.2963267E-3,-6.154223E-3,7.7473777E-3,-1.7164538E-2,4.4349443E-2,3.0708436E-3,3.687793E-2,2.2628696E-3,-1.6563922E-3,1.1449198E-2,3.1857945E-3],"categories":[],"categories_nodes":[],"categories_segments":[],"categories_sizes":[],"default_left":[0,0,0,0,0,0,0,0,0,0,0,0,0,0,0,0,0,0,0,0,0,0,0,0,0,0,0,0,0,0,0],"id":26,"left_children":[1,3,5,7,9,11,13,15,17,19,21,23,25,27,29,-1,-1,-1,-1,-1,-1,-1,-1,-1,-1,-1,-1,-1,-1,-1,-1],"loss_changes":[8.6750595E1,2.2287903E1,3.9831985E1,2.4727402E1,2.1779951E1,1.3704342E1,2.9658878E1,2.3204964E1,3.2137405E1,1.0805061E1,1.1421025E1,1.1047718E1,1.2536282E1,2.4983585E1,1.8539604E1,0E0,0E0,0E0,0E0,0E0,0E0,0E0,0E0,0E0,0E0,0E0,0E0,0E0,0E0,0E0,0E0],"parents":[2147483647,0,0,1,1,2,2,3,3,4,4,5,5,6,6,7,7,8,8,9,9,10,10,11,11,12,12,13,13,14,14],"right_children":[2,4,6,8,10,12,14,16,18,20,22,24,26,28,30,-1,-1,-1,-1,-1,-1,-1,-1,-1,-1,-1,-1,-1,-1,-1,-1],"split_conditions":[8.0650684E-4,2.0388389E0,-2.0060215E-8,8.660254E-1,-7.818315E-1,-2.5881904E-1,2.553286E-3,5E-1,-6.6364342E-3,-1.1284963E-9,-7.0710677E-1,-3.315245E-2,8.660254E-1,4.3388373E-1,-4.078009E-9,-1.0211099E-3,-1.00341095E-2,2.2431215E-2,-1.824355E-2,-2.7444845E-2,-5.2963267E-3,-6.154223E-3,7.7473777E-3,-1.7164538E-2,4.4349443E-2,3.0708436E-3,3.687793E-2,2.2628696E-3,-1.6563922E-3,1.1449198E-2,3.1857945E-3],"split_indices":[0,13,9,1,5,1,12,4,6,9,1,2,1,5,9,0,0,0,0,0,0,0,0,0,0,0,0,0,0,0,0],"split_type":[0,0,0,0,0,0,0,0,0,0,0,0,0,0,0,0,0,0,0,0,0,0,0,0,0,0,0,0,0,0,0],"sum_hessian":[2.4499957E4,4.721962E3,1.9777994E4,3.6596804E3,1.0622817E3,2.1679596E2,1.95612E4,2.8603289E3,7.993515E2,2.5633038E2,8.0595135E2,8.234055E1,1.344554E2,1.6331497E4,3.229702E3,1.3838228E3,1.4765062E3,5.0622295E1,7.487292E2,7.936207E1,1.769683E2,1.9309085E2,6.128605E2,7.2242475E0,7.51163E1,9.752666E1,3.6928745E1,8.70147E3,7.630028E3,9.70878E2,2.258824E3],"tree_param":{"num_deleted":"0","num_feature":"21","num_nodes":"31","size_leaf_vector":"1"}},{"base_weights":[-4.9509285E-3,-1.0527321E-1,1.9712776E-2,-1.681619E-1,-2.4401262E-2,-7.1941E-3,9.118888E-2,3.0984595E-1,-1.8527517E-1,6.0653924E-3,-5.0344193E-1,2.9484544E-2,-4.9299806E-2,2.1491805E-1,5.990389E-2,8.755304E-5,5.6428224E-2,-1.0009983E-2,8.112941E-3,5.3125597E-3,-2.3921556E-3,1.3415859E-3,-4.1948337E-2,3.5111313E-3,-2.145479E-3,-3.104513E-3,1.9240176E-2,1.3795611E-2,-5.2043766E-4,1.4608748E-2,2.572681E-3],"categories":[],"categories_nodes":[],"categories_segments":[],"categories_sizes":[],"default_left":[0,0,0,0,0,0,0,0,0,0,0,0,0,0,0,0,0,0,0,0,0,0,0,0,0,0,0,0,0,0,0],"id":27,"left_children":[1,3,5,7,9,11,13,15,17,19,21,23,25,27,29,-1,-1,-1,-1,-1,-1,-1,-1,-1,-1,-1,-1,-1,-1,-1,-1],"loss_changes":[6.0670433E1,2.4593163E1,3.7853603E1,2.234127E1,3.0952578E1,2.2085537E1,2.0803452E1,2.3782658E1,1.3683159E1,1.0777014E1,2.2636646E1,2.2543785E1,3.698733E1,1.4935974E1,8.398005E0,0E0,0E0,0E0,0E0,0E0,0E0,0E0,0E0,0E0,0E0,0E0,0E0,0E0,0E0,0E0,0E0],"parents":[2147483647,0,0,1,1,2,2,3,3,4,4,5,5,6,6,7,7,8,8,9,9,10,10,11,11,12,12,13,13,14,14],"right_children":[2,4,6,8,10,12,14,16,18,20,22,24,26,28,30,-1,-1,-1,-1,-1,-1,-1,-1,-1,-1,-1,-1,-1,-1,-1,-1],"split_conditions":[8.1187655E-4,0E0,1.9658068E-3,-4.290571E-3,4.8693627E-9,4.3388373E-1,-7.0881523E-9,-1.3432167E-3,5.6860805E-9,1.2246469E-16,1.2798235E-3,1.238075E-3,2.083222E-2,7.0710677E-1,-2.3976204E-1,8.755304E-5,5.6428224E-2,-1.0009983E-2,8.112941E-3,5.3125597E-3,-2.3921556E-3,1.3415859E-3,-4.1948337E-2,3.5111313E-3,-2.145479E-3,-3.104513E-3,1.9240176E-2,1.3795611E-2,-5.2043766E-4,1.4608748E-2,2.572681E-3],"split_indices":[0,5,12,3,9,5,9,18,9,4,3,3,2,4,10,0,0,0,0,0,0,0,0,0,0,0,0,0,0,0,0],"split_type":[0,0,0,0,0,0,0,0,0,0,0,0,0,0,0,0,0,0,0,0,0,0,0,0,0,0,0,0,0,0,0],"sum_hessian":[2.4515564E4,4.8371323E3,1.9678434E4,2.71985E3,2.1172822E3,1.4297027E4,5.381406E3,9.302053E1,2.6268296E3,1.9919708E3,1.2531133E2,7.640545E3,6.6564824E3,1.0839769E3,4.2974287E3,6.87233E1,2.4297232E1,2.5194158E3,1.07413895E2,6.9668805E2,1.2952827E3,4.903925E1,7.627209E1,4.8897114E3,2.7508337E3,6.467329E3,1.891532E2,8.5296985E2,2.3100703E2,1.4888109E2,4.148548E3],"tree_param":{"num_deleted":"0","num_feature":"21","num_nodes":"31","size_leaf_vector":"1"}},{"base_weights":[1.8449755E-3,-1.0420179E-1,2.5956206E-2,-1.6334789E-1,-2.6024548E-2,-1.6899771E-3,1.0027302E-1,-4.6753958E-2,-2.6943588E-1,7.5500114E-3,-5.8090407E-1,9.800535E-1,-3.0536626E-3,7.199392E-2,2.0680696E-1,-3.6946745E-3,4.54156E-2,-1.0307234E-2,-3.0349031E-2,-7.954033E-4,2.0448131E-2,-1.3144964E-2,-4.4851135E-2,6.449185E-2,1.0026445E-2,1.548163E-3,-2.105788E-3,-4.7410082E-2,3.8129443E-3,1.8347481E-2,4.061508E-3],"categories":[],"categories_nodes":[],"categories_segments":[],"categories_sizes":[],"default_left":[0,0,0,0,0,0,0,0,0,0,0,0,0,0,0,0,0,0,0,0,0,0,0,0,0,0,0,0,0,0,0],"id":28,"left_children":[1,3,5,7,9,11,13,15,17,19,21,23,25,27,29,-1,-1,-1,-1,-1,-1,-1,-1,-1,-1,-1,-1,-1,-1,-1,-1],"loss_changes":[6.26484E1,2.0970604E1,4.1023277E1,3.1917572E1,3.6493874E1,1.94379E1,1.6273224E1,3.2010784E1,2.8655304E1,1.7418995E1,1.0823387E1,4.400833E0,1.931424E1,1.869059E1,2.274622E1,0E0,0E0,0E0,0E0,0E0,0E0,0E0,0E0,0E0,0E0,0E0,0E0,0E0,0E0,0E0,0E0],"parents":[2147483647,0,0,1,1,2,2,3,3,4,4,5,5,6,6,7,7,8,8,9,9,10,10,11,11,12,12,13,13,14,14],"right_children":[2,4,6,8,10,12,14,16,18,20,22,24,26,28,30,-1,-1,-1,-1,-1,-1,-1,-1,-1,-1,-1,-1,-1,-1,-1,-1],"split_conditions":[7.962126E-4,0E0,1.9658068E-3,2.5881904E-1,4.8693627E-9,-2.4673085E-8,2.905569E-3,6.8876025E-9,2.9098919E-9,3.543143E-3,3.2262524E-4,2.5881904E-1,4.3388373E-1,-1.4000859E-3,0E0,-3.6946745E-3,4.54156E-2,-1.0307234E-2,-3.0349031E-2,-7.954033E-4,2.0448131E-2,-1.3144964E-2,-4.4851135E-2,6.449185E-2,1.0026445E-2,1.548163E-3,-2.105788E-3,-4.7410082E-2,3.8129443E-3,1.8347481E-2,4.061508E-3],"split_indices":[0,5,12,1,9,9,0,9,9,16,2,1,5,11,5,0,0,0,0,0,0,0,0,0,0,0,0,0,0,0,0],"split_type":[0,0,0,0,0,0,0,0,0,0,0,0,0,0,0,0,0,0,0,0,0,0,0,0,0,0,0,0,0,0,0],"sum_hessian":[2.449997E4,4.537211E3,1.996276E4,2.5817092E3,1.9555018E3,1.4550648E4,5.4121123E3,1.2312075E3,1.3505017E3,1.8452399E3,1.10261986E2,1.8639345E1,1.4532009E4,4.2791963E3,1.1329163E3,1.1985844E3,3.262315E1,1.1394194E3,2.1108228E2,1.7446033E3,1.0063655E2,5.64155E1,5.384649E1,1.2589972E1,6.0493727E0,7.767112E3,6.764897E3,1.6383947E1,4.262812E3,4.9648676E2,6.3642944E2],"tree_param":{"num_deleted":"0","num_feature":"21","num_nodes":"31","size_leaf_vector":"1"}},{"base_weights":[-1.9648182E-4,-9.469811E-2,2.7377522E-2,-2.7327333E-2,-1.4790794E-1,2.3805706E-1,1.869812E-2,7.523921E-2,-1.09516576E-1,-1.9215572E-1,2.451889E-2,5.7800734E-1,1.7767292E-1,3.994012E-2,-4.618052E-2,8.5300505E-3,-4.2197476E-3,-8.727044E-3,4.939023E-3,-1.1439593E-2,2.3985521E-3,2.8161E-3,-2.6269583E-2,7.14068E-2,2.2247002E-2,6.4735203E-3,4.043974E-2,1.6837465E-3,1.4701838E-2,-3.5876427E-3,1.3522036E-2],"categories":[],"categories_nodes":[],"categories_segments":[],"categories_sizes":[],"default_left":[0,0,0,0,0,0,0,0,0,0,0,0,0,0,0,0,0,0,0,0,0,0,0,0,0,0,0,0,0,0,0],"id":29,"left_children":[1,3,5,7,9,11,13,15,17,19,21,23,25,27,29,-1,-1,-1,-1,-1,-1,-1,-1,-1,-1,-1,-1,-1,-1,-1,-1],"loss_changes":[6.386584E1,1.9831184E1,3.4671734E1,2.0627272E1,2.360904E1,1.5210087E1,2.5116468E1,1.6594614E1,1.8427752E1,2.167836E1,1.1084579E1,1.1666187E1,1.924829E1,2.1825762E1,3.641308E1,0E0,0E0,0E0,0E0,0E0,0E0,0E0,0E0,0E0,0E0,0E0,0E0,0E0,0E0,0E0,0E0],"parents":[2147483647,0,0,1,1,2,2,3,3,4,4,5,5,6,6,7,7,8,8,9,9,10,10,11,11,12,12,13,13,14,14],"right_children":[2,4,6,8,10,12,14,16,18,20,22,24,26,28,30,-1,-1,-1,-1,-1,-1,-1,-1,-1,-1,-1,-1,-1,-1,-1,-1],"split_conditions":[8.517075E-4,-6.6734006E-4,-1.3249932E-8,2.5881904E-1,1.106295E-3,-2.4673085E-8,7.0710677E-1,-8.376558E-5,-3.5438392E-5,2.2411855E-1,1.00305515E-8,2.0528308E-3,7.4697495E-3,1.4662325E-2,9.698718E-9,8.5300505E-3,-4.2197476E-3,-8.727044E-3,4.939023E-3,-1.1439593E-2,2.3985521E-3,2.8161E-3,-2.6269583E-2,7.14068E-2,2.2247002E-2,6.4735203E-3,4.043974E-2,1.6837465E-3,1.4701838E-2,-3.5876427E-3,1.3522036E-2],"split_indices":[0,3,9,4,8,9,4,11,11,10,9,0,3,3,9,0,0,0,0,0,0,0,0,0,0,0,0,0,0,0,0],"split_type":[0,0,0,0,0,0,0,0,0,0,0,0,0,0,0,0,0,0,0,0,0,0,0,0,0,0,0,0,0,0,0],"sum_hessian":[2.450494E4,5.5346724E3,1.8970268E4,2.4437576E3,3.0909146E3,7.488025E2,1.8221465E4,1.0868998E3,1.3568579E3,2.4598037E3,6.311109E2,1.10880684E2,6.379218E2,1.3728082E4,4.493382E3,6.805594E2,4.063404E2,1.0344238E3,3.2243402E2,2.1344326E3,3.2537112E2,5.979659E2,3.3145008E1,1.2980113E1,9.790057E1,5.944101E2,4.3511673E1,1.3399588E4,3.2849435E2,4.158808E3,3.3457364E2],"tree_param":{"num_deleted":"0","num_feature":"21","num_nodes":"31","size_leaf_vector":"1"}},{"base_weights":[-4.067641E-3,-1.0828025E-1,1.955824E-2,-1.4524621E-1,3.9434925E-2,7.895672E-3,1.5491442E-1,-1.06330425E-1,-2.8496063E-1,4.61833E-1,9.965311E-3,4.153608E-2,-3.1030197E-2,3.7211952E-1,9.540263E-2,-7.8519963E-4,-9.595772E-3,1.2272403E-5,-2.0313723E-2,5.7100467E-3,4.9002018E-2,-9.1046905E-3,3.3324845E-3,6.2289042E-3,1.0516329E-3,2.350319E-3,-4.4802753E-3,2.2246728E-2,1.9533369E-3,1.4102444E-3,1.5516561E-2],"categories":[],"categories_nodes":[],"categories_segments":[],"categories_sizes":[],"default_left":[0,0,0,0,0,0,0,0,0,0,0,0,0,0,0,0,0,0,0,0,0,0,0,0,0,0,0,0,0,0,0],"id":30,"left_children":[1,3,5,7,9,11,13,15,17,19,21,23,25,27,29,-1,-1,-1,-1,-1,-1,-1,-1,-1,-1,-1,-1,-1,-1,-1,-1],"loss_changes":[6.0353775E1,2.4751308E1,3.1532185E1,1.9639587E1,1.1268458E1,2.4094269E1,2.0406597E1,2.199149E1,2.7297348E1,1.0415713E1,9.26775E0,1.6794464E1,3.8995255E1,8.197498E0,1.7965914E1,0E0,0E0,0E0,0E0,0E0,0E0,0E0,0E0,0E0,0E0,0E0,0E0,0E0,0E0,0E0,0E0],"parents":[2147483647,0,0,1,1,2,2,3,3,4,4,5,5,6,6,7,7,8,8,9,9,10,10,11,11,12,12,13,13,14,14],"right_children":[2,4,6,8,10,12,14,16,18,20,22,24,26,28,30,-1,-1,-1,-1,-1,-1,-1,-1,-1,-1,-1,-1,-1,-1,-1,-1],"split_conditions":[7.962126E-4,2.252912E0,2.905569E-3,8.660254E-1,-2.4571898E-4,4.3388373E-1,-8.861688E-9,5E-1,1.8518518E-1,-2.516684E-9,-7.0710677E-1,1.3636364E-1,-2.5881904E-1,1E0,7.0710677E-1,-7.8519963E-4,-9.595772E-3,1.2272403E-5,-2.0313723E-2,5.7100467E-3,4.9002018E-2,-9.1046905E-3,3.3324845E-3,6.2289042E-3,1.0516329E-3,2.350319E-3,-4.4802753E-3,2.2246728E-2,1.9533369E-3,1.4102444E-3,1.5516561E-2],"split_indices":[0,13,0,1,11,5,9,4,7,9,1,7,4,14,1,0,0,0,0,0,0,0,0,0,0,0,0,0,0,0,0],"split_type":[0,0,0,0,0,0,0,0,0,0,0,0,0,0,0,0,0,0,0,0,0,0,0,0,0,0,0,0,0,0,0],"sum_hessian":[2.450839E4,4.528803E3,1.9979586E4,3.622604E3,9.061989E2,1.8396467E4,1.5831206E3,2.8357415E3,7.8686255E2,5.7553986E1,8.4864496E2,9.868833E3,8.527633E3,3.3859677E2,1.2445239E3,1.3784514E3,1.4572902E3,2.3513953E2,5.51723E2,3.5599567E1,2.1954414E1,1.9243436E2,6.562106E2,1.9521748E3,7.916658E3,3.6561685E3,4.8714644E3,2.7731387E2,6.1282898E1,9.4956915E2,2.949547E2],"tree_param":{"num_deleted":"0","num_feature":"21","num_nodes":"31","size_leaf_vector":"1"}},{"base_weights":[2.4210287E-3,-3.2702178E-2,7.26031E-2,4.18203E-2,-6.002025E-2,4.5834506E-1,6.723891E-2,-6.2219266E-2,1.3067251E-1,-5.1514558E-3,-1.1556795E-1,1.9731542E-1,6.803063E-1,-7.5947045E-4,9.6280366E-2,-3.6771118E-3,4.5255568E-2,8.008823E-3,-1.5371022E-2,-1.5521859E-3,5.512187E-3,-7.2632753E-3,-1.8202125E-3,-1.3697411E-2,3.724701E-2,4.8458368E-2,1.6820608E-2,2.0082064E-2,-6.9223315E-4,9.345732E-3,3.3046938E-3],"categories":[],"categories_nodes":[],"categories_segments":[],"categories_sizes":[],"default_left":[0,0,0,0,0,0,0,0,0,0,0,0,0,0,0,0,0,0,0,0,0,0,0,0,0,0,0,0,0,0,0],"id":31,"left_children":[1,3,5,7,9,11,13,15,17,19,21,23,25,27,29,-1,-1,-1,-1,-1,-1,-1,-1,-1,-1,-1,-1,-1,-1,-1,-1],"loss_changes":[6.0371075E1,3.3232117E1,1.6830471E1,4.049134E1,3.6397804E1,6.2238255E0,1.5919041E1,2.2157667E1,3.0601341E1,1.796101E1,1.3935936E1,1.4143814E1,5.3688087E0,1.26932E1,1.5419971E1,0E0,0E0,0E0,0E0,0E0,0E0,0E0,0E0,0E0,0E0,0E0,0E0,0E0,0E0,0E0,0E0],"parents":[2147483647,0,0,1,1,2,2,3,3,4,4,5,5,6,6,7,7,8,8,9,9,10,10,11,11,12,12,13,13,14,14],"right_children":[2,4,6,8,10,12,14,16,18,20,22,24,26,28,30,-1,-1,-1,-1,-1,-1,-1,-1,-1,-1,-1,-1,-1,-1,-1,-1],"split_conditions":[1.5362813E-3,-5E-1,-7.721296E-3,-8.660254E-1,-6.3982676E-4,3.1492182E-3,-7.0710677E-1,2.1782774E-2,3.9496637E-4,2.1191049E0,1.0814798E-3,-1.6863788E-2,5E-1,-1.5485168E-2,-1.0040406E-2,-3.6771118E-3,4.5255568E-2,8.008823E-3,-1.5371022E-2,-1.5521859E-3,5.512187E-3,-7.2632753E-3,-1.8202125E-3,-1.3697411E-2,3.724701E-2,4.8458368E-2,1.6820608E-2,2.0082064E-2,-6.9223315E-4,9.345732E-3,3.3046938E-3],"split_indices":[0,4,8,4,2,0,4,2,11,13,8,3,1,16,2,0,0,0,0,0,0,0,0,0,0,0,0,0,0,0,0],"split_type":[0,0,0,0,0,0,0,0,0,0,0,0,0,0,0,0,0,0,0,0,0,0,0,0,0,0,0,0,0,0,0],"sum_hessian":[2.4487363E4,1.631998E4,8.167383E3,4.377025E3,1.1942955E4,1.1015395E2,8.057229E3,2.0161477E3,2.3608774E3,6.009471E3,5.933484E3,5.2027534E1,5.812642E1,2.4112375E3,5.645991E3,1.9942421E3,2.1905699E1,2.2129116E3,1.4796573E2,4.909428E3,1.100043E3,4.3134487E3,1.6200353E3,2.8317213E1,2.371032E1,3.0029661E1,2.8096756E1,7.441569E1,2.3368218E3,1.4082643E3,4.237727E3],"tree_param":{"num_deleted":"0","num_feature":"21","num_nodes":"31","size_leaf_vector":"1"}},{"base_weights":[2.2616125E-4,-8.442266E-2,2.4827918E-2,-1.1985469E-1,4.5244243E-2,1.6388588E-1,1.3311872E-2,-3.777583E-2,-1.8786578E-1,-1.2676968E-1,9.623524E-2,-1.22860484E-1,1.9098832E-1,7.453966E-3,2.5646493E-1,-2.6619458E-3,1.9741688E-2,-1.1571563E-2,2.3508188E-3,-2.6570944E-4,-1.823894E-2,5.3630695E-3,-3.8100738E-2,7.21059E-4,-2.67511E-2,7.102251E-3,2.0669345E-2,2.3403068E-3,-1.9171989E-3,1.7399294E-2,-2.3504218E-2],"categories":[],"categories_nodes":[],"categories_segments":[],"categories_sizes":[],"default_left":[0,0,0,0,0,0,0,0,0,0,0,0,0,0,0,0,0,0,0,0,0,0,0,0,0,0,0,0,0,0,0],"id":32,"left_children":[1,3,5,7,9,11,13,15,17,19,21,23,25,27,29,-1,-1,-1,-1,-1,-1,-1,-1,-1,-1,-1,-1,-1,-1,-1,-1],"loss_changes":[5.087352E1,2.5285149E1,3.0301426E1,2.4099567E1,1.0378554E1,1.1286148E1,2.4887098E1,1.3127498E1,2.4198776E1,7.79931E0,8.723171E0,7.151865E0,1.428537E1,3.0774893E1,2.7571957E1,0E0,0E0,0E0,0E0,0E0,0E0,0E0,0E0,0E0,0E0,0E0,0E0,0E0,0E0,0E0,0E0],"parents":[2147483647,0,0,1,1,2,2,3,3,4,4,5,5,6,6,7,7,8,8,9,9,10,10,11,11,12,12,13,13,14,14],"right_children":[2,4,6,8,10,12,14,16,18,20,22,24,26,28,30,-1,-1,-1,-1,-1,-1,-1,-1,-1,-1,-1,-1,-1,-1,-1,-1],"split_conditions":[8.517075E-4,2.077379E0,-5.284728E-3,-5.9393595E-4,-7.818315E-1,-3.315245E-2,1.4662325E-2,6.818182E-1,9.659258E-1,7.0710677E-1,3.9496637E-4,2.1008404E-1,2.9598826E-3,4.3388373E-1,1E0,-2.6619458E-3,1.9741688E-2,-1.1571563E-2,2.3508188E-3,-2.6570944E-4,-1.823894E-2,5.3630695E-3,-3.8100738E-2,7.21059E-4,-2.67511E-2,7.102251E-3,2.0669345E-2,2.3403068E-3,-1.9171989E-3,1.7399294E-2,-2.3504218E-2],"split_indices":[0,13,18,3,5,2,3,7,4,4,11,7,0,5,14,0,0,0,0,0,0,0,0,0,0,0,0,0,0,0,0],"split_type":[0,0,0,0,0,0,0,0,0,0,0,0,0,0,0,0,0,0,0,0,0,0,0,0,0,0,0,0,0,0,0],"sum_hessian":[2.442737E4,5.4994355E3,1.8927936E4,4.319589E3,1.1798467E3,1.4457769E3,1.7482158E4,1.9587496E3,2.360839E3,2.690429E2,9.108038E2,1.2423316E2,1.3215437E3,1.7072605E4,4.0955197E2,1.8925344E3,6.621528E1,1.9916641E3,3.6917493E2,1.7929344E2,8.974945E1,9.0060425E2,1.0199492E1,9.418761E1,3.0045555E1,1.0853691E3,2.3617451E2,9.183062E3,7.8895444E3,3.6448892E2,4.506306E1],"tree_param":{"num_deleted":"0","num_feature":"21","num_nodes":"31","size_leaf_vector":"1"}},{"base_weights":[1.8251593E-3,6.420532E-2,-2.1114381E-2,4.3012027E-2,1.7586629E-1,-1.1812482E-1,-5.6720614E-3,3.246393E-2,5.049703E-1,2.029318E-1,-9.3590426E-1,-3.469084E-1,-8.2480036E-2,5.7708938E-2,-3.527506E-2,2.9091348E-3,-2.9867508E-3,5.8348317E-2,1.1580988E-2,9.480673E-3,5.8565307E-2,-5.351572E-2,-1.6229307E-2,3.8766157E-2,-1.9251946E-2,4.927769E-3,-7.3124184E-3,3.078577E-4,9.406547E-3,1.0004753E-3,-3.7383016E-3],"categories":[],"categories_nodes":[],"categories_segments":[],"categories_sizes":[],"default_left":[0,0,0,0,0,0,0,0,0,0,0,0,0,0,0,0,0,0,0,0,0,0,0,0,0,0,0,0,0,0,0],"id":33,"left_children":[1,3,5,7,9,11,13,15,17,19,21,23,25,27,29,-1,-1,-1,-1,-1,-1,-1,-1,-1,-1,-1,-1,-1,-1,-1,-1],"loss_changes":[3.5054787E1,1.5564713E1,2.6821875E1,2.6935305E1,3.1839058E1,1.9987068E1,2.899369E1,1.28485985E1,2.1859396E1,1.2833611E1,1.4776344E0,1.4583172E1,2.4607903E1,3.30639E1,2.3003128E1,0E0,0E0,0E0,0E0,0E0,0E0,0E0,0E0,0E0,0E0,0E0,0E0,0E0,0E0,0E0,0E0],"parents":[2147483647,0,0,1,1,2,2,3,3,4,4,5,5,6,6,7,7,8,8,9,9,10,10,11,11,12,12,13,13,14,14],"right_children":[2,4,6,8,10,12,14,16,18,20,22,24,26,28,30,-1,-1,-1,-1,-1,-1,-1,-1,-1,-1,-1,-1,-1,-1,-1,-1],"split_conditions":[-1.0523722E-3,1E0,-7.818315E-1,2.4027217E-2,2.0005636E-2,-8.660254E-1,-5E-1,-1.5072268E-3,-2.2252093E-1,-1.0750073E-3,-5.7384257E-9,-6.2474816E-9,-3.3830043E-3,-7.0710677E-1,-8.744406E-4,2.9091348E-3,-2.9867508E-3,5.8348317E-2,1.1580988E-2,9.480673E-3,5.8565307E-2,-5.351572E-2,-1.6229307E-2,3.8766157E-2,-1.9251946E-2,4.927769E-3,-7.3124184E-3,3.078577E-4,9.406547E-3,1.0004753E-3,-3.7383016E-3],"split_indices":[8,14,5,2,2,4,4,3,14,8,9,9,2,4,2,0,0,0,0,0,0,0,0,0,0,0,0,0,0,0,0],"split_type":[0,0,0,0,0,0,0,0,0,0,0,0,0,0,0,0,0,0,0,0,0,0,0,0,0,0,0,0,0,0,0],"sum_hessian":[2.4492756E4,6.5851226E3,1.7907633E4,5.5367676E3,1.048355E3,2.4573108E3,1.5450323E4,5.414842E3,1.2192582E2,1.0246808E3,2.3674183E1,3.2928928E2,2.1280215E3,4.917876E3,1.0532447E4,4.234679E3,1.1801622E3,3.4145706E1,8.778011E1,1.01259955E3,1.20812435E1,1.8416845E1,5.2573395E0,9.824677E0,3.194646E2,5.539058E2,1.5741157E3,3.5260796E3,1.3917961E3,4.3884297E3,6.1440176E3],"tree_param":{"num_deleted":"0","num_feature":"21","num_nodes":"31","size_leaf_vector":"1"}},{"base_weights":[-0E0,-5.895911E-2,3.0745663E-2,-1.0890248E-1,1.7631078E-2,3.3855826E-1,2.6541093E-2,1.8457687E-1,-1.2927006E-1,-1.6699618E-1,3.6670294E-2,7.434269E-2,2.7782473E-1,8.087406E-2,5.949692E-3,1.0774302E-2,-3.9793763E-2,-4.9245576E-3,-1.2143411E-2,1.9065721E-2,-1.2248925E-2,7.0350216E-5,6.459553E-3,2.546677E-2,6.738325E-3,8.286417E-3,2.9420264E-3,-1.3328958E-3,2.555968E-3],"categories":[],"categories_nodes":[],"categories_segments":[],"categories_sizes":[],"default_left":[0,0,0,0,0,0,0,0,0,0,0,0,0,0,0,0,0,0,0,0,0,0,0,0,0,0,0,0,0],"id":34,"left_children":[1,3,5,7,9,11,13,15,17,19,21,-1,23,25,27,-1,-1,-1,-1,-1,-1,-1,-1,-1,-1,-1,-1,-1,-1],"loss_changes":[4.4413055E1,3.2129932E1,2.0808002E1,3.0420486E1,1.1657143E1,1.4404518E1,1.776915E1,1.0240118E1,1.6571854E1,1.3386919E1,9.803878E0,0E0,6.743643E0,8.135899E0,1.697528E1,0E0,0E0,0E0,0E0,0E0,0E0,0E0,0E0,0E0,0E0,0E0,0E0,0E0,0E0],"parents":[2147483647,0,0,1,1,2,2,3,3,4,4,5,5,6,6,7,7,8,8,9,9,10,10,12,12,13,13,14,14],"right_children":[2,4,6,8,10,12,14,16,18,20,22,-1,24,26,28,-1,-1,-1,-1,-1,-1,-1,-1,-1,-1,-1,-1,-1,-1],"split_conditions":[1.0023555E-3,1E0,-2.0060215E-8,-4.374813E-3,-3.915899E-9,1.3332026E-3,-9.705911E-4,2.9411766E-1,8.660254E-1,-6.8256827E-3,1.5741975E0,7.434269E-2,-1.138963E-2,5.9090906E-1,2.5881904E-1,1.0774302E-2,-3.9793763E-2,-4.9245576E-3,-1.2143411E-2,1.9065721E-2,-1.2248925E-2,7.0350216E-5,6.459553E-3,2.546677E-2,6.738325E-3,8.286417E-3,2.9420264E-3,-1.3328958E-3,2.555968E-3],"split_indices":[0,17,9,3,9,0,19,7,1,16,13,0,3,17,1,0,0,0,0,0,0,0,0,0,0,0,0,0,0],"split_type":[0,0,0,0,0,0,0,0,0,0,0,0,0,0,0,0,0,0,0,0,0,0,0,0,0,0,0,0,0],"sum_hessian":[2.4496822E4,8.396159E3,1.6100663E4,5.0821694E3,3.31399E3,2.1519595E2,1.5885467E4,3.288712E2,4.7532983E3,3.084643E2,3.0055256E3,8.9993105E0,2.0619666E2,4.363915E3,1.1521552E4,3.2000424E2,8.866948E0,3.7425198E3,1.0107783E3,3.7601826E1,2.7086246E2,2.1776145E3,8.279111E2,7.715193E1,1.2904472E2,8.970802E2,3.466835E3,6.6909316E3,4.83062E3],"tree_param":{"num_deleted":"0","num_feature":"21","num_nodes":"29","size_leaf_vector":"1"}},{"base_weights":[6.612619E-3,-2.3152234E-2,6.637972E-2,5.223543E-2,-5.0993618E-2,1.273302E-2,1.2690885E-1,2.2891228E-1,-5.613629E-3,-2.9728652E-3,-9.235585E-2,1.5512648E-3,4.4180623E-1,1.6149707E-1,1.5197983E-2,-1.0872987E-2,1.4642355E-2,6.319899E-3,-4.2010327E-3,-2.627827E-3,3.326907E-3,-6.0351016E-3,-5.6759996E-4,-1.0364222E-3,7.800763E-3,7.03794E-2,1.4802488E-2,6.516003E-3,1.9486174E-2,7.0703826E-3,-1.1450692E-2],"categories":[],"categories_nodes":[],"categories_segments":[],"categories_sizes":[],"default_left":[0,0,0,0,0,0,0,0,0,0,0,0,0,0,0,0,0,0,0,0,0,0,0,0,0,0,0,0,0,0,0],"id":35,"left_children":[1,3,5,7,9,11,13,15,17,19,21,23,25,27,29,-1,-1,-1,-1,-1,-1,-1,-1,-1,-1,-1,-1,-1,-1,-1,-1],"loss_changes":[4.3514847E1,3.427416E1,2.6397083E1,4.5023815E1,2.3681402E1,2.0670918E1,1.4748863E1,3.1107697E1,3.4366417E1,1.903183E1,1.4701E1,1.4483884E1,1.4694212E1,2.0650925E1,2.794447E1,0E0,0E0,0E0,0E0,0E0,0E0,0E0,0E0,0E0,0E0,0E0,0E0,0E0,0E0,0E0,0E0],"parents":[2147483647,0,0,1,1,2,2,3,3,4,4,5,5,6,6,7,7,8,8,9,9,10,10,11,11,12,12,13,13,14,14],"right_children":[2,4,6,8,10,12,14,16,18,20,22,24,26,28,30,-1,-1,-1,-1,-1,-1,-1,-1,-1,-1,-1,-1,-1,-1,-1,-1],"split_conditions":[1.5362813E-3,-5E-1,6.234898E-1,-2.2252093E-1,-6.6734006E-4,1.3348714E-3,6.000986E-3,-7.152483E-3,-1.2032742E-3,6.234898E-1,2.0959477E-3,8.660254E-1,2.5296137E-3,5.415832E-3,1E0,-1.0872987E-2,1.4642355E-2,6.319899E-3,-4.2010327E-3,-2.627827E-3,3.326907E-3,-6.0351016E-3,-5.6759996E-4,-1.0364222E-3,7.800763E-3,7.03794E-2,1.4802488E-2,6.516003E-3,1.9486174E-2,7.0703826E-3,-1.1450692E-2],"split_indices":[0,4,14,14,3,11,3,6,3,14,18,4,0,16,14,0,0,0,0,0,0,0,0,0,0,0,0,0,0,0,0],"split_type":[0,0,0,0,0,0,0,0,0,0,0,0,0,0,0,0,0,0,0,0,0,0,0,0,0,0,0,0,0,0,0],"sum_hessian":[2.445684E4,1.632623E4,8.130609E3,4.4024263E3,1.1923805E4,4.3117583E3,3.8188506E3,1.0850383E3,3.317388E3,5.5190776E3,6.4047266E3,4.2038276E3,1.0793084E2,2.9151409E3,9.037097E2,1.3539195E2,9.496464E2,1.2355585E3,2.0818293E3,3.2219077E3,2.29717E3,4.7434644E3,1.6612621E3,3.6747593E3,5.290681E2,1.2405219E1,9.552562E1,2.567044E3,3.4809695E2,5.9634985E2,3.0735986E2],"tree_param":{"num_deleted":"0","num_feature":"21","num_nodes":"31","size_leaf_vector":"1"}},{"base_weights":[2.4853824E-3,-1.2503943E-2,9.1745235E-2,-1.140905E-1,-2.0352385E-3,1.7962421E-1,4.090999E-2,-3.5931326E-2,-1.8429154E-1,7.911852E-1,-3.3717677E-3,5.091256E-1,1.4598295E-1,-1.1830924E-2,1.1678742E-1,-3.5987378E-3,1.5409167E-2,2.1847516E-2,-1.0622628E-2,1.0591891E-2,5.9835047E-2,-5.6779647E-4,6.588883E-3,7.659232E-3,3.488045E-2,5.4710633E-3,1.8044055E-2,4.8669433E-4,-1.6530087E-2,2.2220954E-3,1.730646E-2],"categories":[],"categories_nodes":[],"categories_segments":[],"categories_sizes":[],"default_left":[0,0,0,0,0,0,0,0,0,0,0,0,0,0,0,0,0,0,0,0,0,0,0,0,0,0,0,0,0,0,0],"id":36,"left_children":[1,3,5,7,9,11,13,15,17,19,21,23,25,27,29,-1,-1,-1,-1,-1,-1,-1,-1,-1,-1,-1,-1,-1,-1,-1,-1],"loss_changes":[3.2793262E1,2.2309067E1,1.572183E1,1.0732597E1,2.013403E1,1.4163307E1,8.951362E0,1.1551011E1,1.8179165E1,7.054352E0,2.0492218E1,7.7694607E0,9.136698E0,9.091301E0,1.5172068E1,0E0,0E0,0E0,0E0,0E0,0E0,0E0,0E0,0E0,0E0,0E0,0E0,0E0,0E0,0E0,0E0],"parents":[2147483647,0,0,1,1,2,2,3,3,4,4,5,5,6,6,7,7,8,8,9,9,10,10,11,11,12,12,13,13,14,14],"right_children":[2,4,6,8,10,12,14,16,18,20,22,24,26,28,30,-1,-1,-1,-1,-1,-1,-1,-1,-1,-1,-1,-1,-1,-1,-1,-1],"split_conditions":[2.5174506E-3,6.317227E-4,-3.0562606E-9,2.5881904E-1,-2.4673085E-8,-8.660254E-1,6.123234E-17,1.66038E-4,3.4501878E-4,2.9436132E-1,3.6644027E0,3.0282384E-3,1.5849699E-4,2.593475E-2,1.21916905E-2,-3.5987378E-3,1.5409167E-2,2.1847516E-2,-1.0622628E-2,1.0591891E-2,5.9835047E-2,-5.6779647E-4,6.588883E-3,7.659232E-3,3.488045E-2,5.4710633E-3,1.8044055E-2,4.8669433E-4,-1.6530087E-2,2.2220954E-3,1.730646E-2],"split_indices":[12,0,9,1,9,1,1,11,0,13,13,12,11,6,16,0,0,0,0,0,0,0,0,0,0,0,0,0,0,0,0],"split_type":[0,0,0,0,0,0,0,0,0,0,0,0,0,0,0,0,0,0,0,0,0,0,0,0,0,0,0,0,0,0,0],"sum_hessian":[2.4504426E4,2.0981715E4,3.5227104E3,1.9583724E3,1.9023342E4,1.289231E3,2.2334795E3,9.280721E2,1.0303003E3,3.0445236E1,1.8992896E4,1.1733165E2,1.1718993E3,1.3179827E3,9.1549677E2,8.4128534E2,8.678676E1,4.3657223E1,9.866431E2,1.3526805E1,1.691843E1,1.7935098E4,1.0577997E3,4.1654217E1,7.567743E1,1.0036412E3,1.6825806E2,1.235686E3,8.2296684E1,6.974849E2,2.1801189E2],"tree_param":{"num_deleted":"0","num_feature":"21","num_nodes":"31","size_leaf_vector":"1"}},{"base_weights":[-3.8461282E-3,-7.807949E-2,1.9046152E-2,-8.192465E-2,7.830278E-1,5.1738326E-2,-1.9220367E-2,-1.3205269E-1,-1.2273555E-2,1.2073007E0,-3.6721226E-2,1.1366932E-1,1.1559323E-2,-3.4575082E-2,2.5902593E-1,2.2348256E-3,-8.447731E-3,-3.814625E-3,3.0034233E-3,8.875272E-2,2.3256091E-2,-2.695117E-3,7.298413E-3,2.6588826E-4,3.1077141E-2,1.6522246E-3,-4.52334E-3,-3.7193555E-2,1.5391938E-2],"categories":[],"categories_nodes":[],"categories_segments":[],"categories_sizes":[],"default_left":[0,0,0,0,0,0,0,0,0,0,0,0,0,0,0,0,0,0,0,0,0,0,0,0,0,0,0,0,0],"id":37,"left_children":[1,3,5,7,9,11,13,15,17,19,-1,21,23,25,27,-1,-1,-1,-1,-1,-1,-1,-1,-1,-1,-1,-1,-1,-1],"loss_changes":[4.160128E1,1.9166359E1,2.3408108E1,2.005175E1,1.7922285E1,2.5099878E1,3.682991E1,2.1806248E1,1.1153841E1,7.374138E0,0E0,2.1502354E1,2.3272018E1,3.0887165E1,2.239077E1,0E0,0E0,0E0,0E0,0E0,0E0,0E0,0E0,0E0,0E0,0E0,0E0,0E0,0E0],"parents":[2147483647,0,0,1,1,2,2,3,3,4,4,5,5,6,6,7,7,8,8,9,9,11,11,12,12,13,13,14,14],"right_children":[2,4,6,8,10,12,14,16,18,20,-1,22,24,26,28,-1,-1,-1,-1,-1,-1,-1,-1,-1,-1,-1,-1,-1,-1],"split_conditions":[8.663101E-4,1.6183794E-2,4.3388373E-1,9.4827586E-1,4.0562486E-4,-2.8600614E-3,2.083222E-2,-4.0260144E-3,0E0,8.769231E-1,-3.6721226E-2,-8.660254E-1,4.971501E-2,-2.5881904E-1,-3.0674846E-3,2.2348256E-3,-8.447731E-3,-3.814625E-3,3.0034233E-3,8.875272E-2,2.3256091E-2,-2.695117E-3,7.298413E-3,2.6588826E-4,3.1077141E-2,1.6522246E-3,-4.52334E-3,-3.7193555E-2,1.5391938E-2],"split_indices":[0,2,5,17,11,2,2,6,5,7,0,4,2,4,6,0,0,0,0,0,0,0,0,0,0,0,0,0,0],"split_type":[0,0,0,0,0,0,0,0,0,0,0,0,0,0,0,0,0,0,0,0,0,0,0,0,0,0,0,0,0],"sum_hessian":[2.447585E4,5.768561E3,1.870729E4,5.744326E3,2.4235126E1,1.0088864E4,8.618425E3,3.3391038E3,2.4052222E3,1.9205023E1,5.0301037E0,3.968272E3,6.120592E3,8.1691143E3,4.493103E2,5.764428E2,2.7626611E3,1.2763381E3,1.128884E3,9.660229E0,9.544794E0,6.408576E2,3.3274146E3,6.0601772E3,6.0414745E1,3.6965862E3,4.4725283E3,1.98149E1,4.294954E2],"tree_param":{"num_deleted":"0","num_feature":"21","num_nodes":"29","size_leaf_vector":"1"}},{"base_weights":[-1.9425334E-3,-1.5470866E-2,1.0569403E-1,4.5435227E-2,-3.750096E-2,2.0691165E-1,3.800659E-2,-6.1164754E-3,1.4034627E-1,-2.0134913E-2,-1.6444108E-1,-9.384446E-2,3.0417925E-1,2.4233395E-1,-3.913189E-2,-1.8567428E-3,8.755456E-3,5.1551852E-3,1.7372223E-2,3.6243536E-3,-1.9395326E-3,-1.1793199E-2,-2.378695E-3,-1.22622205E-2,8.143524E-3,1.3449333E-2,4.495552E-2,4.7448143E-2,8.281929E-3,4.8293667E-3,-8.666281E-3],"categories":[],"categories_nodes":[],"categories_segments":[],"categories_sizes":[],"default_left":[0,0,0,0,0,0,0,0,0,0,0,0,0,0,0,0,0,0,0,0,0,0,0,0,0,0,0,0,0,0,0],"id":38,"left_children":[1,3,5,7,9,11,13,15,17,19,21,23,25,27,29,-1,-1,-1,-1,-1,-1,-1,-1,-1,-1,-1,-1,-1,-1,-1,-1],"loss_changes":[3.564647E1,2.9185291E1,1.8701483E1,2.8275837E1,3.519938E1,3.207667E1,2.5873531E1,2.1054602E1,1.5611134E1,2.4286203E1,1.6009968E1,1.0500993E1,1.6907257E1,2.4088144E1,2.1732412E1,0E0,0E0,0E0,0E0,0E0,0E0,0E0,0E0,0E0,0E0,0E0,0E0,0E0,0E0,0E0,0E0],"parents":[2147483647,0,0,1,1,2,2,3,3,4,4,5,5,6,6,7,7,8,8,9,9,10,10,11,11,12,12,13,13,14,14],"right_children":[2,4,6,8,10,12,14,16,18,20,22,24,26,28,30,-1,-1,-1,-1,-1,-1,-1,-1,-1,-1,-1,-1,-1,-1,-1,-1],"split_conditions":[2.4676565E-3,-4.101809E-3,0E0,5E-1,9.659258E-1,2.5261688E-1,-1.488682E-2,9.749279E-1,1.8128133E-3,-4.6676886E-3,9.767442E-1,3.5533558E-3,4.971501E-2,-7.0710677E-1,-2.5881904E-1,-1.8567428E-3,8.755456E-3,5.1551852E-3,1.7372223E-2,3.6243536E-3,-1.9395326E-3,-1.1793199E-2,-2.378695E-3,-1.22622205E-2,8.143524E-3,1.3449333E-2,4.495552E-2,4.7448143E-2,8.281929E-3,4.8293667E-3,-8.666281E-3],"split_indices":[0,6,5,1,1,13,2,5,0,2,17,0,2,1,1,0,0,0,0,0,0,0,0,0,0,0,0,0,0,0,0],"split_type":[0,0,0,0,0,0,0,0,0,0,0,0,0,0,0,0,0,0,0,0,0,0,0,0,0,0,0,0,0,0,0],"sum_hessian":[2.447997E4,2.174828E4,2.73169E3,5.775905E3,1.5972375E4,1.093172E3,1.638518E3,3.74348E3,2.0324249E3,1.4052108E4,1.9202671E3,2.670327E2,8.261393E2,4.483492E2,1.1901687E3,3.197643E3,5.4583673E2,1.7247504E3,3.0767447E2,2.3546643E3,1.1697443E4,1.1906508E3,7.2961633E2,1.6813522E2,9.8897484E1,7.82135E2,4.4004223E1,4.2163773E1,4.0618546E2,5.917448E2,5.984239E2],"tree_param":{"num_deleted":"0","num_feature":"21","num_nodes":"31","size_leaf_vector":"1"}},{"base_weights":[-2.3122255E-3,-7.948019E-2,1.4885049E-2,-1.3550787E-1,-6.252803E-3,3.2835782E-1,1.14412205E-2,4.3931568E-1,-1.4694923E-1,1.790665E-2,-4.2682338E-1,7.4544483E-1,2.4525452E-1,-6.867987E-3,5.474936E-2,4.4903886E-2,-1.25485435E-2,2.2917714E-2,-7.7819447E-3,5.243329E-3,-3.6335755E-3,-2.7979373E-3,-4.1114416E-2,5.2082926E-2,-5.1093247E-4,8.174068E-3,3.8503032E-2,-1.7392822E-3,2.3677358E-3,7.280455E-3,1.5101576E-3],"categories":[],"categories_nodes":[],"categories_segments":[],"categories_sizes":[],"default_left":[0,0,0,0,0,0,0,0,0,0,0,0,0,0,0,0,0,0,0,0,0,0,0,0,0,0,0,0,0,0,0],"id":39,"left_children":[1,3,5,7,9,11,13,15,17,19,21,23,25,27,29,-1,-1,-1,-1,-1,-1,-1,-1,-1,-1,-1,-1,-1,-1,-1,-1],"loss_changes":[3.2450966E1,1.8275269E1,2.156209E1,1.6683662E1,1.967942E1,7.1997776E0,1.5686218E1,1.606285E1,1.3116383E1,1.4426948E1,1.5318617E1,7.952776E0,7.632167E0,2.1046421E1,1.3094292E1,0E0,0E0,0E0,0E0,0E0,0E0,0E0,0E0,0E0,0E0,0E0,0E0,0E0,0E0,0E0,0E0],"parents":[2147483647,0,0,1,1,2,2,3,3,4,4,5,5,6,6,7,7,8,8,9,9,10,10,11,11,12,12,13,13,14,14],"right_children":[2,4,6,8,10,12,14,16,18,20,22,24,26,28,30,-1,-1,-1,-1,-1,-1,-1,-1,-1,-1,-1,-1,-1,-1,-1,-1],"split_conditions":[7.962126E-4,0E0,-2.0060215E-8,-7.7952444E-9,4.8693627E-9,1.7687163E-3,1.782997E-3,-2.1717884E-3,-1.1300617E-2,5E-1,6.234898E-1,1.2E-1,3.488372E-1,1E0,-1.8350604E-3,4.4903886E-2,-1.25485435E-2,2.2917714E-2,-7.7819447E-3,5.243329E-3,-3.6335755E-3,-2.7979373E-3,-4.1114416E-2,5.2082926E-2,-5.1093247E-4,8.174068E-3,3.8503032E-2,-1.7392822E-3,2.3677358E-3,7.280455E-3,1.5101576E-3],"split_indices":[0,5,9,9,9,0,0,6,2,4,14,7,7,17,19,0,0,0,0,0,0,0,0,0,0,0,0,0,0,0,0],"split_type":[0,0,0,0,0,0,0,0,0,0,0,0,0,0,0,0,0,0,0,0,0,0,0,0,0,0,0,0,0,0,0],"sum_hessian":[2.444766E4,4.4549214E3,1.9992738E4,2.522755E3,1.9321664E3,2.1555894E2,1.977718E4,4.805331E1,2.4747017E3,1.8284493E3,1.0371705E2,3.3727455E1,1.818315E2,1.3900591E4,5.8765894E3,2.86401E1,1.941321E1,3.3843685E1,2.440858E3,9.330175E2,8.9543176E2,5.447212E1,4.9244934E1,2.386934E1,9.858114E0,1.5910323E2,2.2728277E1,9.177058E3,4.7235337E3,1.2479114E3,4.6286777E3],"tree_param":{"num_deleted":"0","num_feature":"21","num_nodes":"31","size_leaf_vector":"1"}},{"base_weights":[4.635162E-3,-7.4440785E-2,2.2296697E-2,-9.5122606E-2,1.00417145E-1,3.2029584E-1,1.8928558E-2,-2.6759662E-2,-1.6321892E-1,-1.9038318E-1,1.8238233E-1,6.0393554E-1,1.3622038E-1,-6.787397E-3,5.35276E-2,-2.1034633E-3,2.268115E-2,-5.3893877E-3,-2.2885816E-2,-2.3295645E-2,2.2336075E-3,5.96959E-3,4.0220954E-2,-3.311734E-3,3.571305E-2,1.598896E-2,-2.7316308E-2,1.8489696E-3,-2.5933802E-3,2.235003E-3,1.7670905E-2],"categories":[],"categories_nodes":[],"categories_segments":[],"categories_sizes":[],"default_left":[0,0,0,0,0,0,0,0,0,0,0,0,0,0,0,0,0,0,0,0,0,0,0,0,0,0,0,0,0,0,0],"id":40,"left_children":[1,3,5,7,9,11,13,15,17,19,21,23,25,27,29,-1,-1,-1,-1,-1,-1,-1,-1,-1,-1,-1,-1,-1,-1,-1,-1],"loss_changes":[3.4184505E1,1.6174349E1,2.0057884E1,1.8591152E1,1.13285475E1,1.1502182E1,1.7609182E1,1.4693211E1,3.257505E1,6.8285866E0,1.4306553E1,6.563078E0,1.747849E1,2.2400623E1,2.229379E1,0E0,0E0,0E0,0E0,0E0,0E0,0E0,0E0,0E0,0E0,0E0,0E0,0E0,0E0,0E0,0E0],"parents":[2147483647,0,0,1,1,2,2,3,3,4,4,5,5,6,6,7,7,8,8,9,9,10,10,11,11,12,12,13,13,14,14],"right_children":[2,4,6,8,10,12,14,16,18,20,22,24,26,28,30,-1,-1,-1,-1,-1,-1,-1,-1,-1,-1,-1,-1,-1,-1,-1,-1],"split_conditions":[7.962126E-4,3.9608653E0,-2.0060215E-8,2.5881904E-1,-7.0710677E-1,-2.5881904E-1,2.5881904E-1,6.711381E-9,2.781542E-9,-4.730167E-10,1E0,-1.6863788E-2,1E0,-4.1285895E-11,3.6954843E-3,-2.1034633E-3,2.268115E-2,-5.3893877E-3,-2.2885816E-2,-2.3295645E-2,2.2336075E-3,5.96959E-3,4.0220954E-2,-3.311734E-3,3.571305E-2,1.598896E-2,-2.7316308E-2,1.8489696E-3,-2.5933802E-3,2.235003E-3,1.7670905E-2],"split_indices":[0,13,9,1,1,1,1,9,9,9,14,3,14,9,0,0,0,0,0,0,0,0,0,0,0,0,0,0,0,0,0],"split_type":[0,0,0,0,0,0,0,0,0,0,0,0,0,0,0,0,0,0,0,0,0,0,0,0,0,0,0,0,0,0,0],"sum_hessian":[2.4475484E4,4.4671357E3,2.000835E4,3.9955237E3,4.7161197E2,2.2187383E2,1.9786477E4,1.9952675E3,2.0002562E3,1.0312955E2,3.6848242E2,8.586794E1,1.3600587E2,1.1350159E4,8.436316E3,1.9350703E3,6.0197186E1,1.6852688E3,3.149875E2,4.6896915E1,5.623263E1,3.3629575E2,3.218669E1,1.2158372E1,7.370957E1,1.07867355E2,2.8138525E1,5.7585474E3,5.5916113E3,8.196923E3,2.3939333E2],"tree_param":{"num_deleted":"0","num_feature":"21","num_nodes":"31","size_leaf_vector":"1"}},{"base_weights":[1.1843168E-3,-7.6266706E-2,1.729397E-2,-7.898862E-2,4.913668E-2,3.497502E-2,-3.5383437E-2,-1.2786141E-1,-1.4415013E-2,2.7812747E-2,2.8802916E-1,-1.2096577E-1,3.23849E-2,-8.30265E-3,3.7361437E-3,4.822247E-3,-3.500963E-3,3.0913374E-3,-9.173572E-4,-8.866469E-3,2.1086184E-2,1.4237441E-2,-7.078362E-3,4.5940997E-3,-7.826048E-3],"categories":[],"categories_nodes":[],"categories_segments":[],"categories_sizes":[],"default_left":[0,0,0,0,0,0,0,0,0,0,0,0,0,0,0,0,0,0,0,0,0,0,0,0,0],"id":41,"left_children":[1,3,5,7,-1,9,11,13,15,17,19,21,23,-1,-1,-1,-1,-1,-1,-1,-1,-1,-1,-1,-1],"loss_changes":[3.052922E1,1.2215012E1,1.8869587E1,1.3256065E1,0E0,2.746392E1,2.9535542E1,1.8530312E1,1.1184798E1,2.3166805E1,2.6077438E1,1.886235E1,3.1959677E1,0E0,0E0,0E0,0E0,0E0,0E0,0E0,0E0,0E0,0E0,0E0,0E0],"parents":[2147483647,0,0,1,1,2,2,3,3,5,5,6,6,7,7,8,8,9,9,10,10,11,11,12,12],"right_children":[2,4,6,8,-1,10,12,14,16,18,20,22,24,-1,-1,-1,-1,-1,-1,-1,-1,-1,-1,-1,-1],"split_conditions":[7.8088266E-4,1.5668524E-2,7.0710677E-1,1E0,4.913668E-2,2.9373122E-2,-1.8369701E-16,9.659258E-1,-1.2393356E-3,4.6878084E-4,2.1331902E-3,-1.1071575E-8,6.9457307E-3,-8.30265E-3,3.7361437E-3,4.822247E-3,-3.500963E-3,3.0913374E-3,-9.173572E-4,-8.866469E-3,2.1086184E-2,1.4237441E-2,-7.078362E-3,4.5940997E-3,-7.826048E-3],"split_indices":[0,2,4,17,0,2,1,4,3,3,0,9,2,0,0,0,0,0,0,0,0,0,0,0,0],"split_type":[0,0,0,0,0,0,0,0,0,0,0,0,0,0,0,0,0,0,0,0,0,0,0,0,0],"sum_hessian":[2.44675E4,4.211413E3,2.0256086E4,4.2020483E3,9.365066E0,1.5166828E4,5.0892583E3,2.3905251E3,1.811523E3,1.4751183E4,4.1564505E2,2.2488376E3,2.8404204E3,2.0117782E3,3.78747E2,6.0443695E2,1.207086E3,8.493282E3,6.2579004E3,9.256944E1,3.2307562E2,1.0762706E2,2.1412104E3,2.1608745E3,6.7954596E2],"tree_param":{"num_deleted":"0","num_feature":"21","num_nodes":"25","size_leaf_vector":"1"}},{"base_weights":[-5.309079E-4,-2.0015955E-2,6.0524147E-2,3.2880235E-2,-4.257432E-2,1.5771481E-1,4.638101E-2,-4.039084E-2,9.015391E-2,-4.5646947E-2,3.8904715E-1,2.193513E-1,-2.4682987E-2,1.5829353E-1,3.443979E-2,3.8193103E-2,-2.4430964E-3,6.0349214E-3,-6.6493303E-3,1.0590141E-4,-3.450342E-3,4.700353E-2,6.1725345E-3,-4.0163104E-3,1.2930934E-2,3.5451278E-2,-2.9427076E-3,1.0862949E-2,-1.2848689E-2,2.7279172E-4,3.8856429E-3],"categories":[],"categories_nodes":[],"categories_segments":[],"categories_sizes":[],"default_left":[0,0,0,0,0,0,0,0,0,0,0,0,0,0,0,0,0,0,0,0,0,0,0,0,0,0,0,0,0,0,0],"id":42,"left_children":[1,3,5,7,9,11,13,15,17,19,21,23,25,27,29,-1,-1,-1,-1,-1,-1,-1,-1,-1,-1,-1,-1,-1,-1,-1,-1],"loss_changes":[2.9136454E1,2.2158978E1,8.123203E0,2.330448E1,1.7274324E1,8.467606E0,6.897768E0,1.6617908E1,2.1266003E1,1.442799E1,1.3245891E1,6.654873E0,4.818203E0,1.2278714E1,5.8628225E0,0E0,0E0,0E0,0E0,0E0,0E0,0E0,0E0,0E0,0E0,0E0,0E0,0E0,0E0,0E0,0E0],"parents":[2147483647,0,0,1,1,2,2,3,3,4,4,5,5,6,6,7,7,8,8,9,9,10,10,11,11,12,12,13,13,14,14],"right_children":[2,4,6,8,10,12,14,16,18,20,22,24,26,28,30,-1,-1,-1,-1,-1,-1,-1,-1,-1,-1,-1,-1,-1,-1,-1,-1],"split_conditions":[1.8841854E-3,-5E-1,3.12612E-1,-8.660254E-1,2.7389785E-2,9.7619045E-1,-4.4077667E-3,-1.2211674E-2,3.673347E-4,-3.9284606E-3,0E0,-2.9486472E-2,-7.0221378E-3,5.714286E-1,1.9377342E-3,3.8193103E-2,-2.4430964E-3,6.0349214E-3,-6.6493303E-3,1.0590141E-4,-3.450342E-3,4.700353E-2,6.1725345E-3,-4.0163104E-3,1.2930934E-2,3.5451278E-2,-2.9427076E-3,1.0862949E-2,-1.2848689E-2,2.7279172E-4,3.8856429E-3],"split_indices":[12,4,13,4,2,20,8,3,11,2,4,2,18,20,18,0,0,0,0,0,0,0,0,0,0,0,0,0,0,0,0],"split_type":[0,0,0,0,0,0,0,0,0,0,0,0,0,0,0,0,0,0,0,0,0,0,0,0,0,0,0,0,0,0,0],"sum_hessian":[2.4490076E4,1.8566582E4,5.9234927E3,5.5499136E3,1.3016669E4,7.500993E2,5.1733936E3,2.4347148E3,3.1151987E3,1.2926107E4,9.056121E1,5.6062213E2,1.8947717E2,4.9661078E2,4.6767827E3,2.3921516E1,2.4107935E3,2.7409214E3,3.7427737E2,4.2451304E3,8.680978E3,2.8153887E1,6.2407322E1,6.461984E1,4.960023E2,7.048466E0,1.8242871E2,4.3559457E2,6.101618E1,2.8025208E3,1.8742618E3],"tree_param":{"num_deleted":"0","num_feature":"21","num_nodes":"31","size_leaf_vector":"1"}},{"base_weights":[4.1816374E-3,6.389789E-2,-1.32718375E-2,1.9789003E-2,1.51044E-1,1.6411291E-3,-1.2273732E-1,-9.268163E-3,2.6832214E-1,1.433427E-1,6.9040164E-2,7.2837256E-2,-1.485628E-2,-1.5055639E-1,2.3511928E-1,-5.4195225E-3,2.2481366E-3,4.671292E-2,5.6988723E-3,7.8117894E-3,-1.3067195E-2,2.821669E-3,1.6595637E-2,-5.8811465E-3,-1.1304419E-5,-8.383023E-3,1.8921517E-2,-2.0434998E-2,1.579344E-2],"categories":[],"categories_nodes":[],"categories_segments":[],"categories_sizes":[],"default_left":[0,0,0,0,0,0,0,0,0,0,0,0,0,0,0,0,0,0,0,0,0,0,0,0,0,0,0,0,0],"id":43,"left_children":[1,3,5,7,9,11,13,15,17,19,-1,21,23,25,27,-1,-1,-1,-1,-1,-1,-1,-1,-1,-1,-1,-1,-1,-1],"loss_changes":[2.5505177E1,2.1261953E1,3.0915682E1,2.6569689E1,1.7236431E1,1.9578564E1,2.2653614E1,1.771327E1,3.9370895E1,9.706066E0,0E0,1.3279833E1,2.0337355E1,1.915652E1,8.727462E0,0E0,0E0,0E0,0E0,0E0,0E0,0E0,0E0,0E0,0E0,0E0,0E0,0E0,0E0],"parents":[2147483647,0,0,1,1,2,2,3,3,4,4,5,5,6,6,7,7,8,8,9,9,11,11,12,12,13,13,14,14],"right_children":[2,4,6,8,10,12,14,16,18,20,-1,22,24,26,28,-1,-1,-1,-1,-1,-1,-1,-1,-1,-1,-1,-1,-1,-1],"split_conditions":[-5.24576E-3,5E-1,9.659258E-1,2.905569E-3,2.212613E-8,3.2441542E-1,2.8744966E-1,5.118196E-1,-7.0710677E-1,1.2128007E-2,6.9040164E-2,2.5559105E-2,6.6325284E-4,2.5559105E-2,-7.1462984E-3,-5.4195225E-3,2.2481366E-3,4.671292E-2,5.6988723E-3,7.8117894E-3,-1.3067195E-2,2.821669E-3,1.6595637E-2,-5.8811465E-3,-1.1304419E-5,-8.383023E-3,1.8921517E-2,-2.0434998E-2,1.579344E-2],"split_indices":[6,1,1,0,9,13,10,13,1,2,0,2,0,2,2,0,0,0,0,0,0,0,0,0,0,0,0,0,0],"split_type":[0,0,0,0,0,0,0,0,0,0,0,0,0,0,0,0,0,0,0,0,0,0,0,0,0,0,0,0,0],"sum_hessian":[2.446597E4,5.5332124E3,1.8932758E4,3.675352E3,1.8578606E3,1.666362E4,2.269138E3,3.2917422E3,3.8361002E2,1.848003E3,9.857517E0,3.134462E3,1.3529158E4,2.1063992E3,1.627387E2,1.163868E3,2.127874E3,7.0693214E1,3.129168E2,1.7919568E3,5.604626E1,2.9497146E3,1.8474725E2,1.6842845E3,1.1844874E4,2.0415089E3,6.4890274E1,1.7388481E1,1.453502E2],"tree_param":{"num_deleted":"0","num_feature":"21","num_nodes":"29","size_leaf_vector":"1"}},{"base_weights":[3.560719E-3,2.2205966E-2,-4.7514908E-2,1.3800992E-1,7.503826E-3,-1.3485533E-1,-1.1494351E-2,-4.2968205E-1,1.5203266E-1,3.834364E-3,3.6484876E-1,9.1787755E-1,-1.4792116E-1,2.4827104E-3,-4.1233942E-1,-3.8912784E-2,-4.8622056E-3,6.468179E-3,2.8719261E-2,6.2577764E-4,-6.93409E-3,-5.385513E-2,2.2188082E-2,4.696948E-3,6.372656E-2,-8.402365E-3,1.3640219E-2,-1.0079485E-2,1.1191055E-3,-3.6700495E-2,6.5595256E-3],"categories":[],"categories_nodes":[],"categories_segments":[],"categories_sizes":[],"default_left":[0,0,0,0,0,0,0,0,0,0,0,0,0,0,0,0,0,0,0,0,0,0,0,0,0,0,0,0,0,0,0],"id":44,"left_children":[1,3,5,7,9,11,13,15,17,19,21,23,25,27,29,-1,-1,-1,-1,-1,-1,-1,-1,-1,-1,-1,-1,-1,-1,-1,-1],"loss_changes":[2.3278782E1,3.0482021E1,2.0555304E1,1.614093E1,2.0819677E1,2.6411316E1,2.5962847E1,5.512496E0,1.8711075E1,1.946173E1,1.904954E1,6.673443E0,1.6034138E1,1.8172333E1,2.747317E1,0E0,0E0,0E0,0E0,0E0,0E0,0E0,0E0,0E0,0E0,0E0,0E0,0E0,0E0,0E0,0E0],"parents":[2147483647,0,0,1,1,2,2,3,3,4,4,5,5,6,6,7,7,8,8,9,9,10,10,11,11,12,12,13,13,14,14],"right_children":[2,4,6,8,10,12,14,16,18,20,22,24,26,28,30,-1,-1,-1,-1,-1,-1,-1,-1,-1,-1,-1,-1,-1,-1,-1,-1],"split_conditions":[7.0710677E-1,-7.2596733E-9,-2.5881904E-1,-2.7390274E-1,1.3348714E-3,-1.138963E-2,2.1782774E-2,1.058537E-3,7.4697495E-3,1.0789797E-8,-9.659258E-1,5.1282054E-1,1.8606959E-2,-4.1637235E-4,7.0710677E-1,-3.8912784E-2,-4.8622056E-3,6.468179E-3,2.8719261E-2,6.2577764E-4,-6.93409E-3,-5.385513E-2,2.2188082E-2,4.696948E-3,6.372656E-2,-8.402365E-3,1.3640219E-2,-1.0079485E-2,1.1191055E-3,