{"learner":{"attributes":{"scikit_learn":"{\"_estimator_type\": \"classifier\"}"},"feature_names":["day_of_week_sin","macd_hist","realized_vol_20","hl_ratio","rsi_14","ret_5","ret_60","trend_slope_pct","ret_30","hour_cos","volume_trend","ret_1","volume_ratio","hour_sin","day_of_week_cos","body_to_range_ratio","close_position_in_candle","macd_cross_down","macd_cross_up","ema_fast_above_slow","ema_full_alignment","volume_spike"],"feature_types":["float","float","float","float","float","float","float","float","float","float","float","float","float","float","float","float","float","float","float","float","float","float"],"gradient_booster":{"model":{"gbtree_model_param":{"num_parallel_tree":"1","num_trees":"300"},"iteration_indptr":[0,1,2,3,4,5,6,7,8,9,10,11,12,13,14,15,16,17,18,19,20,21,22,23,24,25,26,27,28,29,30,31,32,33,34,35,36,37,38,39,40,41,42,43,44,45,46,47,48,49,50,51,52,53,54,55,56,57,58,59,60,61,62,63,64,65,66,67,68,69,70,71,72,73,74,75,76,77,78,79,80,81,82,83,84,85,86,87,88,89,90,91,92,93,94,95,96,97,98,99,100,101,102,103,104,105,106,107,108,109,110,111,112,113,114,115,116,117,118,119,120,121,122,123,124,125,126,127,128,129,130,131,132,133,134,135,136,137,138,139,140,141,142,143,144,145,146,147,148,149,150,151,152,153,154,155,156,157,158,159,160,161,162,163,164,165,166,167,168,169,170,171,172,173,174,175,176,177,178,179,180,181,182,183,184,185,186,187,188,189,190,191,192,193,194,195,196,197,198,199,200,201,202,203,204,205,206,207,208,209,210,211,212,213,214,215,216,217,218,219,220,221,222,223,224,225,226,227,228,229,230,231,232,233,234,235,236,237,238,239,240,241,242,243,244,245,246,247,248,249,250,251,252,253,254,255,256,257,258,259,260,261,262,263,264,265,266,267,268,269,270,271,272,273,274,275,276,277,278,279,280,281,282,283,284,285,286,287,288,289,290,291,292,293,294,295,296,297,298,299,300],"tree_info":[0,0,0,0,0,0,0,0,0,0,0,0,0,0,0,0,0,0,0,0,0,0,0,0,0,0,0,0,0,0,0,0,0,0,0,0,0,0,0,0,0,0,0,0,0,0,0,0,0,0,0,0,0,0,0,0,0,0,0,0,0,0,0,0,0,0,0,0,0,0,0,0,0,0,0,0,0,0,0,0,0,0,0,0,0,0,0,0,0,0,0,0,0,0,0,0,0,0,0,0,0,0,0,0,0,0,0,0,0,0,0,0,0,0,0,0,0,0,0,0,0,0,0,0,0,0,0,0,0,0,0,0,0,0,0,0,0,0,0,0,0,0,0,0,0,0,0,0,0,0,0,0,0,0,0,0,0,0,0,0,0,0,0,0,0,0,0,0,0,0,0,0,0,0,0,0,0,0,0,0,0,0,0,0,0,0,0,0,0,0,0,0,0,0,0,0,0,0,0,0,0,0,0,0,0,0,0,0,0,0,0,0,0,0,0,0,0,0,0,0,0,0,0,0,0,0,0,0,0,0,0,0,0,0,0,0,0,0,0,0,0,0,0,0,0,0,0,0,0,0,0,0,0,0,0,0,0,0,0,0,0,0,0,0,0,0,0,0,0,0,0,0,0,0,0,0,0,0,0,0,0,0,0,0,0,0,0,0,0,0,0,0,0,0,0,0,0,0,0,0],"trees":[{"base_weights":[2.5510198E-2,1.9062704E-1,-1.9246158E-1,2.3302619E-1,-6.765884E-1,7.2203696E-2,-6.645331E-1,1.7647201E-1,1.3278829E0,-1.2721921E-2,-4.4511955E-2,2.2924916E-1,-3.3316457E-1,-1.2737612E-1,-8.353548E-1,2.6457762E-2,3.2815647E-3,8.624702E-2,3.39281E-2,1.8888762E-2,-1.8032715E-2,1.71512E-2,-4.1760582E-2,-2.6290117E-2,3.9545055E-2,-6.26074E-2,-2.6150255E-2],"categories":[],"categories_nodes":[],"categories_segments":[],"categories_sizes":[],"default_left":[0,0,0,0,0,0,0,0,0,0,0,0,0,0,0,0,0,0,0,0,0,0,0,0,0,0,0],"id":0,"left_children":[1,3,5,7,9,11,13,15,17,-1,-1,19,21,23,25,-1,-1,-1,-1,-1,-1,-1,-1,-1,-1,-1,-1],"loss_changes":[1.7409088E1,1.0334632E1,2.6144743E1,1.5893829E1,7.8982687E-1,8.693935E0,6.6829414E0,9.785179E0,1.3914337E0,0E0,0E0,8.806572E0,1.3414507E1,7.9131265E0,6.3021507E0,0E0,0E0,0E0,0E0,0E0,0E0,0E0,0E0,0E0,0E0,0E0,0E0],"parents":[2147483647,0,0,1,1,2,2,3,3,4,4,5,5,6,6,7,7,8,8,11,11,12,12,13,13,14,14],"right_children":[2,4,6,8,10,12,14,16,18,-1,-1,20,22,24,26,-1,-1,-1,-1,-1,-1,-1,-1,-1,-1,-1,-1],"split_conditions":[4.3388373E-1,1.5923567E-2,0E0,1.713633E-2,5.197798E-3,9.749279E-1,1.4426105E-3,-6.5293824E-3,2.927568E-1,-1.2721921E-2,-4.4511955E-2,1.7927682E-2,-7.318696E-3,1.8281536E-3,7.818315E-1,2.6457762E-2,3.2815647E-3,8.624702E-2,3.39281E-2,1.8888762E-2,-1.8032715E-2,1.71512E-2,-4.1760582E-2,-2.6290117E-2,3.9545055E-2,-6.26074E-2,-2.6150255E-2],"split_indices":[0,11,13,5,2,0,2,11,10,0,0,6,6,11,0,0,0,0,0,0,0,0,0,0,0,0,0],"split_type":[0,0,0,0,0,0,0,0,0,0,0,0,0,0,0,0,0,0,0,0,0,0,0,0,0,0,0],"sum_hessian":[4.806827E2,2.7373895E2,2.0694374E2,2.6208017E2,1.1658802E1,1.3334755E2,7.359619E1,2.5090714E2,1.1173018E1,5.100726E0,6.5580764E0,9.66709E1,3.6676647E1,1.845977E1,5.5136417E1,5.8536903E1,1.9237024E2,5.343618E0,5.829401E0,7.772535E1,1.8945553E1,1.5787961E1,2.0888687E1,1.3359044E1,5.100726E0,2.1617363E1,3.351906E1],"tree_param":{"num_deleted":"0","num_feature":"22","num_nodes":"27","size_leaf_vector":"1"}},{"base_weights":[-2.6563589E-2,1.8941635E-1,-1.9205664E-1,9.512943E-2,1.0259982E0,-2.6721835E-2,-4.3883973E-1,2.052621E-1,-4.020634E-1,8.346475E-2,4.5128837E-1,3.6105105E-1,-2.390273E-1,-6.0226E-1,3.029596E-1,-7.6995506E-3,1.7774364E-2,-3.4096695E-2,1.2630135E-2,4.7784943E-2,-1.2960106E-2,2.7637213E-2,-1.1727243E-2,-1.5927456E-2,4.3455675E-2,-4.1308743E-3,-3.7341926E-2,-8.659661E-3,2.6103655E-2],"categories":[],"categories_nodes":[],"categories_segments":[],"categories_sizes":[],"default_left":[0,0,0,0,0,0,0,0,0,0,0,0,0,0,0,0,0,0,0,0,0,0,0,0,0,0,0,0,0],"id":1,"left_children":[1,3,5,7,9,11,13,15,17,-1,19,21,23,25,27,-1,-1,-1,-1,-1,-1,-1,-1,-1,-1,-1,-1,-1,-1],"loss_changes":[1.722031E1,1.6280716E1,1.1089052E1,1.0490951E1,6.5127945E0,1.37124405E1,1.3528395E1,8.5231495E0,6.654202E0,0E0,5.125021E0,6.936585E0,9.874077E0,6.6318398E0,2.3085263E0,0E0,0E0,0E0,0E0,0E0,0E0,0E0,0E0,0E0,0E0,0E0,0E0,0E0,0E0],"parents":[2147483647,0,0,1,1,2,2,3,3,4,4,5,5,6,6,7,7,8,8,10,10,11,11,12,12,13,13,14,14],"right_children":[2,4,6,8,10,12,14,16,18,-1,20,22,24,26,28,-1,-1,-1,-1,-1,-1,-1,-1,-1,-1,-1,-1,-1,-1],"split_conditions":[0E0,3.088803E-2,0E0,9.46206E1,-1.8369701E-16,-1.0330002E-3,9.860639E1,5.382345E0,9.31677E-3,8.346475E-2,5.5972695E-2,9.749279E-1,1.4374514E-2,-2.1650534E-2,7.1770337E-4,-7.6995506E-3,1.7774364E-2,-3.4096695E-2,1.2630135E-2,4.7784943E-2,-1.2960106E-2,2.7637213E-2,-1.1727243E-2,-1.5927456E-2,4.3455675E-2,-4.1308743E-3,-3.7341926E-2,-8.659661E-3,2.6103655E-2],"split_indices":[0,6,13,4,9,1,4,4,5,0,6,0,3,6,3,0,0,0,0,0,0,0,0,0,0,0,0,0,0],"split_type":[0,0,0,0,0,0,0,0,0,0,0,0,0,0,0,0,0,0,0,0,0,0,0,0,0,0,0,0,0],"sum_hessian":[4.7874854E2,2.0746863E2,2.7127994E2,1.8800937E2,1.9459251E1,1.6356377E2,1.0771616E2,1.5471902E2,3.3290348E1,7.792688E0,1.1666563E1,5.741311E1,1.0615065E2,8.85565E1,1.9159658E1,4.5511345E1,1.0920768E2,2.3330452E1,9.959898E0,6.561168E0,5.105395E0,4.357902E1,1.3834087E1,1.0008251E2,6.0681415E0,1.9864109E1,6.86924E1,6.0653315E0,1.3094328E1],"tree_param":{"num_deleted":"0","num_feature":"22","num_nodes":"29","size_leaf_vector":"1"}},{"base_weights":[-1.543976E-3,2.1421726E-1,-1.7317027E-1,3.0388844E-1,-5.5793834E-1,7.5671137E-3,-4.4655785E-1,1.22679524E-1,5.44912E-1,2.8698782E-3,-7.465717E-1,2.743582E-1,-2.6727426E-1,-9.3416256E-1,-2.6180583E-1,2.2964831E-2,-1.7167505E-2,5.9997935E-2,1.9186685E-2,-4.7285274E-2,-1.3882935E-2,-2.2380436E-2,2.2538789E-2,-1.8052503E-2,3.825102E-2,-5.2935593E-3,-5.6915708E-2,-4.0809372E-3,-3.0581597E-2],"categories":[],"categories_nodes":[],"categories_segments":[],"categories_sizes":[],"default_left":[0,0,0,0,0,0,0,0,0,0,0,0,0,0,0,0,0,0,0,0,0,0,0,0,0,0,0,0,0],"id":2,"left_children":[1,3,5,7,9,11,13,15,17,-1,19,21,23,25,27,-1,-1,-1,-1,-1,-1,-1,-1,-1,-1,-1,-1,-1,-1],"loss_changes":[1.757894E1,1.4797069E1,1.3098966E1,8.137344E0,2.6922116E0,1.1888482E1,9.070648E0,1.7522676E1,7.752363E0,0E0,1.1576033E0,1.0790337E1,8.117949E0,4.544241E0,4.845849E0,0E0,0E0,0E0,0E0,0E0,0E0,0E0,0E0,0E0,0E0,0E0,0E0,0E0,0E0],"parents":[2147483647,0,0,1,1,2,2,3,3,4,4,5,5,6,6,7,7,8,8,10,10,11,11,12,12,13,13,14,14],"right_children":[2,4,6,8,10,12,14,16,18,-1,20,22,24,26,28,-1,-1,-1,-1,-1,-1,-1,-1,-1,-1,-1,-1,-1,-1],"split_conditions":[0E0,9.927152E1,0E0,-2.5081515E-4,8.547968E-4,-1.7539177E-4,-2.2252093E-1,-3.805899E-3,-9.510224E-4,2.8698782E-3,2.087183E-3,6.547801E-1,9.999665E1,1.4645489E-3,3.267974E-3,2.2964831E-2,-1.7167505E-2,5.9997935E-2,1.9186685E-2,-4.7285274E-2,-1.3882935E-2,-2.2380436E-2,2.2538789E-2,-1.8052503E-2,3.825102E-2,-5.2935593E-3,-5.6915708E-2,-4.0809372E-3,-3.0581597E-2],"split_indices":[0,4,13,5,2,1,14,11,8,0,2,4,4,2,3,0,0,0,0,0,0,0,0,0,0,0,0,0,0],"split_type":[0,0,0,0,0,0,0,0,0,0,0,0,0,0,0,0,0,0,0,0,0,0,0,0,0,0,0,0,0],"sum_hessian":[4.7177048E2,2.0871692E2,2.6305356E2,1.8787341E2,2.084351E1,1.5912868E2,1.0392488E2,1.0865452E2,7.921889E1,5.0731235E0,1.5770386E1,8.084055E1,7.8288124E1,2.6810493E1,7.711439E1,6.316144E1,4.549308E1,1.3672936E1,6.554595E1,9.924082E0,5.846304E0,1.5366367E1,6.547418E1,7.270706E1,5.5810575E0,5.800262E0,2.1010231E1,5.2213406E1,2.4900982E1],"tree_param":{"num_deleted":"0","num_feature":"22","num_nodes":"29","size_leaf_vector":"1"}},{"base_weights":[-4.685381E-2,1.424875E-1,-1.9213268E-1,3.8202778E-2,6.887381E-1,3.0182967E-2,-4.1472608E-1,3.957639E-1,-9.768711E-2,1.0759292E0,2.5000316E-1,5.100328E-1,-1.4655961E-1,-6.403786E-1,-2.6772925E-1,4.7638234E-2,7.758753E-3,9.487917E-3,-1.2861227E-2,1.8568827E-2,7.9137474E-2,-3.9657198E-2,4.850888E-2,5.074762E-2,2.2670887E-3,-2.0404493E-2,5.6545697E-3,-6.096073E-2,-2.4494722E-2,5.7482105E-3,-1.8450359E-2],"categories":[],"categories_nodes":[],"categories_segments":[],"categories_sizes":[],"default_left":[0,0,0,0,0,0,0,0,0,0,0,0,0,0,0,0,0,0,0,0,0,0,0,0,0,0,0,0,0,0,0],"id":3,"left_children":[1,3,5,7,9,11,13,15,17,19,21,23,25,27,29,-1,-1,-1,-1,-1,-1,-1,-1,-1,-1,-1,-1,-1,-1,-1,-1],"loss_changes":[1.3429045E1,1.1999832E1,1.3702815E1,8.802604E0,5.2748547E0,1.1956148E1,4.281391E0,6.40656E0,6.0972786E0,5.2513523E0,1.4586264E1,8.781174E0,7.0779476E0,3.661457E0,3.4248323E0,0E0,0E0,0E0,0E0,0E0,0E0,0E0,0E0,0E0,0E0,0E0,0E0,0E0,0E0,0E0,0E0],"parents":[2147483647,0,0,1,1,2,2,3,3,4,4,5,5,6,6,7,7,8,8,9,9,10,10,11,11,12,12,13,13,14,14],"right_children":[2,4,6,8,10,12,14,16,18,20,22,24,26,28,30,-1,-1,-1,-1,-1,-1,-1,-1,-1,-1,-1,-1,-1,-1,-1,-1],"split_conditions":[0E0,2.0705882E-2,-6.637768E-5,-1.8730015E-2,-1.8369701E-16,4.1418023E0,7.384197E-5,1.0198879E-3,-8.909083E-5,3.245033E-2,0E0,-1.9329924E-3,6.234898E-1,1.868772E-1,3.0395137E-3,4.7638234E-2,7.758753E-3,9.487917E-3,-1.2861227E-2,1.8568827E-2,7.9137474E-2,-3.9657198E-2,4.850888E-2,5.074762E-2,2.2670887E-3,-2.0404493E-2,5.6545697E-3,-6.096073E-2,-2.4494722E-2,5.7482105E-3,-1.8450359E-2],"split_indices":[0,6,1,6,9,12,7,3,7,6,13,1,14,10,5,0,0,0,0,0,0,0,0,0,0,0,0,0,0,0,0],"split_type":[0,0,0,0,0,0,0,0,0,0,0,0,0,0,0,0,0,0,0,0,0,0,0,0,0,0,0,0,0,0,0],"sum_hessian":[4.8511636E2,2.1048145E2,2.746349E2,1.781645E2,3.231695E1,1.379395E2,1.3669539E2,4.8375507E1,1.2978899E2,1.5949109E1,1.6367844E1,3.6445515E1,1.0149399E2,5.1801292E1,8.4894104E1,1.319017E1,3.5185337E1,4.6111095E1,8.36779E1,7.8015833E0,8.147526E0,6.594513E0,9.77333E0,1.6563877E1,1.9881638E1,5.023273E1,5.126126E1,8.421787E0,4.3379505E1,1.7619576E1,6.727453E1],"tree_param":{"num_deleted":"0","num_feature":"22","num_nodes":"31","size_leaf_vector":"1"}},{"base_weights":[4.9499488E-3,2.832538E-1,-7.8964695E-2,-4.4079553E-2,5.2421546E-1,-1.251157E-1,5.5174375E-1,2.2094193E-1,-5.591661E-1,7.076291E-1,-3.177454E-2,-3.740198E-1,-5.182079E-3,8.468745E-1,-0E0,-5.01129E-3,3.765282E-2,-6.776719E-4,-4.012396E-2,4.2628538E-2,5.715487E-3,2.6414523E-2,-2.156777E-2,-3.8768768E-3,2.1647802E-2,5.4544983E-3,5.8167767E-2],"categories":[],"categories_nodes":[],"categories_segments":[],"categories_sizes":[],"default_left":[0,0,0,0,0,0,0,0,0,0,0,0,0,0,0,0,0,0,0,0,0,0,0,0,0,0,0],"id":4,"left_children":[1,3,5,7,9,11,13,15,17,19,-1,21,23,25,-1,-1,-1,-1,-1,-1,-1,-1,-1,-1,-1,-1,-1],"loss_changes":[1.125862E1,8.870247E0,1.0852111E1,6.845321E0,1.4408703E1,1.030896E1,4.108716E0,5.8099017E0,2.2025437E0,4.6628857E0,0E0,6.150545E0,7.488673E0,3.6041641E0,0E0,0E0,0E0,0E0,0E0,0E0,0E0,0E0,0E0,0E0,0E0,0E0,0E0],"parents":[2147483647,0,0,1,1,2,2,3,3,4,4,5,5,6,6,7,7,8,8,9,9,11,11,12,12,13,13],"right_children":[2,4,6,8,10,12,14,16,18,20,-1,22,24,26,-1,-1,-1,-1,-1,-1,-1,-1,-1,-1,-1,-1,-1],"split_conditions":[-1.8936659E-3,5.382345E0,3.670588E-2,5E-1,1.8486423E-2,3.8402563E-1,0E0,-2.813703E-3,1.8929112E-1,2.5881904E-1,-3.177454E-2,-3.1251174E-1,3.9777433E-4,7.933721E1,-0E0,-5.01129E-3,3.765282E-2,-6.776719E-4,-4.012396E-2,4.2628538E-2,5.715487E-3,2.6414523E-2,-2.156777E-2,-3.8768768E-3,2.1647802E-2,5.4544983E-3,5.8167767E-2],"split_indices":[1,4,6,9,6,10,0,1,4,13,0,10,7,4,0,0,0,0,0,0,0,0,0,0,0,0,0],"split_type":[0,0,0,0,0,0,0,0,0,0,0,0,0,0,0,0,0,0,0,0,0,0,0,0,0,0,0],"sum_hessian":[4.7871603E2,1.1021601E2,3.6850003E2,4.716416E1,6.3051853E1,3.4456854E2,2.3931486E1,3.1642849E1,1.5521312E1,5.4983734E1,8.068119E0,1.1087321E2,2.3369534E2,1.5023507E1,8.90798E0,2.0433393E1,1.12094555E1,5.3387012E0,1.01826105E1,4.3594383E1,1.1389347E1,5.836057E0,1.0503715E2,2.0172974E2,3.19656E1,5.162845E0,9.860662E0],"tree_param":{"num_deleted":"0","num_feature":"22","num_nodes":"27","size_leaf_vector":"1"}},{"base_weights":[1.461674E-2,-6.1356515E-2,3.4221932E-2,8.609585E-1,8.766498E-3,7.16037E-2,-2.865426E-3,-7.903775E-1,5.0365977E-2,-4.919119E-2,-3.3547662E-3,7.646548E-3,-1.0118883E-2],"categories":[],"categories_nodes":[],"categories_segments":[],"categories_sizes":[],"default_left":[0,0,0,0,0,0,0,0,0,0,0,0,0],"id":5,"left_children":[1,-1,3,5,7,-1,-1,9,11,-1,-1,-1,-1],"loss_changes":[1.1837212E1,0E0,1.0047603E1,7.672902E0,1.55567875E1,0E0,0E0,3.0876226E0,1.1595709E1,0E0,0E0,0E0,0E0],"parents":[2147483647,0,0,2,2,3,3,4,4,7,7,8,8],"right_children":[2,-1,4,6,8,-1,-1,10,12,-1,-1,-1,-1],"split_conditions":[2.3337222E-4,-6.1356515E-2,-5.3051457E-2,-7.5677045E-2,-1.1744107E-3,7.16037E-2,-2.865426E-3,3.2017075E-3,7.0710677E-1,-4.919119E-2,-3.3547662E-3,7.646548E-3,-1.0118883E-2],"split_indices":[3,0,8,6,7,0,0,5,9,0,0,0,0],"split_type":[0,0,0,0,0,0,0,0,0,0,0,0,0],"sum_hessian":[4.8459637E2,6.056451E0,4.7853992E2,1.2764948E1,4.65775E2,7.386229E0,5.3787184E0,2.1650871E1,4.441241E2,1.6601292E1,5.04958E0,3.1648337E2,1.27640755E2],"tree_param":{"num_deleted":"0","num_feature":"22","num_nodes":"13","size_leaf_vector":"1"}},{"base_weights":[7.5505073E-3,1.7766567E-1,-1.278659E-1,2.6310906E-1,-5.5554587E-1,-3.1561002E-1,3.854436E-2,1.5118429E-1,8.999833E-1,-1.6539061E-1,-5.1322903E-2,-3.703153E-1,3.5704043E-2,2.6201862E-1,-4.7047725E-1,1.846581E-2,-9.637196E-3,5.7272326E-2,-1.3686582E-3,1.9469483E-2,-3.551129E-2,-2.661339E-2,-6.095857E-4,2.9287139E-2,-1.2859147E-3,1.3922373E-2,-3.3671647E-2],"categories":[],"categories_nodes":[],"categories_segments":[],"categories_sizes":[],"default_left":[0,0,0,0,0,0,0,0,0,0,0,0,0,0,0,0,0,0,0,0,0,0,0,0,0,0,0],"id":6,"left_children":[1,3,5,7,9,11,13,15,17,19,-1,21,-1,23,25,-1,-1,-1,-1,-1,-1,-1,-1,-1,-1,-1,-1],"loss_changes":[1.1084791E1,1.3571053E1,8.397036E0,1.3441468E1,3.8544183E0,7.483245E0,1.6456064E1,1.2517732E1,6.557251E0,4.7395706E0,0E0,6.9683304E0,0E0,9.411463E0,7.009551E0,0E0,0E0,0E0,0E0,0E0,0E0,0E0,0E0,0E0,0E0,0E0,0E0],"parents":[2147483647,0,0,1,1,2,2,3,3,4,4,5,5,6,6,7,7,8,8,9,9,11,11,13,13,14,14],"right_children":[2,4,6,8,10,12,14,16,18,20,-1,22,-1,24,26,-1,-1,-1,-1,-1,-1,-1,-1,-1,-1,-1,-1],"split_conditions":[0E0,9.91514E1,6.234898E-1,2.0705882E-2,1.8181818E-3,9.9998E1,7.0710677E-1,-1.8407732E-3,5.9508737E-3,1.1583012E-2,-5.1322903E-2,3.3695246E-3,3.5704043E-2,-2.6462687E-4,4.8899755E-4,1.846581E-2,-9.637196E-3,5.7272326E-2,-1.3686582E-3,1.9469483E-2,-3.551129E-2,-2.661339E-2,-6.095857E-4,2.9287139E-2,-1.2859147E-3,1.3922373E-2,-3.3671647E-2],"split_indices":[0,4,14,6,3,4,9,8,2,6,0,3,0,1,3,0,0,0,0,0,0,0,0,0,0,0,0],"split_type":[0,0,0,0,0,0,0,0,0,0,0,0,0,0,0,0,0,0,0,0,0,0,0,0,0,0,0],"sum_hessian":[4.78099E2,2.1185724E2,2.6624176E2,1.9066803E2,2.1189201E1,1.2461108E2,1.4163068E2,1.6381386E2,2.6854183E1,1.2754757E1,8.434444E0,1.1928293E2,5.3281474E0,9.899521E1,4.263547E1,1.0025996E2,6.3553898E1,2.0997486E1,5.8566966E0,6.4862757E0,6.2684817E0,8.153964E1,3.774329E1,4.593517E1,5.3060036E1,8.919056E0,3.3716415E1],"tree_param":{"num_deleted":"0","num_feature":"22","num_nodes":"27","size_leaf_vector":"1"}},{"base_weights":[1.5681196E-2,9.7662705E-1,-1.6624508E-2,7.0436224E-2,1.4992897E-2,8.287666E-2,-2.6204687E-1,-1.215824E-2,4.875726E-1,-3.4871435E-1,3.324364E-1,-8.802318E-3,1.0470909E-2,3.6945608E-2,-2.583211E-3,-8.133414E-3,-3.6760747E-2,-4.6977457E-3,5.4746266E-2],"categories":[],"categories_nodes":[],"categories_segments":[],"categories_sizes":[],"default_left":[0,0,0,0,0,0,0,0,0,0,0,0,0,0,0,0,0,0,0],"id":7,"left_children":[1,3,5,-1,-1,7,9,11,13,15,17,-1,-1,-1,-1,-1,-1,-1,-1],"loss_changes":[1.5032436E1,3.8865147E0,1.1461448E1,0E0,0E0,1.2868376E1,7.15133E0,9.917725E0,8.712052E0,8.331633E0,6.031662E0,0E0,0E0,0E0,0E0,0E0,0E0,0E0,0E0],"parents":[2147483647,0,0,1,1,2,2,5,5,6,6,7,7,8,8,9,9,10,10],"right_children":[2,4,6,-1,-1,8,10,12,14,16,18,-1,-1,-1,-1,-1,-1,-1,-1],"split_conditions":[-4.5202557E-2,2.4935553E0,7.0710677E-1,7.0436224E-2,1.4992897E-2,5.8035715E-3,1E0,6.234898E-1,0E0,4.249292E-3,-3.7837839E-3,-8.802318E-3,1.0470909E-2,3.6945608E-2,-2.583211E-3,-8.133414E-3,-3.6760747E-2,-4.6977457E-3,5.4746266E-2],"split_indices":[8,12,9,0,0,3,17,14,13,3,8,0,0,0,0,0,0,0,0],"split_type":[0,0,0,0,0,0,0,0,0,0,0,0,0,0,0,0,0,0,0],"sum_hessian":[4.8039877E2,1.4249299E1,4.6614948E2,7.6614747E0,6.5878243E0,3.322398E2,1.3390968E2,2.7013522E2,6.2104572E1,1.1748606E2,1.642362E1,1.5558862E2,1.14546616E2,4.2044716E1,2.0059856E1,8.083565E1,3.665041E1,1.1334723E1,5.0888963E0],"tree_param":{"num_deleted":"0","num_feature":"22","num_nodes":"19","size_leaf_vector":"1"}},{"base_weights":[-9.672495E-3,5.3471502E-2,-2.9576527E-2,-3.8532077E-3,-5.5577535E-2,-7.8786224E-2,2.9101208E-1,-4.7830105E-4,-2.7148416E-2,3.201463E-2,3.981317E-3],"categories":[],"categories_nodes":[],"categories_segments":[],"categories_sizes":[],"default_left":[0,0,0,0,0,0,0,0,0,0,0],"id":8,"left_children":[1,-1,3,5,-1,7,9,-1,-1,-1,-1],"loss_changes":[1.0325058E1,0E0,1.3122448E1,1.0281946E1,0E0,1.1901536E1,6.8470836E0,0E0,0E0,0E0,0E0],"parents":[2147483647,0,0,2,2,3,3,5,5,6,6],"right_children":[2,-1,4,6,-1,8,10,-1,-1,-1,-1],"split_conditions":[-6.8188064E-2,5.3471502E-2,1.4906118E-2,5.70523E-3,-5.5577535E-2,9.749279E-1,8.424995E-3,-4.7830105E-4,-2.7148416E-2,3.201463E-2,3.981317E-3],"split_indices":[8,0,2,3,0,0,3,0,0,0,0],"split_type":[0,0,0,0,0,0,0,0,0,0,0],"sum_hessian":[4.794279E2,7.2049255E0,4.7222296E2,4.6277237E2,9.450596E0,3.700115E2,9.276087E1,3.234207E2,4.659082E1,3.3736588E1,5.902428E1],"tree_param":{"num_deleted":"0","num_feature":"22","num_nodes":"11","size_leaf_vector":"1"}},{"base_weights":[-9.61619E-3,5.4082807E-2,-3.633761E-2,-5.3636312E-2,-1.8721407E-2,1.0110521E-1,-1.7567562E-1,-3.2949798E-2,7.741553E-3,1.1150226E-3,-2.9206727E-2],"categories":[],"categories_nodes":[],"categories_segments":[],"categories_sizes":[],"default_left":[0,0,0,0,0,0,0,0,0,0,0],"id":9,"left_children":[1,-1,3,-1,5,7,9,-1,-1,-1,-1],"loss_changes":[1.3895451E1,0E0,8.4305E0,0E0,8.685114E0,1.0815962E1,1.6216948E1,0E0,0E0,0E0,0E0],"parents":[2147483647,0,0,2,2,4,4,5,5,6,6],"right_children":[2,-1,4,-1,6,8,10,-1,-1,-1,-1],"split_conditions":[-7.5677045E-2,5.4082807E-2,2.3337222E-4,-5.3636312E-2,4.3388373E-1,-1.1744107E-3,1.2246469E-16,-3.2949798E-2,7.741553E-3,1.1150226E-3,-2.9206727E-2],"split_indices":[6,0,3,0,0,7,13,0,0,0,0],"split_type":[0,0,0,0,0,0,0,0,0,0,0],"sum_hessian":[4.7478925E2,9.887927E0,4.649013E2,6.221158E0,4.5868015E2,2.6022595E2,1.9845421E2,1.6002111E1,2.4422385E2,1.3453976E2,6.3914433E1],"tree_param":{"num_deleted":"0","num_feature":"22","num_nodes":"11","size_leaf_vector":"1"}},{"base_weights":[2.513528E-2,-5.626749E-2,4.2106517E-2,1.7782767E-1,-9.11575E-2,3.855182E-1,1.1515102E-2,6.555861E-2,-3.6284888E-1,4.3327317E-2,1.1105749E-2,1.8591812E-2,-8.090902E-3,-2.0339346E-2,8.569072E-3,-2.9802142E-2,1.1904539E-3],"categories":[],"categories_nodes":[],"categories_segments":[],"categories_sizes":[],"default_left":[0,0,0,0,0,0,0,0,0,0,0,0,0,0,0,0,0],"id":10,"left_children":[1,-1,3,5,7,9,11,13,15,-1,-1,-1,-1,-1,-1,-1,-1],"loss_changes":[9.326984E0,0E0,8.554408E0,8.064226E0,1.0211866E1,7.8297653E0,8.329472E0,7.715642E0,7.952692E0,0E0,0E0,0E0,0E0,0E0,0E0,0E0,0E0],"parents":[2147483647,0,0,2,2,3,3,4,4,5,5,6,6,7,7,8,8],"right_children":[2,-1,4,6,8,10,12,14,16,-1,-1,-1,-1,-1,-1,-1,-1],"split_conditions":[2.3337222E-4,-5.626749E-2,-2.5881904E-1,-5.2213394E-3,4.3388373E-1,2.3151515E0,-2.2252093E-1,-1.7061282E-2,1E0,4.3327317E-2,1.1105749E-2,1.8591812E-2,-8.090902E-3,-2.0339346E-2,8.569072E-3,-2.9802142E-2,1.1904539E-3],"split_indices":[3,0,13,8,0,12,14,8,20,0,0,0,0,0,0,0,0],"split_type":[0,0,0,0,0,0,0,0,0,0,0,0,0,0,0,0,0],"sum_hessian":[4.7532443E2,5.442838E0,4.698816E2,2.3273203E2,2.3714955E2,1.02478966E2,1.3025307E2,1.510027E2,8.614685E1,2.427051E1,7.820846E1,4.1842476E1,8.841058E1,2.67709E1,1.24231804E2,5.331159E1,3.2835262E1],"tree_param":{"num_deleted":"0","num_feature":"22","num_nodes":"17","size_leaf_vector":"1"}},{"base_weights":[-4.178593E-3,5.390795E-2,-2.6143638E-2,6.656894E-2,-2.6558265E-1,-5.866222E-2,4.604473E-1,-3.4871307E-1,3.220149E-1,4.966113E-3,-1.3781366E-2,3.5151776E-2,9.085841E-3,-3.3728573E-2,-8.384738E-3,-1.0564679E-2,4.3268327E-2],"categories":[],"categories_nodes":[],"categories_segments":[],"categories_sizes":[],"default_left":[0,0,0,0,0,0,0,0,0,0,0,0,0,0,0,0,0],"id":11,"left_children":[1,-1,3,5,7,9,11,13,15,-1,-1,-1,-1,-1,-1,-1,-1],"loss_changes":[1.1312552E1,0E0,1.0432615E1,1.676455E1,6.5771036E0,8.899668E0,5.3060856E0,6.6134033E0,5.222323E0,0E0,0E0,0E0,0E0,0E0,0E0,0E0,0E0],"parents":[2147483647,0,0,2,2,3,3,4,4,5,5,6,6,7,7,8,8],"right_children":[2,-1,4,6,8,10,12,14,16,-1,-1,-1,-1,-1,-1,-1,-1],"split_conditions":[-6.8188064E-2,5.390795E-2,7.0710677E-1,4.8010973E-3,1E0,1.1583011E-3,1.2844865E1,-1.4323228E-3,-6.8829893E-3,4.966113E-3,-1.3781366E-2,3.5151776E-2,9.085841E-3,-3.3728573E-2,-8.384738E-3,-1.0564679E-2,4.3268327E-2],"split_indices":[8,0,9,3,17,3,12,5,5,0,0,0,0,0,0,0,0],"split_type":[0,0,0,0,0,0,0,0,0,0,0,0,0,0,0,0,0],"sum_hessian":[4.7477936E2,7.9636307E0,4.6681573E2,3.3714487E2,1.2967087E2,2.5668356E2,8.046128E1,1.1420817E2,1.5462701E1,1.488676E2,1.0781598E2,4.1703003E1,3.875828E1,3.922737E1,7.49808E1,8.219651E0,7.243049E0],"tree_param":{"num_deleted":"0","num_feature":"22","num_nodes":"17","size_leaf_vector":"1"}},{"base_weights":[6.122244E-3,2.3576213E-2,-4.6659783E-2,4.508341E-2,3.6426785E-3,-5.236625E-1,3.4115106E-2,-4.3715592E-2,1.2768829E-2,-5.280395E-3,8.618258E-3],"categories":[],"categories_nodes":[],"categories_segments":[],"categories_sizes":[],"default_left":[0,0,0,0,0,0,0,0,0,0,0],"id":12,"left_children":[1,3,-1,-1,5,7,9,-1,-1,-1,-1],"loss_changes":[7.840714E0,8.2076235E0,0E0,0E0,7.439856E0,7.274215E0,8.512253E0,0E0,0E0,0E0,0E0],"parents":[2147483647,0,0,1,1,4,4,5,5,6,6],"right_children":[2,4,-1,-1,6,8,10,-1,-1,-1,-1],"split_conditions":[2.334419E-2,-7.5677045E-2,-4.6659783E-2,4.508341E-2,-1.1744107E-3,6.592674E0,2.215249E-3,-4.3715592E-2,1.2768829E-2,-5.280395E-3,8.618258E-3],"split_indices":[11,6,0,0,7,12,2,0,0,0,0],"split_type":[0,0,0,0,0,0,0,0,0,0,0],"sum_hessian":[4.775044E2,4.7028143E2,7.22297E0,8.910402E0,4.6137103E2,2.3789606E1,4.3758142E2,1.6323195E1,7.4664116E0,2.1762762E2,2.1995378E2],"tree_param":{"num_deleted":"0","num_feature":"22","num_nodes":"11","size_leaf_vector":"1"}},{"base_weights":[2.634871E-3,1.7435096E-1,-1.2900157E-1,7.693791E-2,6.6855496E-1,5.7259616E-2,-3.0287543E-1,3.4227076E-1,-2.4093658E-1,1.0723451E0,2.0690168E-1,-1.3953942E-1,5.0769734E-1,-7.5942034E-1,-2.3069306E-1,6.626387E-3,3.305475E-2,3.8848314E-3,-2.5215877E-2,2.9421374E-2,7.618688E-2,2.6529212E-2,-2.16483E-2,4.3285806E-2,-1.25098275E-2,3.0486638E-2,-2.730342E-3,-4.773757E-2,-1.446265E-2,-2.3061659E-3,-2.0778669E-2],"categories":[],"categories_nodes":[],"categories_segments":[],"categories_sizes":[],"default_left":[0,0,0,0,0,0,0,0,0,0,0,0,0,0,0,0,0,0,0,0,0,0,0,0,0,0,0,0,0,0,0],"id":13,"left_children":[1,3,5,7,9,11,13,15,17,19,21,23,25,27,29,-1,-1,-1,-1,-1,-1,-1,-1,-1,-1,-1,-1,-1,-1,-1,-1],"loss_changes":[1.0915998E1,9.979476E0,8.884798E0,1.505116E1,5.986642E0,1.1914923E1,4.355856E0,6.3246393E0,6.901943E0,2.4486256E0,4.0554585E0,1.0712986E1,2.4210024E0,1.2308064E0,4.1987247E0,0E0,0E0,0E0,0E0,0E0,0E0,0E0,0E0,0E0,0E0,0E0,0E0,0E0,0E0,0E0,0E0],"parents":[2147483647,0,0,1,1,2,2,3,3,4,4,5,5,6,6,7,7,8,8,9,9,10,10,11,11,12,12,13,13,14,14],"right_children":[2,4,6,8,10,12,14,16,18,20,22,24,26,28,30,-1,-1,-1,-1,-1,-1,-1,-1,-1,-1,-1,-1,-1,-1,-1,-1],"split_conditions":[0E0,1.966906E-2,-1.9928518E-4,-1.8407732E-3,-1.8369701E-16,-9.5347496E-5,1.565446E0,5.403719E-1,4.573805E-3,3.785489E-2,4.8584067E-3,6.8376416E-1,1.966906E-2,3.228515E-3,6.123234E-17,6.626387E-3,3.305475E-2,3.8848314E-3,-2.5215877E-2,2.9421374E-2,7.618688E-2,2.6529212E-2,-2.16483E-2,4.3285806E-2,-1.25098275E-2,3.0486638E-2,-2.730342E-3,-4.773757E-2,-1.446265E-2,-2.3061659E-3,-2.0778669E-2],"split_indices":[0,6,1,8,9,7,12,10,6,6,2,12,6,1,9,0,0,0,0,0,0,0,0,0,0,0,0,0,0,0,0],"split_type":[0,0,0,0,0,0,0,0,0,0,0,0,0,0,0,0,0,0,0,0,0,0,0,0,0,0,0,0,0,0,0],"sum_hessian":[4.7982843E2,2.081698E2,2.7165863E2,1.7542607E2,3.274372E1,1.3150417E2,1.4015448E2,9.563817E1,7.978791E1,1.635024E1,1.639348E1,9.216223E1,3.9341934E1,1.708977E1,1.2306471E2,5.9063046E1,3.657512E1,3.6499355E1,4.3288555E1,9.611898E0,6.7383432E0,1.1108486E1,5.2849946E0,8.079324E0,8.408291E1,3.3267612E1,6.074324E0,1.0906375E1,6.1833935E0,6.2657322E1,6.040739E1],"tree_param":{"num_deleted":"0","num_feature":"22","num_nodes":"31","size_leaf_vector":"1"}},{"base_weights":[-2.2671968E-2,-9.304705E-2,1.9040987E-1,-4.227936E-1,-4.2170573E-2,4.2743328E-1,-2.297314E-1,-6.58779E-1,-2.2066703E-2,5.166351E-2,-3.172156E-1,6.752761E-1,1.4206389E-1,4.6710066E-2,-4.2268312E-1,-5.9523364E-3,-4.1682232E-2,-1.8492332E-2,2.4599671E-2,-4.381184E-2,4.0573077E-3,-1.2298893E-4,-2.9135196E-2,-2.692971E-3,4.2969573E-2,-3.8024757E-2,1.5986478E-2,-1.1278274E-2,-5.576066E-2],"categories":[],"categories_nodes":[],"categories_segments":[],"categories_sizes":[],"default_left":[0,0,0,0,0,0,0,0,0,0,0,0,0,0,0,0,0,0,0,0,0,0,0,0,0,0,0,0,0],"id":14,"left_children":[1,3,5,7,9,11,13,15,17,19,21,23,25,-1,27,-1,-1,-1,-1,-1,-1,-1,-1,-1,-1,-1,-1,-1,-1],"loss_changes":[7.2453623E0,6.044898E0,1.20985985E1,4.508251E0,8.207286E0,5.2798862E0,1.0481968E1,2.658062E0,3.756363E0,6.555239E0,6.7260447E0,5.594633E0,6.42117E0,0E0,4.8714633E0,0E0,0E0,0E0,0E0,0E0,0E0,0E0,0E0,0E0,0E0,0E0,0E0,0E0,0E0],"parents":[2147483647,0,0,1,1,2,2,3,3,4,4,5,5,6,6,7,7,8,8,9,9,10,10,11,11,12,12,14,14],"right_children":[2,4,6,8,10,12,14,16,18,20,22,24,26,-1,28,-1,-1,-1,-1,-1,-1,-1,-1,-1,-1,-1,-1,-1,-1],"split_conditions":[5.1177074E-3,4.8705226E-1,7.0710677E-1,2.5881904E-1,4.6069683E-3,-4.98008E-4,-4.850322E-2,1.059819E-3,2.215249E-3,2.3809524E-4,1E0,-1.7977528E-2,4.4350853E1,4.6710066E-2,7.143847E-3,-5.9523364E-3,-4.1682232E-2,-1.8492332E-2,2.4599671E-2,-4.381184E-2,4.0573077E-3,-1.2298893E-4,-2.9135196E-2,-2.692971E-3,4.2969573E-2,-3.8024757E-2,1.5986478E-2,-1.1278274E-2,-5.576066E-2],"split_indices":[3,4,9,13,11,11,8,4,2,3,20,11,4,0,2,0,0,0,0,0,0,0,0,0,0,0,0,0,0],"split_type":[0,0,0,0,0,0,0,0,0,0,0,0,0,0,0,0,0,0,0,0,0,0,0,0,0,0,0,0,0],"sum_hessian":[4.8021658E2,3.618027E2,1.18413864E2,4.6763783E1,3.1503894E2,7.576428E1,4.264958E1,2.8745205E1,1.8018576E1,2.3567332E2,7.9365616E1,3.935759E1,3.6406693E1,5.208576E0,3.7441E1,7.721009E0,2.1024197E1,1.10565195E1,6.9620557E0,5.8786726E0,2.2979465E2,3.7092255E1,4.227336E1,8.093857E0,3.1263735E1,5.1322417E0,3.127445E1,3.0749434E1,6.69157E0],"tree_param":{"num_deleted":"0","num_feature":"22","num_nodes":"29","size_leaf_vector":"1"}},{"base_weights":[-1.9346505E-2,1.0648575E-1,-1.4588404E-1,-4.0204033E-2,3.306898E-1,-2.0767522E-1,3.6448345E-1,1.3556568E-1,-3.4401357E-1,9.5869523E-1,2.1641135E-1,1.4388962E-1,-3.226995E-1,8.0731416E-1,-2.0562062E-1,-1.2510458E-2,1.6478268E-2,4.027325E-3,-3.2302104E-2,1.9029967E-2,6.0785033E-2,-1.3034326E-2,1.7839335E-2,2.3494408E-2,-1.5670413E-2,-2.0920353E-2,5.8632293E-3,5.3774145E-2,1.3407088E-2,-2.9024461E-2,1.1761411E-2],"categories":[],"categories_nodes":[],"categories_segments":[],"categories_sizes":[],"default_left":[0,0,0,0,0,0,0,0,0,0,0,0,0,0,0,0,0,0,0,0,0,0,0,0,0,0,0,0,0,0,0],"id":15,"left_children":[1,3,5,7,9,11,13,15,17,19,21,23,25,27,29,-1,-1,-1,-1,-1,-1,-1,-1,-1,-1,-1,-1,-1,-1,-1,-1],"loss_changes":[7.6709185E0,7.974697E0,7.6822557E0,7.9380355E0,6.504176E0,8.786865E0,6.9448195E0,7.176657E0,7.089486E0,1.342082E0,5.705861E0,8.281605E0,6.945015E0,1.7000551E0,2.3190699E0,0E0,0E0,0E0,0E0,0E0,0E0,0E0,0E0,0E0,0E0,0E0,0E0,0E0,0E0,0E0,0E0],"parents":[2147483647,0,0,1,1,2,2,3,3,4,4,5,5,6,6,7,7,8,8,9,9,10,10,11,11,12,12,13,13,14,14],"right_children":[2,4,6,8,10,12,14,16,18,20,22,24,26,28,30,-1,-1,-1,-1,-1,-1,-1,-1,-1,-1,-1,-1,-1,-1,-1,-1],"split_conditions":[-2.5881904E-1,3.2732969E-3,2.1152114E-2,1E0,9.90099E-1,-1.6289594E-2,2.7530717E-3,-1.5499255E-2,1.16146504E-4,3.3175346E-1,-8.5399154E-4,8.660254E-1,1E0,2.5041737E-2,5.1696254E-3,-1.2510458E-2,1.6478268E-2,4.027325E-3,-3.2302104E-2,1.9029967E-2,6.0785033E-2,-1.3034326E-2,1.7839335E-2,2.3494408E-2,-1.5670413E-2,-2.0920353E-2,5.8632293E-3,5.3774145E-2,1.3407088E-2,-2.9024461E-2,1.1761411E-2],"split_indices":[13,2,6,20,15,6,1,6,7,10,7,9,14,8,1,0,0,0,0,0,0,0,0,0,0,0,0,0,0,0,0],"split_type":[0,0,0,0,0,0,0,0,0,0,0,0,0,0,0,0,0,0,0,0,0,0,0,0,0,0,0,0,0,0,0],"sum_hessian":[4.7867865E2,2.3992924E2,2.387494E2,1.4564574E2,9.428351E1,2.1384622E2,2.4903175E1,9.2687355E1,5.295839E1,1.2741683E1,8.1541824E1,5.2517742E1,1.6132848E2,1.3714197E1,1.1188979E1,3.078266E1,6.1904694E1,2.2402178E1,3.0556213E1,5.1264296E0,7.6152534E0,1.8164343E1,6.3377483E1,3.0700214E1,2.1817528E1,1.326579E2,2.8670588E1,8.10048E0,5.6137166E0,5.851521E0,5.337458E0],"tree_param":{"num_deleted":"0","num_feature":"22","num_nodes":"31","size_leaf_vector":"1"}},{"base_weights":[4.358383E-3,1.5900567E-1,-1.1899564E-1,4.5898754E-2,7.5945115E-1,-5.085352E-2,-5.167199E-1,5.225724E-2,-6.2154382E-3,1.6206597E-1,1.0817161E0,-2.2845192E-1,1.1901763E-1,-6.4595014E-1,8.13996E-3,1.421938E-2,-8.757765E-3,-1.334054E-2,2.60124E-2,6.538709E-2,2.9028738E-2,-0E0,-3.23927E-2,1.0655417E-2,-3.3728104E-2,-6.995921E-3,-4.136319E-2],"categories":[],"categories_nodes":[],"categories_segments":[],"categories_sizes":[],"default_left":[0,0,0,0,0,0,0,0,0,0,0,0,0,0,0,0,0,0,0,0,0,0,0,0,0,0,0],"id":16,"left_children":[1,3,5,7,9,11,13,-1,15,17,19,21,23,25,-1,-1,-1,-1,-1,-1,-1,-1,-1,-1,-1,-1,-1],"loss_changes":[9.070625E0,1.4244104E1,7.095179E0,9.398894E0,6.084711E0,6.9069896E0,3.5529032E0,0E0,8.506584E0,2.292555E0,1.1804237E0,1.0683361E1,8.934486E0,2.7707005E0,0E0,0E0,0E0,0E0,0E0,0E0,0E0,0E0,0E0,0E0,0E0,0E0,0E0],"parents":[2147483647,0,0,1,1,2,2,3,3,4,4,5,5,6,6,8,8,9,9,10,10,11,11,12,12,13,13],"right_children":[2,4,6,8,10,12,14,-1,16,18,20,22,24,26,-1,-1,-1,-1,-1,-1,-1,-1,-1,-1,-1,-1,-1],"split_conditions":[0E0,2.0705882E-2,1.7426273E-2,-5.3051457E-2,4.726969E-4,6.234898E-1,9.989517E1,5.225724E-2,-3.1816736E-3,0E0,7.0710677E-1,1.2246469E-16,8.299799E-3,3.9076377E-3,8.13996E-3,1.421938E-2,-8.757765E-3,-1.334054E-2,2.60124E-2,6.538709E-2,2.9028738E-2,-0E0,-3.23927E-2,1.0655417E-2,-3.3728104E-2,-6.995921E-3,-4.136319E-2],"split_indices":[0,6,6,8,7,14,4,0,11,13,9,13,11,5,0,0,0,0,0,0,0,0,0,0,0,0,0],"split_type":[0,0,0,0,0,0,0,0,0,0,0,0,0,0,0,0,0,0,0,0,0,0,0,0,0,0,0],"sum_hessian":[4.7239758E2,2.0959853E2,2.6279907E2,1.7780334E2,3.179518E1,2.2591121E2,3.6887867E1,7.444196E0,1.7035915E2,1.1986044E1,1.9809135E1,1.1033463E2,1.1557658E2,3.1117632E1,5.770235E0,6.2142796E1,1.0821635E2,5.5653305E0,6.4207134E0,1.1919234E1,7.889901E0,7.2474464E1,3.786017E1,1.0436298E2,1.1213593E1,8.982242E0,2.2135391E1],"tree_param":{"num_deleted":"0","num_feature":"22","num_nodes":"27","size_leaf_vector":"1"}},{"base_weights":[-5.1995935E-3,3.0258054E-1,-7.794803E-2,-1.9328255E-2,6.974456E-1,-5.3082388E-2,-5.9923444E-2,4.8757964E-1,-3.6712462E-1,1.4450076E-1,1.123167E0,9.422344E-2,-1.8234384E-1,2.0421057E-3,6.020266E-2,1.9477567E-3,-3.5854265E-2,-2.3774434E-2,2.3072274E-2,2.5564656E-2,7.506158E-2,9.27843E-3,-2.3215849E-2,2.097386E-3,-1.6593648E-2],"categories":[],"categories_nodes":[],"categories_segments":[],"categories_sizes":[],"default_left":[0,0,0,0,0,0,0,0,0,0,0,0,0,0,0,0,0,0,0,0,0,0,0,0,0],"id":17,"left_children":[1,3,5,7,9,-1,11,13,15,17,19,21,23,-1,-1,-1,-1,-1,-1,-1,-1,-1,-1,-1,-1],"loss_changes":[1.0647132E1,1.160571E1,6.6759596E0,9.333842E0,9.32678E0,0E0,7.1967854E0,6.753118E0,4.542455E0,4.1748967E0,4.0337734E0,8.733199E0,7.1575904E0,0E0,0E0,0E0,0E0,0E0,0E0,0E0,0E0,0E0,0E0,0E0,0E0],"parents":[2147483647,0,0,1,1,2,2,3,3,4,4,6,6,7,7,8,8,9,9,10,10,11,11,12,12],"right_children":[2,4,6,8,10,-1,12,14,16,18,20,22,24,-1,-1,-1,-1,-1,-1,-1,-1,-1,-1,-1,-1],"split_conditions":[-7.4142725E-3,4.429937E-3,2.3337222E-4,0E0,-1.6995242E-2,-5.3082388E-2,0E0,-9.536785E-3,-2.5881904E-1,3.6215445E-1,9.604093E0,9.879537E1,-1.9928518E-4,2.0421057E-3,6.020266E-2,1.9477567E-3,-3.5854265E-2,-2.3774434E-2,2.3072274E-2,2.5564656E-2,7.506158E-2,9.27843E-3,-2.3215849E-2,2.097386E-3,-1.6593648E-2],"split_indices":[11,3,3,0,11,0,0,6,13,10,4,4,1,0,0,0,0,0,0,0,0,0,0,0,0],"split_type":[0,0,0,0,0,0,0,0,0,0,0,0,0,0,0,0,0,0,0,0,0,0,0,0,0],"sum_hessian":[4.7294113E2,8.937826E1,3.835629E2,4.995391E1,3.942435E1,5.289007E0,3.782739E2,2.0023434E1,2.9930477E1,1.8074726E1,2.1349623E1,1.6741219E2,2.108617E2,1.3352894E1,6.6705394E0,1.4405313E1,1.5525165E1,5.807103E0,1.2267624E1,9.551675E0,1.1797948E1,1.4481924E2,2.2592953E1,8.464308E1,1.26218605E2],"tree_param":{"num_deleted":"0","num_feature":"22","num_nodes":"25","size_leaf_vector":"1"}},{"base_weights":[-3.4315747E-3,-5.305145E-2,1.1967588E-2,4.519871E-2,-4.943904E-3,1.4895165E-2,-5.630678E-2,-2.845915E-2,1.9360414E-3],"categories":[],"categories_nodes":[],"categories_segments":[],"categories_sizes":[],"default_left":[0,0,0,0,0,0,0,0,0],"id":18,"left_children":[1,-1,3,-1,5,7,-1,-1,-1],"loss_changes":[7.8950186E0,0E0,7.215933E0,0E0,1.0480013E1,6.4194727E0,0E0,0E0,0E0],"parents":[2147483647,0,0,2,2,4,4,5,5],"right_children":[2,-1,4,-1,6,8,-1,-1,-1],"split_conditions":[2.3337222E-4,-5.305145E-2,-6.8188064E-2,4.519871E-2,1.5798248E-2,-5.783812E-3,-5.630678E-2,-2.845915E-2,1.9360414E-3],"split_indices":[3,0,8,0,2,1,0,0,0],"split_type":[0,0,0,0,0,0,0,0,0],"sum_hessian":[4.7887967E2,5.457521E0,4.7342215E2,7.3996553E0,4.660225E2,4.593303E2,6.6922016E0,1.6574682E1,4.427556E2],"tree_param":{"num_deleted":"0","num_feature":"22","num_nodes":"9","size_leaf_vector":"1"}},{"base_weights":[1.0274733E-2,-2.20424E-2,5.7296234E-1,1.9676444E-1,-9.150533E-2,7.761736E-1,-5.5030077E-3,6.0438335E-1,8.150379E-3,-7.0289165E-2,-4.7481116E-2,1.0089183E0,1.7765464E-2,-1.09529905E-2,4.3915328E-2,-1.0209E-2,1.6101016E-2,-1.7122418E-2,-8.0273673E-4,2.7064947E-2,6.1733015E-2],"categories":[],"categories_nodes":[],"categories_segments":[],"categories_sizes":[],"default_left":[0,0,0,0,0,0,0,0,0,0,0,0,0,0,0,0,0,0,0,0,0],"id":19,"left_children":[1,3,5,7,9,11,-1,13,15,17,-1,19,-1,-1,-1,-1,-1,-1,-1,-1,-1],"loss_changes":[8.678653E0,6.8654995E0,3.7594328E0,8.327116E0,6.0930467E0,1.3748226E0,0E0,8.061655E0,5.1687307E0,4.938865E0,0E0,1.89044E-1,0E0,0E0,0E0,0E0,0E0,0E0,0E0,0E0,0E0],"parents":[2147483647,0,0,1,1,2,2,3,3,4,4,5,5,7,7,8,8,9,9,11,11],"right_children":[2,4,6,8,10,12,-1,14,16,18,-1,20,-1,-1,-1,-1,-1,-1,-1,-1,-1],"split_conditions":[3.670588E-2,-1.8936659E-3,8.84043E-3,4.432889E0,2.2406068E-2,4.760286E-3,-5.5030077E-3,-6.5124854E-3,8.29691E0,-6.26506E-3,-4.7481116E-2,8.4062645E1,1.7765464E-2,-1.09529905E-2,4.3915328E-2,-1.0209E-2,1.6101016E-2,-1.7122418E-2,-8.0273673E-4,2.7064947E-2,6.1733015E-2],"split_indices":[6,1,2,12,11,11,0,1,4,5,0,4,0,0,0,0,0,0,0,0,0],"split_type":[0,0,0,0,0,0,0,0,0,0,0,0,0,0,0,0,0,0,0,0,0],"sum_hessian":[4.7320026E2,4.4877774E2,2.4422506E1,1.0730388E2,3.4147388E2,1.8721241E1,5.7012663E0,3.281497E1,7.448891E1,3.3487552E2,6.5983577E0,1.0628711E1,8.092529E0,8.22066E0,2.4594309E1,4.464909E1,2.983982E1,5.4166077E1,2.8070944E2,5.191964E0,5.4367466E0],"tree_param":{"num_deleted":"0","num_feature":"22","num_nodes":"21","size_leaf_vector":"1"}},{"base_weights":[-6.115181E-3,-3.297757E-1,3.9809138E-2,-9.672644E-1,-8.064594E-2,1.1773147E-1,-1.4896129E-1,-6.5886684E-2,-2.1011865E-2,4.232454E-1,-3.4637147E-1,2.2913265E-1,-4.758597E-2,-4.219167E-1,6.77015E-2,4.1703437E-2,-1.2333221E-2,-3.9389577E-2,1.6113569E-3,-1.715651E-2,1.4200769E-2,-7.5115464E-3,2.8538197E-2,-5.4790128E-2,-1.1840856E-2,-1.0742125E-2,1.829947E-2],"categories":[],"categories_nodes":[],"categories_segments":[],"categories_sizes":[],"default_left":[0,0,0,0,0,0,0,0,0,0,0,0,0,0,0,0,0,0,0,0,0,0,0,0,0,0,0],"id":20,"left_children":[1,3,5,7,9,11,13,-1,-1,15,17,19,21,23,25,-1,-1,-1,-1,-1,-1,-1,-1,-1,-1,-1,-1],"loss_changes":[7.21739E0,9.414751E0,6.267695E0,2.2963886E0,6.2525277E0,5.5768642E0,7.42229E0,0E0,0E0,4.7898235E0,5.157524E0,5.8129835E0,7.8772464E0,6.453762E0,6.0745416E0,0E0,0E0,0E0,0E0,0E0,0E0,0E0,0E0,0E0,0E0,0E0,0E0],"parents":[2147483647,0,0,1,1,2,2,3,3,4,4,5,5,6,6,9,9,10,10,11,11,12,12,13,13,14,14],"right_children":[2,4,6,8,10,12,14,-1,-1,16,18,20,22,24,26,-1,-1,-1,-1,-1,-1,-1,-1,-1,-1,-1,-1],"split_conditions":[4.8705226E-1,-7.0710677E-1,8.534851E-3,1.4539437E1,2.9138282E-3,0E0,4.20436E-4,-6.5886684E-2,-2.1011865E-2,2.193517E-3,2.5881904E-1,-1.1744107E-3,5.5762082E-3,3.3175346E-1,3.5944146E-1,4.1703437E-2,-1.2333221E-2,-3.9389577E-2,1.6113569E-3,-1.715651E-2,1.4200769E-2,-7.5115464E-3,2.8538197E-2,-5.4790128E-2,-1.1840856E-2,-1.0742125E-2,1.829947E-2],"split_indices":[4,13,8,12,4,13,7,0,0,3,13,7,8,10,10,0,0,0,0,0,0,0,0,0,0,0,0],"split_type":[0,0,0,0,0,0,0,0,0,0,0,0,0,0,0,0,0,0,0,0,0,0,0,0,0,0,0],"sum_hessian":[4.817652E2,5.8847008E1,4.2291818E2,1.5263994E1,4.358301E1,2.9993692E2,1.2298127E2,7.9596524E0,7.3043413E0,1.4675925E1,2.8907087E1,1.790233E2,1.2091362E2,5.3894203E1,6.908706E1,8.915529E0,5.760396E0,1.265873E1,1.6248358E1,1.4897525E1,1.6412578E2,1.0474291E2,1.6170704E1,9.964943E0,4.392926E1,3.5609272E1,3.3477787E1],"tree_param":{"num_deleted":"0","num_feature":"22","num_nodes":"27","size_leaf_vector":"1"}},{"base_weights":[8.18459E-3,1.3371387E-1,-1.02974094E-1,-3.527557E-1,1.8885663E-1,4.2588073E-1,-1.9124153E-1,-5.098038E-1,7.5429133E-3,-1.46703785E-2,3.4940714E-1,1.8622728E-1,8.07116E-1,-1.4153996E-1,-6.3812725E-2,-6.94424E-3,-5.638056E-2,3.2749337E-3,-3.9399166E-2,3.9018687E-2,4.9159834E-3,3.7895408E-2,-2.2197397E-2,6.023854E-2,7.658349E-3,4.72441E-2,-8.935765E-3],"categories":[],"categories_nodes":[],"categories_segments":[],"categories_sizes":[],"default_left":[0,0,0,0,0,0,0,0,0,0,0,0,0,0,0,0,0,0,0,0,0,0,0,0,0,0,0],"id":21,"left_children":[1,3,5,7,9,11,13,15,-1,17,19,21,23,25,-1,-1,-1,-1,-1,-1,-1,-1,-1,-1,-1,-1,-1],"loss_changes":[6.6342645E0,6.0847206E0,1.18716755E1,1.9663689E0,6.6162853E0,3.052412E0,1.13619175E1,3.846119E0,0E0,5.709383E0,1.2065504E1,9.308284E0,3.1730356E0,8.666422E0,0E0,0E0,0E0,0E0,0E0,0E0,0E0,0E0,0E0,0E0,0E0,0E0,0E0],"parents":[2147483647,0,0,1,1,2,2,3,3,4,4,5,5,6,6,7,7,9,9,10,10,11,11,12,12,13,13],"right_children":[2,4,6,8,10,12,14,16,-1,18,20,22,24,26,-1,-1,-1,-1,-1,-1,-1,-1,-1,-1,-1,-1,-1],"split_conditions":[-1.8369701E-16,-7.818315E-1,-7.818315E-1,5.4174634E-3,2.215249E-3,3.8605465E-3,3.1323597E-2,1.2437811E-3,7.5429133E-3,2.2847455E-3,0E0,1.1770244E-3,6.104666E-3,-1.1161731E-1,-6.3812725E-2,-6.94424E-3,-5.638056E-2,3.2749337E-3,-3.9399166E-2,3.9018687E-2,4.9159834E-3,3.7895408E-2,-2.2197397E-2,6.023854E-2,7.658349E-3,4.72441E-2,-8.935765E-3],"split_indices":[9,0,0,11,2,2,8,6,0,1,0,3,2,6,0,0,0,0,0,0,0,0,0,0,0,0,0],"split_type":[0,0,0,0,0,0,0,0,0,0,0,0,0,0,0,0,0,0,0,0,0,0,0,0,0,0,0],"sum_hessian":[4.7235916E2,2.2190816E2,2.50451E2,2.1676409E1,2.0023175E2,3.492055E1,2.1553046E2,1.6585268E1,5.09114E0,8.8761665E1,1.11470085E2,2.2893217E1,1.2027334E1,2.0775548E2,7.77497E0,1.1561884E1,5.0233836E0,8.1609535E1,7.1521335E0,3.979862E1,7.167146E1,1.1885898E1,1.10073185E1,6.646069E0,5.3812656E0,5.6175117E0,2.0213797E2],"tree_param":{"num_deleted":"0","num_feature":"22","num_nodes":"27","size_leaf_vector":"1"}},{"base_weights":[3.5633653E-2,2.6955128E-1,-4.4784695E-2,-1.9493508E-1,3.7262106E-1,-2.5782025E-1,3.5297595E-2,1.8276131E-1,-3.4979012E-2,5.416945E-1,-7.62103E-2,-6.1096014E-3,-4.405402E-1,-4.158206E-3,7.039118E-1,-2.0713437E-2,4.0149786E-2,-5.553758E-3,3.2796465E-2,1.4837447E-2,-2.6118115E-2,-1.2700284E-2,3.2887615E-2,-3.7546005E-2,-1.1686303E-3,-3.3567206E-3,1.6786626E-2,1.2845243E-3,5.927789E-2],"categories":[],"categories_nodes":[],"categories_segments":[],"categories_sizes":[],"default_left":[0,0,0,0,0,0,0,0,0,0,0,0,0,0,0,0,0,0,0,0,0,0,0,0,0,0,0,0,0],"id":22,"left_children":[1,3,5,7,9,11,13,15,-1,17,19,21,23,25,27,-1,-1,-1,-1,-1,-1,-1,-1,-1,-1,-1,-1,-1,-1],"loss_changes":[8.915865E0,5.921693E0,6.041518E0,4.5848103E0,7.65994E0,4.421322E0,6.831589E0,5.790429E0,0E0,5.563013E0,4.993863E0,7.193293E0,7.172244E0,5.2548175E0,4.606305E0,0E0,0E0,0E0,0E0,0E0,0E0,0E0,0E0,0E0,0E0,0E0,0E0,0E0,0E0],"parents":[2147483647,0,0,1,1,2,2,3,3,4,4,5,5,6,6,7,7,9,9,10,10,11,11,12,12,13,13,14,14],"right_children":[2,4,6,8,10,12,14,16,-1,18,20,22,24,26,28,-1,-1,-1,-1,-1,-1,-1,-1,-1,-1,-1,-1,-1,-1],"split_conditions":[-1.7225095E-3,-6.1382474E-3,3.1933314E-1,-9.734633E-4,7.818315E-1,7.0326276E-2,1.058818E-3,0E0,-3.4979012E-2,-1.0606839E-3,1.2924602E1,1.2175656E-2,6.234898E-1,1E0,2.2553E-3,-2.0713437E-2,4.0149786E-2,-5.553758E-3,3.2796465E-2,1.4837447E-2,-2.6118115E-2,-1.2700284E-2,3.2887615E-2,-3.7546005E-2,-1.1686303E-3,-3.3567206E-3,1.6786626E-2,1.2845243E-3,5.927789E-2],"split_indices":[1,1,10,7,0,10,7,13,0,7,12,10,14,17,3,0,0,0,0,0,0,0,0,0,0,0,0,0,0],"split_type":[0,0,0,0,0,0,0,0,0,0,0,0,0,0,0,0,0,0,0,0,0,0,0,0,0,0,0,0,0],"sum_hessian":[4.7090402E2,1.1973057E2,3.5117346E2,2.1412512E1,9.8318054E1,9.5204605E1,2.5596886E2,1.2737184E1,8.675329E0,7.127138E1,2.7046675E1,4.0809803E1,5.4394806E1,2.430425E2,1.2926367E1,6.702724E0,6.034459E0,1.055588E1,6.07155E1,1.4944286E1,1.2102388E1,3.044323E1,1.0366572E1,3.0432545E1,2.3962261E1,2.0618973E2,3.6852764E1,6.0670195E0,6.859348E0],"tree_param":{"num_deleted":"0","num_feature":"22","num_nodes":"29","size_leaf_vector":"1"}},{"base_weights":[4.406409E-3,1.04732454E-1,-1.3694587E-1,3.690929E-1,5.669399E-3,2.7228862E-2,-5.0766635E-1,-1.3175514E-1,4.708E-1,4.2177748E-2,-3.8617894E-2,1.6101249E-1,-3.0156055E-1,-6.4690864E-1,1.5332954E-2,1.4209195E-2,-3.20323E-2,7.440414E-3,3.410127E-2,9.5499866E-4,-6.1967164E-2,-2.7727613E-3,1.7512875E-2,1.160626E-2,-2.623109E-2,-7.7027566E-4,-3.7516363E-2,2.6634365E-2,-3.30324E-2],"categories":[],"categories_nodes":[],"categories_segments":[],"categories_sizes":[],"default_left":[0,0,0,0,0,0,0,0,0,0,0,0,0,0,0,0,0,0,0,0,0,0,0,0,0,0,0,0,0],"id":23,"left_children":[1,3,5,7,9,11,13,15,17,-1,19,21,23,25,27,-1,-1,-1,-1,-1,-1,-1,-1,-1,-1,-1,-1,-1,-1],"loss_changes":[6.869242E0,7.4036493E0,1.227457E1,4.038884E0,7.8043556E0,6.2501535E0,4.5501747E0,3.277057E0,4.1944294E0,0E0,1.3877817E1,4.182178E0,5.0872498E0,3.1413326E0,5.5550485E0,0E0,0E0,0E0,0E0,0E0,0E0,0E0,0E0,0E0,0E0,0E0,0E0,0E0,0E0],"parents":[2147483647,0,0,1,1,2,2,3,3,4,4,5,5,6,6,7,7,8,8,10,10,11,11,12,12,13,13,14,14],"right_children":[2,4,6,8,10,12,14,16,18,-1,20,22,24,26,28,-1,-1,-1,-1,-1,-1,-1,-1,-1,-1,-1,-1,-1,-1],"split_conditions":[4.3388373E-1,-5E-1,1.2246469E-16,-7.818315E-1,-5.620438E-2,9.749279E-1,9.860639E1,3.3137533E-3,2.215249E-3,4.2177748E-2,1.1450151E-2,-4.661017E-3,-1.2960437E-2,-2.3674242E-2,5.719733E-3,1.4209195E-2,-3.20323E-2,7.440414E-3,3.410127E-2,9.5499866E-4,-6.1967164E-2,-2.7727613E-3,1.7512875E-2,1.160626E-2,-2.623109E-2,-7.7027566E-4,-3.7516363E-2,2.6634365E-2,-3.30324E-2],"split_indices":[0,9,13,0,8,0,4,2,2,0,2,6,6,6,11,0,0,0,0,0,0,0,0,0,0,0,0,0,0],"split_type":[0,0,0,0,0,0,0,0,0,0,0,0,0,0,0,0,0,0,0,0,0,0,0,0,0,0,0,0,0],"sum_hessian":[4.8148334E2,2.8204306E2,1.9944026E2,7.562802E1,2.0641504E2,1.3909607E2,6.0344185E1,1.26076975E1,6.302033E1,9.0602E0,1.9735484E2,9.951938E1,3.9576694E1,4.7451115E1,1.2893069E1,7.247822E0,5.359876E0,2.6071074E1,3.6949253E1,1.8967197E2,7.682875E0,4.6792297E1,5.272708E1,1.15817175E1,2.7994976E1,6.9879055E0,4.0463207E1,7.5254703E0,5.367599E0],"tree_param":{"num_deleted":"0","num_feature":"22","num_nodes":"29","size_leaf_vector":"1"}},{"base_weights":[1.4477011E-2,1.5605937E-1,-1.276142E-1,-3.6818513E-1,2.2696142E-1,4.0792767E-2,-1.559914E-1,-8.0394566E-1,1.6149336E-1,3.1877536E-1,-3.120943E-1,-6.7683095E-1,-8.536975E-2,-5.1582556E-2,-1.1187571E-2,3.2159843E-2,-1.9765368E-2,4.1188303E-2,1.2181676E-2,2.9596651E-2,-2.7582342E-2,-6.495224E-4,-4.3263964E-2,2.0968035E-2,-7.98244E-3],"categories":[],"categories_nodes":[],"categories_segments":[],"categories_sizes":[],"default_left":[0,0,0,0,0,0,0,0,0,0,0,0,0,0,0,0,0,0,0,0,0,0,0,0,0],"id":24,"left_children":[1,3,5,7,9,-1,11,13,15,17,19,21,23,-1,-1,-1,-1,-1,-1,-1,-1,-1,-1,-1,-1],"loss_changes":[9.580833E0,8.987776E0,6.518268E0,6.900981E0,1.0602642E1,0E0,8.40656E0,1.7268562E0,4.2154617E0,6.524706E0,7.291381E0,3.366087E0,7.8123217E0,0E0,0E0,0E0,0E0,0E0,0E0,0E0,0E0,0E0,0E0,0E0,0E0],"parents":[2147483647,0,0,1,1,2,2,3,3,4,4,6,6,7,7,8,8,9,9,10,10,11,11,12,12],"right_children":[2,4,6,8,10,-1,12,14,16,18,20,22,24,-1,-1,-1,-1,-1,-1,-1,-1,-1,-1,-1,-1],"split_conditions":[-2.5881904E-1,6.547801E-1,-4.3333333E-2,-1.1325302E-2,9.652377E1,4.0792767E-2,-2.0428501E-2,4.3603284E-3,-6.8524443E-3,9.62963E-1,5.352798E-3,-7.0710677E-1,-1.6289594E-2,-5.1582556E-2,-1.1187571E-2,3.2159843E-2,-1.9765368E-2,4.1188303E-2,1.2181676E-2,2.9596651E-2,-2.7582342E-2,-6.495224E-4,-4.3263964E-2,2.0968035E-2,-7.98244E-3],"split_indices":[13,4,8,8,4,0,8,2,8,15,8,9,6,0,0,0,0,0,0,0,0,0,0,0,0],"split_type":[0,0,0,0,0,0,0,0,0,0,0,0,0,0,0,0,0,0,0,0,0,0,0,0,0],"sum_hessian":[4.7318552E2,2.3711955E2,2.3606596E2,2.7415665E1,2.0970389E2,5.6260686E0,2.304399E2,1.4666993E1,1.2748672E1,1.7978754E2,2.9916348E1,2.5893051E1,2.0454684E2,9.633026E0,5.0339665E0,6.7586393E0,5.990032E0,2.1265192E1,1.5852235E2,5.7608275E0,2.415552E1,6.138366E0,1.9754686E1,2.526025E1,1.7928659E2],"tree_param":{"num_deleted":"0","num_feature":"22","num_nodes":"25","size_leaf_vector":"1"}},{"base_weights":[1.124806E-2,-4.2931795E-2,2.8288854E-2,2.465375E-1,-4.0531587E-2,3.235281E-1,-3.8794917E-1,-7.027808E-2,4.368263E-1,3.8378585E-2,6.685391E-3,5.102034E-3,-4.2142835E-2,-2.4234345E-3,-4.6875246E-2,4.5418303E-2,1.8925614E-3],"categories":[],"categories_nodes":[],"categories_segments":[],"categories_sizes":[],"default_left":[0,0,0,0,0,0,0,0,0,0,0,0,0,0,0,0,0],"id":25,"left_children":[1,-1,3,5,7,9,11,13,15,-1,-1,-1,-1,-1,-1,-1,-1],"loss_changes":[7.11084E0,0E0,7.119644E0,5.7353024E0,5.142585E0,8.416336E0,3.0429845E0,6.32208E0,3.896853E0,0E0,0E0,0E0,0E0,0E0,0E0,0E0,0E0],"parents":[2147483647,0,0,2,2,3,3,4,4,5,5,6,6,7,7,8,8],"right_children":[2,-1,4,6,8,10,12,14,16,-1,-1,-1,-1,-1,-1,-1,-1],"split_conditions":[2.3809524E-4,-4.2931795E-2,-1.771085E-3,1.2140288E-2,3.785489E-2,1.0198879E-3,0E0,2.2406068E-2,9.996553E-3,3.8378585E-2,6.685391E-3,5.102034E-3,-4.2142835E-2,-2.4234345E-3,-4.6875246E-2,4.5418303E-2,1.8925614E-3],"split_indices":[3,0,1,6,6,3,0,11,5,0,0,0,0,0,0,0,0],"split_type":[0,0,0,0,0,0,0,0,0,0,0,0,0,0,0,0,0],"sum_hessian":[4.785429E2,7.7147E0,4.708282E2,1.12119446E2,3.5870874E2,1.0071261E2,1.1406837E1,3.3896982E2,1.9738945E1,2.8713848E1,7.1998764E1,5.9989123E0,5.4079256E0,3.3225558E2,6.714215E0,8.111591E0,1.1627354E1],"tree_param":{"num_deleted":"0","num_feature":"22","num_nodes":"17","size_leaf_vector":"1"}},{"base_weights":[-3.889361E-2,-3.5890698E-1,4.7472776E-3,-6.1424834E-1,1.11747265E-1,-6.867905E-2,2.2312203E-1,-1.0059054E0,-2.3827125E-1,3.1731248E-2,-1.08521484E-1,-1.098452E-1,6.7176235E-1,7.2596854E-1,7.694376E-2,-6.350813E-2,-1.486045E-2,2.7748037E-3,-4.2469423E-2,-2.589981E-2,2.1190535E-2,-1.3376088E-3,-1.834608E-2,-8.29687E-3,5.3488433E-2,5.8477014E-2,-1.0638553E-2,-4.0218174E-3,2.755743E-2],"categories":[],"categories_nodes":[],"categories_segments":[],"categories_sizes":[],"default_left":[0,0,0,0,0,0,0,0,0,0,0,0,0,0,0,0,0,0,0,0,0,0,0,0,0,0,0,0,0],"id":26,"left_children":[1,3,5,7,9,11,13,15,17,-1,19,21,23,25,27,-1,-1,-1,-1,-1,-1,-1,-1,-1,-1,-1,-1,-1,-1],"loss_changes":[6.602555E0,6.9443703E0,6.7026596E0,5.0369368E0,2.5653965E0,9.6040535E0,7.6109095E0,2.6562462E0,3.8704288E0,0E0,3.8421175E0,6.3157263E0,5.8457484E0,1.0183766E1,6.305477E0,0E0,0E0,0E0,0E0,0E0,0E0,0E0,0E0,0E0,0E0,0E0,0E0,0E0,0E0],"parents":[2147483647,0,0,1,1,2,2,3,3,4,4,5,5,6,6,7,7,8,8,10,10,11,11,12,12,13,13,14,14],"right_children":[2,4,6,8,10,12,14,16,18,-1,20,22,24,26,28,-1,-1,-1,-1,-1,-1,-1,-1,-1,-1,-1,-1,-1,-1],"split_conditions":[4.093176E-1,2.5881904E-1,4.3603284E-3,5.090415E-1,-2.4714272E-3,1.058818E-3,2.2761566E1,6.234898E-1,-5.3684483E-4,3.1731248E-2,-1.0144666E-4,8.534851E-3,-7.0710677E-1,-2.1805495E-2,5.0679547E-1,-6.350813E-2,-1.486045E-2,2.7748037E-3,-4.2469423E-2,-2.589981E-2,2.1190535E-2,-1.3376088E-3,-1.834608E-2,-8.29687E-3,5.3488433E-2,5.8477014E-2,-1.0638553E-2,-4.0218174E-3,2.755743E-2],"split_indices":[4,13,2,10,1,7,4,14,1,0,7,8,13,6,10,0,0,0,0,0,0,0,0,0,0,0,0,0,0],"split_type":[0,0,0,0,0,0,0,0,0,0,0,0,0,0,0,0,0,0,0,0,0,0,0,0,0,0,0,0,0],"sum_hessian":[4.6981943E2,5.5218487E1,4.1460095E2,3.556967E1,1.9648817E1,3.1087247E2,1.0372848E2,1.6125505E1,1.9444164E1,5.0548396E0,1.4593977E1,2.957734E2,1.5099048E1,2.1945484E1,8.178299E1,1.0828768E1,5.2967377E0,1.3997471E1,5.4466934E0,8.324794E0,6.2691836E0,2.2492354E2,7.0849884E1,5.1044664E0,9.994581E0,1.4689089E1,7.2563963E0,6.22601E1,1.9522888E1],"tree_param":{"num_deleted":"0","num_feature":"22","num_nodes":"29","size_leaf_vector":"1"}},{"base_weights":[2.0870307E-2,-1.865418E-1,1.0268719E-1,-6.812376E-2,-5.436016E-1,5.596684E-1,5.08217E-2,-1.7026453E-1,5.5082595E-1,-2.878452E-1,-7.67128E-1,1.858273E-1,1.0960681E0,1.4518742E-1,-2.0282874E-1,1.2475414E-3,-4.105029E-2,9.716211E-3,4.0006753E-2,-3.3206232E-2,2.088124E-2,-5.445723E-2,-1.4784618E-2,-9.774001E-3,3.161865E-2,6.660218E-2,2.6944533E-2,-4.70876E-3,1.3892548E-2,-1.6547045E-2,1.9896837E-2],"categories":[],"categories_nodes":[],"categories_segments":[],"categories_sizes":[],"default_left":[0,0,0,0,0,0,0,0,0,0,0,0,0,0,0,0,0,0,0,0,0,0,0,0,0,0,0,0,0,0,0],"id":27,"left_children":[1,3,5,7,9,11,13,15,17,19,21,23,25,27,29,-1,-1,-1,-1,-1,-1,-1,-1,-1,-1,-1,-1,-1,-1,-1,-1],"loss_changes":[8.233575E0,5.7150254E0,8.175964E0,6.750319E0,1.5511684E0,6.6944075E0,7.56472E0,1.1657885E1,1.0623865E0,5.28403E0,2.0372353E0,4.058848E0,6.8447876E-1,7.3553734E0,6.7908773E0,0E0,0E0,0E0,0E0,0E0,0E0,0E0,0E0,0E0,0E0,0E0,0E0,0E0,0E0,0E0,0E0],"parents":[2147483647,0,0,1,1,2,2,3,3,4,4,5,5,6,6,7,7,8,8,9,9,10,10,11,11,12,12,13,13,14,14],"right_children":[2,4,6,8,10,12,14,16,18,20,22,24,26,28,30,-1,-1,-1,-1,-1,-1,-1,-1,-1,-1,-1,-1,-1,-1,-1,-1],"split_conditions":[3.176963E-1,2.2661881E-1,3.3095915E0,3.4989502E-2,5.168539E-1,2.6007802E-3,4.2656916E-3,9.302326E-3,7.933721E1,2.7348856E1,8.744535E-3,4.4158044E-1,4.121925E-3,5.382345E0,4.4290894E-3,1.2475414E-3,-4.105029E-2,9.716211E-3,4.0006753E-2,-3.3206232E-2,2.088124E-2,-5.445723E-2,-1.4784618E-2,-9.774001E-3,3.161865E-2,6.660218E-2,2.6944533E-2,-4.70876E-3,1.3892548E-2,-1.6547045E-2,1.9896837E-2],"split_indices":[10,10,12,6,16,11,11,8,4,4,6,10,2,4,2,0,0,0,0,0,0,0,0,0,0,0,0,0,0,0,0],"split_type":[0,0,0,0,0,0,0,0,0,0,0,0,0,0,0,0,0,0,0,0,0,0,0,0,0,0,0,0,0,0,0],"sum_hessian":[4.8224335E2,1.3570064E2,3.465427E2,1.0335081E2,3.2349834E1,3.372706E1,3.1281564E2,8.9714096E1,1.3636713E1,1.6791967E1,1.5557868E1,2.1120264E1,1.2606796E1,2.2860582E2,8.420982E1,7.006192E1,1.9652172E1,6.7928905E0,6.8438225E0,1.1054544E1,5.7374225E0,8.013048E0,7.5448194E0,1.1786828E1,9.333435E0,7.327621E0,5.2791758E0,8.1541016E1,1.470648E2,7.0032455E1,1.4177366E1],"tree_param":{"num_deleted":"0","num_feature":"22","num_nodes":"31","size_leaf_vector":"1"}},{"base_weights":[-2.430815E-2,-5.0349515E-2,-1.0252785E-2,1.0050351E-1,-1.141298E-1,-5.716237E-3,4.1575906E-1,4.0739447E-1,-2.0037927E-1,3.16927E-3,-2.2607883E-2,1.1133706E-2,4.0562626E-2,3.7366476E-2,6.57722E-3,-3.5613668E-3,-2.9755522E-2],"categories":[],"categories_nodes":[],"categories_segments":[],"categories_sizes":[],"default_left":[0,0,0,0,0,0,0,0,0,0,0,0,0,0,0,0,0],"id":28,"left_children":[1,-1,3,5,7,9,11,13,15,-1,-1,-1,-1,-1,-1,-1,-1],"loss_changes":[6.460781E0,0E0,5.396175E0,7.619089E0,1.100489E1,5.3380637E0,4.052927E0,3.0697465E0,1.0552142E1,0E0,0E0,0E0,0E0,0E0,0E0,0E0,0E0],"parents":[2147483647,0,0,2,2,3,3,4,4,5,5,6,6,7,7,8,8],"right_children":[2,-1,4,6,8,10,12,14,16,-1,-1,-1,-1,-1,-1,-1,-1],"split_conditions":[2.3337222E-4,-5.0349515E-2,-1.8369701E-16,4.36273E-3,-7.818315E-1,3.013561E-3,2.660208E-4,1.3780432E-3,4.6069683E-3,3.16927E-3,-2.2607883E-2,1.1133706E-2,4.0562626E-2,3.7366476E-2,6.57722E-3,-3.5613668E-3,-2.9755522E-2],"split_indices":[3,0,9,3,0,3,7,3,11,0,0,0,0,0,0,0,0],"split_type":[0,0,0,0,0,0,0,0,0,0,0,0,0,0,0,0,0],"sum_hessian":[4.7107095E2,5.098305E0,4.6597266E2,2.2530942E2,2.4066322E2,1.6951018E2,5.579924E1,3.3277775E1,2.0738545E2,1.4780714E2,2.170303E1,3.9154488E1,1.664475E1,1.3677591E1,1.9600185E1,1.5768869E2,4.9696762E1],"tree_param":{"num_deleted":"0","num_feature":"22","num_nodes":"17","size_leaf_vector":"1"}},{"base_weights":[6.5746455E-4,1.19363576E-1,-1.1920187E-1,1.7699954E-1,-3.925022E-1,-1.0887796E-2,-3.249179E-1,-3.292813E-1,2.4714914E-1,9.537894E-2,-7.883671E-1,6.097E-2,-4.5285916E-1,-4.222398E-1,3.2793704E-2,-3.638159E-2,1.6958736E-2,6.2390524E-3,2.5065621E-2,-2.503026E-2,3.1739384E-2,-5.039846E-3,-6.372458E-2,-1.0603416E-2,9.994483E-3,-3.539646E-2,6.6160397E-3,1.1014041E-2,-2.5431497E-2],"categories":[],"categories_nodes":[],"categories_segments":[],"categories_sizes":[],"default_left":[0,0,0,0,0,0,0,0,0,0,0,0,0,0,0,0,0,0,0,0,0,0,0,0,0,0,0,0,0],"id":29,"left_children":[1,3,5,7,9,11,13,15,17,19,21,23,25,27,-1,-1,-1,-1,-1,-1,-1,-1,-1,-1,-1,-1,-1,-1,-1],"loss_changes":[6.8080673E0,7.19188E0,5.278466E0,7.8383327E0,4.923502E0,5.064544E0,8.215512E0,7.5820713E0,5.8423033E0,4.456438E0,4.3746605E0,5.249529E0,3.4989967E0,4.3683376E0,0E0,0E0,0E0,0E0,0E0,0E0,0E0,0E0,0E0,0E0,0E0,0E0,0E0,0E0,0E0],"parents":[2147483647,0,0,1,1,2,2,3,3,4,4,5,5,6,6,7,7,8,8,9,9,10,10,11,11,12,12,13,13],"right_children":[2,4,6,8,10,12,14,16,18,20,22,24,26,28,-1,-1,-1,-1,-1,-1,-1,-1,-1,-1,-1,-1,-1,-1,-1],"split_conditions":[-2.5881904E-1,9.879537E1,4.3388373E-1,5.170947E-1,9.2678407E-4,9.9564026E1,9.9998634E1,-7.0710677E-1,5.403719E-1,4.7573738E-4,-1.8369701E-16,3.5051587E-1,0E0,-2.34375E-2,3.2793704E-2,-3.638159E-2,1.6958736E-2,6.2390524E-3,2.5065621E-2,-2.503026E-2,3.1739384E-2,-5.039846E-3,-6.372458E-2,-1.0603416E-2,9.994483E-3,-3.539646E-2,6.6160397E-3,1.1014041E-2,-2.5431497E-2],"split_indices":[13,4,0,4,3,4,4,13,10,3,9,10,0,6,0,0,0,0,0,0,0,0,0,0,0,0,0,0,0],"split_type":[0,0,0,0,0,0,0,0,0,0,0,0,0,0,0,0,0,0,0,0,0,0,0,0,0,0,0,0,0],"sum_hessian":[4.7549603E2,2.3910999E2,2.3638603E2,2.1588084E2,2.322914E1,1.5604651E2,8.033952E1,2.5510899E1,1.9036995E2,1.0858696E1,1.2370443E1,1.3523871E2,2.0807804E1,7.3910736E1,6.4287887E0,1.5948674E1,9.562224E0,1.3014445E2,6.02255E1,5.166036E0,5.69266E0,5.9163237E0,6.454119E0,4.5217213E1,9.00215E1,1.433167E1,6.4761343E0,8.415736E0,6.5494995E1],"tree_param":{"num_deleted":"0","num_feature":"22","num_nodes":"29","size_leaf_vector":"1"}},{"base_weights":[8.660737E-3,5.1456988E-2,-8.081174E-3,1.1337262E-1,-1.2830229E-1,3.0039027E-1,-5.1249027E-2,2.225193E-2,-3.908391E-1,-1.8561844E-2,1.8367644E-2,1.9554726E-3,-2.9449178E-2,5.2786493E-3,-2.2269655E-2,-3.1262558E-2,3.3570013E-3],"categories":[],"categories_nodes":[],"categories_segments":[],"categories_sizes":[],"default_left":[0,0,0,0,0,0,0,0,0,0,0,0,0,0,0,0,0],"id":30,"left_children":[1,-1,3,5,7,9,11,13,15,-1,-1,-1,-1,-1,-1,-1,-1],"loss_changes":[8.2584915E0,0E0,6.9342804E0,7.3032746E0,9.470253E0,5.190855E0,6.2176948E0,6.017671E0,9.455951E0,0E0,0E0,0E0,0E0,0E0,0E0,0E0,0E0],"parents":[2147483647,0,0,2,2,3,3,4,4,5,5,6,6,7,7,8,8],"right_children":[2,-1,4,6,8,10,12,14,16,-1,-1,-1,-1,-1,-1,-1,-1],"split_conditions":[-2.9799116E-3,5.1456988E-2,-2.5881904E-1,-5.0768704E-4,4.3388373E-1,-1.2374979E-3,9.749279E-1,9.9017296E1,4.733219E-3,-1.8561844E-2,1.8367644E-2,1.9554726E-3,-2.9449178E-2,5.2786493E-3,-2.2269655E-2,-3.1262558E-2,3.3570013E-3],"split_indices":[7,0,13,1,0,7,0,4,8,0,0,0,0,0,0,0,0],"split_type":[0,0,0,0,0,0,0,0,0,0,0,0,0,0,0,0,0],"sum_hessian":[4.7816486E2,6.3022223E0,4.7186264E2,2.3456355E2,2.3729909E2,1.0937511E2,1.25188446E2,1.5156506E2,8.573402E1,9.230608E0,1.001445E2,1.0828983E2,1.6898613E1,1.297208E2,2.1844273E1,5.641823E1,2.9315788E1],"tree_param":{"num_deleted":"0","num_feature":"22","num_nodes":"17","size_leaf_vector":"1"}},{"base_weights":[-2.2974998E-2,-5.1320642E-2,-7.679212E-3,3.806993E-2,-2.4151383E-2,-6.786324E-2,2.7788213E-1,4.178329E-4,-1.327579E-2,-1.2008741E-2,3.3811733E-2],"categories":[],"categories_nodes":[],"categories_segments":[],"categories_sizes":[],"default_left":[0,0,0,0,0,0,0,0,0,0,0],"id":31,"left_children":[1,-1,3,-1,5,7,9,-1,-1,-1,-1],"loss_changes":[7.3113394E0,0E0,6.0062304E0,0E0,6.1754723E0,6.174608E0,1.2465235E1,0E0,0E0,0E0,0E0],"parents":[2147483647,0,0,2,2,4,4,5,5,6,6],"right_children":[2,-1,4,-1,6,8,10,-1,-1,-1,-1],"split_conditions":[2.3337222E-4,-5.1320642E-2,-8.890116E-2,3.806993E-2,1E0,7.0710677E-1,5.425673E-1,4.178329E-4,-1.327579E-2,-1.2008741E-2,3.3811733E-2],"split_indices":[3,0,6,0,17,9,10,0,0,0,0],"split_type":[0,0,0,0,0,0,0,0,0,0,0],"sum_hessian":[4.7899844E2,5.6540613E0,4.7334436E2,8.439464E0,4.649049E2,4.072885E2,5.7616398E1,2.9479254E2,1.1249597E2,2.5249525E1,3.236687E1],"tree_param":{"num_deleted":"0","num_feature":"22","num_nodes":"11","size_leaf_vector":"1"}},{"base_weights":[4.575025E-2,-4.857185E-2,6.014345E-2,6.6609627E-1,3.6945015E-2,-2.1198364E-2,6.572451E-2,2.2079144E-1,-3.6079727E-2,1.5344277E-2,-2.556026E-2,3.8648352E-2,-3.044308E-3],"categories":[],"categories_nodes":[],"categories_segments":[],"categories_sizes":[],"default_left":[0,0,0,0,0,0,0,0,0,0,0,0,0],"id":32,"left_children":[1,-1,3,5,7,-1,-1,9,11,-1,-1,-1,-1],"loss_changes":[6.950281E0,0E0,6.4888444E0,1.2925613E1,6.0785475E0,0E0,0E0,8.334076E0,6.537871E0,0E0,0E0,0E0,0E0],"parents":[2147483647,0,0,2,2,3,3,4,4,7,7,8,8],"right_children":[2,-1,4,6,8,-1,-1,10,12,-1,-1,-1,-1],"split_conditions":[2.3337222E-4,-4.857185E-2,2.9061318E-4,1.0002784E1,-5E-1,-2.1198364E-2,6.572451E-2,9.749279E-1,-5.620438E-2,1.5344277E-2,-2.556026E-2,3.8648352E-2,-3.044308E-3],"split_indices":[3,0,3,12,9,0,0,0,8,0,0,0,0],"split_type":[0,0,0,0,0,0,0,0,0,0,0,0,0],"sum_hessian":[4.703534E2,5.122553E0,4.6523087E2,1.5542019E1,4.4968884E2,5.961601E0,9.580419E0,1.2717177E2,3.2251706E2,1.1462906E2,1.2542705E1,8.188798E0,3.1432828E2],"tree_param":{"num_deleted":"0","num_feature":"22","num_nodes":"13","size_leaf_vector":"1"}},{"base_weights":[-1.4156781E-2,4.285019E-2,-3.0689025E-2,-5.467054E-1,3.9534913E-5,-5.273978E-2,-2.1412344E-1,1.725009E-2,-4.0229134E-2,8.16953E-3,-3.1047339E-2,-5.0392337E-3,6.625199E-3],"categories":[],"categories_nodes":[],"categories_segments":[],"categories_sizes":[],"default_left":[0,0,0,0,0,0,0,0,0,0,0,0,0],"id":33,"left_children":[1,-1,3,5,7,-1,9,11,-1,-1,-1,-1,-1],"loss_changes":[6.8925214E0,0E0,7.500374E0,4.089205E0,6.1605964E0,0E0,2.9404151E0,5.9855566E0,0E0,0E0,0E0,0E0,0E0],"parents":[2147483647,0,0,2,2,3,3,4,4,6,6,7,7],"right_children":[2,-1,4,6,8,-1,10,12,-1,-1,-1,-1,-1],"split_conditions":[-6.8188064E-2,4.285019E-2,-1.1744107E-3,4.946967E-3,2.2406068E-2,-5.273978E-2,-1.6249673E-3,2.215249E-3,-4.0229134E-2,8.16953E-3,-3.1047339E-2,-5.0392337E-3,6.625199E-3],"split_indices":[8,0,7,2,11,0,7,2,0,0,0,0,0],"split_type":[0,0,0,0,0,0,0,0,0,0,0,0,0],"sum_hessian":[4.7720242E2,7.4108067E0,4.6979163E2,2.5079433E1,4.447122E2,8.573672E0,1.6505762E1,4.368971E2,7.8150764E0,8.963079E0,7.5426826E0,2.1572328E2,2.2117381E2],"tree_param":{"num_deleted":"0","num_feature":"22","num_nodes":"13","size_leaf_vector":"1"}},{"base_weights":[6.2456555E-3,2.3577367E-1,-4.3903865E-2,4.5969557E-2,1.3576995E-1,-4.6253607E-2,-2.577161E-2,-6.471104E-1,3.3738506E-1,-3.5376355E-2,-5.9257536E-3,-1.1363234E-2,-4.9059447E-2,-3.98813E-3,3.2195583E-2,-1.6020503E-3,2.3047557E-2],"categories":[],"categories_nodes":[],"categories_segments":[],"categories_sizes":[],"default_left":[0,0,0,0,0,0,0,0,0,0,0,0,0,0,0,0,0],"id":34,"left_children":[1,3,5,-1,7,-1,9,11,13,-1,15,-1,-1,-1,-1,-1,-1],"loss_changes":[5.4550962E0,5.5710673E0,6.119678E0,0E0,1.2304326E1,0E0,5.1265273E0,1.8524604E0,7.963276E0,0E0,4.545868E0,0E0,0E0,0E0,0E0,0E0,0E0],"parents":[2147483647,0,0,1,1,2,2,4,4,6,6,7,7,8,8,10,10],"right_children":[2,4,6,-1,8,-1,10,12,14,-1,16,-1,-1,-1,-1,-1,-1],"split_conditions":[-2.1650534E-2,-2.2186614E-3,-1.1744107E-3,4.5969557E-2,-1.1744107E-3,-4.6253607E-2,-2.0093458E-2,6.123234E-17,-2.2252093E-1,-3.5376355E-2,3.785489E-2,-1.1363234E-2,-4.9059447E-2,-3.98813E-3,3.2195583E-2,-1.6020503E-3,2.3047557E-2],"split_indices":[6,7,7,0,7,0,6,9,14,0,6,0,0,0,0,0,0],"split_type":[0,0,0,0,0,0,0,0,0,0,0,0,0,0,0,0,0],"sum_hessian":[4.7023212E2,8.350145E1,3.8673065E2,9.02397E0,7.447748E1,6.2291617E0,3.805015E2,1.452271E1,5.9954765E1,9.221556E0,3.7127994E2,7.618458E0,6.9042516E0,2.5795967E1,3.41588E1,3.5303662E2,1.8243322E1],"tree_param":{"num_deleted":"0","num_feature":"22","num_nodes":"17","size_leaf_vector":"1"}},{"base_weights":[2.67211E-3,-1.030763E-1,9.1753244E-2,7.875761E-2,-2.9487282E-1,5.5095786E-1,3.0764852E-2,-7.2526015E-2,5.423969E-1,1.06076136E-1,-3.78101E-1,8.2570374E-1,-6.261024E-3,2.2099125E-1,-1.265972E-1,-1.115992E-2,1.3118195E-2,3.5099886E-2,-7.0728995E-3,-2.6646754E-2,1.9173136E-2,-4.6855114E-2,-1.5473887E-2,2.8345862E-2,6.1767723E-2,-1.0162647E-2,1.4173569E-2,-3.0652506E-3,-4.0499907E-2],"categories":[],"categories_nodes":[],"categories_segments":[],"categories_sizes":[],"default_left":[0,0,0,0,0,0,0,0,0,0,0,0,0,0,0,0,0,0,0,0,0,0,0,0,0,0,0,0,0],"id":35,"left_children":[1,3,5,7,9,11,13,15,17,19,21,23,-1,25,27,-1,-1,-1,-1,-1,-1,-1,-1,-1,-1,-1,-1,-1,-1],"loss_changes":[4.549453E0,7.739252E0,7.2942057E0,8.099161E0,3.6714487E0,5.871002E0,7.030909E0,4.4968104E0,3.274129E0,3.7733042E0,2.9440022E0,1.1910105E0,0E0,2.9086118E0,5.615653E0,0E0,0E0,0E0,0E0,0E0,0E0,0E0,0E0,0E0,0E0,0E0,0E0,0E0,0E0],"parents":[2147483647,0,0,1,1,2,2,3,3,4,4,5,5,6,6,7,7,8,8,9,9,10,10,11,11,13,13,14,14],"right_children":[2,4,6,8,10,12,14,16,18,20,22,24,-1,26,28,-1,-1,-1,-1,-1,-1,-1,-1,-1,-1,-1,-1,-1,-1],"split_conditions":[2.215249E-3,1.3355118E-3,9.5454544E-1,7.0710677E-1,-7.0710677E-1,8.660254E-1,0E0,5.22916E-3,6.700702E-3,3.619819E0,-6.4508035E-4,7.6E-1,-6.261024E-3,-1.1744107E-3,1.2160784E-3,-1.115992E-2,1.3118195E-2,3.5099886E-2,-7.0728995E-3,-2.6646754E-2,1.9173136E-2,-4.6855114E-2,-1.5473887E-2,2.8345862E-2,6.1767723E-2,-1.0162647E-2,1.4173569E-2,-3.0652506E-3,-4.0499907E-2],"split_indices":[2,2,15,9,9,9,0,6,8,4,7,15,0,7,7,0,0,0,0,0,0,0,0,0,0,0,0,0,0],"split_type":[0,0,0,0,0,0,0,0,0,0,0,0,0,0,0,0,0,0,0,0,0,0,0,0,0,0,0,0,0],"sum_hessian":[4.800012E2,2.1910464E2,2.6089655E2,1.1279346E2,1.0631119E2,2.907903E1,2.3181752E2,8.59167E1,2.6876757E1,1.8100428E1,8.821076E1,2.0494085E1,8.584944E0,1.0481889E2,1.26998634E2,5.9704338E1,2.6212366E1,2.1818085E1,5.0586724E0,5.006006E0,1.3094421E1,7.489496E0,8.072126E1,1.4826027E1,5.6680574E0,1.2918888E1,9.19E1,1.1748211E2,9.516527E0],"tree_param":{"num_deleted":"0","num_feature":"22","num_nodes":"29","size_leaf_vector":"1"}},{"base_weights":[1.9617198E-2,-4.296961E-2,3.347976E-2,1.4516877E-1,-7.312316E-2,2.6456537E-2,3.7114337E-1,4.682261E-2,-1.0232559E-1,1.9152932E-2,-3.567027E-3,5.9753638E-2,1.3930681E-2,-4.44127E-2,-2.737156E-3],"categories":[],"categories_nodes":[],"categories_segments":[],"categories_sizes":[],"default_left":[0,0,0,0,0,0,0,0,0,0,0,0,0,0,0],"id":36,"left_children":[1,-1,3,5,7,9,11,-1,13,-1,-1,-1,-1,-1,-1],"loss_changes":[5.758443E0,0E0,5.574852E0,6.097482E0,7.1628675E0,5.3443103E0,5.40903E0,0E0,8.636795E0,0E0,0E0,0E0,0E0,0E0,0E0],"parents":[2147483647,0,0,2,2,3,3,4,4,5,5,6,6,8,8],"right_children":[2,-1,4,6,8,10,12,-1,14,-1,-1,-1,-1,-1,-1],"split_conditions":[2.3337222E-4,-4.296961E-2,-2.5881904E-1,5.4146546E-1,-4.5202557E-2,1.283461E0,3.7146392E0,4.682261E-2,-2.6895944E-2,1.9152932E-2,-3.567027E-3,5.9753638E-2,1.3930681E-2,-4.44127E-2,-2.737156E-3],"split_indices":[3,0,13,10,8,12,12,0,8,0,0,0,0,0,0],"split_type":[0,0,0,0,0,0,0,0,0,0,0,0,0,0,0],"sum_hessian":[4.709192E2,5.8349376E0,4.6508426E2,2.2708806E2,2.3799619E2,1.5012114E2,7.696692E1,5.3324122E0,2.3266377E2,3.1477867E1,1.1864327E2,5.9117913E0,7.105512E1,1.1709156E1,2.2095462E2],"tree_param":{"num_deleted":"0","num_feature":"22","num_nodes":"15","size_leaf_vector":"1"}},{"base_weights":[-6.8542017E-3,-3.973465E-1,1.7881272E-2,1.4842281E-2,-6.73609E-1,3.24691E-2,-4.0235594E-2,-4.2990863E-2,-3.4662248E-3,7.7012524E-2,-2.5401077E-1,-5.8538066E-3,7.1782307E-3,2.018273E-2,-2.0791689E-2],"categories":[],"categories_nodes":[],"categories_segments":[],"categories_sizes":[],"default_left":[0,0,0,0,0,0,0,0,0,0,0,0,0,0,0],"id":37,"left_children":[1,3,5,-1,7,9,-1,-1,-1,11,13,-1,-1,-1,-1],"loss_changes":[4.5867577E0,5.744321E0,5.3406315E0,0E0,2.1986809E0,5.6193843E0,0E0,0E0,0E0,4.948159E0,6.5568514E0,0E0,0E0,0E0,0E0],"parents":[2147483647,0,0,1,1,2,2,4,4,5,5,9,9,10,10],"right_children":[2,4,6,-1,8,10,-1,-1,-1,12,14,-1,-1,-1,-1],"split_conditions":[-1.1744107E-3,-2.2186614E-3,1.3137776E-2,1.4842281E-2,3.748633E1,9.879537E1,-4.0235594E-2,-4.2990863E-2,-3.4662248E-3,5.382345E0,6.615475E-5,-5.8538066E-3,7.1782307E-3,2.018273E-2,-2.0791689E-2],"split_indices":[7,7,2,0,4,4,0,0,0,4,7,0,0,0,0],"split_type":[0,0,0,0,0,0,0,0,0,0,0,0,0,0,0],"sum_hessian":[4.7030054E2,2.6790573E1,4.4350995E2,7.543224E0,1.9247349E1,4.3725723E2,6.2527227E0,1.4165312E1,5.082038E0,3.795189E2,5.773834E1,9.642386E1,2.8309503E2,1.0897829E1,4.6840508E1],"tree_param":{"num_deleted":"0","num_feature":"22","num_nodes":"15","size_leaf_vector":"1"}},{"base_weights":[1.5767459E-2,3.5525504E-2,2.0567207E-3,2.1497363E-2,-4.2625483E-2,-4.5161094E-3,5.186434E-1,1.0361312E-3,-2.5565414E-2,-1.1353925E-3,4.1980248E-2],"categories":[],"categories_nodes":[],"categories_segments":[],"categories_sizes":[],"default_left":[0,0,0,0,0,0,0,0,0,0,0],"id":38,"left_children":[1,-1,3,5,-1,7,9,-1,-1,-1,-1],"loss_changes":[4.4426465E0,0E0,7.675258E0,5.9014244E0,0E0,5.577295E0,4.0112734E0,0E0,0E0,0E0,0E0],"parents":[2147483647,0,0,2,2,3,3,5,5,6,6],"right_children":[2,-1,4,6,-1,8,10,-1,-1,-1,-1],"split_conditions":[-6.8188064E-2,3.5525504E-2,1.1450151E-2,3.670588E-2,-4.2625483E-2,1.4690451E-2,3.6201226E-3,1.0361312E-3,-2.5565414E-2,-1.1353925E-3,4.1980248E-2],"split_indices":[8,0,2,6,0,11,2,0,0,0,0],"split_type":[0,0,0,0,0,0,0,0,0,0,0],"sum_hessian":[4.6886877E2,7.5281425E0,4.6134064E2,4.5256592E2,8.774706E0,4.3137952E2,2.11864E1,4.1219196E2,1.9187548E1,8.346625E0,1.2839775E1],"tree_param":{"num_deleted":"0","num_feature":"22","num_nodes":"11","size_leaf_vector":"1"}},{"base_weights":[-0E0,4.523136E-2,-2.0769678E-2,-6.295187E-2,2.685958E-1,6.57133E-3,-2.4511226E-1,6.0353494E-1,5.8649752E-2,-7.802006E-3,6.2371003E-3,4.6631745E-3,-2.2234162E-2,5.4920018E-2,6.8075317E-3,-8.313585E-3,2.8350085E-2],"categories":[],"categories_nodes":[],"categories_segments":[],"categories_sizes":[],"default_left":[0,0,0,0,0,0,0,0,0,0,0,0,0,0,0,0,0],"id":39,"left_children":[1,-1,3,5,7,9,11,13,15,-1,-1,-1,-1,-1,-1,-1,-1],"loss_changes":[8.662495E0,0E0,5.5239315E0,5.020138E0,3.9609895E0,5.549183E0,7.4691224E0,4.784525E0,4.407083E0,0E0,0E0,0E0,0E0,0E0,0E0,0E0,0E0],"parents":[2147483647,0,0,2,2,3,3,4,4,5,5,6,6,7,7,8,8],"right_children":[2,-1,4,6,8,10,12,14,16,-1,-1,-1,-1,-1,-1,-1,-1],"split_conditions":[-7.5677045E-2,4.523136E-2,1E0,7.0710677E-1,2.447799E0,2.0150936E-3,1.0413955E-3,0E0,-3.7537538E-3,-7.802006E-3,6.2371003E-3,4.6631745E-3,-2.2234162E-2,5.4920018E-2,6.8075317E-3,-8.313585E-3,2.8350085E-2],"split_indices":[6,0,17,9,4,2,3,0,6,0,0,0,0,0,0,0,0],"split_type":[0,0,0,0,0,0,0,0,0,0,0,0,0,0,0,0,0],"sum_hessian":[4.5866797E2,8.847407E0,4.4982056E2,3.937659E2,5.6054672E1,2.8584274E2,1.0792314E2,2.042279E1,3.563188E1,1.1992012E2,1.6592264E2,4.0241512E1,6.7681625E1,8.884146E0,1.1538644E1,2.5333876E1,1.0298006E1],"tree_param":{"num_deleted":"0","num_feature":"22","num_nodes":"17","size_leaf_vector":"1"}},{"base_weights":[-1.4957943E-2,1.3016137E-2,-3.4175852E-1,-2.4883506E-1,4.8578978E-2,1.496047E-2,-4.8801947E-1,-4.4972992E-1,2.4647513E-1,6.118133E-1,1.705303E-2,-6.940637E-1,-1.2605296E-1,-3.316803E-2,1.7726725E-2,3.0542243E-2,-1.9770127E-2,6.968758E-2,-7.6489532E-3,4.5754984E-3,-6.544463E-3,-0E0,-4.7608357E-2,1.3635263E-2,-2.6948964E-2],"categories":[],"categories_nodes":[],"categories_segments":[],"categories_sizes":[],"default_left":[0,0,0,0,0,0,0,0,0,0,0,0,0,0,0,0,0,0,0,0,0,0,0,0,0],"id":40,"left_children":[1,3,5,7,9,-1,11,13,15,17,19,21,23,-1,-1,-1,-1,-1,-1,-1,-1,-1,-1,-1,-1],"loss_changes":[4.27246E0,4.007436E0,3.6828313E0,5.2940264E0,6.692235E0,0E0,2.1125393E0,6.7584853E0,4.05382E0,1.2336864E1,3.9930887E0,3.3772697E0,2.3798702E0,0E0,0E0,0E0,0E0,0E0,0E0,0E0,0E0,0E0,0E0,0E0,0E0],"parents":[2147483647,0,0,1,1,2,2,3,3,4,4,6,6,7,7,8,8,9,9,10,10,11,11,12,12],"right_children":[2,4,6,8,10,-1,12,14,16,18,20,22,24,-1,-1,-1,-1,-1,-1,-1,-1,-1,-1,-1,-1],"split_conditions":[9.659258E-1,4.8705226E-1,1.9744924E0,1E0,1.4588541E0,1.496047E-2,2.81602E-3,1E0,-7.91905E-3,-1.8369701E-16,7.6754387E-3,-5.773672E-3,5.521811E-3,-3.316803E-2,1.7726725E-2,3.0542243E-2,-1.9770127E-2,6.968758E-2,-7.6489532E-3,4.5754984E-3,-6.544463E-3,-0E0,-4.7608357E-2,1.3635263E-2,-2.6948964E-2],"split_indices":[13,4,4,17,4,0,5,14,6,9,8,11,11,0,0,0,0,0,0,0,0,0,0,0,0],"split_type":[0,0,0,0,0,0,0,0,0,0,0,0,0,0,0,0,0,0,0,0,0,0,0,0,0],"sum_hessian":[4.6331903E2,4.2797192E2,3.5347076E1,4.993036E1,3.780416E2,6.2122655E0,2.9134811E1,3.5692623E1,1.4237734E1,1.849096E1,3.5955063E2,1.7601215E1,1.1533595E1,2.84584E1,7.2342243E0,9.178093E0,5.0596404E0,8.56536E0,9.925599E0,2.3978227E2,1.1976835E2,5.2268662E0,1.237435E1,6.064988E0,5.4686074E0],"tree_param":{"num_deleted":"0","num_feature":"22","num_nodes":"25","size_leaf_vector":"1"}},{"base_weights":[-9.844054E-3,2.2063953E-1,-5.233134E-2,-8.13685E-2,4.279292E-1,-1.1674386E-2,-3.516635E-1,-3.2996662E-2,7.835858E-2,1.7304549E-1,6.1697155E-2,-3.420762E-1,3.0025516E-2,1.380123E-1,-5.1352316E-1,2.1217419E-2,-2.0298395E-2,-2.16016E-2,1.5573958E-2,-7.207846E-3,-5.053955E-2,2.4163506E-3,-3.401031E-2,-1.5563208E-2,2.6756082E-2,-3.8625736E-2,-1.3141962E-3],"categories":[],"categories_nodes":[],"categories_segments":[],"categories_sizes":[],"default_left":[0,0,0,0,0,0,0,0,0,0,0,0,0,0,0,0,0,0,0,0,0,0,0,0,0,0,0],"id":41,"left_children":[1,3,5,7,9,11,13,-1,15,17,-1,19,21,23,25,-1,-1,-1,-1,-1,-1,-1,-1,-1,-1,-1,-1],"loss_changes":[4.598297E0,4.6427164E0,4.8084564E0,2.961664E0,8.5779705E0,4.871391E0,3.8731413E0,0E0,4.5296464E0,3.124105E0,0E0,4.9682884E0,4.0886927E0,2.5542378E0,4.4643297E0,0E0,0E0,0E0,0E0,0E0,0E0,0E0,0E0,0E0,0E0,0E0,0E0],"parents":[2147483647,0,0,1,1,2,2,3,3,4,4,5,5,6,6,8,8,9,9,11,11,12,12,13,13,14,14],"right_children":[2,4,6,8,10,12,14,-1,16,18,-1,20,22,24,26,-1,-1,-1,-1,-1,-1,-1,-1,-1,-1,-1,-1],"split_conditions":[-9.318293E-3,-1.6995242E-2,9.749279E-1,2.2364186E-1,4.620567E-3,-8.617313E-3,3.6373448E0,-3.2996662E-2,1.9653875E1,3.689333E-1,6.1697155E-2,-1.9894559E-4,2.334419E-2,1.9345348E0,1.3535633E-4,2.1217419E-2,-2.0298395E-2,-2.16016E-2,1.5573958E-2,-7.207846E-3,-5.053955E-2,2.4163506E-3,-3.401031E-2,-1.5563208E-2,2.6756082E-2,-3.8625736E-2,-1.3141962E-3],"split_indices":[11,11,0,10,2,5,12,0,12,10,0,7,11,12,7,0,0,0,0,0,0,0,0,0,0,0,0],"split_type":[0,0,0,0,0,0,0,0,0,0,0,0,0,0,0,0,0,0,0,0,0,0,0,0,0,0,0],"sum_hessian":[4.6715823E2,7.154997E1,3.9560828E2,2.9394302E1,4.2155666E1,3.498194E2,4.5788868E1,5.410811E0,2.3983492E1,3.3459064E1,8.696601E0,3.8126324E1,3.1169308E2,1.1353398E1,3.443547E1,1.4158229E1,9.825263E0,5.5701427E0,2.7888924E1,3.0883787E1,7.242535E0,3.0529446E2,6.3985996E0,5.419878E0,5.93352E0,2.1843645E1,1.2591826E1],"tree_param":{"num_deleted":"0","num_feature":"22","num_nodes":"27","size_leaf_vector":"1"}},{"base_weights":[-2.908795E-2,-3.805674E-2,-1.5059295E-2,5.2309936E-1,-3.2916028E-2,4.8822027E-2,-8.469411E-3,4.600123E-1,-5.232428E-2,3.9825875E-2,1.3465399E-3,-2.6150811E-2,-1.1991384E-3],"categories":[],"categories_nodes":[],"categories_segments":[],"categories_sizes":[],"default_left":[0,0,0,0,0,0,0,0,0,0,0,0,0],"id":42,"left_children":[1,-1,3,5,7,-1,-1,9,11,-1,-1,-1,-1],"loss_changes":[4.7745805E0,0E0,4.451868E0,4.957415E0,4.3184776E0,0E0,0E0,2.4177108E0,5.745616E0,0E0,0E0,0E0,0E0],"parents":[2147483647,0,0,2,2,3,3,4,4,7,7,8,8],"right_children":[2,-1,4,6,8,-1,-1,10,12,-1,-1,-1,-1],"split_conditions":[2.3809524E-4,-3.805674E-2,2.9061318E-4,2.5229063E1,-4.5202557E-2,4.8822027E-2,-8.469411E-3,2.4935553E0,-2.7528612E-2,3.9825875E-2,1.3465399E-3,-2.6150811E-2,-1.1991384E-3],"split_indices":[3,0,3,4,8,0,0,12,8,0,0,0,0],"split_type":[0,0,0,0,0,0,0,0,0,0,0,0,0],"sum_hessian":[4.6887552E2,7.247301E0,4.6162823E2,1.3372486E1,4.4825574E2,7.753647E0,5.6188393E0,1.5593174E1,4.3266257E2,8.001647E0,7.591527E0,2.298503E1,4.0967752E2],"tree_param":{"num_deleted":"0","num_feature":"22","num_nodes":"13","size_leaf_vector":"1"}},{"base_weights":[-4.184425E-2,-3.7230605E-1,4.0577613E-3,-7.3141855E-1,-1.151498E-1,1.6623263E-1,-8.755468E-2,-9.1623735E-1,-1.1885528E-3,-2.6999325E-1,2.431122E-2,4.2401582E-1,4.1736376E-2,-4.1477504E-1,-3.0907255E-2,-5.577014E-2,-2.3968346E-2,-4.5325677E-3,-3.363551E-2,-9.172687E-3,3.0174924E-2,1.1473369E-2,-1.2829343E-2,-3.166762E-2,4.486617E-3,-3.127503E-4,-3.455947E-2],"categories":[],"categories_nodes":[],"categories_segments":[],"categories_sizes":[],"default_left":[0,0,0,0,0,0,0,0,0,0,0,0,0,0,0,0,0,0,0,0,0,0,0,0,0,0,0],"id":43,"left_children":[1,3,5,7,9,11,13,15,-1,17,-1,19,21,23,25,-1,-1,-1,-1,-1,-1,-1,-1,-1,-1,-1,-1],"loss_changes":[7.2139025E0,5.1860943E0,6.2320104E0,3.0375395E0,3.5058088E0,4.8124394E0,4.920994E0,7.542324E-1,0E0,1.992373E0,0E0,5.534567E0,5.909165E0,4.4413886E0,3.7018592E0,0E0,0E0,0E0,0E0,0E0,0E0,0E0,0E0,0E0,0E0,0E0,0E0],"parents":[2147483647,0,0,1,1,2,2,3,3,4,4,5,5,6,6,7,7,9,9,11,11,12,12,13,13,14,14],"right_children":[2,4,6,8,10,12,14,16,-1,18,-1,20,22,24,26,-1,-1,-1,-1,-1,-1,-1,-1,-1,-1,-1,-1],"split_conditions":[4.8705226E-1,-3.5887313E-4,-7.5381785E-4,-4.49827E-3,4.529617E-3,4.1418023E0,-2.514142E-3,6.234898E-1,-1.1885528E-3,1.4573357E-1,2.431122E-2,-1.1744107E-3,4.3388373E-1,4.294149E-3,2.2406068E-2,-5.577014E-2,-2.3968346E-2,-4.5325677E-3,-3.363551E-2,-9.172687E-3,3.0174924E-2,1.1473369E-2,-1.2829343E-2,-3.166762E-2,4.486617E-3,-3.127503E-4,-3.455947E-2],"split_indices":[4,7,1,5,3,12,5,14,0,4,0,7,0,3,11,0,0,0,0,0,0,0,0,0,0,0,0],"split_type":[0,0,0,0,0,0,0,0,0,0,0,0,0,0,0,0,0,0,0,0,0,0,0,0,0,0,0],"sum_hessian":[4.7270993E2,5.6484524E1,4.162254E2,2.2334337E1,3.4150185E1,1.5000551E2,2.662199E2,1.730256E1,5.0317755E0,2.788101E1,6.2691746E0,4.7545967E1,1.0245953E2,3.7756435E1,2.2846347E2,1.0205681E1,7.096881E0,2.0647753E1,7.2332573E0,1.0772852E1,3.6773113E1,6.3201473E1,3.9258064E1,2.6145115E1,1.1611322E1,2.2177328E2,6.6901774E0],"tree_param":{"num_deleted":"0","num_feature":"22","num_nodes":"27","size_leaf_vector":"1"}},{"base_weights":[-2.3437865E-2,1.9568175E-2,-3.4746554E-1,-1.7246158E-1,9.4081126E-2,1.9825768E-1,-5.2380055E-1,-4.9181864E-1,-4.5186426E-2,5.952428E-3,4.6353438E-1,3.1796675E-2,-1.60771E-2,-6.4051235E-1,9.236569E-3,3.9532545E-4,-3.913864E-2,7.927635E-3,-2.0071356E-2,-1.1173504E-3,4.021673E-2,3.789037E-2,3.1261432E-3,-5.9516444E-3,-3.835614E-2],"categories":[],"categories_nodes":[],"categories_segments":[],"categories_sizes":[],"default_left":[0,0,0,0,0,0,0,0,0,0,0,0,0,0,0,0,0,0,0,0,0,0,0,0,0],"id":44,"left_children":[1,3,5,7,9,11,13,15,17,19,21,-1,-1,23,-1,-1,-1,-1,-1,-1,-1,-1,-1,-1,-1],"loss_changes":[6.4680285E0,5.87791E0,5.404867E0,4.605246E0,9.612718E0,3.575441E0,3.63865E0,4.7654576E0,6.1924667E0,5.5041113E0,6.6020317E0,0E0,0E0,2.201912E0,0E0,0E0,0E0,0E0,0E0,0E0,0E0,0E0,0E0,0E0,0E0],"parents":[2147483647,0,0,1,1,2,2,3,3,4,4,5,5,6,6,7,7,8,8,9,9,10,10,13,13],"right_children":[2,4,6,8,10,12,14,16,18,20,22,-1,-1,24,-1,-1,-1,-1,-1,-1,-1,-1,-1,-1,-1],"split_conditions":[9.749279E-1,3.176963E-1,3.8812857E0,-6.9716778E-3,4.469111E-3,4.6296112E1,9.976717E1,1.565446E0,8.534851E-3,9.5771905E-4,6.104666E-3,3.1796675E-2,-1.60771E-2,-1.7359855E-2,9.236569E-3,3.9532545E-4,-3.913864E-2,7.927635E-3,-2.0071356E-2,-1.1173504E-3,4.021673E-2,3.789037E-2,3.1261432E-3,-5.9516444E-3,-3.835614E-2],"split_indices":[0,10,12,5,2,4,4,12,8,7,2,0,0,6,0,0,0,0,0,0,0,0,0,0,0],"split_type":[0,0,0,0,0,0,0,0,0,0,0,0,0,0,0,0,0,0,0,0,0,0,0,0,0],"sum_hessian":[4.6074374E2,4.0786554E2,5.2878178E1,1.1328144E2,2.945841E2,1.2798678E1,4.00795E1,3.0945147E1,8.2336296E1,2.3918811E2,5.5395992E1,6.8185024E0,5.9801764E0,3.4595398E1,5.4841003E0,1.186093E1,1.9084217E1,5.281989E1,2.9516407E1,2.3234772E2,6.840404E0,3.1108467E1,2.4287525E1,7.404228E0,2.7191172E1],"tree_param":{"num_deleted":"0","num_feature":"22","num_nodes":"25","size_leaf_vector":"1"}},{"base_weights":[2.5823945E-2,4.9360182E-2,-4.798591E-1,4.1335925E-2,3.201334E-2,-7.8061455E-1,-3.2823689E-3,-6.327727E-1,5.9647925E-2,-1.3062708E-2,-5.5216994E-2,-4.276729E-2,-5.281582E-3,-3.5093862E-3,9.297003E-3],"categories":[],"categories_nodes":[],"categories_segments":[],"categories_sizes":[],"default_left":[0,0,0,0,0,0,0,0,0,0,0,0,0,0,0],"id":45,"left_children":[1,3,5,-1,7,9,-1,11,13,-1,-1,-1,-1,-1,-1],"loss_changes":[5.5794544E0,5.962148E0,2.4772086E0,0E0,8.113219E0,1.4941278E0,0E0,1.8839393E0,6.9775596E0,0E0,0E0,0E0,0E0,0E0,0E0],"parents":[2147483647,0,0,1,1,2,2,4,4,5,5,7,7,8,8],"right_children":[2,4,6,-1,8,10,-1,12,14,-1,-1,-1,-1,-1,-1],"split_conditions":[1.6478343E-2,-2.2186614E-3,2.5553186E-4,4.1335925E-2,-1.1744107E-3,-5.6619354E-4,-3.2823689E-3,-2.676951E-2,2.215249E-3,-1.3062708E-2,-5.5216994E-2,-4.276729E-2,-5.281582E-3,-3.5093862E-3,9.297003E-3],"split_indices":[11,7,7,0,7,7,0,6,2,0,0,0,0,0,0],"split_type":[0,0,0,0,0,0,0,0,0,0,0,0,0,0,0],"sum_hessian":[4.661112E2,4.4676947E2,1.9341736E1,8.161492E0,4.3860797E2,1.0366866E1,8.974869E0,1.6121761E1,4.224862E2,5.0807242E0,5.286142E0,1.0612226E1,5.5095367E0,2.0845392E2,2.1403229E2],"tree_param":{"num_deleted":"0","num_feature":"22","num_nodes":"15","size_leaf_vector":"1"}},{"base_weights":[1.0150851E-2,-2.2717394E-1,4.227511E-2,-5.048602E-1,2.1417616E-1,3.9604433E-2,2.2355856E-2,-6.56303E-1,1.3681433E-2,-6.360139E-2,4.2370405E-2,3.648659E-2,-2.922614E-2,8.8303175E-4,-4.5134448E-2,2.1025473E-2,-2.882806E-2,-7.781454E-4,1.0676443E-2],"categories":[],"categories_nodes":[],"categories_segments":[],"categories_sizes":[],"default_left":[0,0,0,0,0,0,0,0,0,0,0,0,0,0,0,0,0,0,0],"id":46,"left_children":[1,3,5,7,9,-1,11,13,-1,15,-1,17,-1,-1,-1,-1,-1,-1,-1],"loss_changes":[3.5957427E0,7.0643215E0,6.149948E0,4.4162817E0,4.1106853E0,0E0,3.4957507E0,5.0174637E0,0E0,4.620418E0,0E0,3.6947036E0,0E0,0E0,0E0,0E0,0E0,0E0,0E0],"parents":[2147483647,0,0,1,1,2,2,3,3,4,4,6,6,7,7,9,9,11,11],"right_children":[2,4,6,8,10,-1,12,14,-1,16,-1,18,-1,-1,-1,-1,-1,-1,-1],"split_conditions":[4.8705226E-1,-1.8115614E-4,7.9213166E-1,8.660254E-1,1.8181818E-3,3.9604433E-2,2.334419E-2,-7.0710677E-1,1.3681433E-2,-5.732577E-4,4.2370405E-2,5.70523E-3,-2.922614E-2,8.8303175E-4,-4.5134448E-2,2.1025473E-2,-2.882806E-2,-7.781454E-4,1.0676443E-2],"split_indices":[4,7,4,13,3,0,11,9,0,1,0,3,0,0,0,0,0,0,0],"split_type":[0,0,0,0,0,0,0,0,0,0,0,0,0,0,0,0,0,0,0],"sum_hessian":[4.69465E2,5.4699173E1,4.1476584E2,3.3511826E1,2.118735E1,9.163662E0,4.0560217E2,2.8305157E1,5.206668E0,1.5610103E1,5.577246E0,3.9783118E2,7.771005E0,7.896001E0,2.0409157E1,8.119817E0,7.490286E0,3.0828323E2,8.9547935E1],"tree_param":{"num_deleted":"0","num_feature":"22","num_nodes":"19","size_leaf_vector":"1"}},{"base_weights":[6.0672006E-3,2.0940459E-1,-4.6404462E-2,-2.1029234E-2,4.932467E-1,1.0625762E-1,-1.6617937E-1,2.540942E-1,-5.758825E-1,-2.5959054E-2,6.885255E-1,-2.983028E-2,1.3632567E-1,-3.1548122E-1,-9.509017E-3,-9.4532715E-3,3.155251E-2,-5.3778727E-2,-1.2459899E-2,4.232732E-2,3.0040646E-3,1.0903801E-2,-6.800925E-3,-2.5921961E-2,-5.6214695E-4,4.4874563E-3,-3.752653E-2],"categories":[],"categories_nodes":[],"categories_segments":[],"categories_sizes":[],"default_left":[0,0,0,0,0,0,0,0,0,0,0,0,0,0,0,0,0,0,0,0,0,0,0,0,0,0,0],"id":47,"left_children":[1,3,5,7,9,11,13,15,17,-1,19,-1,21,23,25,-1,-1,-1,-1,-1,-1,-1,-1,-1,-1,-1,-1],"loss_changes":[5.0167212E0,6.349439E0,6.8514233E0,8.568872E0,9.122634E0,3.5809073E0,4.8874445E0,6.461269E0,2.5704641E0,0E0,3.5585327E0,0E0,3.5949943E0,6.586095E0,7.790806E0,0E0,0E0,0E0,0E0,0E0,0E0,0E0,0E0,0E0,0E0,0E0,0E0],"parents":[2147483647,0,0,1,1,2,2,3,3,4,4,5,5,6,6,7,7,8,8,10,10,12,12,13,13,14,14],"right_children":[2,4,6,8,10,12,14,16,18,-1,20,-1,22,24,26,-1,-1,-1,-1,-1,-1,-1,-1,-1,-1,-1,-1],"split_conditions":[-1.992093E-3,-1.5082267E-2,1.0570824E-3,-2.0725388E-2,3.2299742E-4,-9.659258E-1,6.3480324E1,4.9703335E-3,-2.134886E-2,-2.5959054E-2,3.8830597E1,-2.983028E-2,7.767646E-3,4.8010973E-3,2.0397209E-2,-9.4532715E-3,3.155251E-2,-5.3778727E-2,-1.2459899E-2,4.232732E-2,3.0040646E-3,1.0903801E-2,-6.800925E-3,-2.5921961E-2,-5.6214695E-4,4.4874563E-3,-3.752653E-2],"split_indices":[1,8,3,6,3,9,4,2,8,0,4,0,5,3,5,0,0,0,0,0,0,0,0,0,0,0,0],"split_type":[0,0,0,0,0,0,0,0,0,0,0,0,0,0,0,0,0,0,0,0,0,0,0,0,0,0,0],"sum_hessian":[4.6656488E2,9.4977234E1,3.7158765E2,5.3089706E1,4.188753E1,1.6325665E2,2.08331E2,3.5974667E1,1.711504E1,6.3292637E0,3.5558266E1,5.469822E0,1.5778683E2,1.0573207E2,1.0259892E2,1.6817995E1,1.9156672E1,5.346091E0,1.1768949E1,2.793415E1,7.6241164E0,1.2172945E2,3.605739E1,6.26906E1,4.304147E1,9.158251E1,1.1016415E1],"tree_param":{"num_deleted":"0","num_feature":"22","num_nodes":"27","size_leaf_vector":"1"}},{"base_weights":[4.03435E-3,-1.8029958E-2,4.2326158E-1,3.2775592E-2,-3.1405404E-2,6.586343E-1,-7.1081743E-3,-7.192677E-1,2.842944E-3,4.82223E-2,1.08859865E-2,-4.7487568E-2,-8.825402E-3,8.4277784E-4,-4.3328524E-2],"categories":[],"categories_nodes":[],"categories_segments":[],"categories_sizes":[],"default_left":[0,0,0,0,0,0,0,0,0,0,0,0,0,0,0],"id":48,"left_children":[1,3,5,-1,7,9,-1,11,13,-1,-1,-1,-1,-1,-1],"loss_changes":[4.4137044E0,4.0660357E0,3.341813E0,0E0,1.0500726E1,1.9419274E0,0E0,2.3364468E0,5.150375E0,0E0,0E0,0E0,0E0,0E0,0E0],"parents":[2147483647,0,0,1,1,2,2,4,4,5,5,7,7,8,8],"right_children":[2,4,6,-1,8,10,-1,12,14,-1,-1,-1,-1,-1,-1],"split_conditions":[3.785489E-2,-2.2186614E-3,1.3638039E-2,3.2775592E-2,-1.1744107E-3,2.7124775E-3,-7.1081743E-3,-2.602572E-2,2.2406068E-2,4.82223E-2,1.08859865E-2,-4.7487568E-2,-8.825402E-3,8.4277784E-4,-4.3328524E-2],"split_indices":[6,7,5,0,7,11,0,6,11,0,0,0,0,0,0],"split_type":[0,0,0,0,0,0,0,0,0,0,0,0,0,0,0],"sum_hessian":[4.7223135E2,4.4987048E2,2.236087E1,7.284739E0,4.4258575E2,1.5676346E1,6.684524E0,1.9637297E1,4.2294846E2,8.137697E0,7.538648E0,1.2929753E1,6.7075424E0,4.17744E2,5.204483E0],"tree_param":{"num_deleted":"0","num_feature":"22","num_nodes":"15","size_leaf_vector":"1"}},{"base_weights":[-3.309203E-3,1.876531E-1,-6.0101446E-2,2.6724607E-1,-2.5537688E-2,8.9366734E-2,-1.739824E-1,1.1584628E-2,5.9510356E-1,-2.7649997E-2,6.483374E-1,8.462733E-2,-2.7723715E-1,-9.690716E-3,1.6908519E-2,3.4369804E-2,-2.3659114E-3,8.369073E-3,-1.0477379E-2,6.5791704E-2,1.6371198E-2,3.1373996E-2,-5.137428E-3,-2.7743382E-2,-6.9458396E-3],"categories":[],"categories_nodes":[],"categories_segments":[],"categories_sizes":[],"default_left":[0,0,0,0,0,0,0,0,0,0,0,0,0,0,0,0,0,0,0,0,0,0,0,0,0],"id":49,"left_children":[1,3,5,7,-1,9,11,13,15,17,19,21,23,-1,-1,-1,-1,-1,-1,-1,-1,-1,-1,-1,-1],"loss_changes":[5.1100173E0,6.1931343E0,6.2193284E0,8.169727E0,0E0,1.0399284E1,5.5764737E0,3.9057097E0,2.618495E0,4.7410474E0,5.163128E0,6.238347E0,5.553748E0,0E0,0E0,0E0,0E0,0E0,0E0,0E0,0E0,0E0,0E0,0E0,0E0],"parents":[2147483647,0,0,1,1,2,2,3,3,5,5,6,6,7,7,8,8,9,9,10,10,11,11,12,12],"right_children":[2,4,6,8,-1,10,12,14,16,18,20,22,24,-1,-1,-1,-1,-1,-1,-1,-1,-1,-1,-1,-1],"split_conditions":[-1.8936659E-3,1.4823815E-2,0E0,8.511176E0,-2.5537688E-2,2.0705882E-2,1.3426447E-3,6.234898E-1,3.8830597E1,1.218769E-3,8.138645E-4,-5.3684483E-4,3.176963E-1,-9.690716E-3,1.6908519E-2,3.4369804E-2,-2.3659114E-3,8.369073E-3,-1.0477379E-2,6.5791704E-2,1.6371198E-2,3.1373996E-2,-5.137428E-3,-2.7743382E-2,-6.9458396E-3],"split_indices":[1,6,0,4,0,6,2,14,4,3,1,1,10,0,0,0,0,0,0,0,0,0,0,0,0],"split_type":[0,0,0,0,0,0,0,0,0,0,0,0,0,0,0,0,0,0,0,0,0,0,0,0,0],"sum_hessian":[4.687069E2,1.0644659E2,3.622603E2,9.645217E1,9.994421E0,1.5660321E2,2.056571E2,5.5151134E1,4.1301033E1,1.3059946E2,2.6003761E1,5.8621433E1,1.4703568E2,3.4137695E1,2.101344E1,3.6089165E1,5.2118707E0,6.294951E1,6.764994E1,6.8823414E0,1.912142E1,1.4206633E1,4.4414803E1,4.7272907E1,9.976277E1],"tree_param":{"num_deleted":"0","num_feature":"22","num_nodes":"25","size_leaf_vector":"1"}},{"base_weights":[-1.0386165E-2,1.6064349E-1,-7.8786954E-2,-1.4600515E-1,5.4239345E-1,-4.7651213E-1,-5.0032854E-2,1.611437E-1,-4.951881E-1,6.342302E-1,-8.372225E-3,-6.185271E-1,4.3682936E-5,1.3602328E-1,-1.0991886E-1,2.1904597E-2,-1.977893E-2,-3.809622E-2,2.1321774E-2,1.1536771E-2,4.02989E-2,-4.42398E-3,-4.572968E-2,3.5173003E-2,-3.0540475E-3,-1.2928285E-2,3.5826527E-3],"categories":[],"categories_nodes":[],"categories_segments":[],"categories_sizes":[],"default_left":[0,0,0,0,0,0,0,0,0,0,0,0,0,0,0,0,0,0,0,0,0,0,0,0,0,0,0],"id":50,"left_children":[1,3,5,7,9,11,13,15,17,19,-1,21,-1,23,25,-1,-1,-1,-1,-1,-1,-1,-1,-1,-1,-1,-1],"loss_changes":[5.475067E0,1.578097E1,3.7646518E0,8.202729E0,4.088356E0,1.5413213E0,3.518071E0,6.5941925E0,9.26578E0,3.371582E0,0E0,2.5346613E0,0E0,8.696049E0,6.473202E0,0E0,0E0,0E0,0E0,0E0,0E0,0E0,0E0,0E0,0E0,0E0,0E0],"parents":[2147483647,0,0,1,1,2,2,3,3,4,4,5,5,6,6,7,7,8,8,9,9,11,11,13,13,14,14],"right_children":[2,4,6,8,10,12,14,16,18,20,-1,22,-1,24,26,-1,-1,-1,-1,-1,-1,-1,-1,-1,-1,-1,-1],"split_conditions":[-5E-1,6.234898E-1,7.866802E-2,0E0,1E0,4.8010973E-3,1.3668699E-3,1E0,4.6040514E-3,3.4840578E-1,-8.372225E-3,4.8899755E-4,4.3682936E-5,-4.247637E-5,3.4157487E-3,2.1904597E-2,-1.977893E-2,-3.809622E-2,2.1321774E-2,1.1536771E-2,4.02989E-2,-4.42398E-3,-4.572968E-2,3.5173003E-2,-3.0540475E-3,-1.2928285E-2,3.5826527E-3],"split_indices":[9,14,4,0,18,3,2,20,3,10,0,3,0,7,2,0,0,0,0,0,0,0,0,0,0,0,0],"split_type":[0,0,0,0,0,0,0,0,0,0,0,0,0,0,0,0,0,0,0,0,0,0,0,0,0,0,0],"sum_hessian":[4.6523895E2,1.3212332E2,3.3311563E2,7.370975E1,5.841357E1,2.076725E1,3.123484E2,3.9568775E1,3.4140972E1,5.1925774E1,6.4877973E0,1.57446995E1,5.022551E0,7.5388016E1,2.3696036E2,2.6697315E1,1.287146E1,2.6721428E1,7.419545E0,1.6639696E1,3.528608E1,6.4014144E0,9.343285E0,1.8507528E1,5.688049E1,1.3009514E2,1.0686521E2],"tree_param":{"num_deleted":"0","num_feature":"22","num_nodes":"27","size_leaf_vector":"1"}},{"base_weights":[-2.5233245E-2,2.8382882E-2,-3.8845785E-2,2.7431048E-2,-2.14373E-1,3.471999E-1,-4.570109E-2,4.643603E-1,-3.4468657E-1,2.2882433E-3,3.6163516E-2,-3.5748612E-3,2.9566944E-2,4.554969E-2,2.7879803E-3,1.0379206E-2,-2.4617692E-2],"categories":[],"categories_nodes":[],"categories_segments":[],"categories_sizes":[],"default_left":[0,0,0,0,0,0,0,0,0,0,0,0,0,0,0,0,0],"id":51,"left_children":[1,-1,3,5,7,9,11,13,15,-1,-1,-1,-1,-1,-1,-1,-1],"loss_changes":[3.7561665E0,0E0,5.318825E0,7.7999344E0,1.13135805E1,6.9487867E0,4.495767E0,3.6629243E0,8.813022E0,0E0,0E0,0E0,0E0,0E0,0E0,0E0,0E0],"parents":[2147483647,0,0,2,2,3,3,4,4,5,5,6,6,7,7,8,8],"right_children":[2,-1,4,6,8,10,12,14,16,-1,-1,-1,-1,-1,-1,-1,-1],"split_conditions":[-7.5677045E-2,2.8382882E-2,7.0710677E-1,-7.6011624E-3,-7.818315E-1,4.429937E-3,3.2130282E-2,1.3780432E-3,1.3668699E-3,2.2882433E-3,3.6163516E-2,-3.5748612E-3,2.9566944E-2,4.554969E-2,2.7879803E-3,1.0379206E-2,-2.4617692E-2],"split_indices":[6,0,9,11,0,3,8,3,2,0,0,0,0,0,0,0,0],"split_type":[0,0,0,0,0,0,0,0,0,0,0,0,0,0,0,0,0],"sum_hessian":[4.6308258E2,8.94086E0,4.5414172E2,3.3037653E2,1.2376521E2,6.057516E1,2.6980136E2,1.9253786E1,1.0451143E2,3.4631866E1,2.5943293E1,2.6065656E2,9.144822E0,8.259166E0,1.099462E1,2.184914E1,8.2662285E1],"tree_param":{"num_deleted":"0","num_feature":"22","num_nodes":"17","size_leaf_vector":"1"}},{"base_weights":[-2.9162196E-3,-2.7953934E-2,4.516362E-1,2.5783163E-1,-6.1272707E-2,7.495873E-1,-6.1360467E-3,4.1866878E-1,-1.8017694E-1,-4.523339E-2,-4.3025088E-2,1.7637402E-2,6.2323987E-2,7.88205E-3,3.6508735E-2,-2.7054822E-2,9.979495E-3,-3.1088073E-2,-1.2241633E-3],"categories":[],"categories_nodes":[],"categories_segments":[],"categories_sizes":[],"default_left":[0,0,0,0,0,0,0,0,0,0,0,0,0,0,0,0,0,0,0],"id":52,"left_children":[1,3,5,7,9,11,-1,13,15,17,-1,-1,-1,-1,-1,-1,-1,-1,-1],"loss_changes":[5.331419E0,4.257823E0,4.353407E0,3.4127634E0,5.030762E0,2.487813E0,0E0,2.601943E0,2.029355E0,4.661817E0,0E0,0E0,0E0,0E0,0E0,0E0,0E0,0E0,0E0],"parents":[2147483647,0,0,1,1,2,2,3,3,4,4,5,5,7,7,8,8,9,9],"right_children":[2,4,6,8,10,12,-1,14,16,18,-1,-1,-1,-1,-1,-1,-1,-1,-1],"split_conditions":[3.785489E-2,9.5454544E-1,6.0615383E-2,8.660254E-1,2.2406068E-2,0E0,-6.1360467E-3,5.769231E-1,-2.3463164E-3,-9.659258E-1,-4.3025088E-2,1.7637402E-2,6.2323987E-2,7.88205E-3,3.6508735E-2,-2.7054822E-2,9.979495E-3,-3.1088073E-2,-1.2241633E-3],"split_indices":[6,15,6,9,11,13,0,15,5,9,0,0,0,0,0,0,0,0,0],"split_type":[0,0,0,0,0,0,0,0,0,0,0,0,0,0,0,0,0,0,0],"sum_hessian":[4.6714838E2,4.441987E2,2.294966E1,4.516826E1,3.9903046E2,1.4866827E1,8.082832E0,3.316897E1,1.199929E1,3.927951E2,6.2353487E0,9.747528E0,5.119299E0,1.936314E1,1.3805827E1,5.8930993E0,6.1061916E0,1.20530615E1,3.8074203E2],"tree_param":{"num_deleted":"0","num_feature":"22","num_nodes":"19","size_leaf_vector":"1"}},{"base_weights":[1.766245E-2,-1.9952092E-2,2.8570214E-1,-2.502176E-1,3.575001E-2,1.1134999E-1,8.197777E-1,-4.630356E-2,-6.735368E-1,9.040296E-2,-2.0386365E-1,2.8832966E-1,-2.2635328E-2,1.8483993E-2,5.713007E-2,-9.085002E-3,3.898351E-2,-5.164942E-3,-4.076111E-2,4.5144703E-2,3.4080762E-3,3.5971645E-2,-1.7165393E-2,2.767158E-2,5.9787655E-4],"categories":[],"categories_nodes":[],"categories_segments":[],"categories_sizes":[],"default_left":[0,0,0,0,0,0,0,0,0,0,0,0,0,0,0,0,0,0,0,0,0,0,0,0,0],"id":53,"left_children":[1,3,5,7,9,11,13,15,17,19,21,23,-1,-1,-1,-1,-1,-1,-1,-1,-1,-1,-1,-1,-1],"loss_changes":[4.7625527E0,5.3288383E0,5.229079E0,6.9024324E0,4.3979836E0,4.742368E0,1.3249054E0,6.4793334E0,1.9378796E0,4.7980413E0,8.37951E0,2.5784485E0,0E0,0E0,0E0,0E0,0E0,0E0,0E0,0E0,0E0,0E0,0E0,0E0,0E0],"parents":[2147483647,0,0,1,1,2,2,3,3,4,4,5,5,6,6,7,7,8,8,9,9,10,10,11,11],"right_children":[2,4,6,8,10,12,14,16,18,20,22,24,-1,-1,-1,-1,-1,-1,-1,-1,-1,-1,-1,-1,-1],"split_conditions":[1E0,5.382345E0,5.940006E-3,5E-1,7.0710677E-1,2.0223742E-5,-1.0843942E-2,1E0,4.948045E-4,6.4026523E0,-4.8497645E-4,-1.8369701E-16,-2.2635328E-2,1.8483993E-2,5.713007E-2,-9.085002E-3,3.898351E-2,-5.164942E-3,-4.076111E-2,4.5144703E-2,3.4080762E-3,3.5971645E-2,-1.7165393E-2,2.767158E-2,5.9787655E-4],"split_indices":[17,4,3,9,13,7,6,14,3,4,7,9,0,0,0,0,0,0,0,0,0,0,0,0,0],"split_type":[0,0,0,0,0,0,0,0,0,0,0,0,0,0,0,0,0,0,0,0,0,0,0,0,0],"sum_hessian":[4.6870688E2,4.120806E2,5.6626286E1,7.9421524E1,3.3265906E2,4.412709E1,1.2499194E1,5.4804317E1,2.4617203E1,2.7180612E2,6.085293E1,3.4213936E1,9.913156E0,6.6291223E0,5.8700724E0,4.8143097E1,6.661222E0,5.485666E0,1.9131536E1,5.5998545E0,2.6620627E2,7.118955E0,5.373397E1,1.6603176E1,1.7610758E1],"tree_param":{"num_deleted":"0","num_feature":"22","num_nodes":"25","size_leaf_vector":"1"}},{"base_weights":[-5.936797E-3,3.4349284E-3,-3.3043295E-2,3.1723373E-2,-9.385821E-3,-3.686843E-1,1.1213216E-2,-2.95471E-2,6.574321E-3,5.8110226E-3,-3.367609E-3],"categories":[],"categories_nodes":[],"categories_segments":[],"categories_sizes":[],"default_left":[0,0,0,0,0,0,0,0,0,0,0],"id":54,"left_children":[1,3,-1,-1,5,7,9,-1,-1,-1,-1],"loss_changes":[2.9168797E0,3.7950332E0,0E0,0E0,3.40106E0,2.909393E0,3.5852435E0,0E0,0E0,0E0,0E0],"parents":[2147483647,0,0,1,1,4,4,5,5,6,6],"right_children":[2,4,-1,-1,6,8,10,-1,-1,-1,-1],"split_conditions":[6E-2,-7.5677045E-2,-3.3043295E-2,3.1723373E-2,-1.1744107E-3,6.592674E0,-3.9297933E-4,-2.95471E-2,6.574321E-3,5.8110226E-3,-3.367609E-3],"split_indices":[8,6,0,0,7,12,1,0,0,0,0],"split_type":[0,0,0,0,0,0,0,0,0,0,0],"sum_hessian":[4.6782056E2,4.6261652E2,5.204034E0,7.8412604E0,4.5477524E2,2.3416328E1,4.3135892E2,1.6092949E1,7.323379E0,1.8457764E2,2.4678128E2],"tree_param":{"num_deleted":"0","num_feature":"22","num_nodes":"11","size_leaf_vector":"1"}},{"base_weights":[-3.647548E-3,-3.9015806E-1,4.8389364E-2,-6.199389E-1,-1.0833432E-1,9.147518E-2,-2.043165E-1,2.3859874E-3,-8.773942E-1,2.7185732E-2,-3.283632E-1,-8.689573E-2,1.6011314E-1,3.5679936E-2,-3.4544435E-1,-1.9668914E-2,-5.073489E-2,9.87329E-3,-3.5937823E-2,-8.2807196E-4,-4.5991503E-2,1.0125986E-2,-1.0857436E-2,-2.186699E-2,1.914989E-2],"categories":[],"categories_nodes":[],"categories_segments":[],"categories_sizes":[],"default_left":[0,0,0,0,0,0,0,0,0,0,0,0,0,0,0,0,0,0,0,0,0,0,0,0,0],"id":55,"left_children":[1,3,5,7,9,11,13,-1,15,-1,17,19,21,-1,23,-1,-1,-1,-1,-1,-1,-1,-1,-1,-1],"loss_changes":[9.220203E0,3.3861256E0,4.4131E0,5.184642E0,4.0376954E0,4.2572465E0,7.998918E0,0E0,7.571392E-1,0E0,4.487343E0,5.603514E0,4.0710096E0,0E0,3.7499843E0,0E0,0E0,0E0,0E0,0E0,0E0,0E0,0E0,0E0,0E0],"parents":[2147483647,0,0,1,1,2,2,3,3,4,4,5,5,6,6,8,8,10,10,11,11,12,12,14,14],"right_children":[2,4,6,8,10,12,14,-1,16,-1,18,20,22,-1,24,-1,-1,-1,-1,-1,-1,-1,-1,-1,-1],"split_conditions":[4.8705226E-1,-1.2078978E-2,9.879537E1,-7.0710677E-1,-9.244992E-3,-7.2115385E-3,1.6366612E-3,2.3859874E-3,-1.8707482E-2,2.7185732E-2,7.7865744E-4,1.1817866E-2,9.749279E-1,3.5679936E-2,2.5596073E-2,-1.9668914E-2,-5.073489E-2,9.87329E-3,-3.5937823E-2,-8.2807196E-4,-4.5991503E-2,1.0125986E-2,-1.0857436E-2,-2.186699E-2,1.914989E-2],"split_indices":[4,8,4,9,8,5,5,0,5,0,2,6,0,0,8,0,0,0,0,0,0,0,0,0,0],"split_type":[0,0,0,0,0,0,0,0,0,0,0,0,0,0,0,0,0,0,0,0,0,0,0,0,0],"sum_hessian":[4.5466678E2,5.29071E1,4.0175967E2,2.8055462E1,2.4851639E1,3.442249E2,5.7534744E1,8.093738E0,1.9961725E1,5.656089E0,1.9195549E1,9.533872E1,2.488862E2,6.809023E0,5.072572E1,5.7729383E0,1.41887865E1,8.440314E0,1.0755236E1,8.9381096E1,5.957627E0,2.244805E2,2.4405699E1,4.5636585E1,5.0891366E0],"tree_param":{"num_deleted":"0","num_feature":"22","num_nodes":"25","size_leaf_vector":"1"}},{"base_weights":[5.0294608E-2,1.6750897E-1,-3.094528E-2,3.3227253E-1,6.1204676E-3,5.2192412E-2,-1.7262669E-1,-0E0,4.0097982E-1,-2.265234E-1,2.4318163E-1,8.915723E-2,-3.0197805E-2,-5.511173E-1,1.3584463E-1,-3.971894E-2,3.169599E-2,4.7286373E-2,1.707368E-2,-1.793615E-2,2.3068795E-2,-1.2844776E-2,2.4189154E-2,-1.2348245E-2,8.600098E-3,-3.513309E-3,-4.335788E-2,3.0105686E-2,-1.2590311E-2],"categories":[],"categories_nodes":[],"categories_segments":[],"categories_sizes":[],"default_left":[0,0,0,0,0,0,0,0,0,0,0,0,0,0,0,0,0,0,0,0,0,0,0,0,0,0,0,0,0],"id":56,"left_children":[1,3,5,7,9,11,13,15,17,19,21,23,-1,25,27,-1,-1,-1,-1,-1,-1,-1,-1,-1,-1,-1,-1,-1,-1],"loss_changes":[4.4052515E0,5.0119953E0,3.2393005E0,2.1231918E0,5.448457E0,4.2557178E0,1.2001474E1,9.603223E0,1.9595366E0,4.7689247E0,6.0948205E0,4.663886E0,0E0,6.8546495E0,1.0572603E1,0E0,0E0,0E0,0E0,0E0,0E0,0E0,0E0,0E0,0E0,0E0,0E0,0E0,0E0],"parents":[2147483647,0,0,1,1,2,2,3,3,4,4,5,5,6,6,7,7,8,8,9,9,10,10,11,11,13,13,14,14],"right_children":[2,4,6,8,10,12,14,16,18,20,22,24,-1,26,28,-1,-1,-1,-1,-1,-1,-1,-1,-1,-1,-1,-1,-1,-1],"split_conditions":[-5E-1,-3.9297933E-4,4.3388373E-1,6.547801E-1,1.2434379E-3,1.5444015E-2,-4.4112657E-3,-4.0518257E-4,1.5950071E0,4.0892675E-3,2.9934353E-1,-1.1059579E-2,-3.0197805E-2,-1.7102966E-2,1.2246469E-16,-3.971894E-2,3.169599E-2,4.7286373E-2,1.707368E-2,-1.793615E-2,2.3068795E-2,-1.2844776E-2,2.4189154E-2,-1.2348245E-2,8.600098E-3,-3.513309E-3,-4.335788E-2,3.0105686E-2,-1.2590311E-2],"split_indices":[13,1,0,4,1,11,6,7,4,2,10,5,0,6,13,0,0,0,0,0,0,0,0,0,0,0,0,0,0],"split_type":[0,0,0,0,0,0,0,0,0,0,0,0,0,0,0,0,0,0,0,0,0,0,0,0,0,0,0,0,0],"sum_hessian":[4.595823E2,1.8773601E2,2.718463E2,9.1957436E1,9.577857E1,1.716927E2,1.0015359E2,1.6078453E1,7.587898E1,4.8266857E1,4.751171E1,1.6383527E2,7.8574486E0,4.451563E1,5.5637962E1,6.949409E0,9.129045E0,5.189774E0,7.068921E1,4.1149307E1,7.1175494E0,1.5333162E1,3.217855E1,3.1689157E1,1.321461E2,1.844441E1,2.6071218E1,2.4939583E1,3.0698378E1],"tree_param":{"num_deleted":"0","num_feature":"22","num_nodes":"29","size_leaf_vector":"1"}},{"base_weights":[7.2981543E-3,-4.7501083E-2,2.160181E-2,6.0908854E-1,-4.8521956E-4,-2.4735887E-2,6.1877217E-2,1.7490596E-1,-5.4552235E-2,2.826163E-2,9.2506607E-4,-2.1919219E-2,6.3511066E-4],"categories":[],"categories_nodes":[],"categories_segments":[],"categories_sizes":[],"default_left":[0,0,0,0,0,0,0,0,0,0,0,0,0],"id":57,"left_children":[1,-1,3,5,7,-1,-1,9,11,-1,-1,-1,-1],"loss_changes":[6.3398094E0,0E0,5.984421E0,1.2545607E1,4.214996E0,0E0,0E0,6.3448806E0,8.818001E0,0E0,0E0,0E0,0E0],"parents":[2147483647,0,0,2,2,3,3,4,4,7,7,8,8],"right_children":[2,-1,4,6,8,-1,-1,10,12,-1,-1,-1,-1],"split_conditions":[2.3337222E-4,-4.7501083E-2,2.9061318E-4,9.992878E0,-1.8127569E-3,-2.4735887E-2,6.1877217E-2,3.5518503E0,-6.26506E-3,2.826163E-2,9.2506607E-4,-2.1919219E-2,6.3511066E-4],"split_indices":[3,0,3,12,1,0,0,12,5,0,0,0,0],"split_type":[0,0,0,0,0,0,0,0,0,0,0,0,0],"sum_hessian":[4.626326E2,5.3145685E0,4.5731802E2,1.520783E1,4.421102E2,5.6042657E0,9.603564E0,1.0316616E2,3.3894403E2,2.829987E1,7.4866295E1,4.9411358E1,2.8953268E2],"tree_param":{"num_deleted":"0","num_feature":"22","num_nodes":"13","size_leaf_vector":"1"}},{"base_weights":[-2.5321467E-2,-4.6082597E-2,-1.1920935E-2,2.4383456E-1,-5.2797657E-2,4.478733E-2,9.304059E-2,-6.5201265E-1,-1.5331028E-2,-1.1036039E-3,3.6834877E-2,-5.7510484E-2,5.187828E-3,-5.343536E-3,6.1703227E-3],"categories":[],"categories_nodes":[],"categories_segments":[],"categories_sizes":[],"default_left":[0,0,0,0,0,0,0,0,0,0,0,0,0,0,0],"id":58,"left_children":[1,-1,3,5,7,-1,9,11,13,-1,-1,-1,-1,-1,-1],"loss_changes":[5.4482527E0,0E0,4.7526026E0,5.9808846E0,8.764667E0,0E0,3.9565673E0,8.885987E0,4.731499E0,0E0,0E0,0E0,0E0,0E0,0E0],"parents":[2147483647,0,0,2,2,3,3,4,4,6,6,7,7,8,8],"right_children":[2,-1,4,6,8,-1,10,12,14,-1,-1,-1,-1,-1,-1],"split_conditions":[2.3337222E-4,-4.6082597E-2,4.1084635E-4,1.7556606E-1,4.638219E-4,4.478733E-2,9.45136E-3,7.818315E-1,5.3026116E-1,-1.1036039E-3,3.6834877E-2,-5.7510484E-2,5.187828E-3,-5.343536E-3,6.1703227E-3],"split_indices":[3,0,3,10,3,0,5,0,10,0,0,0,0,0,0],"split_type":[0,0,0,0,0,0,0,0,0,0,0,0,0,0,0],"sum_hessian":[4.5735205E2,5.1843724E0,4.5216766E2,6.111506E1,3.910526E2,1.0026526E1,5.108853E1,2.1485783E1,3.6956683E2,4.4500813E1,6.587717E0,1.2517588E1,8.968195E0,2.2308147E2,1.4648535E2],"tree_param":{"num_deleted":"0","num_feature":"22","num_nodes":"15","size_leaf_vector":"1"}},{"base_weights":[1.784682E-2,-2.9808873E-1,3.8962856E-2,2.5110388E-1,-6.386343E-1,5.4487365E-1,2.3920622E-2,-2.9867801E-3,2.5643332E-2,-3.6334187E-1,-4.89211E-2,6.45613E-3,4.3695863E-2,-3.0271102E-2,3.7495736E-2,-2.816531E-2,-3.2614563E-3,-2.1180384E-2,2.708433E-3],"categories":[],"categories_nodes":[],"categories_segments":[],"categories_sizes":[],"default_left":[0,0,0,0,0,0,0,0,0,0,0,0,0,0,0,0,0,0,0],"id":59,"left_children":[1,3,5,7,9,11,13,-1,-1,15,-1,-1,-1,-1,17,-1,-1,-1,-1],"loss_changes":[3.1079354E0,5.715312E0,3.2816062E0,1.0600548E0,1.1287017E0,1.4862795E0,3.6499188E0,0E0,0E0,6.692554E-1,0E0,0E0,0E0,0E0,3.237522E0,0E0,0E0,0E0,0E0],"parents":[2147483647,0,0,1,1,2,2,3,3,4,4,5,5,6,6,9,9,14,14],"right_children":[2,4,6,8,10,12,14,-1,-1,16,-1,-1,-1,-1,18,-1,-1,-1,-1],"split_conditions":[-1.1744107E-3,-4.5202557E-2,-9.4972504E-4,2.717806E-1,8.660254E-1,-2.5614754E-3,-6.1382474E-3,-2.9867801E-3,2.5643332E-2,-2.5881904E-1,-4.89211E-2,6.45613E-3,4.3695863E-2,-3.0271102E-2,-9.659258E-1,-2.816531E-2,-3.2614563E-3,-2.1180384E-2,2.708433E-3],"split_indices":[7,8,7,10,9,11,1,0,0,9,0,0,0,0,9,0,0,0,0],"split_type":[0,0,0,0,0,0,0,0,0,0,0,0,0,0,0,0,0,0,0],"sum_hessian":[4.6369678E2,2.7669289E1,4.360275E2,1.0684959E1,1.698433E1,1.0968512E1,4.25059E2,5.3264985E0,5.3584614E0,1.1178642E1,5.805688E0,5.835659E0,5.132853E0,7.5164433E0,4.1754254E2,5.7916846E0,5.386957E0,1.3188708E1,4.0435385E2],"tree_param":{"num_deleted":"0","num_feature":"22","num_nodes":"19","size_leaf_vector":"1"}},{"base_weights":[-2.2626905E-2,1.5349197E-1,-7.798708E-2,-2.4942742E-1,2.750725E-1,-4.5164954E-2,-6.226731E-2,-5.505802E-1,1.4093265E-2,7.733693E-1,1.651149E-1,-1.6412996E-1,4.3358672E-2,-4.2327654E-2,-4.3094964E-3,5.7249557E-2,4.0467833E-3,-5.170434E-3,2.355481E-2,3.8826218E-4,-1.965045E-2,1.70786E-2,-4.876338E-3],"categories":[],"categories_nodes":[],"categories_segments":[],