{"learner":{"attributes":{"scikit_learn":"{\"_estimator_type\": \"classifier\"}"},"feature_names":["atr_pct","hour_cos","ret_60","realized_vol_20","price_vs_ema_trend","hour_sin","day_of_week_sin","hl_ratio","trend_slope_pct","macd_hist","volume_ratio","ret_30","volume_trend","rsi_14","day_of_week_cos","ret_1","ret_5","body_to_range_ratio","close_position_in_candle","ema_full_alignment","rsi_divergence"],"feature_types":["float","float","float","float","float","float","float","float","float","float","float","float","float","float","float","float","float","float","float","float","float"],"gradient_booster":{"model":{"gbtree_model_param":{"num_parallel_tree":"1","num_trees":"300"},"iteration_indptr":[0,1,2,3,4,5,6,7,8,9,10,11,12,13,14,15,16,17,18,19,20,21,22,23,24,25,26,27,28,29,30,31,32,33,34,35,36,37,38,39,40,41,42,43,44,45,46,47,48,49,50,51,52,53,54,55,56,57,58,59,60,61,62,63,64,65,66,67,68,69,70,71,72,73,74,75,76,77,78,79,80,81,82,83,84,85,86,87,88,89,90,91,92,93,94,95,96,97,98,99,100,101,102,103,104,105,106,107,108,109,110,111,112,113,114,115,116,117,118,119,120,121,122,123,124,125,126,127,128,129,130,131,132,133,134,135,136,137,138,139,140,141,142,143,144,145,146,147,148,149,150,151,152,153,154,155,156,157,158,159,160,161,162,163,164,165,166,167,168,169,170,171,172,173,174,175,176,177,178,179,180,181,182,183,184,185,186,187,188,189,190,191,192,193,194,195,196,197,198,199,200,201,202,203,204,205,206,207,208,209,210,211,212,213,214,215,216,217,218,219,220,221,222,223,224,225,226,227,228,229,230,231,232,233,234,235,236,237,238,239,240,241,242,243,244,245,246,247,248,249,250,251,252,253,254,255,256,257,258,259,260,261,262,263,264,265,266,267,268,269,270,271,272,273,274,275,276,277,278,279,280,281,282,283,284,285,286,287,288,289,290,291,292,293,294,295,296,297,298,299,300],"tree_info":[0,0,0,0,0,0,0,0,0,0,0,0,0,0,0,0,0,0,0,0,0,0,0,0,0,0,0,0,0,0,0,0,0,0,0,0,0,0,0,0,0,0,0,0,0,0,0,0,0,0,0,0,0,0,0,0,0,0,0,0,0,0,0,0,0,0,0,0,0,0,0,0,0,0,0,0,0,0,0,0,0,0,0,0,0,0,0,0,0,0,0,0,0,0,0,0,0,0,0,0,0,0,0,0,0,0,0,0,0,0,0,0,0,0,0,0,0,0,0,0,0,0,0,0,0,0,0,0,0,0,0,0,0,0,0,0,0,0,0,0,0,0,0,0,0,0,0,0,0,0,0,0,0,0,0,0,0,0,0,0,0,0,0,0,0,0,0,0,0,0,0,0,0,0,0,0,0,0,0,0,0,0,0,0,0,0,0,0,0,0,0,0,0,0,0,0,0,0,0,0,0,0,0,0,0,0,0,0,0,0,0,0,0,0,0,0,0,0,0,0,0,0,0,0,0,0,0,0,0,0,0,0,0,0,0,0,0,0,0,0,0,0,0,0,0,0,0,0,0,0,0,0,0,0,0,0,0,0,0,0,0,0,0,0,0,0,0,0,0,0,0,0,0,0,0,0,0,0,0,0,0,0,0,0,0,0,0,0,0,0,0,0,0,0,0,0,0,0,0,0],"trees":[{"base_weights":[3.295749E-3,-2.9658234E-1,7.0922635E-2,-3.3478346E-2,-3.48437E-1,2.9300388E-2,4.4491395E-1,4.186363E-1,-8.661513E-2,-3.0943573E-1,-5.4644233E-1,1.5111704E-1,-2.5099166E-2,8.12967E-1,3.3283067E-1,4.6059098E-2,8.042378E-3,-4.4903043E-4,-2.2015411E-2,-8.20694E-3,-1.7563997E-2,-1.9646607E-2,-3.4397524E-2,2.6953002E-2,6.232749E-3,-5.5108275E-3,8.1278925E-4,3.7373975E-2,7.9663776E-2,1.3847142E-2,3.4640204E-2],"categories":[],"categories_nodes":[],"categories_segments":[],"categories_sizes":[],"default_left":[0,0,0,0,0,0,0,0,0,0,0,0,0,0,0,0,0,0,0,0,0,0,0,0,0,0,0,0,0,0,0],"id":0,"left_children":[1,3,5,7,9,11,13,15,17,19,21,23,25,27,29,-1,-1,-1,-1,-1,-1,-1,-1,-1,-1,-1,-1,-1,-1,-1,-1],"loss_changes":[5.49708E2,6.801474E1,3.442646E2,1.9810228E1,3.187857E1,1.3192004E2,9.090668E1,1.0957702E1,2.0231134E1,2.1072693E1,1.4386948E1,6.2953857E1,4.844777E1,2.445932E1,3.38743E1,0E0,0E0,0E0,0E0,0E0,0E0,0E0,0E0,0E0,0E0,0E0,0E0,0E0,0E0,0E0,0E0],"parents":[2147483647,0,0,1,1,2,2,3,3,4,4,5,5,6,6,7,7,8,8,9,9,10,10,11,11,12,12,13,13,14,14],"right_children":[2,4,6,8,10,12,14,16,18,20,22,24,26,28,30,-1,-1,-1,-1,-1,-1,-1,-1,-1,-1,-1,-1,-1,-1,-1,-1],"split_conditions":[8.6439826E-4,-2.5714834E-3,3.7141412E-3,-8.660254E-1,9.3217226E-5,-2.6244216E-3,-9.838671E-3,-8.928596E-5,9.801367E-4,-2.2252093E-1,0E0,-1.8504241E-2,1.2131268E-3,9.186896E-3,5.758108E-3,4.6059098E-2,8.042378E-3,-4.4903043E-4,-2.2015411E-2,-8.20694E-3,-1.7563997E-2,-1.9646607E-2,-3.4397524E-2,2.6953002E-2,6.232749E-3,-5.5108275E-3,8.1278925E-4,3.7373975E-2,7.9663776E-2,1.3847142E-2,3.4640204E-2],"split_indices":[3,4,0,1,9,4,4,9,0,14,6,11,3,3,3,0,0,0,0,0,0,0,0,0,0,0,0,0,0,0,0],"split_type":[0,0,0,0,0,0,0,0,0,0,0,0,0,0,0,0,0,0,0,0,0,0,0,0,0,0,0,0,0,0,0],"sum_hessian":[2.7103656E4,4.9864424E3,2.2117215E4,8.215314E2,4.164911E3,1.9903828E4,2.2133857E3,8.5215576E1,7.363158E2,3.4829646E3,6.8194653E2,6.143954E3,1.3759874E4,5.1440027E2,1.6989855E3,2.7517529E1,5.7698044E1,6.051637E2,1.311521E2,7.806989E2,2.7022659E3,3.2998843E2,3.5195807E2,3.9034946E2,5.7536045E3,4.498894E3,9.26098E3,4.7734036E2,3.70599E1,1.4730754E3,2.2591003E2],"tree_param":{"num_deleted":"0","num_feature":"21","num_nodes":"31","size_leaf_vector":"1"}},{"base_weights":[3.023706E-3,-1.8986224E-1,1.0169002E-1,5.3566612E-2,-2.5788108E-1,5.897064E-1,7.40249E-2,1.6943586E-1,-7.282449E-2,-5.321552E-1,-2.2573484E-1,1.1742004E0,5.210128E-1,4.5104574E-2,2.934829E-1,1.02152405E-2,-1.7308373E-2,5.780727E-4,-1.7183056E-2,-3.157427E-2,-1.3947362E-2,-1.46260215E-2,-7.6715834E-3,8.190715E-3,7.213692E-2,3.307354E-2,1.5422133E-2,5.140141E-3,-9.397997E-5,1.1194463E-2,2.8462684E-2],"categories":[],"categories_nodes":[],"categories_segments":[],"categories_sizes":[],"default_left":[0,0,0,0,0,0,0,0,0,0,0,0,0,0,0,0,0,0,0,0,0,0,0,0,0,0,0,0,0,0,0],"id":1,"left_children":[1,3,5,7,9,11,13,15,17,19,21,23,25,27,29,-1,-1,-1,-1,-1,-1,-1,-1,-1,-1,-1,-1,-1,-1,-1,-1],"loss_changes":[5.180245E2,1.5255225E2,2.430316E2,2.9500893E1,6.326474E1,3.7775024E1,1.0813791E2,1.8990524E1,2.2044231E1,1.8656555E1,3.1044434E1,2.6778198E1,2.5531448E1,4.0835403E1,3.784723E1,0E0,0E0,0E0,0E0,0E0,0E0,0E0,0E0,0E0,0E0,0E0,0E0,0E0,0E0,0E0,0E0],"parents":[2147483647,0,0,1,1,2,2,3,3,4,4,5,5,6,6,7,7,8,8,9,9,10,10,11,11,12,12,13,13,14,14],"right_children":[2,4,6,8,10,12,14,16,18,20,22,24,26,28,30,-1,-1,-1,-1,-1,-1,-1,-1,-1,-1,-1,-1,-1,-1,-1,-1],"split_conditions":[1.1098078E-3,-2.3702462E-3,-1.106256E-2,-5.231689E-3,3.4566195E-4,-6.1670906E-4,3.592668E-3,-3.5423308E-4,8.660254E-1,7.7326054E-4,8.579123E-4,4.4383747E-3,-2.4167987E-2,-7.65242E-4,3.537118E-2,1.02152405E-2,-1.7308373E-2,5.780727E-4,-1.7183056E-2,-3.157427E-2,-1.3947362E-2,-1.46260215E-2,-7.6715834E-3,8.190715E-3,7.213692E-2,3.307354E-2,1.5422133E-2,5.140141E-3,-9.397997E-5,1.1194463E-2,2.8462684E-2],"split_indices":[3,4,4,11,7,9,0,2,1,3,3,7,2,4,2,0,0,0,0,0,0,0,0,0,0,0,0,0,0,0,0],"split_type":[0,0,0,0,0,0,0,0,0,0,0,0,0,0,0,0,0,0,0,0,0,0,0,0,0,0,0,0,0,0,0],"sum_hessian":[2.721675E4,9.209977E3,1.8006773E4,2.0113286E3,7.1986484E3,9.642897E2,1.7042484E4,1.0492822E3,9.620463E2,7.5259174E2,6.4460566E3,9.879605E1,8.6549365E2,1.5059915E4,1.9825695E3,9.837559E2,6.5526306E1,7.344587E2,2.2758766E2,5.387922E2,2.1379955E2,3.3481501E3,3.0979065E3,2.1290575E1,7.750548E1,5.190939E2,3.4639978E2,6.7589565E3,8.300958E3,1.5853811E3,3.9718845E2],"tree_param":{"num_deleted":"0","num_feature":"21","num_nodes":"31","size_leaf_vector":"1"}},{"base_weights":[3.9561288E-5,-1.8103255E-1,9.28617E-2,-1.6067465E-4,-2.5293157E-1,5.1714694E-1,6.6117324E-2,-1.3109185E-1,9.6190505E-2,-5.3220284E-1,-2.1982695E-1,5.621031E-1,1.869074E-2,4.1981585E-2,3.8564968E-1,8.7279845E-3,-9.534221E-3,3.3763982E-3,4.9705446E-2,-3.2545004E-2,-1.17705865E-2,-5.6901206E-3,-1.3589369E-2,2.6954753E-2,6.424968E-2,2.4207413E-2,-2.1941567E-2,1.9310288E-3,2.9986968E-2,2.3953937E-2,6.3497946E-3],"categories":[],"categories_nodes":[],"categories_segments":[],"categories_sizes":[],"default_left":[0,0,0,0,0,0,0,0,0,0,0,0,0,0,0,0,0,0,0,0,0,0,0,0,0,0,0,0,0,0,0],"id":2,"left_children":[1,3,5,7,9,11,13,15,17,19,21,23,25,27,29,-1,-1,-1,-1,-1,-1,-1,-1,-1,-1,-1,-1,-1,-1,-1,-1],"loss_changes":[4.570253E2,1.198255E2,2.0390758E2,3.3109283E1,6.0747253E1,2.3834595E1,1.3038797E2,2.0319277E1,3.8750107E1,2.4300018E1,3.242508E1,1.5124939E1,1.9445053E1,2.9415253E1,2.8574081E1,0E0,0E0,0E0,0E0,0E0,0E0,0E0,0E0,0E0,0E0,0E0,0E0,0E0,0E0,0E0,0E0],"parents":[2147483647,0,0,1,1,2,2,3,3,4,4,5,5,6,6,7,7,8,8,9,9,10,10,11,11,12,12,13,13,14,14],"right_children":[2,4,6,8,10,12,14,16,18,20,22,24,26,28,30,-1,-1,-1,-1,-1,-1,-1,-1,-1,-1,-1,-1,-1,-1,-1,-1],"split_conditions":[1.1098078E-3,-1.8142252E-3,-2.3189778E-2,8.3292444E-4,3.4566195E-4,-3.4878405E-3,3.5646886E-3,2.6568176E1,1E0,7.805004E-4,4.979253E-4,1.4154653E-2,3.2904776E-4,4.3902438E-2,5E-1,8.7279845E-3,-9.534221E-3,3.3763982E-3,4.9705446E-2,-3.2545004E-2,-1.17705865E-2,-5.6901206E-3,-1.3589369E-2,2.6954753E-2,6.424968E-2,2.4207413E-2,-2.1941567E-2,1.9310288E-3,2.9986968E-2,2.3953937E-2,6.3497946E-3],"split_indices":[3,4,2,3,7,4,3,13,5,3,7,7,8,2,5,0,0,0,0,0,0,0,0,0,0,0,0,0,0,0,0],"split_type":[0,0,0,0,0,0,0,0,0,0,0,0,0,0,0,0,0,0,0,0,0,0,0,0,0,0,0,0,0,0,0],"sum_hessian":[2.7189006E4,9.213627E3,1.7975379E4,2.6213813E3,6.5922456E3,1.0641312E3,1.6911248E4,1.1112656E3,1.5101156E3,6.960692E2,5.8961763E3,9.758286E2,8.83026E1,1.5725298E4,1.1859501E3,1.8070311E2,9.3056256E2,1.4650192E3,4.509652E1,4.9581647E2,2.0025273E2,1.9411119E3,3.9550645E3,9.48333E2,2.7495638E1,4.37826E1,4.4519993E1,1.563279E4,9.250858E1,8.7016406E2,3.15786E2],"tree_param":{"num_deleted":"0","num_feature":"21","num_nodes":"31","size_leaf_vector":"1"}},{"base_weights":[-4.1932426E-3,-9.668882E-2,1.6990717E-1,-4.3563387E-1,-7.6153815E-2,5.231559E-1,1.2338391E-1,4.3635674E-2,-5.2416277E-1,-4.036933E-3,-1.2810309E-1,1.5169942E0,4.991436E-1,9.377676E-2,3.6565366E-1,7.976792E-3,-3.0629221E-2,-3.0543927E-2,-1.4365886E-2,-7.139448E-3,8.615292E-4,-9.21377E-3,-2.5225084E-3,1.5225897E-2,9.043127E-2,3.703427E-2,1.9552894E-2,2.1112775E-2,4.2514815E-3,1.5972687E-2,4.2603012E-2],"categories":[],"categories_nodes":[],"categories_segments":[],"categories_sizes":[],"default_left":[0,0,0,0,0,0,0,0,0,0,0,0,0,0,0,0,0,0,0,0,0,0,0,0,0,0,0,0,0,0,0],"id":3,"left_children":[1,3,5,7,9,11,13,15,17,19,21,23,25,27,29,-1,-1,-1,-1,-1,-1,-1,-1,-1,-1,-1,-1,-1,-1,-1,-1],"loss_changes":[4.3663644E2,1.2317175E2,1.544721E2,4.295677E1,6.25494E1,2.4875183E1,5.9565247E1,1.2212059E1,1.7223633E1,2.0647678E1,4.230948E1,7.918068E0,2.746051E1,2.121531E1,1.9864563E1,0E0,0E0,0E0,0E0,0E0,0E0,0E0,0E0,0E0,0E0,0E0,0E0,0E0,0E0,0E0,0E0],"parents":[2147483647,0,0,1,1,2,2,3,3,4,4,5,5,6,6,7,7,8,8,9,9,10,10,11,11,12,12,13,13,14,14],"right_children":[2,4,6,8,10,12,14,16,18,20,22,24,26,28,30,-1,-1,-1,-1,-1,-1,-1,-1,-1,-1,-1,-1,-1,-1,-1,-1],"split_conditions":[1.968837E-3,3.4566195E-4,-1.021662E-2,-2.3702462E-3,-9.255276E-4,-9.659258E-1,4.780991E-3,-2.6636226E-3,8.800574E-4,7.3434855E-4,1.253937E-3,-6.1031114E-2,-1.6509783E-2,8.498177E-2,1.1926957E-2,7.976792E-3,-3.0629221E-2,-3.0543927E-2,-1.4365886E-2,-7.139448E-3,8.615292E-4,-9.21377E-3,-2.5225084E-3,1.5225897E-2,9.043127E-2,3.703427E-2,1.9552894E-2,2.1112775E-2,4.2514815E-3,1.5972687E-2,4.2603012E-2],"split_indices":[0,7,4,4,4,1,0,11,0,0,0,12,4,10,0,0,0,0,0,0,0,0,0,0,0,0,0,0,0,0,0],"split_type":[0,0,0,0,0,0,0,0,0,0,0,0,0,0,0,0,0,0,0,0,0,0,0,0,0,0,0,0,0,0,0],"sum_hessian":[2.7111547E4,1.7705809E4,9.405738E3,1.00955896E3,1.669625E4,1.0926746E3,8.313063E3,1.5743704E2,8.5212195E2,6.9921743E3,9.704076E3,2.3528181E1,1.0691464E3,7.409817E3,9.032471E2,1.348344E2,2.2602633E1,6.21861E2,2.3026094E2,9.2847345E2,6.0637007E3,5.6292827E3,4.074793E3,5.1896396E0,1.8338541E1,3.276646E2,7.4148175E2,1.9021187E2,7.219605E3,8.2726013E2,7.5986984E1],"tree_param":{"num_deleted":"0","num_feature":"21","num_nodes":"31","size_leaf_vector":"1"}},{"base_weights":[-3.1294741E-3,-2.6204774E-1,5.1132098E-2,-4.72949E-1,-2.1345133E-1,-4.330393E-3,2.4115057E-1,1.7404324E-1,-5.6864077E-1,-4.8488602E-2,-2.9407793E-1,6.406613E-2,-6.1966207E-2,5.5254847E-1,1.6731028E-1,-2.3943575E-3,3.410812E-2,-2.9297566E-2,1.1656836E-2,-4.7411276E-3,1.2128531E-2,-7.7674584E-3,-1.8302994E-2,2.973928E-2,2.6585707E-3,-7.5487862E-3,-1.057244E-3,1.9274624E-2,3.7112124E-2,6.7005376E-3,2.3046976E-2],"categories":[],"categories_nodes":[],"categories_segments":[],"categories_sizes":[],"default_left":[0,0,0,0,0,0,0,0,0,0,0,0,0,0,0,0,0,0,0,0,0,0,0,0,0,0,0,0,0,0,0],"id":4,"left_children":[1,3,5,7,9,11,13,15,17,19,21,23,25,27,29,-1,-1,-1,-1,-1,-1,-1,-1,-1,-1,-1,-1,-1,-1,-1,-1],"loss_changes":[3.817367E2,4.8063812E1,2.3674667E2,5.4662476E1,5.088893E1,6.855472E1,1.16526306E2,1.2991447E1,1.0870728E1,1.7006714E1,2.5567108E1,4.5901745E1,3.4279396E1,3.0317627E1,4.0013283E1,0E0,0E0,0E0,0E0,0E0,0E0,0E0,0E0,0E0,0E0,0E0,0E0,0E0,0E0,0E0,0E0],"parents":[2147483647,0,0,1,1,2,2,3,3,4,4,5,5,6,6,7,7,8,8,9,9,10,10,11,11,12,12,13,13,14,14],"right_children":[2,4,6,8,10,12,14,16,18,20,22,24,26,28,30,-1,-1,-1,-1,-1,-1,-1,-1,-1,-1,-1,-1,-1,-1,-1,-1],"split_conditions":[8.516959E-4,3.576538E-4,2.721373E-3,-2.3702462E-3,4.979253E-4,-7.65242E-4,-9.186549E-3,7.3788845E-4,9.785472E-3,4.7869794E-4,-2.0300446E-3,-2.5303293E-2,1.161898E-3,4.1103214E-3,3.8884193E-2,-2.3943575E-3,3.410812E-2,-2.9297566E-2,1.1656836E-2,-4.7411276E-3,1.2128531E-2,-7.7674584E-3,-1.8302994E-2,2.973928E-2,2.6585707E-3,-7.5487862E-3,-1.057244E-3,1.9274624E-2,3.7112124E-2,6.7005376E-3,2.3046976E-2],"split_indices":[3,7,0,4,7,4,4,3,2,7,11,2,3,0,2,0,0,0,0,0,0,0,0,0,0,0,0,0,0,0,0],"split_type":[0,0,0,0,0,0,0,0,0,0,0,0,0,0,0,0,0,0,0,0,0,0,0,0,0,0,0,0,0,0,0],"sum_hessian":[2.7167523E4,4.7062124E3,2.246131E4,8.7869183E2,3.8275203E3,1.7387469E4,5.0738423E3,1.1299027E2,7.657016E2,1.2575613E3,2.569959E3,7.9509854E3,9.436483E3,9.705318E2,4.1033105E3,7.951908E1,3.347119E1,7.499756E2,1.57259865E1,1.0858821E3,1.716793E2,8.7979205E2,1.690167E3,1.5822685E2,7.7927583E3,2.965355E3,6.4711284E3,5.186176E2,4.5191418E2,3.6874802E3,4.1583017E2],"tree_param":{"num_deleted":"0","num_feature":"21","num_nodes":"31","size_leaf_vector":"1"}},{"base_weights":[-9.6985954E-4,-7.6217875E-2,1.6806494E-1,-2.7278414E-1,-4.881119E-2,5.686725E-1,1.4097169E-1,-5.0290084E-1,-1.8823285E-1,3.988265E-2,-9.1285855E-2,2.4138474E-1,7.063631E-1,9.2092425E-2,2.9336697E-1,3.0937647E-3,-3.0618746E-2,2.554023E-3,-1.2372649E-2,4.763112E-3,-1.208039E-3,-1.3012419E-3,-6.693688E-3,2.9430604E-2,-5.8693453E-3,2.109697E-2,4.8945304E-2,8.622489E-3,1.6828192E-3,2.6381576E-2,1.16787E-2],"categories":[],"categories_nodes":[],"categories_segments":[],"categories_sizes":[],"default_left":[0,0,0,0,0,0,0,0,0,0,0,0,0,0,0,0,0,0,0,0,0,0,0,0,0,0,0,0,0,0,0],"id":5,"left_children":[1,3,5,7,9,11,13,15,17,19,21,23,25,27,29,-1,-1,-1,-1,-1,-1,-1,-1,-1,-1,-1,-1,-1,-1,-1,-1],"loss_changes":[3.451126E2,1.01109924E2,9.0556854E1,4.4513245E1,6.2091206E1,2.3527756E1,5.826851E1,3.8177917E1,2.3870193E1,1.8936073E1,3.096006E1,1.9932348E1,2.8095581E1,2.7832619E1,2.6400406E1,0E0,0E0,0E0,0E0,0E0,0E0,0E0,0E0,0E0,0E0,0E0,0E0,0E0,0E0,0E0,0E0],"parents":[2147483647,0,0,1,1,2,2,3,3,4,4,5,5,6,6,7,7,8,8,9,9,10,10,11,11,12,12,13,13,14,14],"right_children":[2,4,6,8,10,12,14,16,18,20,22,24,26,28,30,-1,-1,-1,-1,-1,-1,-1,-1,-1,-1,-1,-1,-1,-1,-1,-1],"split_conditions":[2.1167092E-3,6.762454E-4,-2.9740965E-2,3.6589828E-4,-1.2140132E-3,-4.3388373E-1,3.7141412E-3,-1.4384296E-4,-2.2252093E-1,4.3388373E-1,0E0,-4.2534724E-2,-5E-1,-2.9336268E-3,-6.410814E-4,3.0937647E-3,-3.0618746E-2,2.554023E-3,-1.2372649E-2,4.763112E-3,-1.208039E-3,-1.3012419E-3,-6.693688E-3,2.9430604E-2,-5.8693453E-3,2.109697E-2,4.8945304E-2,8.622489E-3,1.6828192E-3,2.6381576E-2,1.16787E-2],"split_indices":[0,0,2,7,16,6,0,8,14,6,6,2,5,11,8,0,0,0,0,0,0,0,0,0,0,0,0,0,0,0,0],"split_type":[0,0,0,0,0,0,0,0,0,0,0,0,0,0,0,0,0,0,0,0,0,0,0,0,0,0,0,0,0,0,0],"sum_hessian":[2.7129842E4,1.8773635E4,8.356206E3,2.2953887E3,1.6478246E4,5.2731824E2,7.8288877E3,6.14618E2,1.6807708E3,5.3355938E3,1.1142652E4,1.5748126E2,3.6983698E2,5.929723E3,1.8991646E3,9.982368E1,5.147943E2,3.3328824E2,1.3474825E3,2.8613655E3,2.4742285E3,4.4014824E3,6.7411704E3,7.9610664E1,7.787059E1,1.829341E2,1.8690288E2,2.494993E3,3.43473E3,3.836152E2,1.5155493E3],"tree_param":{"num_deleted":"0","num_feature":"21","num_nodes":"31","size_leaf_vector":"1"}},{"base_weights":[9.0269465E-4,-2.3828594E-1,5.179345E-2,-2.1745414E-2,-2.862725E-1,3.2208187E-3,2.2141239E-1,3.377228E-2,-2.9671678E-1,-4.9442235E-1,-2.3171897E-1,7.487448E-2,-5.7349183E-2,4.747122E-1,1.5608375E-1,1.6795687E-2,-1.039816E-3,-2.2677686E-2,3.2634017E-4,-1.32954E-2,-2.8895611E-2,-3.7816376E-3,-1.5351054E-2,7.171555E-3,1.7826994E-3,-6.527307E-3,-8.2527165E-4,2.2024347E-2,4.9029782E-2,6.606895E-3,2.7016044E-2],"categories":[],"categories_nodes":[],"categories_segments":[],"categories_sizes":[],"default_left":[0,0,0,0,0,0,0,0,0,0,0,0,0,0,0,0,0,0,0,0,0,0,0,0,0,0,0,0,0,0,0],"id":6,"left_children":[1,3,5,7,9,11,13,15,17,19,21,23,25,27,29,-1,-1,-1,-1,-1,-1,-1,-1,-1,-1,-1,-1,-1,-1,-1,-1],"loss_changes":[3.3025903E2,4.943509E1,1.8431094E2,1.3237264E1,4.403305E1,7.549746E1,8.226813E1,1.191558E1,6.9543047E0,1.5134354E1,3.626506E1,2.1410355E1,2.8170897E1,1.6944778E1,3.6308487E1,0E0,0E0,0E0,0E0,0E0,0E0,0E0,0E0,0E0,0E0,0E0,0E0,0E0,0E0,0E0,0E0],"parents":[2147483647,0,0,1,1,2,2,3,3,4,4,5,5,6,6,7,7,8,8,9,9,10,10,11,11,12,12,13,13,14,14],"right_children":[2,4,6,8,10,12,14,16,18,20,22,24,26,28,30,-1,-1,-1,-1,-1,-1,-1,-1,-1,-1,-1,-1,-1,-1,-1,-1],"split_conditions":[8.579123E-4,-2.4180317E-3,2.7489604E-3,9.801367E-4,3.631082E-4,-7.65242E-4,-8.887165E-3,-4.74955E-3,1.1630359E-3,-5E-1,4.979253E-4,0E0,1.2131268E-3,1.073926E-2,5.758108E-3,1.6795687E-2,-1.039816E-3,-2.2677686E-2,3.2634017E-4,-1.32954E-2,-2.8895611E-2,-3.7816376E-3,-1.5351054E-2,7.171555E-3,1.7826994E-3,-6.527307E-3,-8.2527165E-4,2.2024347E-2,4.9029782E-2,6.606895E-3,2.7016044E-2],"split_indices":[3,4,0,0,7,4,4,4,0,5,7,6,3,7,3,0,0,0,0,0,0,0,0,0,0,0,0,0,0,0,0],"split_type":[0,0,0,0,0,0,0,0,0,0,0,0,0,0,0,0,0,0,0,0,0,0,0,0,0,0,0,0,0,0,0],"sum_hessian":[2.7129336E4,4.758357E3,2.237098E4,8.637744E2,3.8945825E3,1.7392291E4,4.9786895E3,7.196154E2,1.4415898E2,8.0605505E2,3.0885276E3,7.967406E3,9.424885E3,1.0187005E3,3.959989E3,1.0904202E2,6.105734E2,9.4635216E1,4.9523758E1,2.1753404E2,5.88521E2,1.00631287E3,2.0822146E3,2.8974548E3,5.069951E3,3.3739102E3,6.050974E3,9.56869E2,6.1831444E1,3.7296982E3,2.3029077E2],"tree_param":{"num_deleted":"0","num_feature":"21","num_nodes":"31","size_leaf_vector":"1"}},{"base_weights":[-4.8445594E-3,-2.3360617E-1,4.3390945E-2,-1.9828352E-1,-4.4279543E-1,3.9796972E-1,2.302494E-2,1.4801313E-1,-2.1789557E-1,-4.7655845E-1,3.9005882E-1,3.5477707E-1,8.8943225E-1,8.317374E-3,2.6737848E-1,-1.22373905E-2,1.4207137E-2,-1.8449007E-2,-8.854533E-3,-1.8350756E-2,-3.7510533E-2,-5.772467E-3,6.018251E-2,1.9863091E-2,-1.8770894E-3,4.8990667E-2,-1.3120934E-2,3.137584E-3,-1.7499737E-3,4.5675218E-2,1.1749365E-2],"categories":[],"categories_nodes":[],"categories_segments":[],"categories_sizes":[],"default_left":[0,0,0,0,0,0,0,0,0,0,0,0,0,0,0,0,0,0,0,0,0,0,0,0,0,0,0,0,0,0,0],"id":7,"left_children":[1,3,5,7,9,11,13,15,17,19,21,23,25,27,29,-1,-1,-1,-1,-1,-1,-1,-1,-1,-1,-1,-1,-1,-1,-1,-1],"loss_changes":[2.9926306E2,3.4733368E1,1.6170422E2,2.7513199E1,1.9428131E1,2.5284378E1,7.610949E1,1.1734008E1,2.3470917E1,1.9167343E1,1.1487581E1,1.871907E1,1.0537926E1,4.711986E1,2.4784157E1,0E0,0E0,0E0,0E0,0E0,0E0,0E0,0E0,0E0,0E0,0E0,0E0,0E0,0E0,0E0,0E0],"parents":[2147483647,0,0,1,1,2,2,3,3,4,4,5,5,6,6,7,7,8,8,9,9,10,10,11,11,12,12,13,13,14,14],"right_children":[2,4,6,8,10,12,14,16,18,20,22,24,26,28,30,-1,-1,-1,-1,-1,-1,-1,-1,-1,-1,-1,-1,-1,-1,-1,-1],"split_conditions":[8.579123E-4,8.928444E-5,-1.021662E-2,2.7235899E1,1E0,9.309791E-3,3.5646886E-3,-9.118541E-3,3.8358266E-4,3.213138E-3,1.540546E-4,9.659258E-1,1E0,-7.65242E-4,-9.659258E-1,-1.22373905E-2,1.4207137E-2,-1.8449007E-2,-8.854533E-3,-1.8350756E-2,-3.7510533E-2,-5.772467E-3,6.018251E-2,1.9863091E-2,-1.8770894E-3,4.8990667E-2,-1.3120934E-2,3.137584E-3,-1.7499737E-3,4.5675218E-2,1.1749365E-2],"split_indices":[3,9,4,13,5,7,3,2,7,11,9,5,1,4,5,0,0,0,0,0,0,0,0,0,0,0,0,0,0,0,0],"split_type":[0,0,0,0,0,0,0,0,0,0,0,0,0,0,0,0,0,0,0,0,0,0,0,0,0,0,0,0,0,0,0],"sum_hessian":[2.7117104E4,4.7212734E3,2.239583E4,4.0419336E3,6.793398E2,1.214838E3,2.1180992E4,2.1597722E2,3.8259563E3,6.535474E2,2.579238E1,1.1191637E3,9.567421E1,1.9980148E4,1.2008435E3,5.5187157E1,1.6079005E2,8.107561E2,3.0152002E3,4.6935745E2,1.8418993E2,1.666415E1,9.128231E0,1.009908E3,1.0925575E2,8.896123E1,6.712985E0,8.854094E3,1.1126054E4,5.5304516E1,1.1455391E3],"tree_param":{"num_deleted":"0","num_feature":"21","num_nodes":"31","size_leaf_vector":"1"}},{"base_weights":[-4.9816403E-3,-7.3820665E-2,1.2497628E-1,-2.5041923E-1,-4.8135117E-2,3.7790954E-1,8.6831324E-2,3.2570273E-1,-2.7796817E-1,-1.9084677E-3,-9.5932215E-2,1.2144642E-1,4.6214458E-1,6.574166E-2,4.5401537E-1,-1.4053299E-2,2.3080401E-2,-2.4940833E-2,-1.0662016E-2,-6.9752163E-3,6.5383344E-4,-6.5200677E-4,-8.052527E-3,2.7557835E-2,-1.8309826E-3,4.1357856E-2,1.9827044E-2,2.5996554E-3,1.4276728E-2,2.6314933E-2,-2.8772125E-2],"categories":[],"categories_nodes":[],"categories_segments":[],"categories_sizes":[],"default_left":[0,0,0,0,0,0,0,0,0,0,0,0,0,0,0,0,0,0,0,0,0,0,0,0,0,0,0,0,0,0,0],"id":8,"left_children":[1,3,5,7,9,11,13,15,17,19,21,23,25,27,29,-1,-1,-1,-1,-1,-1,-1,-1,-1,-1,-1,-1,-1,-1,-1,-1],"loss_changes":[2.4317635E2,8.0572E1,9.07401E1,3.593611E1,3.4276672E1,2.6520233E1,6.3281918E1,8.7428465E0,3.0592484E1,1.6276295E1,4.116086E1,2.0907948E1,2.165355E1,2.3345669E1,3.3489937E1,0E0,0E0,0E0,0E0,0E0,0E0,0E0,0E0,0E0,0E0,0E0,0E0,0E0,0E0,0E0,0E0],"parents":[2147483647,0,0,1,1,2,2,3,3,4,4,5,5,6,6,7,7,8,8,9,9,10,10,11,11,12,12,13,13,14,14],"right_children":[2,4,6,8,10,12,14,16,18,20,22,24,26,28,30,-1,-1,-1,-1,-1,-1,-1,-1,-1,-1,-1,-1,-1,-1,-1,-1],"split_conditions":[1.9828982E-3,6.762454E-4,-2.1690352E-2,2.6568176E1,4.943538E1,-4.3388373E-1,3.8884193E-2,-7.1652485E-3,3.534818E-4,-4.5179532E-4,0E0,-4.2534724E-2,-7.0710677E-1,6.302521E-3,1E0,-1.4053299E-2,2.3080401E-2,-2.4940833E-2,-1.0662016E-2,-6.9752163E-3,6.5383344E-4,-6.5200677E-4,-8.052527E-3,2.7557835E-2,-1.8309826E-3,4.1357856E-2,1.9827044E-2,2.5996554E-3,1.4276728E-2,2.6314933E-2,-2.8772125E-2],"split_indices":[0,0,2,13,13,6,2,11,7,8,5,2,1,7,14,0,0,0,0,0,0,0,0,0,0,0,0,0,0,0,0],"split_type":[0,0,0,0,0,0,0,0,0,0,0,0,0,0,0,0,0,0,0,0,0,0,0,0,0,0,0,0,0,0,0],"sum_hessian":[2.7179395E4,1.7768441E4,9.410954E3,2.25428E3,1.551416E4,1.2313555E3,8.179598E3,1.0205189E2,2.1522283E3,7.8879688E3,7.626192E3,3.0549564E2,9.2585986E2,7.737113E3,4.424857E2,1.831443E1,8.373746E1,4.8536206E2,1.6668662E3,7.737891E2,7.1141797E3,3.3563323E3,4.2698594E3,8.1236435E1,2.2425919E2,1.3828452E2,7.875754E2,7.2835894E3,4.535231E2,4.1418542E2,2.8300264E1],"tree_param":{"num_deleted":"0","num_feature":"21","num_nodes":"31","size_leaf_vector":"1"}},{"base_weights":[4.3006963E-4,-2.198285E-1,4.5252215E-2,-1.8647078E-1,-5.096125E-1,1.6777253E-2,2.925311E-1,-7.313829E-2,-2.4688698E-1,-5.4768497E-1,4.871639E-1,1.0086826E-1,-2.1015355E-2,4.8025796E-1,1.9310486E-1,-1.0926224E-2,1.5557776E-4,-2.4249544E-2,-9.507241E-3,-1.8998288E-2,-3.6434844E-2,7.448834E-2,-3.2456059E-3,4.397056E-3,2.6259527E-2,-5.0726067E-3,2.4087493E-4,5.0259214E-2,2.0033333E-2,-3.8436842E-3,1.2524227E-2],"categories":[],"categories_nodes":[],"categories_segments":[],"categories_sizes":[],"default_left":[0,0,0,0,0,0,0,0,0,0,0,0,0,0,0,0,0,0,0,0,0,0,0,0,0,0,0,0,0,0,0],"id":9,"left_children":[1,3,5,7,9,11,13,15,17,19,21,23,25,27,29,-1,-1,-1,-1,-1,-1,-1,-1,-1,-1,-1,-1,-1,-1,-1,-1],"loss_changes":[2.6806952E2,4.420433E1,1.588481E2,2.8165924E1,1.835096E1,6.431357E1,4.330948E1,1.5919469E1,3.6122086E1,1.3381805E1,1.0259767E1,3.431952E1,2.9016043E1,3.29767E1,2.3672226E1,0E0,0E0,0E0,0E0,0E0,0E0,0E0,0E0,0E0,0E0,0E0,0E0,0E0,0E0,0E0,0E0],"parents":[2147483647,0,0,1,1,2,2,3,3,4,4,5,5,6,6,7,7,8,8,9,9,10,10,11,11,12,12,13,13,14,14],"right_children":[2,4,6,8,10,12,14,16,18,20,22,24,26,28,30,-1,-1,-1,-1,-1,-1,-1,-1,-1,-1,-1,-1,-1,-1,-1,-1],"split_conditions":[8.516959E-4,1.1205702E-4,3.7141412E-3,-2.0300446E-3,1E0,-2.6244216E-3,-5.3351563E-3,0E0,3.631082E-4,6.234898E-1,6.40986E-4,1.9994189E-4,1.1098078E-3,-8.660254E-1,-8.660254E-1,-1.0926224E-2,1.5557776E-4,-2.4249544E-2,-9.507241E-3,-1.8998288E-2,-3.6434844E-2,7.448834E-2,-3.2456059E-3,4.397056E-3,2.6259527E-2,-5.0726067E-3,2.4087493E-4,5.0259214E-2,2.0033333E-2,-3.8436842E-3,1.2524227E-2],"split_indices":[3,9,0,11,5,4,4,5,7,14,0,9,3,5,5,0,0,0,0,0,0,0,0,0,0,0,0,0,0,0,0],"split_type":[0,0,0,0,0,0,0,0,0,0,0,0,0,0,0,0,0,0,0,0,0,0,0,0,0,0,0,0,0,0,0],"sum_hessian":[2.7151133E4,4.58977E3,2.2561363E4,4.1183364E3,4.714338E2,2.0233244E4,2.3281194E3,1.4334762E3,2.68486E3,4.5478885E2,1.6644953E1,6.273382E3,1.3959862E4,8.0394366E2,1.5241757E3,4.9242407E2,9.4105206E2,5.143445E2,2.1705156E3,2.3861841E2,2.1617044E2,5.0381737E0,1.1606778E1,6.0897827E3,1.835989E2,3.3928757E3,1.0566986E4,1.0346848E2,7.0047516E2,2.6691687E2,1.2572588E3],"tree_param":{"num_deleted":"0","num_feature":"21","num_nodes":"31","size_leaf_vector":"1"}},{"base_weights":[2.5727495E-3,-1.9829704E-1,4.453785E-2,-9.369465E-3,-2.5505558E-1,1.7470872E-2,2.7649933E-1,2.342791E-1,-6.4363234E-2,-9.7041786E-2,-3.002464E-1,4.342449E-1,8.7568E-3,5.1602525E-1,1.9643424E-1,-1.24497395E-2,2.0668656E-2,-4.7489367E-3,2.8826937E-2,-8.650738E-3,4.808331E-2,-1.7294297E-2,-6.3347914E-3,2.7013874E-2,-1.0275292E-3,2.4665107E-3,-1.5867811E-3,2.9979696E-2,8.6142365E-3,6.1524385E-3,2.262205E-2],"categories":[],"categories_nodes":[],"categories_segments":[],"categories_sizes":[],"default_left":[0,0,0,0,0,0,0,0,0,0,0,0,0,0,0,0,0,0,0,0,0,0,0,0,0,0,0,0,0,0,0],"id":10,"left_children":[1,3,5,7,9,11,13,15,17,19,21,23,25,27,29,-1,-1,-1,-1,-1,-1,-1,-1,-1,-1,-1,-1,-1,-1,-1,-1],"loss_changes":[2.2833008E2,5.0178116E1,1.4065945E2,1.4527475E1,2.5638107E1,7.285241E1,4.4708984E1,1.7439526E1,1.7423906E1,6.47908E1,2.2072006E1,1.9854294E1,3.2299553E1,1.662323E1,3.2900032E1,0E0,0E0,0E0,0E0,0E0,0E0,0E0,0E0,0E0,0E0,0E0,0E0,0E0,0E0,0E0,0E0],"parents":[2147483647,0,0,1,1,2,2,3,3,4,4,5,5,6,6,7,7,8,8,9,9,10,10,11,11,12,12,13,13,14,14],"right_children":[2,4,6,8,10,12,14,16,18,20,22,24,26,28,30,-1,-1,-1,-1,-1,-1,-1,-1,-1,-1,-1,-1,-1,-1,-1,-1],"split_conditions":[8.579123E-4,-1.3714685E-4,3.7141412E-3,2.7235899E1,-2.2252093E-1,-2.5303293E-2,-9.186549E-3,-9.118541E-3,5.0462573E-3,8.819539E-3,1.9376101E0,3.395187E-3,4.943538E1,-4.145233E-4,3.537118E-2,-1.24497395E-2,2.0668656E-2,-4.7489367E-3,2.8826937E-2,-8.650738E-3,4.808331E-2,-1.7294297E-2,-6.3347914E-3,2.7013874E-2,-1.0275292E-3,2.4665107E-3,-1.5867811E-3,2.9979696E-2,8.6142365E-3,6.1524385E-3,2.262205E-2],"split_indices":[3,8,0,13,14,2,4,2,2,2,10,0,13,8,2,0,0,0,0,0,0,0,0,0,0,0,0,0,0,0,0],"split_type":[0,0,0,0,0,0,0,0,0,0,0,0,0,0,0,0,0,0,0,0,0,0,0,0,0,0,0,0,0,0,0],"sum_hessian":[2.70848E4,4.6794424E3,2.2405357E4,1.0816545E3,3.5977878E3,2.0065766E4,2.339593E3,1.9811438E2,8.835402E2,8.0141046E2,2.7963774E3,4.0933276E2,1.9656432E4,5.8392065E2,1.7556725E3,5.333327E1,1.447811E2,8.445522E2,3.8988026E1,7.489667E2,5.244382E1,2.212711E3,5.836665E2,3.3180304E2,7.752971E1,9.81885E3,9.837582E3,4.6870834E2,1.1521227E2,1.3664032E3,3.8926932E2],"tree_param":{"num_deleted":"0","num_feature":"21","num_nodes":"31","size_leaf_vector":"1"}},{"base_weights":[-3.1826014E-3,-1.8823975E-1,4.061195E-2,-4.3051288E-2,-2.3373729E-1,-2.658681E-4,1.7321356E-1,1.8034387E-2,-3.1331205E-1,-4.701243E-1,-1.8754643E-1,7.642348E-2,-2.407933E-2,4.6538323E-1,1.3995673E-1,2.954168E-2,-4.093833E-4,-2.9496083E-2,-3.4727454E-3,-1.2614871E-2,-2.7698038E-2,-1.833947E-3,-1.1772304E-2,9.346052E-3,7.4995775E-4,-1.5792329E-3,7.727617E-3,1.7133746E-2,3.722522E-2,5.6568487E-3,1.9876847E-2],"categories":[],"categories_nodes":[],"categories_segments":[],"categories_sizes":[],"default_left":[0,0,0,0,0,0,0,0,0,0,0,0,0,0,0,0,0,0,0,0,0,0,0,0,0,0,0,0,0,0,0],"id":11,"left_children":[1,3,5,7,9,11,13,15,17,19,21,23,25,27,29,-1,-1,-1,-1,-1,-1,-1,-1,-1,-1,-1,-1,-1,-1,-1,-1],"loss_changes":[2.1902615E2,3.413434E1,1.1846033E2,2.0429787E1,4.2824707E1,3.0506784E1,4.9908264E1,1.51986E1,1.5292427E1,1.1481613E1,2.3793999E1,2.6848984E1,1.7092571E1,1.7560104E1,3.1861664E1,0E0,0E0,0E0,0E0,0E0,0E0,0E0,0E0,0E0,0E0,0E0,0E0,0E0,0E0,0E0,0E0],"parents":[2147483647,0,0,1,1,2,2,3,3,4,4,5,5,6,6,7,7,8,8,9,9,10,10,11,11,12,12,13,13,14,14],"right_children":[2,4,6,8,10,12,14,16,18,20,22,24,26,28,30,-1,-1,-1,-1,-1,-1,-1,-1,-1,-1,-1,-1,-1,-1,-1,-1],"split_conditions":[8.8984554E-4,-1.3714685E-4,2.721373E-3,9.801367E-4,3.534818E-4,-5.4182187E-3,-2.9740965E-2,-3.6764706E-3,0E0,-5E-1,-2.2252093E-1,0E0,1E0,1.2246469E-16,3.8884193E-2,2.954168E-2,-4.093833E-4,-2.9496083E-2,-3.4727454E-3,-1.2614871E-2,-2.7698038E-2,-1.833947E-3,-1.1772304E-2,9.346052E-3,7.4995775E-4,-1.5792329E-3,7.727617E-3,1.7133746E-2,3.722522E-2,5.6568487E-3,1.9876847E-2],"split_indices":[3,8,0,0,7,11,2,16,5,5,14,6,5,5,2,0,0,0,0,0,0,0,0,0,0,0,0,0,0,0,0],"split_type":[0,0,0,0,0,0,0,0,0,0,0,0,0,0,0,0,0,0,0,0,0,0,0,0,0,0,0,0,0,0,0],"sum_hessian":[2.7021443E4,5.170271E3,2.1851172E4,1.2345815E3,3.9356892E3,1.6703127E4,5.1480444E3,1.0079701E3,2.266115E2,6.4091003E2,3.2947793E3,3.9564106E3,1.2746717E4,5.2395667E2,4.6240874E3,4.279335E1,9.6517676E2,1.05082085E2,1.215294E2,1.7995493E2,4.609551E2,7.9487805E2,2.4999011E3,1.4121622E3,2.5442485E3,1.2234203E4,5.1251355E2,3.663994E2,1.5755725E2,4.1901533E3,4.3393414E2],"tree_param":{"num_deleted":"0","num_feature":"21","num_nodes":"31","size_leaf_vector":"1"}},{"base_weights":[2.0813057E-3,-1.0796193E-1,7.454223E-2,-1.963367E-1,-5.0376285E-2,3.4098697E-1,5.485989E-2,-1.6492951E-1,-4.212285E-1,-6.683461E-2,2.812142E-1,6.788777E-1,2.8928924E-1,3.782888E-2,2.477281E-1,3.7264157E-2,-8.586082E-3,-1.5118121E-2,-3.3062775E-2,3.4642469E-3,-5.2269395E-3,2.8764213E-2,-2.1453267E-2,-6.463561E-3,3.7236143E-2,1.6631281E-2,-6.5022046E-3,7.168533E-3,1.2712696E-3,1.3611505E-2,-2.0319132E-2],"categories":[],"categories_nodes":[],"categories_segments":[],"categories_sizes":[],"default_left":[0,0,0,0,0,0,0,0,0,0,0,0,0,0,0,0,0,0,0,0,0,0,0,0,0,0,0,0,0,0,0],"id":12,"left_children":[1,3,5,7,9,11,13,15,17,19,21,23,25,27,29,-1,-1,-1,-1,-1,-1,-1,-1,-1,-1,-1,-1,-1,-1,-1,-1],"loss_changes":[2.1624358E2,5.4768005E1,8.570733E1,2.9864609E1,3.560829E1,1.9298004E1,4.9996044E1,2.321885E1,1.4467606E1,3.1907204E1,6.482106E1,8.048637E0,1.7846245E1,1.8307598E1,1.9955551E1,0E0,0E0,0E0,0E0,0E0,0E0,0E0,0E0,0E0,0E0,0E0,0E0,0E0,0E0,0E0,0E0],"parents":[2147483647,0,0,1,1,2,2,3,3,4,4,5,5,6,6,7,7,8,8,9,9,10,10,11,11,12,12,13,13,14,14],"right_children":[2,4,6,8,10,12,14,16,18,20,22,24,26,28,30,-1,-1,-1,-1,-1,-1,-1,-1,-1,-1,-1,-1,-1,-1,-1,-1],"split_conditions":[1.2192421E-3,8.3292444E-4,-2.3189778E-2,9.9032106E-5,1E0,-9.960868E-3,3.5646886E-3,-3.2657865E-4,2.894356E-3,-4.651163E-3,5.5446834E-3,2.092941E-3,2.8881003E-4,-2.283974E-3,1E0,3.7264157E-2,-8.586082E-3,-1.5118121E-2,-3.3062775E-2,3.4642469E-3,-5.2269395E-3,2.8764213E-2,-2.1453267E-2,-6.463561E-3,3.7236143E-2,1.6631281E-2,-6.5022046E-3,7.168533E-3,1.2712696E-3,1.3611505E-2,-2.0319132E-2],"split_indices":[3,3,2,9,5,16,3,9,11,11,2,3,8,15,5,0,0,0,0,0,0,0,0,0,0,0,0,0,0,0,0],"split_type":[0,0,0,0,0,0,0,0,0,0,0,0,0,0,0,0,0,0,0,0,0,0,0,0,0,0,0,0,0,0,0],"sum_hessian":[2.7116338E4,1.0765627E4,1.6350711E4,4.245586E3,6.5200415E3,1.122887E3,1.5227824E4,3.727803E3,5.1778284E2,6.2130103E3,3.0703113E2,1.4646208E2,9.7642487E2,1.3994141E4,1.2336835E3,2.6348755E1,3.7014543E3,3.4869836E2,1.6908447E2,1.3471064E3,4.865904E3,2.1738489E2,8.964624E1,1.0868121E1,1.3559396E2,8.8535626E2,9.106855E1,1.4695776E3,1.2524563E4,1.1900579E3,4.36256E1],"tree_param":{"num_deleted":"0","num_feature":"21","num_nodes":"31","size_leaf_vector":"1"}},{"base_weights":[2.7664236E-3,-1.1225701E-1,5.947991E-2,3.700866E-2,-1.5427412E-1,3.486721E-2,2.0832726E-1,1.7619748E-1,-1.0827156E-2,-3.7181833E-1,-1.2996942E-1,2.7595457E-1,2.9577749E-2,3.678994E-1,1.3922305E-1,1.9656343E-2,2.5203906E-3,-2.7829055E-3,1.3596922E-2,-2.0081742E-2,1.6852986E-2,-1.1188115E-3,-9.159739E-3,1.6377246E-2,-2.4923429E-2,3.6961858E-3,2.0799386E-4,4.260796E-2,1.486141E-2,4.7372463E-3,2.1631321E-2],"categories":[],"categories_nodes":[],"categories_segments":[],"categories_sizes":[],"default_left":[0,0,0,0,0,0,0,0,0,0,0,0,0,0,0,0,0,0,0,0,0,0,0,0,0,0,0,0,0,0,0],"id":13,"left_children":[1,3,5,7,9,11,13,15,17,19,21,23,25,27,29,-1,-1,-1,-1,-1,-1,-1,-1,-1,-1,-1,-1,-1,-1,-1,-1],"loss_changes":[1.7635167E2,5.600418E1,6.631189E1,1.3074053E1,3.6738968E1,1.9789022E1,2.8222397E1,1.3650823E1,1.8535837E1,1.4983292E1,3.588584E1,1.3550144E1,1.713772E1,2.608863E1,2.3337517E1,0E0,0E0,0E0,0E0,0E0,0E0,0E0,0E0,0E0,0E0,0E0,0E0,0E0,0E0,0E0,0E0],"parents":[2147483647,0,0,1,1,2,2,3,3,4,4,5,5,6,6,7,7,8,8,9,9,10,10,11,11,12,12,13,13,14,14],"right_children":[2,4,6,8,10,12,14,16,18,20,22,24,26,28,30,-1,-1,-1,-1,-1,-1,-1,-1,-1,-1,-1,-1,-1,-1,-1,-1],"split_conditions":[1.1098078E-3,-2.4180317E-3,3.592668E-3,-4.830129E-3,3.4566195E-4,-1.2217995E-2,-6.946332E-3,9.801367E-4,9.659258E-1,1.0228711E-3,4.979253E-4,9.659258E-1,0E0,-8.660254E-1,5.758108E-3,1.9656343E-2,2.5203906E-3,-2.7829055E-3,1.3596922E-2,-2.0081742E-2,1.6852986E-2,-1.1188115E-3,-9.159739E-3,1.6377246E-2,-2.4923429E-2,3.6961858E-3,2.0799386E-4,4.260796E-2,1.486141E-2,4.7372463E-3,2.1631321E-2],"split_indices":[3,4,0,4,7,4,4,0,5,3,7,5,6,5,3,0,0,0,0,0,0,0,0,0,0,0,0,0,0,0,0],"split_type":[0,0,0,0,0,0,0,0,0,0,0,0,0,0,0,0,0,0,0,0,0,0,0,0,0,0,0,0,0,0,0],"sum_hessian":[2.7031158E4,8.92585E3,1.8105309E4,1.9604269E3,6.9654224E3,1.5538176E4,2.5671323E3,5.006617E2,1.4597651E3,6.976307E2,6.267792E3,3.317381E2,1.52064375E4,7.735889E2,1.7935435E3,1.8244409E2,3.1821762E2,1.2611917E3,1.9857353E2,6.7016327E2,2.7467428E1,2.0754377E3,4.192354E3,3.1189075E2,1.9847334E1,5.5385786E3,9.667859E3,9.631508E1,6.7727386E2,1.5593157E3,2.3422781E2],"tree_param":{"num_deleted":"0","num_feature":"21","num_nodes":"31","size_leaf_vector":"1"}},{"base_weights":[1.1415391E-3,-6.0637407E-2,1.1388857E-1,-1.8007515E-1,-2.2741053E-2,3.9255494E-1,9.262116E-2,-6.1469106E-3,-2.2996554E-1,2.807442E-2,-7.41526E-2,1.0059814E0,2.991706E-1,5.229173E-2,1.735506E-1,2.9479707E-2,-1.9570205E-3,-2.1823017E-2,-8.843358E-3,-7.979848E-3,2.4651734E-3,-5.433788E-4,-6.239268E-3,-2.4639682E-3,5.8083978E-2,1.0671115E-2,3.0438496E-2,8.656426E-3,1.1877245E-3,5.392836E-3,1.3486648E-2],"categories":[],"categories_nodes":[],"categories_segments":[],"categories_sizes":[],"default_left":[0,0,0,0,0,0,0,0,0,0,0,0,0,0,0,0,0,0,0,0,0,0,0,0,0,0,0,0,0,0,0],"id":14,"left_children":[1,3,5,7,9,11,13,15,17,19,21,23,25,27,29,-1,-1,-1,-1,-1,-1,-1,-1,-1,-1,-1,-1,-1,-1,-1,-1],"loss_changes":[1.8892737E2,7.9292366E1,5.6824234E1,3.660353E1,3.4760902E1,3.8446983E1,2.9097527E1,1.8530529E1,3.580612E1,2.6664383E1,2.1183998E1,1.479068E1,1.5493973E1,2.052822E1,1.8681953E1,0E0,0E0,0E0,0E0,0E0,0E0,0E0,0E0,0E0,0E0,0E0,0E0,0E0,0E0,0E0,0E0],"parents":[2147483647,0,0,1,1,2,2,3,3,4,4,5,5,6,6,7,7,8,8,9,9,10,10,11,11,12,12,13,13,14,14],"right_children":[2,4,6,8,10,12,14,16,18,20,22,24,26,28,30,-1,-1,-1,-1,-1,-1,-1,-1,-1,-1,-1,-1,-1,-1,-1,-1],"split_conditions":[1.968837E-3,8.3292444E-4,-2.0585397E-2,-1.4056046E-4,4.943538E1,-8.660254E-1,3.221431E-3,-3.5915854E-3,3.631082E-4,-4.6169202E-4,0E0,2.531921E-1,9.468944E-2,1.7610665E-3,3.2178827E-3,2.9479707E-2,-1.9570205E-3,-2.1823017E-2,-8.843358E-3,-7.979848E-3,2.4651734E-3,-5.433788E-4,-6.239268E-3,-2.4639682E-3,5.8083978E-2,1.0671115E-2,3.0438496E-2,8.656426E-3,1.1877245E-3,5.392836E-3,1.3486648E-2],"split_indices":[0,3,11,8,13,5,7,16,7,8,5,10,12,3,3,0,0,0,0,0,0,0,0,0,0,0,0,0,0,0,0],"split_type":[0,0,0,0,0,0,0,0,0,0,0,0,0,0,0,0,0,0,0,0,0,0,0,0,0,0,0,0,0,0,0],"sum_hessian":[2.7120348E4,1.7520412E4,9.599937E3,4.218389E3,1.3302022E4,6.786794E2,8.921258E3,9.4090076E2,3.2774883E3,6.689645E3,6.612377E3,8.7660126E1,5.910193E2,5.956201E3,2.9650566E3,4.796731E1,8.929335E2,6.679849E2,2.6095034E3,6.7858765E2,6.0110576E3,2.9402358E3,3.6721409E3,1.1361357E1,7.629877E1,4.6494193E2,1.2607734E2,1.1361187E3,4.8200825E3,1.7639535E3,1.201103E3],"tree_param":{"num_deleted":"0","num_feature":"21","num_nodes":"31","size_leaf_vector":"1"}},{"base_weights":[3.32576E-3,-1.5174775E-1,3.9515447E-2,4.6912752E-2,-1.794071E-1,3.610615E-1,2.5676647E-2,4.6736562E-1,-3.672299E-2,-4.824891E-2,-2.2066146E-1,8.350468E-1,2.825919E-1,5.766301E-3,1.3101557E-1,6.248735E-3,3.505328E-2,-7.4106203E-3,4.77111E-3,1.1642235E-2,-5.663635E-3,-9.803085E-3,-2.6889844E-2,2.65702E-2,6.8651535E-2,-1.6987499E-2,1.6297651E-2,2.356236E-3,-1.0225837E-3,8.085176E-3,-3.6448606E-3],"categories":[],"categories_nodes":[],"categories_segments":[],"categories_sizes":[],"default_left":[0,0,0,0,0,0,0,0,0,0,0,0,0,0,0,0,0,0,0,0,0,0,0,0,0,0,0,0,0,0,0],"id":15,"left_children":[1,3,5,7,9,11,13,15,17,19,21,23,25,27,29,-1,-1,-1,-1,-1,-1,-1,-1,-1,-1,-1,-1,-1,-1,-1,-1],"loss_changes":[1.5194167E2,2.81678E1,9.7650276E1,2.2096945E1,2.430426E1,3.3270325E1,4.4137234E1,8.168465E0,7.7481575E0,1.974227E1,2.648938E1,1.9681114E1,2.1194572E1,1.9200111E1,2.0957027E1,0E0,0E0,0E0,0E0,0E0,0E0,0E0,0E0,0E0,0E0,0E0,0E0,0E0,0E0,0E0,0E0],"parents":[2147483647,0,0,1,1,2,2,3,3,4,4,5,5,6,6,7,7,8,8,9,9,10,10,11,11,12,12,13,13,14,14],"right_children":[2,4,6,8,10,12,14,16,18,20,22,24,26,28,30,-1,-1,-1,-1,-1,-1,-1,-1,-1,-1,-1,-1,-1,-1,-1,-1],"split_conditions":[8.8984554E-4,3.3355385E1,-1.8504241E-2,3.6589828E-4,-2.2252093E-1,-8.660254E-1,3.221431E-3,1.2246469E-16,5.8344185E-2,-5E-1,1.4449487E-4,4.0137256E-3,2.2275264E-3,-1.507851E-3,1.7455465E-1,6.248735E-3,3.505328E-2,-7.4106203E-3,4.77111E-3,1.1642235E-2,-5.663635E-3,-9.803085E-3,-2.6889844E-2,2.65702E-2,6.8651535E-2,-1.6987499E-2,1.6297651E-2,2.356236E-3,-1.0225837E-3,8.085176E-3,-3.6448606E-3],"split_indices":[3,13,11,7,14,5,7,5,12,5,9,0,0,4,12,0,0,0,0,0,0,0,0,0,0,0,0,0,0,0,0],"split_type":[0,0,0,0,0,0,0,0,0,0,0,0,0,0,0,0,0,0,0,0,0,0,0,0,0,0,0,0,0,0,0],"sum_hessian":[2.7072023E4,5.1212397E3,2.1950783E4,6.2553644E2,4.495703E3,9.0404083E2,2.1046742E4,1.0274307E2,5.227934E2,1.076787E3,3.4189163E3,1.2626344E2,7.777774E2,1.7702762E4,3.3439817E3,4.2699963E1,6.004311E1,2.836647E2,2.3912871E2,2.0142024E2,8.753668E2,3.1752048E3,2.4371143E2,8.267534E1,4.3588097E1,4.9918236E1,7.278592E2,6.8685103E3,1.0834251E4,2.907041E3,4.3694083E2],"tree_param":{"num_deleted":"0","num_feature":"21","num_nodes":"31","size_leaf_vector":"1"}},{"base_weights":[7.7206893E-3,-1.5778832E-1,4.050476E-2,-1.7773366E-2,-1.9941643E-1,3.0001757E-1,2.6705176E-2,-2.0136721E-1,8.5731134E-2,-3.8401306E-1,-1.4589782E-1,3.2148704E-1,-2.523307E-1,1.0850728E-2,1.6679081E-1,-4.5435703E-3,-2.780999E-2,3.5657547E-2,2.6404213E-3,-9.587823E-3,-2.2914644E-2,8.802237E-4,-1.0874468E-2,1.2922495E-2,2.4776151E-2,-2.9348586E-2,2.7278116E-2,1.8885586E-3,-1.8143924E-3,1.0824903E-2,-5.055852E-3],"categories":[],"categories_nodes":[],"categories_segments":[],"categories_sizes":[],"default_left":[0,0,0,0,0,0,0,0,0,0,0,0,0,0,0,0,0,0,0,0,0,0,0,0,0,0,0,0,0,0,0],"id":16,"left_children":[1,3,5,7,9,11,13,15,17,19,21,23,25,27,29,-1,-1,-1,-1,-1,-1,-1,-1,-1,-1,-1,-1,-1,-1,-1,-1],"loss_changes":[1.4667574E2,2.6032425E1,8.0775024E1,1.9531143E1,3.3918854E1,1.363092E1,4.7575138E1,1.4420738E1,1.34779415E1,1.0875488E1,3.1303558E1,1.1805481E1,1.2061298E1,2.4429638E1,2.9042416E1,0E0,0E0,0E0,0E0,0E0,0E0,0E0,0E0,0E0,0E0,0E0,0E0,0E0,0E0,0E0,0E0],"parents":[2147483647,0,0,1,1,2,2,3,3,4,4,5,5,6,6,7,7,8,8,9,9,10,10,11,11,12,12,13,13,14,14],"right_children":[2,4,6,8,10,12,14,16,18,20,22,24,26,28,30,-1,-1,-1,-1,-1,-1,-1,-1,-1,-1,-1,-1,-1,-1,-1,-1],"split_conditions":[8.516959E-4,-1.4056046E-4,-2.3189778E-2,0E0,3.8358266E-4,5.5276184E1,3.4928783E-3,9.520141E-4,-3.5915854E-3,-5E-1,4.979253E-4,4.780991E-3,4.512615E-3,1.3541093E-3,1E0,-4.5435703E-3,-2.780999E-2,3.5657547E-2,2.6404213E-3,-9.587823E-3,-2.2914644E-2,8.802237E-4,-1.0874468E-2,1.2922495E-2,2.4776151E-2,-2.9348586E-2,2.7278116E-2,1.8885586E-3,-1.8143924E-3,1.0824903E-2,-5.055852E-3],"split_indices":[3,8,2,5,7,13,0,0,16,5,7,0,3,4,14,0,0,0,0,0,0,0,0,0,0,0,0,0,0,0,0],"split_type":[0,0,0,0,0,0,0,0,0,0,0,0,0,0,0,0,0,0,0,0,0,0,0,0,0,0,0,0,0,0,0],"sum_hessian":[2.702954E4,4.4676333E3,2.2561906E4,1.0246371E3,3.4429963E3,1.1374003E3,2.1424506E4,3.690643E2,6.5557275E2,7.715534E2,2.671443E3,1.0955349E3,4.186534E1,1.9248045E4,2.1764597E3,2.8297134E2,8.6092964E1,3.106401E1,6.245087E2,2.167055E2,5.548479E2,8.136483E2,1.8577947E3,8.0718225E2,2.8835266E2,2.9818481E1,1.2046861E1,1.2252248E4,6.9957974E3,1.8362405E3,3.402191E2],"tree_param":{"num_deleted":"0","num_feature":"21","num_nodes":"31","size_leaf_vector":"1"}},{"base_weights":[2.085252E-3,-4.6929263E-2,9.09317E-2,-2.6533064E-1,-3.4603804E-2,2.915645E-1,6.059332E-2,3.2208074E-2,-3.412107E-1,1.7838763E-2,-7.2544165E-2,2.704728E-1,9.011184E-1,4.9367987E-2,2.61259E-1,3.2304626E-2,-3.4814335E-3,-2.0998737E-2,-5.317913E-3,-2.0101182E-2,1.2198347E-3,3.858943E-2,-3.8137434E-3,7.583981E-4,1.53731825E-2,5.256154E-2,-5.13174E-3,2.3354818E-3,5.0080676E-2,1.6471967E-2,-3.6757514E-2],"categories":[],"categories_nodes":[],"categories_segments":[],"categories_sizes":[],"default_left":[0,0,0,0,0,0,0,0,0,0,0,0,0,0,0,0,0,0,0,0,0,0,0,0,0,0,0,0,0,0,0],"id":17,"left_children":[1,3,5,7,9,11,13,15,17,19,21,23,25,27,29,-1,-1,-1,-1,-1,-1,-1,-1,-1,-1,-1,-1,-1,-1,-1,-1],"loss_changes":[1.17689606E2,4.6854122E1,5.8442818E1,2.1027412E1,3.281041E1,1.5794403E1,1.877087E1,1.1987081E1,1.3617996E1,1.9054564E1,3.0190804E1,1.1512993E1,6.4574814E0,1.9896975E1,3.0350275E1,0E0,0E0,0E0,0E0,0E0,0E0,0E0,0E0,0E0,0E0,0E0,0E0,0E0,0E0,0E0,0E0],"parents":[2147483647,0,0,1,1,2,2,3,3,4,4,5,5,6,6,7,7,8,8,9,9,10,10,11,11,12,12,13,13,14,14],"right_children":[2,4,6,8,10,12,14,16,18,20,22,24,26,28,30,-1,-1,-1,-1,-1,-1,-1,-1,-1,-1,-1,-1,-1,-1,-1,-1],"split_conditions":[1.968837E-3,3.4566195E-4,-9.838671E-3,-1.5717185E-4,0E0,1.4154653E-2,3.8884193E-2,5.52198E-4,9.2414056E-4,-8.101676E-3,-2.3189778E-2,-7.818315E-1,1E0,1.1926957E-2,1E0,3.2304626E-2,-3.4814335E-3,-2.0998737E-2,-5.317913E-3,-2.0101182E-2,1.2198347E-3,3.858943E-2,-3.8137434E-3,7.583981E-4,1.53731825E-2,5.256154E-2,-5.13174E-3,2.3354818E-3,5.0080676E-2,1.6471967E-2,-3.6757514E-2],"split_indices":[0,7,4,8,6,7,2,0,0,4,2,6,14,0,14,0,0,0,0,0,0,0,0,0,0,0,0,0,0,0,0],"split_type":[0,0,0,0,0,0,0,0,0,0,0,0,0,0,0,0,0,0,0,0,0,0,0,0,0,0,0,0,0,0,0],"sum_hessian":[2.7021998E4,1.7414803E4,9.607195E3,9.2843933E2,1.6486363E4,1.2600055E3,8.34719E3,1.8870375E2,7.397356E2,6.920319E3,9.566044E3,1.2200375E3,3.996793E1,7.906988E3,4.4020236E2,2.577902E1,1.6292473E2,5.529079E2,1.8682771E2,1.0491941E2,6.8153994E3,4.0664314E1,9.52538E3,1.5483792E2,1.0651996E3,3.474991E1,5.2180233E0,7.886597E3,2.0390654E1,4.1299686E2,2.72055E1],"tree_param":{"num_deleted":"0","num_feature":"21","num_nodes":"31","size_leaf_vector":"1"}},{"base_weights":[-4.2987326E-3,-1.6164169E-1,2.6903398E-2,-3.4741327E-2,-1.998285E-1,-6.058684E-3,1.190711E-1,-3.00036E-1,4.382514E-2,-5.9566975E-2,-2.3933649E-1,4.980017E-2,-4.050042E-2,3.1126484E-1,8.5400894E-2,-1.347713E-3,-3.848741E-2,1.4325548E-3,6.469308E-2,-8.8421995E-4,-2.8594553E-2,-1.3784478E-2,-5.0364975E-3,5.8306754E-3,-1.8702855E-4,-2.1641187E-3,5.072868E-2,1.2032985E-2,2.715425E-2,3.6846835E-3,1.51844295E-2],"categories":[],"categories_nodes":[],"categories_segments":[],"categories_sizes":[],"default_left":[0,0,0,0,0,0,0,0,0,0,0,0,0,0,0,0,0,0,0,0,0,0,0,0,0,0,0,0,0,0,0],"id":18,"left_children":[1,3,5,7,9,11,13,15,17,19,21,23,25,27,29,-1,-1,-1,-1,-1,-1,-1,-1,-1,-1,-1,-1,-1,-1,-1,-1],"loss_changes":[1.3294615E2,2.1694504E1,6.86576E1,2.168309E1,1.9049515E1,3.2026485E1,3.8463814E1,3.041483E1,1.51013565E1,1.6245996E1,1.3476135E1,2.2717894E1,3.0243961E1,1.4277245E1,1.2898846E1,0E0,0E0,0E0,0E0,0E0,0E0,0E0,0E0,0E0,0E0,0E0,0E0,0E0,0E0,0E0,0E0],"parents":[2147483647,0,0,1,1,2,2,3,3,4,4,5,5,6,6,7,7,8,8,9,9,10,10,11,11,12,12,13,13,14,14],"right_children":[2,4,6,8,10,12,14,16,18,20,22,24,26,28,30,-1,-1,-1,-1,-1,-1,-1,-1,-1,-1,-1,-1,-1,-1,-1,-1],"split_conditions":[8.516959E-4,-2.2252093E-1,2.5494364E-3,-7.0710677E-1,-1.4056046E-4,0E0,-1.0610668E-2,-8.660254E-1,6.3548186E-3,1.0715452E-3,1.9376101E0,-7.271466E-4,1.0446757E-3,1.4624525E0,5.758108E-3,-1.347713E-3,-3.848741E-2,1.4325548E-3,6.469308E-2,-8.8421995E-4,-2.8594553E-2,-1.3784478E-2,-5.0364975E-3,5.8306754E-3,-1.8702855E-4,-2.1641187E-3,5.072868E-2,1.2032985E-2,2.715425E-2,3.6846835E-3,1.51844295E-2],"split_indices":[3,14,0,1,8,6,4,1,4,0,10,4,8,10,3,0,0,0,0,0,0,0,0,0,0,0,0,0,0,0,0],"split_type":[0,0,0,0,0,0,0,0,0,0,0,0,0,0,0,0,0,0,0,0,0,0,0,0,0,0,0,0,0,0,0],"sum_hessian":[2.7075523E4,4.4799277E3,2.2595596E4,1.0372316E3,3.4426963E3,1.6644025E4,5.9515703E3,2.3616922E2,8.010624E2,7.5770685E2,2.6849895E3,6.3474233E3,1.0296602E4,8.851533E2,5.066417E3,1.5041394E2,8.575528E1,7.930105E2,8.051881E0,7.019701E2,5.5736794E1,2.1256416E3,5.5934784E2,2.8233455E3,3.524078E3,1.0271006E4,2.5596102E1,6.810114E2,2.0414188E2,4.8106475E3,2.5576968E2],"tree_param":{"num_deleted":"0","num_feature":"21","num_nodes":"31","size_leaf_vector":"1"}},{"base_weights":[4.606898E-3,-1.4045313E-1,3.3160944E-2,1.6448928E-1,-1.5621905E-1,1.5454713E-2,1.8311402E-1,-2.671456E-1,3.093359E-1,-3.4005187E-2,-1.9357657E-1,3.765936E-1,1.0997566E-2,3.5022464E-1,1.3087106E-1,3.7876707E-2,-2.7701495E-2,2.0276997E-2,-1.9338546E-2,-4.3376633E-3,4.4437964E-2,-3.3601304E-3,-1.14820395E-2,7.4736895E-3,4.8271596E-2,2.8105185E-3,-8.182997E-4,7.087778E-3,2.2151357E-2,3.3246092E-3,1.6117044E-2],"categories":[],"categories_nodes":[],"categories_segments":[],"categories_sizes":[],"default_left":[0,0,0,0,0,0,0,0,0,0,0,0,0,0,0,0,0,0,0,0,0,0,0,0,0,0,0,0,0,0,0],"id":19,"left_children":[1,3,5,7,9,11,13,15,17,19,21,23,25,27,29,-1,-1,-1,-1,-1,-1,-1,-1,-1,-1,-1,-1,-1,-1,-1,-1],"loss_changes":[1.1191758E2,2.1402786E1,5.9930397E1,1.3820181E1,1.927446E1,3.2480804E1,2.0719452E1,1.700856E1,1.1271284E1,4.8338932E1,1.4711472E1,3.262987E1,2.4685417E1,1.0839111E1,2.2367447E1,0E0,0E0,0E0,0E0,0E0,0E0,0E0,0E0,0E0,0E0,0E0,0E0,0E0,0E0,0E0,0E0],"parents":[2147483647,0,0,1,1,2,2,3,3,4,4,5,5,6,6,7,7,8,8,9,9,10,10,11,11,12,12,13,13,14,14],"right_children":[2,4,6,8,10,12,14,16,18,20,22,24,26,28,30,-1,-1,-1,-1,-1,-1,-1,-1,-1,-1,-1,-1,-1,-1,-1,-1],"split_conditions":[8.516959E-4,2.7235899E1,3.7141412E-3,-9.118541E-3,-2.2252093E-1,-2.7880417E-2,-9.838671E-3,-3.5915854E-3,9.749279E-1,8.9949155E-3,-7.0710677E-1,-6.997901E-4,0E0,-5E-1,3.248532E-2,3.7876707E-2,-2.7701495E-2,2.0276997E-2,-1.9338546E-2,-4.3376633E-3,4.4437964E-2,-3.3601304E-3,-1.14820395E-2,7.4736895E-3,4.8271596E-2,2.8105185E-3,-8.182997E-4,7.087778E-3,2.2151357E-2,3.3246092E-3,1.6117044E-2],"split_indices":[3,13,0,2,14,2,4,16,6,2,1,16,6,1,2,0,0,0,0,0,0,0,0,0,0,0,0,0,0,0,0],"split_type":[0,0,0,0,0,0,0,0,0,0,0,0,0,0,0,0,0,0,0,0,0,0,0,0,0,0,0,0,0,0,0],"sum_hessian":[2.7017957E4,4.4423477E3,2.257561E4,2.1753278E2,4.224815E3,2.0193213E4,2.3823955E3,5.4252277E1,1.632805E2,9.9006287E2,3.234752E3,2.4452101E2,1.9948691E4,5.651444E2,1.8172512E3,1.1290451E1,4.2961826E1,1.4406784E2,1.9212652E1,9.3786475E2,5.2198093E1,7.194346E2,2.5153174E3,1.7787776E2,6.6643234E1,7.521374E3,1.2427318E4,1.754186E2,3.897258E2,1.3616864E3,4.5556476E2],"tree_param":{"num_deleted":"0","num_feature":"21","num_nodes":"31","size_leaf_vector":"1"}},{"base_weights":[-3.0432217E-4,9.049046E-2,-3.5330415E-2,2.6330894E-1,6.1489772E-2,-4.6963025E-2,1.5880696E-1,-8.6258067E-4,3.580859E-1,5.5818673E-2,9.267635E-1,6.356305E-2,-5.5560555E-2,2.1261251E-1,-2.1420798E-1,1.4282323E-2,-6.2791402E-3,3.997354E-2,1.4202486E-2,6.4770575E-3,6.135323E-4,5.9960097E-2,4.9106907E-3,1.3738132E-2,1.0024111E-3,-3.3865632E-3,1.3697159E-3,-2.7498165E-2,1.2166509E-2,-3.368987E-2,-1.9682802E-3],"categories":[],"categories_nodes":[],"categories_segments":[],"categories_sizes":[],"default_left":[0,0,0,0,0,0,0,0,0,0,0,0,0,0,0,0,0,0,0,0,0,0,0,0,0,0,0,0,0,0,0],"id":20,"left_children":[1,3,5,7,9,11,13,15,17,19,21,23,25,27,29,-1,-1,-1,-1,-1,-1,-1,-1,-1,-1,-1,-1,-1,-1,-1,-1],"loss_changes":[8.607707E1,3.7722214E1,4.411711E1,2.7108826E1,3.1544273E1,1.7518051E1,2.2232487E1,1.0303083E1,2.5632019E1,2.0581852E1,9.210274E0,1.2204098E1,1.727039E1,2.281326E1,1.1161789E1,0E0,0E0,0E0,0E0,0E0,0E0,0E0,0E0,0E0,0E0,0E0,0E0,0E0,0E0,0E0,0E0],"parents":[2147483647,0,0,1,1,2,2,3,3,4,4,5,5,6,6,7,7,8,8,9,9,10,10,11,11,12,12,13,13,14,14],"right_children":[2,4,6,8,10,12,14,16,18,20,22,24,26,28,30,-1,-1,-1,-1,-1,-1,-1,-1,-1,-1,-1,-1,-1,-1,-1,-1],"split_conditions":[-2.8940449E-3,-2.3189778E-2,1.1245278E-2,-4.3388373E-1,2.1656536E-2,-1.9153752E-3,1E0,-4.2534724E-2,-7.0710677E-1,0E0,-6.6508316E-3,-2.7210885E-3,9.659258E-1,-9.659258E-1,-3.8432155E-2,1.4282323E-2,-6.2791402E-3,3.997354E-2,1.4202486E-2,6.4770575E-3,6.135323E-4,5.9960097E-2,4.9106907E-3,1.3738132E-2,1.0024111E-3,-3.3865632E-3,1.3697159E-3,-2.7498165E-2,1.2166509E-2,-3.368987E-2,-1.9682802E-3],"split_indices":[4,2,4,6,2,15,14,2,1,6,11,11,5,1,12,0,0,0,0,0,0,0,0,0,0,0,0,0,0,0,0],"split_type":[0,0,0,0,0,0,0,0,0,0,0,0,0,0,0,0,0,0,0,0,0,0,0,0,0,0,0,0,0,0,0],"sum_hessian":[2.7064535E4,7.533183E3,1.9531352E4,1.0805022E3,6.4526807E3,1.842852E4,1.1028325E3,2.855496E2,7.949526E2,6.4123086E3,4.0372414E1,1.3289332E3,1.7099586E4,9.644889E2,1.3834364E2,8.58947E1,1.9965489E2,1.11980515E2,6.829721E2,2.379664E3,4.0326443E3,2.9831902E1,1.054051E1,2.2547382E2,1.1034595E3,1.4912569E4,2.1870166E3,3.630181E1,9.2818713E2,3.6867474E1,1.01476166E2],"tree_param":{"num_deleted":"0","num_feature":"21","num_nodes":"31","size_leaf_vector":"1"}},{"base_weights":[-1.5348326E-3,-1.6154721E-1,2.0136492E-2,-3.2785964E-1,-1.1484091E-1,-4.249583E-3,1.091483E-1,1.2063954E-1,-3.9185065E-1,1.7244065E-2,-1.8664908E-1,3.8276717E-2,-4.8990175E-2,7.051426E-2,2.2515239E-1,-1.299729E-3,4.6108495E-2,2.324741E-2,-2.0399204E-2,-2.9289837E-3,1.5860341E-2,1.5091642E-3,-1.2370727E-2,4.4444916E-3,3.894445E-4,-2.5343206E-3,5.815695E-2,4.492679E-4,8.004101E-3,9.940854E-3,2.4931675E-2],"categories":[],"categories_nodes":[],"categories_segments":[],"categories_sizes":[],"default_left":[0,0,0,0,0,0,0,0,0,0,0,0,0,0,0,0,0,0,0,0,0,0,0,0,0,0,0,0,0,0,0],"id":21,"left_children":[1,3,5,7,9,11,13,15,17,19,21,23,25,27,29,-1,-1,-1,-1,-1,-1,-1,-1,-1,-1,-1,-1,-1,-1,-1,-1],"loss_changes":[9.378332E1,2.4980194E1,5.1704407E1,2.0354637E1,2.3926216E1,3.5575768E1,2.291816E1,1.0569E1,8.8318405E0,2.0261703E1,2.1546707E1,1.4785484E1,1.876793E1,2.1179733E1,9.026108E0,0E0,0E0,0E0,0E0,0E0,0E0,0E0,0E0,0E0,0E0,0E0,0E0,0E0,0E0,0E0,0E0],"parents":[2147483647,0,0,1,1,2,2,3,3,4,4,5,5,6,6,7,7,8,8,9,9,10,10,11,11,12,12,13,13,14,14],"right_children":[2,4,6,8,10,12,14,16,18,20,22,24,26,28,30,-1,-1,-1,-1,-1,-1,-1,-1,-1,-1,-1,-1,-1,-1,-1,-1],"split_conditions":[7.7326054E-4,3.631082E-4,2.7489604E-3,3.366239E1,5.0377834E-4,4.943538E1,5.130084E-3,1.9077379E0,-1.0687567E-3,4.7869794E-4,-1.4144272E-3,0E0,1.3954779E-3,0E0,8.639309E-3,-1.299729E-3,4.6108495E-2,2.324741E-2,-2.0399204E-2,-2.9289837E-3,1.5860341E-2,1.5091642E-3,-1.2370727E-2,4.4444916E-3,3.894445E-4,-2.5343206E-3,5.815695E-2,4.492679E-4,8.004101E-3,9.940854E-3,2.4931675E-2],"split_indices":[3,7,0,13,7,13,7,10,15,7,16,6,8,5,15,0,0,0,0,0,0,0,0,0,0,0,0,0,0,0,0],"split_type":[0,0,0,0,0,0,0,0,0,0,0,0,0,0,0,0,0,0,0,0,0,0,0,0,0,0,0,0,0,0,0],"sum_hessian":[2.7040025E4,3.2244685E3,2.3815559E4,7.047797E2,2.5196887E3,1.8694732E4,5.120826E3,8.77375E1,6.1704224E2,8.875535E2,1.6321351E3,9.584082E3,9.110649E3,3.8435964E3,1.2772297E3,7.534302E1,1.2394483E1,1.0575574E1,6.064667E2,7.0929926E2,1.7825427E2,3.572554E2,1.2748798E3,3.6011943E3,5.9828877E3,9.099395E3,1.1255051E1,2.2797336E3,1.5638628E3,1.16757E3,1.0965977E2],"tree_param":{"num_deleted":"0","num_feature":"21","num_nodes":"31","size_leaf_vector":"1"}},{"base_weights":[1.5485932E-3,-1.335001E-1,2.7863422E-2,-1.07010186E-1,-3.2416537E-1,4.3970095E-3,1.0785419E-1,-1.10825226E-1,1.126088E0,-3.537075E-1,4.7175837E-1,4.8969742E-2,-2.5099566E-2,2.380718E-1,7.3678955E-2,-1.132277E-2,-4.0335427E-3,7.1029864E-2,2.7520765E-2,1.1061133E-2,-1.8823074E-2,4.9049046E-2,-2.0705035E-2,3.5458334E-2,2.1002106E-3,-1.7791884E-3,6.3504465E-3,4.9252365E-2,1.0770331E-2,7.4584104E-2,3.5014157E-3],"categories":[],"categories_nodes":[],"categories_segments":[],"categories_sizes":[],"default_left":[0,0,0,0,0,0,0,0,0,0,0,0,0,0,0,0,0,0,0,0,0,0,0,0,0,0,0,0,0,0,0],"id":22,"left_children":[1,3,5,7,9,11,13,15,17,19,21,23,25,27,29,-1,-1,-1,-1,-1,-1,-1,-1,-1,-1,-1,-1,-1,-1,-1,-1],"loss_changes":[9.604001E1,2.2185234E1,4.2451843E1,1.8351273E1,1.286235E1,2.2998686E1,2.2787567E1,1.3421013E1,7.6921654E-1,6.9136505E0,9.563747E0,3.1953852E1,1.6787838E1,1.766063E1,2.0813326E1,0E0,0E0,0E0,0E0,0E0,0E0,0E0,0E0,0E0,0E0,0E0,0E0,0E0,0E0,0E0,0E0],"parents":[2147483647,0,0,1,1,2,2,3,3,4,4,5,5,6,6,7,7,8,8,9,9,10,10,11,11,12,12,13,13,14,14],"right_children":[2,4,6,8,10,12,14,16,18,20,22,24,26,28,30,-1,-1,-1,-1,-1,-1,-1,-1,-1,-1,-1,-1,-1,-1,-1,-1],"split_conditions":[8.516959E-4,9.9032106E-5,2.7489604E-3,6.3548186E-3,1E0,-2.5881904E-1,-8.887165E-3,3.8358266E-4,7.2020164E-4,-6.8085105E-4,7.8175403E-4,-2.5303293E-2,1E0,-9.659258E-1,1.5008729E-3,-1.132277E-2,-4.0335427E-3,7.1029864E-2,2.7520765E-2,1.1061133E-2,-1.8823074E-2,4.9049046E-2,-2.0705035E-2,3.5458334E-2,2.1002106E-3,-1.7791884E-3,6.3504465E-3,4.9252365E-2,1.0770331E-2,7.4584104E-2,3.5014157E-3],"split_indices":[3,9,0,4,5,5,4,7,15,16,0,2,5,5,3,0,0,0,0,0,0,0,0,0,0,0,0,0,0,0,0],"split_type":[0,0,0,0,0,0,0,0,0,0,0,0,0,0,0,0,0,0,0,0,0,0,0,0,0,0,0,0,0,0,0],"sum_hessian":[2.702314E4,4.405572E3,2.2617568E4,3.87044E3,5.351319E2,1.7489104E4,5.1284663E3,3.8599036E3,1.0536287E1,5.1684454E2,1.8287361E1,6.9649556E3,1.0524147E4,1.0639797E3,4.0644866E3,7.960275E2,3.0638762E3,5.4564056E0,5.0798817E0,1.9094671E1,4.9774988E2,1.1545807E1,6.7415547E0,7.106412E1,6.8938916E3,9.846918E3,6.77229E2,2.9392578E1,1.0345872E3,8.831938E0,4.0556545E3],"tree_param":{"num_deleted":"0","num_feature":"21","num_nodes":"31","size_leaf_vector":"1"}},{"base_weights":[2.78908E-3,-7.251538E-2,3.905204E-2,-8.830674E-2,2.1774484E-1,1.9200653E-1,2.5713E-2,9.250081E-2,-1.13905095E-1,5.7556474E-1,-6.3712776E-2,5.3096616E-1,1.2903923E-1,1.9654598E-2,2.4785481E-1,6.4521157E-3,-2.6968682E-2,-4.703931E-3,-1.3124786E-2,-1.7486615E-2,3.6932595E-2,-9.8246725E-5,-5.9789468E-2,-2.1116493E-2,3.133587E-2,2.0391764E-2,3.9536944E-3,-6.0995542E-3,1.367858E-3,1.562999E-2,-3.5932265E-2],"categories":[],"categories_nodes":[],"categories_segments":[],"categories_sizes":[],"default_left":[0,0,0,0,0,0,0,0,0,0,0,0,0,0,0,0,0,0,0,0,0,0,0,0,0,0,0,0,0,0,0],"id":23,"left_children":[1,3,5,7,9,11,13,15,17,19,21,23,25,27,29,-1,-1,-1,-1,-1,-1,-1,-1,-1,-1,-1,-1,-1,-1,-1,-1],"loss_changes":[7.3801834E1,4.0285255E1,3.7201332E1,3.858098E1,4.5753464E1,3.108469E1,2.2563953E1,2.3956924E1,2.1450188E1,3.0571732E1,1.7769604E1,2.1269737E1,1.7140957E1,1.7825157E1,2.8173717E1,0E0,0E0,0E0,0E0,0E0,0E0,0E0,0E0,0E0,0E0,0E0,0E0,0E0,0E0,0E0,0E0],"parents":[2147483647,0,0,1,1,2,2,3,3,4,4,5,5,6,6,7,7,8,8,9,9,10,10,11,11,12,12,13,13,14,14],"right_children":[2,4,6,8,10,12,14,16,18,20,22,24,26,28,30,-1,-1,-1,-1,-1,-1,-1,-1,-1,-1,-1,-1,-1,-1,-1,-1],"split_conditions":[1.1098078E-3,1E0,-1.5017668E-2,-5.6448113E-3,-3.8387717E-4,-8.660254E-1,3.8884193E-2,2.7369142E-3,1.1691432E-4,5.797893E-4,1.34284515E-2,-7.818315E-1,-9.960868E-3,-9.659258E-1,1E0,6.4521157E-3,-2.6968682E-2,-4.703931E-3,-1.3124786E-2,-1.7486615E-2,3.6932595E-2,-9.8246725E-5,-5.9789468E-2,-2.1116493E-2,3.133587E-2,2.0391764E-2,3.9536944E-3,-6.0995542E-3,1.367858E-3,1.562999E-2,-3.5932265E-2],"split_indices":[3,5,11,11,2,5,2,2,9,3,2,6,16,5,14,0,0,0,0,0,0,0,0,0,0,0,0,0,0,0,0],"split_type":[0,0,0,0,0,0,0,0,0,0,0,0,0,0,0,0,0,0,0,0,0,0,0,0,0,0,0,0,0,0,0],"sum_hessian":[2.7023646E4,8.782609E3,1.8241037E4,8.330605E3,4.520037E2,1.4612711E3,1.6779766E4,1.0324287E3,7.298177E3,1.9839383E2,2.5360985E2,2.2705688E2,1.2342142E3,1.6336095E4,4.4367126E2,9.771903E2,5.5238422E1,6.4414756E3,8.5670087E2,2.942483E1,1.6896901E2,2.4195923E2,1.1650623E1,2.0209867E1,2.0684702E2,1.857917E2,1.0484225E3,8.410433E2,1.5495052E4,4.1681573E2,2.685553E1],"tree_param":{"num_deleted":"0","num_feature":"21","num_nodes":"31","size_leaf_vector":"1"}},{"base_weights":[8.830954E-5,-6.0545232E-2,4.4301286E-2,7.1980074E-2,-8.706093E-2,2.1675204E-1,3.2007206E-2,5.3923007E-2,4.433863E-1,-9.909339E-2,1.3563311E-1,1.0668404E0,1.916439E-1,1.9355835E-2,1.22232504E-1,7.6793693E-3,-5.159714E-4,-1.9625878E-2,3.3016484E-2,-2.4228513E-3,-7.050405E-3,1.1717907E-2,-1.4358143E-2,8.009155E-2,1.8841099E-2,1.1579721E-2,-8.643334E-3,8.812351E-3,5.939307E-4,8.280834E-3,-5.254504E-3],"categories":[],"categories_nodes":[],"categories_segments":[],"categories_sizes":[],"default_left":[0,0,0,0,0,0,0,0,0,0,0,0,0,0,0,0,0,0,0,0,0,0,0,0,0,0,0,0,0,0,0],"id":24,"left_children":[1,3,5,7,9,11,13,15,17,19,21,23,25,27,29,-1,-1,-1,-1,-1,-1,-1,-1,-1,-1,-1,-1,-1,-1,-1,-1],"loss_changes":[7.246885E1,4.0066658E1,3.3122826E1,1.2688307E1,2.5473122E1,2.1824955E1,1.664975E1,1.1628445E1,1.6324461E1,1.9111107E1,2.0442081E1,9.865765E0,1.479863E1,1.5006626E1,1.77232E1,0E0,0E0,0E0,0E0,0E0,0E0,0E0,0E0,0E0,0E0,0E0,0E0,0E0,0E0,0E0,0E0],"parents":[2147483647,0,0,1,1,2,2,3,3,4,4,5,5,6,6,7,7,8,8,9,9,10,10,11,11,12,12,13,13,14,14],"right_children":[2,4,6,8,10,12,14,16,18,20,22,24,26,28,30,-1,-1,-1,-1,-1,-1,-1,-1,-1,-1,-1,-1,-1,-1,-1,-1],"split_conditions":[1.2711906E-3,-2.0686802E-3,-1.106256E-2,1E0,1E0,-9.659258E-1,5.4279747E-3,-4.9354592E-3,-3.4589818E-4,0E0,5.154639E-3,-1.8504241E-2,9.659258E-1,1.083259E-1,1.5312724E-1,7.6793693E-3,-5.159714E-4,-1.9625878E-2,3.3016484E-2,-2.4228513E-3,-7.050405E-3,1.1717907E-2,-1.4358143E-2,8.009155E-2,1.8841099E-2,1.1579721E-2,-8.643334E-3,8.812351E-3,5.939307E-4,8.280834E-3,-5.254504E-3],"split_indices":[3,16,4,1,5,5,16,11,8,6,11,11,5,10,12,0,0,0,0,0,0,0,0,0,0,0,0,0,0,0,0],"split_type":[0,0,0,0,0,0,0,0,0,0,0,0,0,0,0,0,0,0,0,0,0,0,0,0,0,0,0,0,0,0,0],"sum_hessian":[2.7029959E4,1.1397616E4,1.5632342E4,1.8994948E3,9.498122E3,1.0383434E3,1.4593998E4,1.8131931E3,8.6301605E1,9.012235E3,4.8588635E2,2.7946037E1,1.01039734E3,1.2801369E4,1.7926292E3,7.101591E2,1.103034E3,1.7485163E1,6.8816444E1,4.0834827E3,4.928753E3,3.945449E2,9.134145E1,1.4584025E1,1.3362012E1,9.1121216E2,9.9185135E1,5.804978E2,1.2220871E4,1.5058643E3,2.8676483E2],"tree_param":{"num_deleted":"0","num_feature":"21","num_nodes":"31","size_leaf_vector":"1"}},{"base_weights":[1.6271763E-3,-5.8859494E-2,4.0320367E-2,7.412746E-2,-8.891381E-2,3.150895E-2,2.105821E-1,1.7332458E-1,5.070751E-3,-1.0303529E-1,1.5951365E-1,1.6522498E-1,2.2889126E-2,3.181251E-1,9.5644474E-2,1.6013222E-2,1.4323776E-3,-1.5401898E-3,1.5875457E-2,-3.9695483E-3,-1.1518105E-2,1.2992784E-2,-3.2968547E-2,-5.9785214E-3,1.3143005E-2,4.7262274E-3,1.0588961E-4,1.1172462E-2,3.0463202E-2,-1.9760288E-3,1.4867628E-2],"categories":[],"categories_nodes":[],"categories_segments":[],"categories_sizes":[],"default_left":[0,0,0,0,0,0,0,0,0,0,0,0,0,0,0,0,0,0,0,0,0,0,0,0,0,0,0,0,0,0,0],"id":25,"left_children":[1,3,5,7,9,11,13,15,17,19,21,23,25,27,29,-1,-1,-1,-1,-1,-1,-1,-1,-1,-1,-1,-1,-1,-1,-1,-1],"loss_changes":[6.3318645E1,4.219491E1,2.4732494E1,1.3320775E1,3.0226624E1,1.8069866E1,9.962753E0,1.694154E1,1.2909721E1,2.448671E1,3.832124E1,2.6459393E1,2.1930918E1,1.1284031E1,1.0787996E1,0E0,0E0,0E0,0E0,0E0,0E0,0E0,0E0,0E0,0E0,0E0,0E0,0E0,0E0,0E0,0E0],"parents":[2147483647,0,0,1,1,2,2,3,3,4,4,5,5,6,6,7,7,8,8,9,9,10,10,11,11,12,12,13,13,14,14],"right_children":[2,4,6,8,10,12,14,16,18,20,22,24,26,28,30,-1,-1,-1,-1,-1,-1,-1,-1,-1,-1,-1,-1,-1,-1,-1,-1],"split_conditions":[1.2192421E-3,-4.651163E-3,6.657019E-3,9.6617296E-4,1E0,-2.3189778E-2,4.385965E-3,0E0,9.659258E-1,1.0111372E-4,1.0009533E-2,-4.3388373E-1,-4.3388373E-1,5.758108E-3,3.5729792E-4,1.6013222E-2,1.4323776E-3,-1.5401898E-3,1.5875457E-2,-3.9695483E-3,-1.1518105E-2,1.2992784E-2,-3.2968547E-2,-5.9785214E-3,1.3143005E-2,4.7262274E-3,1.0588961E-4,1.1172462E-2,3.0463202E-2,-1.9760288E-3,1.4867628E-2],"split_indices":[3,11,7,0,5,2,11,6,5,9,2,6,6,3,9,0,0,0,0,0,0,0,0,0,0,0,0,0,0,0,0],"split_type":[0,0,0,0,0,0,0,0,0,0,0,0,0,0,0,0,0,0,0,0,0,0,0,0,0,0,0,0,0,0,0],"sum_hessian":[2.7051746E4,1.055293E4,1.6498816E4,1.9445691E3,8.60836E3,1.568895E4,8.0986615E2,7.9688605E2,1.147683E3,8.1463716E3,4.619888E2,9.4811707E2,1.4740833E4,4.167973E2,3.9306885E2,3.9427664E2,4.026094E2,1.0305465E3,1.171365E2,6.872913E3,1.2734581E3,4.1252512E2,4.9463707E1,2.4183899E2,7.062781E2,3.311729E3,1.1429104E4,3.1664886E2,1.0014846E2,2.359299E2,1.5713895E2],"tree_param":{"num_deleted":"0","num_feature":"21","num_nodes":"31","size_leaf_vector":"1"}},{"base_weights":[-3.5422598E-4,-3.482061E-2,6.160313E-2,-1.92166E-1,-2.6069129E-2,2.1187581E-1,3.885687E-2,2.5290802E-1,-2.3563395E-1,1.4051613E-2,-5.5402216E-2,8.232744E-1,1.8960565E-1,2.8196957E-2,2.2933821E-1,-3.0695277E-3,3.004126E-2,-3.368292E-3,-1.8378202E-2,-2.3065021E-2,9.922817E-4,5.1459324E-2,-2.903824E-3,2.2763735E-2,6.938045E-2,1.0693963E-2,-1.0728893E-2,3.0754271E-3,-1.589232E-3,2.197415E-2,-3.9268243E-3],"categories":[],"categories_nodes":[],"categories_segments":[],"categories_sizes":[],"default_left":[0,0,0,0,0,0,0,0,0,0,0,0,0,0,0,0,0,0,0,0,0,0,0,0,0,0,0,0,0,0,0],"id":26,"left_children":[1,3,5,7,9,11,13,15,17,19,21,23,25,27,29,-1,-1,-1,-1,-1,-1,-1,-1,-1,-1,-1,-1,-1,-1,-1,-1],"loss_changes":[5.7616554E1,2.3855618E1,3.2939674E1,1.775121E1,1.9334648E1,1.6969887E1,1.6989605E1,9.032835E0,1.8424862E1,1.9100025E1,2.756602E1,8.099848E0,1.2084637E1,1.5861589E1,2.876772E1,0E0,0E0,0E0,0E0,0E0,0E0,0E0,0E0,0E0,0E0,0E0,0E0,0E0,0E0,0E0,0E0],"parents":[2147483647,0,0,1,1,2,2,3,3,4,4,5,5,6,6,7,7,8,8,9,9,10,10,11,11,12,12,13,13,14,14],"right_children":[2,4,6,8,10,12,14,16,18,20,22,24,26,28,30,-1,-1,-1,-1,-1,-1,-1,-1,-1,-1,-1,-1,-1,-1,-1,-1],"split_conditions":[1.968837E-3,3.4566195E-4,-9.838671E-3,3.3355385E1,0E0,-9.659258E-1,3.8884193E-2,-4.7984645E-3,0E0,-8.6142635E-3,-2.5303293E-2,3.3494546E-3,1E0,6.975933E-3,6.123234E-17,-3.0695277E-3,3.004126E-2,-3.368292E-3,-1.8378202E-2,-2.3065021E-2,9.922817E-4,5.1459324E-2,-2.903824E-3,2.2763735E-2,6.938045E-2,1.0693963E-2,-1.0728893E-2,3.0754271E-3,-1.589232E-3,2.197415E-2,-3.9268243E-3],"split_indices":[0,7,4,13,6,5,2,2,5,4,2,0,1,2,1,0,0,0,0,0,0,0,0,0,0,0,0,0,0,0,0],"split_type":[0,0,0,0,0,0,0,0,0,0,0,0,0,0,0,0,0,0,0,0,0,0,0,0,0,0,0,0,0,0,0],"sum_hessian":[2.6978662E4,1.7336158E4,9.642503E3,9.114676E2,1.6424691E4,1.265741E3,8.376762E3,8.035227E1,8.311153E2,6.936404E3,9.488287E3,4.2509193E1,1.2232318E3,7.934697E3,4.4206516E2,4.2789265E1,3.756301E1,3.664181E2,4.646972E2,8.200502E1,6.854399E3,2.1875505E1,9.466412E3,2.742452E1,1.5084673E1,1.1547144E3,6.851745E1,5.102018E3,2.8326787E3,2.6244815E2,1.7961699E2],"tree_param":{"num_deleted":"0","num_feature":"21","num_nodes":"31","size_leaf_vector":"1"}},{"base_weights":[-3.0055386E-4,-1.4499167E-1,1.9117437E-2,-2.9656863E-1,-1.02878936E-1,-6.4393952E-3,7.660011E-2,-1.566906E-1,-4.740278E-1,3.7177384E-2,-1.7198677E-1,3.5100684E-2,-4.1625082E-2,6.981513E-2,4.985552E-1,1.2132892E-3,-1.927731E-2,-2.5837744E-2,3.4905773E-2,1.7872123E-2,-2.943473E-3,-1.5863737E-2,-4.61536E-3,1.9209225E-3,-3.15964E-2,-4.4934E-3,-3.1768877E-4,1.0598524E-2,2.7281423E-3,4.3505948E-2,-3.3246514E-3],"categories":[],"categories_nodes":[],"categories_segments":[],"categories_sizes":[],"default_left":[0,0,0,0,0,0,0,0,0,0,0,0,0,0,0,0,0,0,0,0,0,0,0,0,0,0,0,0,0,0,0],"id":27,"left_children":[1,3,5,7,9,11,13,15,17,19,21,23,25,27,29,-1,-1,-1,-1,-1,-1,-1,-1,-1,-1,-1,-1,-1,-1,-1,-1],"loss_changes":[7.591035E1,2.0341232E1,3.4996094E1,1.708474E1,2.425629E1,2.4103182E1,2.0908897E1,1.6204231E1,1.5808228E1,2.5529814E1,1.93545E1,1.6741505E1,1.518728E1,1.5617722E1,2.4410292E1,0E0,0E0,0E0,0E0,0E0,0E0,0E0,0E0,0E0,0E0,0E0,0E0,0E0,0E0,0E0,0E0],"parents":[2147483647,0,0,1,1,2,2,3,3,4,4,5,5,6,6,7,7,8,8,9,9,10,10,11,11,12,12,13,13,14,14],"right_children":[2,4,6,8,10,12,14,16,18,20,22,24,26,28,30,-1,-1,-1,-1,-1,-1,-1,-1,-1,-1,-1,-1,-1,-1,-1,-1],"split_conditions":[7.7326054E-4,3.631082E-4,2.1663778E-3,0E0,4.979253E-4,-8.0707384E-4,1.1926957E-2,-2.5406021E-5,7.6045627E-3,-2.5881904E-1,7.6687115E-4,4.14687E-3,1.2131268E-3,-7.6769027E-3,6.8237774E-2,1.2132892E-3,-1.927731E-2,-2.5837744E-2,3.4905773E-2,1.7872123E-2,-2.943473E-3,-1.5863737E-2,-4.61536E-3,1.9209225E-3,-3.15964E-2,-4.4934E-3,-3.1768877E-4,1.0598524E-2,2.7281423E-3,4.3505948E-2,-3.3246514E-3],"split_indices":[3,7,7,6,7,4,0,4,2,5,7,3,3,16,2,0,0,0,0,0,0,0,0,0,0,0,0,0,0,0,0],"split_type":[0,0,0,0,0,0,0,0,0,0,0,0,0,0,0,0,0,0,0,0,0,0,0,0,0,0,0,0,0,0,0],"sum_hessian":[2.7012883E4,3.1954204E3,2.3817463E4,6.925313E2,2.5028892E3,1.648755E4,7.3299126E3,3.890097E2,3.035216E2,8.269445E2,1.6759446E3,7.5603794E3,8.927171E3,7.215751E3,1.1416161E2,2.1786562E2,1.7114409E2,2.936971E2,9.8245125E0,1.8996172E2,6.3698285E2,5.917838E2,1.0841608E3,7.524442E3,3.5937588E1,3.7687122E3,5.1584585E3,6.9699066E2,6.5187603E3,6.843732E1,4.5724297E1],"tree_param":{"num_deleted":"0","num_feature":"21","num_nodes":"31","size_leaf_vector":"1"}},{"base_weights":[4.383569E-3,-2.9013544E-2,6.40181E-2,4.1256424E-2,-4.642581E-2,5.877934E-2,4.858622E-1,1.519034E-1,1.2349436E-2,-1.9074316E-1,-3.747867E-2,1.5779237E-1,3.951382E-2,6.1470526E-1,-4.198806E-2,-2.5812522E-2,8.78177E-3,-9.582375E-3,1.6806277E-3,-0E0,-1.34335905E-2,-2.5257224E-3,2.2269406E-3,3.655681E-2,6.751253E-3,1.0255234E-3,7.066013E-3,1.9010892E-2,5.7694256E-2],"categories":[],"categories_nodes":[],"categories_segments":[],"categories_sizes":[],"default_left":[0,0,0,0,0,0,0,0,0,0,0,0,0,0,0,0,0,0,0,0,0,0,0,0,0,0,0,0,0],"id":28,"left_children":[1,3,5,7,9,11,13,15,17,19,21,23,25,27,-1,-1,-1,-1,-1,-1,-1,-1,-1,-1,-1,-1,-1,-1,-1],"loss_changes":[5.3789894E1,2.1184883E1,2.1356907E1,1.0985392E1,1.789372E1,1.8252365E1,2.1020988E1,1.1403435E1,1.1834187E1,1.2024841E1,1.3974691E1,2.0162518E1,1.5505219E1,1.3046375E1,0E0,0E0,0E0,0E0,0E0,0E0,0E0,0E0,0E0,0E0,0E0,0E0,0E0,0E0,0E0],"parents":[2147483647,0,0,1,1,2,2,3,3,4,4,5,5,6,6,7,7,8,8,9,9,10,10,11,11,12,12,13,13],"right_children":[2,4,6,8,10,12,14,16,18,20,22,24,26,28,-1,-1,-1,-1,-1,-1,-1,-1,-1,-1,-1,-1,-1,-1,-1],"split_conditions":[1.968837E-3,-2.0686802E-3,1.1926957E-2,-7.0710677E-1,3.4566195E-4,-8.6142635E-3,1.2246469E-16,-1.8137425E-2,-4.6169202E-4,-9.600526E-5,9.659258E-1,-9.659258E-1,8.660254E-1,-5E-1,-4.198806E-2,-2.5812522E-2,8.78177E-3,-9.582375E-3,1.6806277E-3,-0E0,-1.34335905E-2,-2.5257224E-3,2.2269406E-3,3.655681E-2,6.751253E-3,1.0255234E-3,7.066013E-3,1.9010892E-2,5.7694256E-2],"split_indices":[0,16,0,1,7,4,5,2,8,8,5,5,5,5,0,0,0,0,0,0,0,0,0,0,0,0,0,0,0],"split_type":[0,0,0,0,0,0,0,0,0,0,0,0,0,0,0,0,0,0,0,0,0,0,0,0,0,0,0,0,0],"sum_hessian":[2.7004318E4,1.7310086E4,9.694231E3,3.4365232E3,1.38735625E4,9.577124E3,1.1710796E2,7.101557E2,2.7263674E3,8.077929E2,1.306577E4,1.5577676E3,8.0193564E3,1.0750157E2,9.606391E0,2.321862E1,6.869371E2,2.559952E2,2.4703723E3,2.3480276E2,5.729901E2,1.127493E4,1.7908398E3,5.7629585E1,1.500138E3,6.759846E3,1.2595103E3,7.6766556E1,3.0735014E1],"tree_param":{"num_deleted":"0","num_feature":"21","num_nodes":"29","size_leaf_vector":"1"}},{"base_weights":[1.7616725E-4,-5.8327287E-2,3.759148E-2,7.492375E-2,-8.567228E-2,2.5957877E-2,1.6437392E-1,1.7411757E-1,5.2420134E-3,-1.0542072E-1,2.1514997E-2,7.812806E-2,7.7630403E-3,8.5499877E-1,1.3699737E-1,4.8949877E-3,2.292392E-2,-1.2603181E-2,4.4182423E-3,-3.287697E-3,-9.380682E-3,-7.7007203E-3,5.84685E-3,1.4254503E-2,3.1447522E-3,-6.1561586E-3,7.4937136E-4,7.88769E-2,2.5565896E-2,9.340309E-3,-1.1980562E-2],"categories":[],"categories_nodes":[],"categories_segments":[],"categories_sizes":[],"default_left":[0,0,0,0,0,0,0,0,0,0,0,0,0,0,0,0,0,0,0,0,0,0,0,0,0,0,0,0,0,0,0],"id":29,"left_children":[1,3,5,7,9,11,13,15,17,19,21,23,25,27,29,-1,-1,-1,-1,-1,-1,-1,-1,-1,-1,-1,-1,-1,-1,-1,-1],"loss_changes":[5.9115807E1,3.839442E1,2.4280674E1,1.239103E1,1.8511658E1,1.4319207E1,2.593959E1,1.594261E1,2.2604618E1,2.4037369E1,2.2818617E1,1.2254894E1,1.05791445E1,1.1700184E1,2.50689E1,0E0,0E0,0E0,0E0,0E0,0E0,0E0,0E0,0E0,0E0,0E0,0E0,0E0,0E0,0E0,0E0],"parents":[2147483647,0,0,1,1,2,2,3,3,4,4,5,5,6,6,7,7,8,8,9,9,10,10,11,11,12,12,13,13,14,14],"right_children":[2,4,6,8,10,12,14,16,18,20,22,24,26,28,30,-1,-1,-1,-1,-1,-1,-1,-1,-1,-1,-1,-1,-1,-1,-1,-1],"split_conditions":[1.2192421E-3,-4.9354592E-3,3.745369E-3,9.7278407E-4,9.659258E-1,-1.1605415E-3,-9.659258E-1,9.69003E-4,-4.3388373E-1,5E-1,-1.8369701E-16,-3.1229336E-4,-9.659258E-1,-1.1503068E-3,1E0,4.8949877E-3,2.292392E-2,-1.2603181E-2,4.4182423E-3,-3.287697E-3,-9.380682E-3,-7.7007203E-3,5.84685E-3,1.4254503E-2,3.1447522E-3,-6.1561586E-3,7.4937136E-4,7.88769E-2,2.5565896E-2,9.340309E-3,-1.1980562E-2],"split_indices":[3,11,3,0,5,15,5,3,6,5,1,9,5,11,14,0,0,0,0,0,0,0,0,0,0,0,0,0,0,0,0],"split_type":[0,0,0,0,0,0,0,0,0,0,0,0,0,0,0,0,0,0,0,0,0,0,0,0,0,0,0,0,0,0,0],"sum_hessian":[2.7004246E4,1.0532776E4,1.647147E4,1.7926803E3,8.740097E3,1.5089091E4,1.3823789E3,7.384753E2,1.054205E3,7.3807417E3,1.3593546E3,3.8997168E3,1.1189374E4,5.090983E1,1.3314691E3,5.8410785E2,1.5436739E2,2.5651526E2,7.9768976E2,4.9804536E3,2.400288E3,4.7822025E2,8.8113434E2,2.6530594E2,3.634411E3,5.836809E2,1.0605693E4,1.4627327E1,3.62825E1,1.1767283E3,1.547408E2],"tree_param":{"num_deleted":"0","num_feature":"21","num_nodes":"31","size_leaf_vector":"1"}},{"base_weights":[2.448158E-3,-3.9390113E-2,3.8706042E-2,-5.0846864E-2,1.7687044E-1,1.6332342E-1,2.7973536E-2,-3.4322176E-2,-1.8047467E-1,2.2706056E-1,-4.4908434E-1,4.1321322E-1,1.1384877E-1,-1.48045095E-2,6.358638E-2,4.913583E-4,-4.0193065E-3,-1.1003598E-2,5.030699E-3,-2.1216387E-2,1.4061525E-2,2.0993432E-2,-4.9619224E-2,1.153148E-3,3.7526634E-2,-1.6718972E-2,9.188875E-3,-1.6263318E-4,-1.8426673E-2,3.804498E-3,-1.3178858E-2],"categories":[],"categories_nodes":[],"categories_segments":[],"categories_sizes":[],"default_left":[0,0,0,0,0,0,0,0,0,0,0,0,0,0,0,0,0,0,0,0,0,0,0,0,0,0,0,0,0,0,0],"id":30,"left_children":[1,3,5,7,9,11,13,15,17,19,21,23,25,27,29,-1,-1,-1,-1,-1,-1,-1,-1,-1,-1,-1,-1,-1,-1,-1,-1],"loss_changes":[4.0962452E1,3.1067167E1,1.933228E1,2.5484976E1,1.9960245E1,1.4076971E1,2.0298954E1,2.148607E1,1.501553E1,2.0816322E1,2.2963123E1,2.4773544E1,3.0150612E1,2.4712133E1,2.9762922E1,0E0,0E0,0E0,0E0,0E0,0E0,0E0,0E0,0E0,0E0,0E0,0E0,0E0,0E0,0E0,0E0],"parents":[2147483647,0,0,1,1,2,2,3,3,4,4,5,5,6,6,7,7,8,8,9,9,10,10,11,11,12,12,13,13,14,14],"right_children":[2,4,6,8,10,12,14,16,18,20,22,24,26,28,30,-1,-1,-1,-1,-1,-1,-1,-1,-1,-1,-1,-1,-1,-1,-1,-1],"split_conditions":[1.4709848E-3,1E0,-2.3189778E-2,1.1691432E-4,1.0931559E-2,-7.0710677E-1,-2.5746313E-5,2.5881904E-1,5.1113544E-3,5.233E-4,-2.2252093E-1,-8.660254E-1,-5E-1,1E0,1E0,4.913583E-4,-4.0193065E-3,-1.1003598E-2,5.030699E-3,-2.1216387E-2,1.4061525E-2,2.0993432E-2,-4.9619224E-2,1.153148E-3,3.7526634E-2,-1.6718972E-2,9.188875E-3,-1.6263318E-4,-1.8426673E-2,3.804498E-3,-1.3178858E-2],"split_indices":[0,5,2,9,2,1,9,5,16,0,14,1,1,5,1,0,0,0,0,0,0,0,0,0,0,0,0,0,0,0,0],"split_type":[0,0,0,0,0,0,0,0,0,0,0,0,0,0,0,0,0,0,0,0,0,0,0,0,0,0,0,0,0,0,0],"sum_hessian":[2.6999879E4,1.2534597E4,1.4465282E4,1.1905273E4,6.293226E2,1.144957E3,1.3320325E4,1.0561232E4,1.3440415E3,5.8356696E2,4.5755627E1,1.8723247E2,9.577246E2,6.0511606E3,7.269165E3,5.3927363E3,5.168496E3,1.1785249E3,1.6551663E2,4.3946133E1,5.3962085E2,1.7698093E1,2.8057535E1,8.762939E1,9.960308E1,1.2838927E2,8.293353E2,5.861398E3,1.8976251E2,7.0028335E3,2.663312E2],"tree_param":{"num_deleted":"0","num_feature":"21","num_nodes":"31","size_leaf_vector":"1"}},{"base_weights":[-4.7085567E-5,-1.1883832E-1,1.6299536E-2,-6.0295286E-3,-1.7224246E-1,-2.376873E-3,8.1806995E-2,-4.845006E-2,6.763268E-1,-3.4262952E-1,-1.2467818E-1,2.1998359E-2,-6.0867894E-2,1.5312259E-1,5.1820572E-2,2.5400644E-2,-3.8313947E-3,8.351863E-2,2.512894E-2,5.0303757E-2,-1.8207349E-2,2.443543E-3,-1.0739572E-2,1.5449124E-2,9.125396E-4,-7.947436E-3,-1.2336585E-3,2.1583784E-2,4.4883443E-3,7.3041804E-2,2.3984981E-3],"categories":[],"categories_nodes":[],"categories_segments":[],"categories_sizes":[],"default_left":[0,0,0,0,0,0,0,0,0,0,0,0,0,0,0,0,0,0,0,0,0,0,0,0,0,0,0,0,0,0,0],"id":31,"left_children":[1,3,5,7,9,11,13,15,17,19,21,23,25,27,29,-1,-1,-1,-1,-1,-1,-1,-1,-1,-1,-1,-1,-1,-1,-1,-1],"loss_changes":[5.240782E1,1.965749E1,2.9026173E1,3.0434055E1,1.7866814E1,2.6322508E1,1.1233437E1,1.5571924E1,9.259781E0,1.4516575E1,2.715007E1,1.3989098E1,1.926483E1,2.73889E1,1.9937866E1,0E0,0E0,0E0,0E0,0E0,0E0,0E0,0E0,0E0,0E0,0E0,0E0,0E0,0E0,0E0,0E0],"parents":[2147483647,0,0,1,1,2,2,3,3,4,4,5,5,6,6,7,7,8,8,9,9,10,10,11,11,12,12,13,13,14,14],"right_children":[2,4,6,8,10,12,14,16,18,20,22,24,26,28,30,-1,-1,-1,-1,-1,-1,-1,-1,-1,-1,-1,-1,-1,-1,-1,-1],"split_conditions":[7.805004E-4,-2.0942409E-3,2.721373E-3,6.0941995E-5,3.631082E-4,1.890992E-3,-5.913546E-3,4.3440046E-4,-5.231689E-3,-2.4768047E-4,4.979253E-4,-2.5303293E-2,1.1483101E-3,-7.0710677E-1,1.5089929E-3,2.5400644E-2,-3.8313947E-3,8.351863E-2,2.512894E-2,5.0303757E-2,-1.8207349E-2,2.443543E-3,-1.0739572E-2,1.5449124E-2,9.125396E-4,-7.947436E-3,-1.2336585E-3,2.1583784E-2,4.4883443E-3,7.3041804E-2,2.3984981E-3],"split_indices":[3,11,0,8,7,4,4,3,11,8,7,2,3,1,3,0,0,0,0,0,0,0,0,0,0,0,0,0,0,0,0],"split_type":[0,0,0,0,0,0,0,0,0,0,0,0,0,0,0,0,0,0,0,0,0,0,0,0,0,0,0,0,0,0,0],"sum_hessian":[2.6983172E4,3.263186E3,2.3719984E4,1.0492975E3,2.2138884E3,1.8458176E4,5.261809E3,9.89264E2,6.0033512E1,4.8088452E2,1.733004E3,1.3028733E4,5.429443E3,1.5552319E3,3.7065771E3,4.6362774E1,9.4290125E2,6.9667835E0,5.3066727E1,6.4373345E0,4.744472E2,5.9234296E2,1.140661E3,1.661952E2,1.2862538E4,1.4617931E3,3.96765E3,2.8642242E2,1.2688094E3,8.519632E0,3.6980574E3],"tree_param":{"num_deleted":"0","num_feature":"21","num_nodes":"31","size_leaf_vector":"1"}},{"base_weights":[1.7691073E-3,-1.1354098E-1,1.5582883E-2,1.5100263E-1,-1.4316615E-1,6.0176536E-2,-9.016792E-3,1.8397073E-1,-4.415695E-2,-1.5762645E-1,3.4922272E-1,3.0796766E-1,5.1518045E-2,-1.5776245E-2,2.159129E-1,7.1786824E-3,4.4908855E-2,-1.2986409E-2,-4.9852123E-3,7.448148E-2,-5.3774477E-3,6.1022933E-3,2.1605773E-2,7.320311E-3,1.7850781E-3,-9.932474E-4,1.2438314E-2,1.3594012E-2,-3.0830083E-2],"categories":[],"categories_nodes":[],"categories_segments":[],"categories_sizes":[],"default_left":[0,0,0,0,0,0,0,0,0,0,0,0,0,0,0,0,0,0,0,0,0,0,0,0,0,0,0,0,0],"id":32,"left_children":[1,3,5,7,9,11,13,15,-1,17,19,21,23,25,27,-1,-1,-1,-1,-1,-1,-1,-1,-1,-1,-1,-1,-1,-1],"loss_changes":[4.2880146E1,2.2602074E1,2.6378424E1,1.0115935E1,1.8519657E1,1.8299555E1,2.3555056E1,7.916608E0,0E0,1.4834579E1,3.900362E1,6.5438423E0,1.2382816E1,1.62696E1,2.1293291E1,0E0,0E0,0E0,0E0,0E0,0E0,0E0,0E0,0E0,0E0,0E0,0E0,0E0,0E0],"parents":[2147483647,0,0,1,1,2,2,3,3,4,4,5,5,6,6,7,7,9,9,10,10,11,11,12,12,13,13,14,14],"right_children":[2,4,6,8,10,12,14,16,-1,18,20,22,24,26,28,-1,-1,-1,-1,-1,-1,-1,-1,-1,-1,-1,-1,-1,-1],"split_conditions":[7.520767E-4,3.110162E1,-2.1300456E-3,1.042171E-3,8.9949155E-3,-4.7882134E-3,3.8884193E-2,3.4947988E-1,-4.415695E-2,9.285714E-1,-2.2252093E-1,-5E-1,-2.1690352E-2,4.731545E-3,1E0,7.1786824E-3,4.4908855E-2,-1.2986409E-2,-4.9852123E-3,7.448148E-2,-5.3774477E-3,6.1022933E-3,2.1605773E-2,7.320311E-3,1.7850781E-3,-9.932474E-4,1.2438314E-2,1.3594012E-2,-3.0830083E-2],"split_indices":[3,13,4,0,2,15,2,12,0,17,14,5,2,3,14,0,0,0,0,0,0,0,0,0,0,0,0,0,0],"split_type":[0,0,0,0,0,0,0,0,0,0,0,0,0,0,0,0,0,0,0,0,0,0,0,0,0,0,0,0,0],"sum_hessian":[2.6920002E4,2.878378E3,2.4041625E4,2.8908707E2,2.589291E3,8.547252E3,1.5494373E4,2.813977E2,7.689366E0,2.5165083E3,7.278258E1,2.866346E2,8.260617E3,1.5043899E4,4.504732E2,2.6810464E2,1.3293051E1,9.086705E2,1.6078379E3,1.9876135E1,5.290644E1,1.1611696E2,1.7051765E2,1.1779812E3,7.0826357E3,1.4816477E4,2.2742323E2,4.2309976E2,2.7373468E1],"tree_param":{"num_deleted":"0","num_feature":"21","num_nodes":"29","size_leaf_vector":"1"}},{"base_weights":[2.0299042E-3,-9.581876E-2,1.4963422E-2,4.9885452E-1,-1.03490144E-1,1.4649662E-1,8.142449E-3,-1.0345699E-1,9.1863084E-1,-1.1667233E-1,2.2732721E-1,4.8614326E-1,1.221865E-1,4.7222013E-3,2.3014979E-1,3.847113E-2,-3.245909E-2,9.056362E-3,6.0796775E-2,-4.4772774E-3,-1.7023433E-2,6.326495E-2,-8.698584E-3,-2.082363E-3,3.0026237E-2,-3.124127E-3,8.634554E-3,1.0706568E-3,-1.924864E-3,3.61414E-2,5.32371E-3],"categories":[],"categories_nodes":[],"categories_segments":[],"categories_sizes":[],"default_left":[0,0,0,0,0,0,0,0,0,0,0,0,0,0,0,0,0,0,0,0,0,0,0,0,0,0,0,0,0,0,0],"id":33,"left_children":[1,3,5,7,9,11,13,15,17,19,21,23,25,27,29,-1,-1,-1,-1,-1,-1,-1,-1,-1,-1,-1,-1,-1,-1,-1,-1],"loss_changes":[3.4150715E1,1.4429668E1,2.1377527E1,1.0372039E1,1.3603596E1,9.580477E0,1.7196375E1,9.245981E0,4.850704E0,1.8105892E1,5.020293E1,4.763853E0,1.0266571E1,1.6103289E1,2.0780725E1,0E0,0E0,0E0,0E0,0E0,0E0,0E0,0E0,0E0,0E0,0E0,0E0,0E0,0E0,0E0,0E0],"parents":[2147483647,0,0,1,1,2,2,3,3,4,4,5,5,6,6,7,7,8,8,9,9,10,10,11,11,12,12,13,13,14,14],"right_children":[2,4,6,8,10,12,14,16,18,20,22,24,26,28,30,-1,-1,-1,-1,-1,-1,-1,-1,-1,-1,-1,-1,-1,-1,-1,-1],"split_conditions":[7.7326054E-4,2.1041975E1,-2.3189778E-2,-3.3877304E-4,8.443909E-3,-5.174638E-4,4.3902438E-2,-2.0652427E-4,-1.3924575E-4,3.529827E-3,-2.2252093E-1,2.857143E-1,2.9846256E1,6.0801143E-3,1.0869565E-2,3.847113E-2,-3.245909E-2,9.056362E-3,6.0796775E-2,-4.4772774E-3,-1.7023433E-2,6.326495E-2,-8.698584E-3,-2.082363E-3,3.0026237E-2,-3.124127E-3,8.634554E-3,1.0706568E-3,-1.924864E-3,3.61414E-2,5.32371E-3],"split_indices":[3,13,2,8,2,9,2,9,9,11,14,17,13,2,11,0,0,0,0,0,0,0,0,0,0,0,0,0,0,0,0],"split_type":[0,0,0,0,0,0,0,0,0,0,0,0,0,0,0,0,0,0,0,0,0,0,0,0,0,0,0,0,0,0,0],"sum_hessian":[2.6985357E4,3.1488933E3,2.3836463E4,3.8797733E1,3.1100957E3,1.1732812E3,2.2663182E4,1.6349718E1,2.2448013E1,2.9919946E3,1.1810086E2,7.632735E1,1.0969539E3,2.232106E4,3.4212146E2,6.017817E0,1.0331902E1,7.191231E0,1.5256783E1,2.6706086E3,3.2138602E2,3.2063282E1,8.6037575E1,1.3687197E1,6.2640152E1,2.3528671E2,8.616672E2,1.6103834E4,6.217227E3,6.710974E1,2.7501172E2],"tree_param":{"num_deleted":"0","num_feature":"21","num_nodes":"31","size_leaf_vector":"1"}},{"base_weights":[8.703657E-3,-5.488047E-3,9.232705E-2,-8.246718E-2,6.648497E-3,1.3765188E-1,3.0881122E-2,-5.8158547E-2,-3.625064E-1,3.5693876E-2,-2.4558257E-2,7.698201E-1,1.1839096E-1,-2.3150468E-2,1.5713833E-1,5.187424E-3,-5.0341343E-3,3.3088926E-2,-1.9921519E-2,7.510514E-4,6.6307574E-3,9.785197E-4,-2.7206943E-3,5.181364E-2,1.417626E-3,4.8284424E-3,2.730642E-2,-7.1264016E-3,3.2332998E-3,2.9264258E-3,3.1207955E-2],"categories":[],"categories_nodes":[],"categories_segments":[],"categories_sizes":[],"default_left":[0,0,0,0,0,0,0,0,0,0,0,0,0,0,0,0,0,0,0,0,0,0,0,0,0,0,0,0,0,0,0],"id":34,"left_children":[1,3,5,7,9,11,13,15,17,19,21,23,25,27,29,-1,-1,-1,-1,-1,-1,-1,-1,-1,-1,-1,-1,-1,-1,-1,-1],"loss_changes":[3.202771E1,2.1557299E1,1.0890018E1,2.133911E1,1.8065123E1,2.7245079E1,1.1367599E1,1.9936459E1,9.601307E0,2.0673246E1,1.2660153E1,1.2991318E1,2.0309088E1,1.2248938E1,2.2906652E1,0E0,0E0,0E0,0E0,0E0,0E0,0E0,0E0,0E0,0E0,0E0,0E0,0E0,0E0,0E0,0E0],"parents":[2147483647,0,0,1,1,2,2,3,3,4,4,5,5,6,6,7,7,8,8,9,9,10,10,11,11,12,12,13,13,14,14],"right_children":[2,4,6,8,10,12,14,16,18,20,22,24,26,28,30,-1,-1,-1,-1,-1,-1,-1,-1,-1,-1,-1,-1,-1,-1,-1,-1],"split_conditions":[3.221431E-3,7.7326054E-4,3.4587116E-3,9.2414056E-4,4.943538E1,-9.659258E-1,7.818315E-1,-2.2252093E-1,-2.9951814E-4,3.5365483E-5,-2.5881904E-1,7.818315E-1,6.707499E-3,-2.5881904E-1,4.0249695E-4,5.187424E-3,-5.0341343E-3,3.3088926E-2,-1.9921519E-2,7.510514E-4,6.6307574E-3,9.785197E-4,-2.7206943E-3,5.181364E-2,1.417626E-3,4.8284424E-3,2.730642E-2,-7.1264016E-3,3.2332998E-3,2.9264258E-3,3.1207955E-2],"split_indices":[7,3,11,0,13,1,6,14,9,9,5,6,3,5,9,0,0,0,0,0,0,0,0,0,0,0,0,0,0,0,0],"split_type":[0,0,0,0,0,0,0,0,0,0,0,0,0,0,0,0,0,0,0,0,0,0,0,0,0,0,0,0,0,0,0],"sum_hessian":[2.6981758E4,2.3067742E4,3.9140168E3,3.1409417E3,1.9926799E4,2.250954E3,1.6630626E3,2.8919019E3,2.490398E2,1.0321526E4,9.605273E3,6.4749344E1,2.1862048E3,1.1652322E3,4.9783044E2,6.008565E2,2.2910454E3,7.5058045E0,2.4153398E2,8.508872E3,1.812654E3,3.875646E3,5.729627E3,4.714394E1,1.7605406E1,2.0819446E3,1.0426017E2,4.9371356E2,6.715186E2,4.1252274E2,8.53077E1],"tree_param":{"num_deleted":"0","num_feature":"21","num_nodes":"31","size_leaf_vector":"1"}},{"base_weights":[-4.5572543E-3,-6.0236294E-2,2.1907322E-2,-2.3411652E-2,-1.3978143E-1,1.908363E-2,4.4795448E-1,-1.2544242E-1,7.3577925E-3,-7.275375E-2,-2.2827227E-1,1.7633153E-1,1.5345802E-2,6.228724E-1,-5.2652735E-1,7.889668E-3,-7.838483E-3,1.6634976E-2,-9.838789E-4,-7.517898E-3,5.052157E-3,9.185581E-3,-1.2481637E-2,1.4805994E-2,-9.796334E-3,1.070318E-3,-2.9598295E-3,4.8978835E-2,1.6457517E-2,-3.6603163E-3,-5.434552E-2],"categories":[],"categories_nodes":[],"categories_segments":[],"categories_sizes":[],"default_left":[0,0,0,0,0,0,0,0,0,0,0,0,0,0,0,0,0,0,0,0,0,0,0,0,0,0,0,0,0,0,0],"id":35,"left_children":[1,3,5,7,9,11,13,15,17,19,21,23,25,27,29,-1,-1,-1,-1,-1,-1,-1,-1,-1,-1,-1,-1,-1,-1,-1,-1],"loss_changes":[3.97149E1,2.542288E1,2.1940344E1,1.8648891E1,1.6254166E1,1.0653778E1,2.0966873E1,1.2248535E1,4.0161644E1,2.1141785E1,1.0482456E1,1.8862644E1,8.009715E0,1.01949005E1,4.6607394E0,0E0,0E0,0E0,0E0,0E0,0E0,0E0,0E0,0E0,0E0,0E0,0E0,0E0,0E0,0E0,0E0],"parents":[2147483647,0,0,1,1,2,2,3,3,4,4,5,5,6,6,7,7,8,8,9,9,10,10,11,11,12,12,13,13,14,14],"right_children":[2,4,6,8,10,12,14,16,18,20,22,24,26,28,30,-1,-1,-1,-1,-1,-1,-1,-1,-1,-1,-1,-1,-1,-1,-1,-1],"split_conditions":[1.1098078E-3,1.4619883E-3,1.1926957E-2,4.1649313E-4,9.3845796E-4,-4.7882134E-3,-2.2252093E-1,3.180452E1,4.45236E-4,8.579123E-4,-2.3463164E-3,6.817426E-3,1.7455465E-1,1.4154653E-2,4.4696926E1,7.889668E-3,-7.838483E-3,1.6634976E-2,-9.838789E-4,-7.517898E-3,5.052157E-3,9.185581E-3,-1.2481637E-2,1.4805994E-2,-9.796334E-3,1.070318E-3,-2.9598295E-3,4.8978835E-2,1.6457517E-2,-3.6603163E-3,-5.434552E-2],"split_indices":[3,11,0,7,0,15,14,13,7,3,16,11,12,7,13,0,0,0,0,0,0,0,0,0,0,0,0,0,0,0,0],"split_type":[0,0,0,0,0,0,0,0,0,0,0,0,0,0,0,0,0,0,0,0,0,0,0,0,0,0,0,0,0,0,0],"sum_hessian":[2.6948217E4,8.68202E3,1.8266197E4,5.936394E3,2.7456255E3,1.8147605E4,1.18591484E2,1.3747533E3,4.5616406E3,1.5641519E3,1.1814736E3,4.1943933E2,1.7728166E4,1.0104636E2,1.7545126E1,1.361492E2,1.2386041E3,3.488227E2,4.212818E3,1.0816575E3,4.824944E2,5.7560047E1,1.1239136E3,3.176609E2,1.0177844E2,1.639679E4,1.3313766E3,4.3972332E1,5.7074024E1,1.0685933E1,6.859192E0],"tree_param":{"num_deleted":"0","num_feature":"21","num_nodes":"31","size_leaf_vector":"1"}},{"base_weights":[2.4547195E-4,-9.811748E-2,1.2358901E-2,-2.0819904E-2,-1.8820797E-1,1.2915457E-3,6.929342E-2,4.5520878E-1,-4.3398432E-2,-1.6056517E-1,-5.536092E-1,3.5771433E-2,-2.2290597E-2,1.7564118E-1,4.5590486E-2,3.2501824E-3,3.503495E-2,-4.542086E-3,7.0214323E-3,-9.680818E-3,1.4625539E-2,-5.2856892E-2,-2.062514E-2,2.6431975E-3,-3.7986324E-3,5.412058E-3,-1.6894665E-3,2.0777991E-2,3.0654564E-3,-3.6609534E-3,4.3667764E-3],"categories":[],"categories_nodes":[],"categories_segments":[],"categories_sizes":[],"default_left":[0,0,0,0,0,0,0,0,0,0,0,0,0,0,0,0,0,0,0,0,0,0,0,0,0,0,0,0,0,0,0],"id":36,"left_children":[1,3,5,7,9,11,13,15,17,19,21,23,25,27,29,-1,-1,-1,-1,-1,-1,-1,-1,-1,-1,-1,-1,-1,-1,-1,-1],"loss_changes":[3.2155582E1,2.0589577E1,1.51390915E1,1.7147476E1,1.3628002E1,1.6363935E1,9.834137E0,6.813118E0,1.3306515E1,1.9129616E1,6.0455112E0,1.56178875E1,1.793799E1,1.9462889E1,1.5881972E1,0E0,0E0,0E0,0E0,0E0,0E0,0E0,0E0,0E0,0E0,0E0,0E0,0E0,0E0,0E0,0E0],"parents":[2147483647,0,0,1,1,2,2,3,3,4,4,5,5,6,6,7,7,8,8,9,9,10,10,11,11,12,12,13,13,14,14],"right_children":[2,4,6,8,10,12,14,16,18,20,22,24,26,28,30,-1,-1,-1,-1,-1,-1,-1,-1,-1,-1,-1,-1,-1,-1,-1,-1],"split_conditions":[7.592978E-4,0E0,3.221431E-3,2.5846601E1,1.4152835E-4,-2.5881904E-1,-6.410814E-4,1.2246469E-16,-4.3388373E-1,1.9267823E-3,4.3388373E-1,2.4818177E-3,8.060539E-4,-2.2252093E-1,-7.0710677E-1,3.2501824E-3,3.503495E-2,-4.542086E-3,7.0214323E-3,-9.680818E-3,1.4625539E-2,-5.2856892E-2,-2.062514E-2,2.6431975E-3,-3.7986324E-3,5.412058E-3,-1.6894665E-3,2.0777991E-2,3.0654564E-3,-3.6609534E-3,4.3667764E-3],"split_indices":[3,6,7,13,9,5,8,5,6,16,6,3,0,14,5,0,0,0,0,0,0,0,0,0,0,0,0,0,0,0,0],"split_type":[0,0,0,0,0,0,0,0,0,0,0,0,0,0,0,0,0,0,0,0,0,0,0,0,0,0,0,0,0,0,0],"sum_hessian":[2.6987764E4,2.9575132E3,2.403025E4,1.5930657E3,1.3644474E3,2.0121328E4,3.9089211E3,7.0737305E1,1.5223284E3,1.2706202E3,9.382716E1,8.1729097E3,1.1948419E4,7.102999E2,3.1986213E3,2.8128347E1,4.260896E1,1.210854E3,3.1147433E2,1.1851359E3,8.548445E1,1.8329082E1,7.5498085E1,7.0896987E3,1.0832113E3,9.659656E2,1.0982453E4,2.2782793E2,4.8247202E2,8.310529E2,2.3675684E3],"tree_param":{"num_deleted":"0","num_feature":"21","num_nodes":"31","size_leaf_vector":"1"}},{"base_weights":[-2.1162715E-4,-2.2940662E-2,4.0798582E-2,4.4602737E-2,-3.97709E-2,7.770363E-2,-6.9692787E-3,-1.266836E-1,7.07363E-2,1.286427E-3,-7.0537634E-2,5.542834E-2,2.9318985E-1,-2.594075E-1,1.226608E-2,-1.7680584E-2,-2.1504338E-3,7.1792067E-3,1.5067753E-3,-3.5435127E-3,1.248787E-3,4.4999853E-2,-3.612533E-3,1.9239894E-3,1.0140105E-2,2.3709029E-2,8.105226E-3,-2.1494396E-2,2.260018E-2,-2.054102E-3,4.1953535E-3],"categories":[],"categories_nodes":[],"categories_segments":[],"categories_sizes":[],"default_left":[0,0,0,0,0,0,0,0,0,0,0,0,0,0,0,0,0,0,0,0,0,0,0,0,0,0,0,0,0,0,0],"id":37,"left_children":[1,3,5,7,9,11,13,15,17,19,21,23,25,27,29,-1,-1,-1,-1,-1,-1,-1,-1,-1,-1,-1,-1,-1,-1,-1,-1],"loss_changes":[2.5150269E1,1.9738583E1,1.6965117E1,1.55133915E1,1.756184E1,2.6014637E1,2.038295E1,8.66795E0,8.875731E0,1.0179383E1,1.326738E1,1.2269994E1,1.1905632E1,3.633683E1,1.4906892E1,0E0,0E0,0E0,0E0,0E0,0E0,0E0,0E0,0E0,0E0,0E0,0E0,0E0,0E0,0E0,0E0],"parents":[2147483647,0,0,1,1,2,2,3,3,4,4,5,5,6,6,7,7,8,8,9,9,10,10,11,11,12,12,13,13,14,14],"right_children":[2,4,6,8,10,12,14,16,18,20,22,24,26,28,30,-1,-1,-1,-1,-1,-1,-1,-1,-1,-1,-1,-1,-1,-1,-1,-1],"split_conditions":[1.9828982E-3,-2.0686802E-3,1.525941E-3,-4.0582026E-4,0E0,4.952724E-3,-1.1896179E-2,-1.4996592E-2,-4.651163E-3,7.3434855E-4,-2.5303293E-2,4.780991E-3,-2.555688E-2,4.9517374E-3,4.3388373E-1,-1.7680584E-2,-2.1504338E-3,7.1792067E-3,1.5067753E-3,-3.5435127E-3,1.248787E-3,4.4999853E-2,-3.612533E-3,1.9239894E-3,1.0140105E-2,2.3709029E-2,8.105226E-3,-2.1494396E-2,2.260018E-2,-2.054102E-3,4.1953535E-3],"split_indices":[0,16,11,8,6,16,2,2,11,0,2,0,12,0,6,0,0,0,0,0,0,0,0,0,0,0,0,0,0,0,0],"split_type":[0,0,0,0,0,0,0,0,0,0,0,0,0,0,0,0,0,0,0,0,0,0,0,0,0,0,0,0,0,0,0],"sum_hessian":[2.6979672E4,1.7360092E4,9.61958E3,3.4617783E3,1.3898313E4,5.4269053E3,4.192675E3,4.5723743E2,3.004541E3,5.953436E3,7.9448774E3,4.9203916E3,5.0651395E2,2.957128E2,3.8969622E3,1.2171293E2,3.355245E2,1.0734573E3,1.9310836E3,1.4701923E3,4.4832437E3,1.256092E1,7.9323164E3,4.4148926E3,5.0549893E2,2.1094829E2,2.9556567E2,2.3908342E2,5.6629375E1,2.2336191E3,1.663343E3],"tree_param":{"num_deleted":"0","num_feature":"21","num_nodes":"31","size_leaf_vector":"1"}},{"base_weights":[3.1157653E-3,6.190645E-2,-1.5189317E-2,5.779035E-2,1.1851585E0,-3.4697436E-2,3.951775E-2,7.789095E-2,-6.8054534E-2,1.3799708E0,2.838779E-2,-1.8387762E-1,-2.8788177E-2,7.309308E-1,3.5733398E-2,4.8705074E-3,-4.4825464E-3,-4.1259616E-3,7.3161654E-2,3.152427E-2,8.159869E-2,-9.730991E-3,3.668611E-2,7.626702E-5,-2.5252027E-3,5.469824E-2,-1.07432455E-2,-3.8354297E-3,2.7757871E-3],"categories":[],"categories_nodes":[],"categories_segments":[],"categories_sizes":[],"default_left":[0,0,0,0,0,0,0,0,0,0,0,0,0,0,0,0,0,0,0,0,0,0,0,0,0,0,0,0,0],"id":38,"left_children":[1,3,5,7,9,11,13,15,17,19,-1,21,23,25,27,-1,-1,-1,-1,-1,-1,-1,-1,-1,-1,-1,-1,-1,-1],"loss_changes":[2.9040031E1,2.9458122E1,2.1960655E1,1.6160664E1,1.5264587E0,1.3353155E1,1.4074054E1,1.8022934E1,1.9601473E1,1.4749565E0,0E0,5.878252E0,9.608693E0,1.0454254E1,1.1973951E1,0E0,0E0,0E0,0E0,0E0,0E0,0E0,0E0,0E0,0E0,0E0,0E0,0E0,0E0],"parents":[2147483647,0,0,1,1,2,2,3,3,4,4,5,5,6,6,7,7,8,8,9,9,11,11,12,12,13,13,14,14],"right_children":[2,4,6,8,10,12,14,16,18,20,-1,22,24,26,28,-1,-1,-1,-1,-1,-1,-1,-1,-1,-1,-1,-1,-1,-1],"split_conditions":[-5.6448113E-3,4.3902438E-2,2.035002E-3,9.749279E-1,1.4154653E-2,3.352892E-4,-4.2534724E-2,2.7369142E-3,5.6155343E-3,-7.0710677E-1,2.838779E-2,1.4939309E-2,0E0,9.7234343E-4,-8.660254E-1,4.8705074E-3,-4.4825464E-3,-4.1259616E-3,7.3161654E-2,3.152427E-2,8.159869E-2,-9.730991E-3,3.668611E-2,7.626702E-5,-2.5252027E-3,5.469824E-2,-1.07432455E-2,-3.8354297E-3,2.7757871E-3],"split_indices":[11,2,7,6,7,7,2,2,0,5,0,2,6,8,5,0,0,0,0,0,0,0,0,0,0,0,0,0,0],"split_type":[0,0,0,0,0,0,0,0,0,0,0,0,0,0,0,0,0,0,0,0,0,0,0,0,0,0,0,0,0],"sum_hessian":[2.6979672E4,6.4056655E3,2.0574006E4,6.383894E3,2.1771774E1,1.5167024E4,5.406982E3,5.5054966E3,8.783976E2,1.5079872E1,6.691902E0,5.7585443E2,1.459117E4,2.7792397E1,5.3791895E3,4.9318457E3,5.736507E2,8.71616E2,6.7815533E0,5.166215E0,9.913657E0,5.70413E2,5.4413986E0,6.0896406E3,8.501529E3,1.995193E1,7.8404675E0,8.037672E2,4.5754224E3],"tree_param":{"num_deleted":"0","num_feature":"21","num_nodes":"29","size_leaf_vector":"1"}},{"base_weights":[-9.522042E-4,3.3599243E-2,-2.446829E-2,3.538195E-1,2.633745E-2,-4.5684855E-2,7.224225E-2,4.5459622E-1,-6.5964127E-1,2.1522041E-2,4.7181484E-1,-5.62437E-3,-7.8664735E-2,1.0164316E-1,-1.2615764E-1,2.873162E-2,2.876259E-3,7.5002476E-3,-4.686597E-2,-5.95475E-4,3.2652542E-3,-1.1878321E-3,5.9311785E-2,-7.814246E-3,5.11693E-4,-4.6924595E-3,5.876672E-3,-6.0553867E-3,6.9722193E-3,-8.468162E-3,4.5496427E-2],"categories":[],"categories_nodes":[],"categories_segments":[],"categories_sizes":[],"default_left":[0,0,0,0,0,0,0,0,0,0,0,0,0,0,0,0,0,0,0,0,0,0,0,0,0,0,0,0,0,0,0],"id":39,"left_children":[1,3,5,7,9,11,13,15,17,19,21,23,25,27,29,-1,-1,-1,-1,-1,-1,-1,-1,-1,-1,-1,-1,-1,-1,-1,-1],"loss_changes":[2.1881645E1,2.532697E1,3.2885902E1,2.5110643E1,2.2839687E1,1.7360441E1,1.683701E1,1.0435295E1,5.289565E0,1.5451101E1,4.0417706E1,1.4194601E1,2.1489552E1,2.1180182E1,1.6872906E1,0E0,0E0,0E0,0E0,0E0,0E0,0E0,0E0,0E0,0E0,0E0,0E0,0E0,0E0,0E0,0E0],"parents":[2147483647,0,0,1,1,2,2,3,3,4,4,5,5,6,6,7,7,8,8,9,9,10,10,11,11,12,12,13,13,14,14],"right_children":[2,4,6,8,10,12,14,16,18,20,22,24,26,28,30,-1,-1,-1,-1,-1,-1,-1,-1,-1,-1,-1,-1,-1,-1,-1,-1],"split_conditions":[-2.5881904E-1,-1.0661312E-3,2.5494364E-3,1E0,1.6833947E-3,-4.0933277E-4,1.3452427E-2,-1.106256E-2,-4.1613105E-4,-7.0710677E-1,4.3388373E-1,-4.41434E-4,6.883676E-3,0E0,1.1926957E-2,2.873162E-2,2.876259E-3,7.5002476E-3,-4.686597E-2,-5.95475E-4,3.2652542E-3,-1.1878321E-3,5.9311785E-2,-7.814246E-3,5.11693E-4,-4.6924595E-3,5.876672E-3,-6.0553867E-3,6.9722193E-3,-8.468162E-3,4.5496427E-2],"split_indices":[5,8,0,14,8,16,4,4,9,5,6,8,4,5,0,0,0,0,0,0,0,0,0,0,0,0,0,0,0,0,0],"split_type":[0,0,0,0,0,0,0,0,0,0,0,0,0,0,0,0,0,0,0,0,0,0,0,0,0,0,0,0,0,0,0],"sum_hessian":[2.6928309E4,1.0904257E4,1.6024053E4,2.4005782E2,1.0664199E4,1.3142197E4,2.8818547E3,2.1914311E2,2.09147E1,1.0551823E4,1.12375725E2,5.935568E3,7.20663E3,2.5107673E3,3.7108737E2,1.6766164E2,5.1481476E1,5.471288E0,1.5443412E1,5.9831797E3,4.5686436E3,6.7165344E1,4.5210373E1,5.643025E2,5.371265E3,6.689912E3,5.1671814E2,3.6359372E2,2.1471736E3,3.574831E2,1.3604262E1],"tree_param":{"num_deleted":"0","num_feature":"21","num_nodes":"31","size_leaf_vector":"1"}},{"base_weights":[1.3067259E-4,-6.912403E-2,1.3301182E-2,-4.5371536E-2,-2.2640532E-1,1.12174906E-1,6.4672427E-3,5.9951305E-2,-7.7578835E-2,-1.0360117E-1,-4.2371112E-1,3.4863198E-1,7.851377E-2,-7.626465E-2,2.0540185E-2,1.7411109E-3,5.649587E-2,-6.065287E-3,1.7963346E-3,-1.082521E-2,2.3417747E-2,2.2775626E-3,-2.525406E-2,-5.197064E-3,2.5603587E-2,-4.283575E-3,6.695284E-3,-2.771196E-4,-1.0307952E-2,9.2321215E-4,1.6641714E-2],"categories":[],"categories_nodes":[],"categories_segments":[],"categories_sizes":[],"default_left":[0,0,0,0,0,0,0,0,0,0,0,0,0,0,0,0,0,0,0,0,0,0,0,0,0,0,0,0,0,0,0],"id":40,"left_children":[1,3,5,7,9,11,13,15,17,19,21,23,25,27,29,-1,-1,-1,-1,-1,-1,-1,-1,-1,-1,-1,-1,-1,-1,-1,-1],"loss_changes":[2.460132E1,1.6070917E1,1.5307677E1,1.2715973E1,1.3592592E1,1.1595865E1,2.4684443E1,2.3484602E1,1.4255356E1,2.2757713E1,8.306305E0,1.3555586E1,1.1699823E1,2.8300285E1,1.1721341E1,0E0,0E0,0E0,0E0,0E0,0E0,0E0,0E0,0E0,0E0,0E0,0E0,0E0,0E0,0E0,0E0],"parents":[2147483647,0,0,1,1,2,2,3,3,4,4,5,5,6,6,7,7,8,8,9,9,10,10,11,11,12,12,13,13,14,14],"right_children":[2,4,6,8,10,12,14,16,18,20,22,24,26,28,30,-1,-1,-1,-1,-1,-1,-1,-1,-1,-1,-1,-1,-1,-1,-1,-1],"split_conditions":[8.516959E-4,9.3217226E-5,9.0895785E-4,-2.2252093E-1,2.259887E-3,-5.4182187E-3,1.1098078E-3,7.28349E1,1.638462E0,6.3855877E1,-6.793421E-2,-2.2252093E-1,-5E-1,1.4097744E-3,1.1926957E-2,1.7411109E-3,5.649587E-2,-6.065287E-3,1.7963346E-3,-1.082521E-2,2.3417747E-2,2.2775626E-3,-2.525406E-2,-5.197064E-3,2.5603587E-2,-4.283575E-3,6.695284E-3,-2.771196E-4,-1.0307952E-2,9.2321215E-4,1.6641714E-2],"split_indices":[3,9,0,14,11,11,3,13,10,13,12,14,1,11,0,0,0,0,0,0,0,0,0,0,0,0,0,0,0,0,0],"split_type":[0,0,0,0,0,0,0,0,0,0,0,0,0,0,0,0,0,0,0,0,0,0,0,0,0,0,0,0,0,0,0],"sum_hessian":[2.6971639E4,4.308103E3,2.2663537E4,3.7448147E3,5.632882E2,1.4632166E3,2.120032E4,8.763079E2,2.8685068E3,3.487595E2,2.145287E2,1.8040648E2,1.2828102E3,3.0805032E3,1.8119816E4,8.577583E2,1.8549654E1,2.0710083E3,7.974985E2,2.92116E2,5.664351E1,3.1708889E1,1.8281982E2,4.7928917E1,1.3247755E2,3.2317508E2,9.596351E2,1.9958126E3,1.0846906E3,1.80019E4,1.179169E2],"tree_param":{"num_deleted":"0","num_feature":"21","num_nodes":"31","size_leaf_vector":"1"}},{"base_weights":[-6.26459E-4,-8.869118E-2,1.0939009E-2,-1.3244134E-1,1.42767625E-2,7.3035685E-3,1.9180249E-1,-3.609182E-2,-2.1980143E-1,-5.587121E-1,5.983825E-2,5.367137E-3,3.320513E-1,9.686952E-1,1.19272076E-1,-2.8255687E-3,3.9109144E-2,-9.774387E-3,-3.8043965E-2,-4.9305838E-3,-3.561677E-2,9.9268E-3,-7.1092467E-3,6.550703E-4,-3.5729487E-3,2.4218194E-2,-1.8497951E-2,2.871739E-2,6.545304E-2,8.766546E-3,-3.2724585E-2],"categories":[],"categories_nodes":[],"categories_segments":[],"categories_sizes":[],"default_left":[0,0,0,0,0,0,0,0,0,0,0,0,0,0,0,0,0,0,0,0,0,0,0,0,0,0,0,0,0,0,0],"id":41,"left_children":[1,3,5,7,9,11,13,15,17,19,21,23,25,27,29,-1,-1,-1,-1,-1,-1,-1,-1,-1,-1,-1,-1,-1,-1,-1,-1],"loss_changes":[2.746695E1,1.4111597E1,1.5658875E1,1.8472363E1,2.442221E1,1.4673989E1,2.6216206E1,1.7525454E1,1.4884022E1,4.7241E0,2.4342226E1,1.3800918E1,1.50647E1,4.120426E0,1.8842972E1,0E0,0E0,0E0,0E0,0E0,0E0,0E0,0E0,0E0,0E0,0E0,0E0,0E0,0E0,0E0,0E0],"parents":[2147483647,0,0,1,1,2,2,3,3,4,4,5,5,6,6,7,7,8,8,9,9,10,10,11,11,12,12,13,13,14,14],"right_children":[2,4,6,8,10,12,14,16,18,20,22,24,26,28,30,-1,-1,-1,-1,-1,-1,-1,-1,-1,-1,-1,-1,-1,-1,-1,-1],"split_conditions":[7.7326054E-4,6.0941995E-5,3.8884193E-2,-8.359602E-5,-4.0298517E-5,6.707499E-3,-1.3710369E-3,5.939124E-3,9.5926475E-4,1.4097744E-3,6.234898E-1,1.4939309E-2,1.3452427E-2,5.714286E-1,1E0,-2.8255687E-3,3.9109144E-2,-9.774387E-3,-3.8043965E-2,-4.9305838E-3,-3.561677E-2,9.9268E-3,-7.1092467E-3,6.550703E-4,-3.5729487E-3,2.4218194E-2,-1.8497951E-2,2.871739E-2,6.545304E-2,8.766546E-3,-3.2724585E-2],"split_indices":[3,8,2,8,9,3,11,2,0,11,14,2,4,17,14,0,0,0,0,0,0,0,0,0,0,0,0,0,0,0,0],"split_type":[0,0,0,0,0,0,0,0,0,0,0,0,0,0,0,0,0,0,0,0,0,0,0,0,0,0,0,0,0,0,0],"sum_hessian":[2.6961037E4,3.1290847E3,2.3831951E4,2.1960564E3,9.3302826E2,2.3364158E4,4.677935E2,1.0455787E3,1.1504777E3,6.740022E1,8.6562805E2,2.3227336E4,1.3682301E2,3.830247E1,4.29491E2,1.0215442E3,2.403451E1,1.1030459E3,4.743174E1,1.756914E1,4.983108E1,5.134177E2,3.5221033E2,2.1104582E4,2.1227537E3,1.12870255E2,2.3952766E1,1.9679672E1,1.8622799E1,4.0161862E2,2.7872368E1],"tree_param":{"num_deleted":"0","num_feature":"21","num_nodes":"31","size_leaf_vector":"1"}},{"base_weights":[-2.0296779E-3,-7.103537E-2,1.1285203E-2,2.9702906E-2,-1.0226024E-1,1.2540235E-1,3.824182E-3,-1.6558664E-2,7.559854E-1,1.2821532E-2,-1.3728458E-1,-9.039441E-2,1.9821209E-1,-1.17025346E-1,1.1725925E-2,3.2686442E-3,-1.0258789E-2,6.2465128E-2,6.5701576E-3,-9.602825E-4,3.6295023E-2,1.6913382E-2,-7.7300565E-3,1.3634436E-2,-1.0312931E-2,1.0972423E-2,-1.7227199E-2,-7.163856E-3,1.7072301E-2,2.4123765E-3,-6.421597E-4],"categories":[],"categories_nodes":[],"categories_segments":[],"categories_sizes":[],"default_left":[0,0,0,0,0,0,0,0,0,0,0,0,0,0,0,0,0,0,0,0,0,0,0,0,0,0,0,0,0,0,0],"id":42,"left_children":[1,3,5,7,9,11,13,15,17,19,21,23,25,27,29,-1,-1,-1,-1,-1,-1,-1,-1,-1,-1,-1,-1,-1,-1,-1,-1],"loss_changes":[2.4826271E1,1.3755592E1,1.927494E1,3.4827656E1,1.3459324E1,2.1861553E1,2.0297394E1,1.5084269E1,1.8809387E1,1.7862299E1,2.1141315E1,1.4862062E1,1.208828E1,1.5763464E1,1.7909252E1,0E0,0E0,0E0,0E0,0E0,0E0,0E0,0E0,0E0,0E0,0E0,0E0,0E0,0E0,0E0,0E0],"parents":[2147483647,0,0,1,1,2,2,3,3,4,4,5,5,6,6,7,7,8,8,9,9,10,10,11,11,12,12,13,13,14,14],"right_children":[2,4,6,8,10,12,14,16,18,20,22,24,26,28,30,-1,-1,-1,-1,-1,-1,-1,-1,-1,-1,-1,-1,-1,-1,-1,-1],"split_conditions":[8.579123E-4,-2.2252093E-1,-2.1690352E-2,8.628519E-3,-1.3714685E-4,-4.3388373E-1,-1.5640939E-2,1.0653409E-3,7.877699E-4,4.3497174E-3,-8.489723E-3,-4.2534724E-2,5.555824E1,3.8745238E-3,-7.65242E-4,3.2686442E-3,-1.0258789E-2,6.2465128E-2,6.5701576E-3,-9.602825E-4,3.6295023E-2,1.6913382E-2,-7.7300565E-3,1.3634436E-2,-1.0312931E-2,1.0972423E-2,-1.7227199E-2,-7.163856E-3,1.7072301E-2,2.4123765E-3,-6.421597E-4],"split_indices":[3,14,2,2,8,6,2,11,3,2,2,2,13,3,4,0,0,0,0,0,0,0,0,0,0,0,0,0,0,0,0],"split_type":[0,0,0,0,0,0,0,0,0,0,0,0,0,0,0,0,0,0,0,0,0,0,0,0,0,0,0,0,0,0,0],"sum_hessian":[2.7014186E4,4.3689453E3,2.264524E4,1.03341E3,3.3355354E3,1.387829E3,2.1257412E4,9.728405E2,6.056947E1,7.781709E2,2.5573645E3,3.4985736E2,1.0379717E3,1.3029535E3,1.9954459E4,6.7872906E2,2.9411148E2,3.2957825E1,2.7611645E1,7.4605225E2,3.2118664E1,8.877272E1,2.4685918E3,8.403995E1,2.658174E2,9.998368E2,3.8134876E1,1.2334663E3,6.948718E1,8.0254077E3,1.1929051E4],"tree_param":{"num_deleted":"0","num_feature":"21","num_nodes":"31","size_leaf_vector":"1"}},{"base_weights":[-4.820169E-3,-8.318388E-3,1.9547284E-1,2.6866138E-2,-2.9946096E-2,3.6825016E-1,-5.728685E-2,1.1066467E-1,5.897186E-3,-2.3908012E-1,-2.5470639E-2,9.8835397E-1,2.1389401E-1,6.71258E-2,-1.3730632E-1,5.560493E-4,1.1669566E-2,1.8386102E-4,2.4787355E-2,-1.3301675E-2,4.6153013E-2,-2.547825E-2,-1.1956206E-3,6.2413495E-2,1.2530615E-2,-7.248717E-2,1.33878635E-2,-1.2408143E-2,1.2989985E-2],"categories":[],"categories_nodes":[],"categories_segments":[],"categories_sizes":[],"default_left":[0,0,0,0,0,0,0,0,0,0,0,0,0,0,0,0,0,0,0,0,0,0,0,0,0,0,0,0,0],"id":43,"left_children":[1,3,5,7,9,11,13,15,17,19,21,23,25,-1,27,-1,-1,-1,-1,-1,-1,-1,-1,-1,-1,-1,-1,-1,-1],"loss_changes":[1.8889727E1,2.0173038E1,2.025668E1,1.7725197E1,1.5344808E1,2.5963284E1,2.139463E1,2.465146E1,8.751895E0,1.1097643E1,1.2081891E1,9.88113E0,2.044527E1,0E0,8.030794E0,0E0,0E0,0E0,0E0,0E0,0E0,0E0,0E0,0E0,0E0,0E0,0E0,0E0,0E0],"parents":[2147483647,0,0,1,1,2,2,3,3,4,4,5,5,6,6,7,7,8,8,9,9,10,10,11,11,12,12,14,14],"right_children":[2,4,6,8,10,12,14,16,18,20,22,24,26,-1,28,-1,-1,-1,-1,-1,-1,-1,-1,-1,-1,-1,-1,-1,-1],"split_conditions":[3.8884193E-2,-1.7233018E-3,6.123234E-17,-7.0710677E-1,1.8178513E-4,1.1534025E-2,-1.7697467E-3,-8.660254E-1,1.4154653E-2,2.9195633E0,-5.174638E-4,8.470271E-3,4.780699E1,6.71258E-2,4.3238758E-4,5.560493E-4,1.1669566E-2,1.8386102E-4,2.4787355E-2,-1.3301675E-2,4.6153013E-2,-2.547825E-2,-1.1956206E-3,6.2413495E-2,1.2530615E-2,-7.248717E-2,1.33878635E-2,-1.2408143E-2,1.2989985E-2],"split_indices":[2,4,1,1,7,11,8,1,7,10,9,0,13,0,9,0,0,0,0,0,0,0,0,0,0,0,0,0,0],"split_type":[0,0,0,0,0,0,0,0,0,0,0,0,0,0,0,0,0,0,0,0,0,0,0,0,0,0,0,0,0],"sum_hessian":[2.696794E4,2.6506676E4,4.6126523E2,1.0089742E4,1.6416934E4,2.7369186E2,1.8757336E2,2.0176752E3,8.0720664E3,3.420793E2,1.60748545E4,5.2869137E1,2.2082272E2,8.829288E0,1.7874408E2,1.1151882E3,9.0248694E2,8.037256E3,3.4810955E1,3.354978E2,6.5815134E0,4.9904453E1,1.6024949E4,3.8277634E1,1.4591501E1,5.677094E0,2.1514563E2,1.4027365E2,3.847042E1],"tree_param":{"num_deleted":"0","num_feature":"21","num_nodes":"29","size_leaf_vector":"1"}},{"base_weights":[-2.9319332E-3,-7.250453E-2,6.131429E-3,-1.8670298E-1,-3.767368E-2,2.6764689E-2,-1.1972401E-2,-2.0233694E-1,4.888723E-2,1.1610262E-1,-1.08436994E-1,2.5132878E-2,6.4089733E-1,-5.7302196E-2,9.447329E-3,7.6881195E-3,-1.2597688E-2,1.8753806E-3,2.538429E-2,-1.203969E-2,-1.8083921E-3,1.0385008E-2,9.973049E-4,5.511713E-2,1.3083595E-2,-2.549241E-3,-4.6384435E-2,4.2040115E-3,-1.201326E-3],"categories":[],"categories_nodes":[],"categories_segments":[],"categories_sizes":[],"default_left":[0,0,0,0,0,0,0,0,0,0,0,0,0,0,0,0,0,0,0,0,0,0,0,0,0,0,0,0,0],"id":44,"left_children":[1,3,5,7,9,11,13,15,-1,17,19,21,23,25,27,-1,-1,-1,-1,-1,-1,-1,-1,-1,-1,-1,-1,-1,-1],"loss_changes":[1.6994095E1,1.2333902E1,8.906297E0,1.3461674E1,2.59443E1,1.110971E1,1.2332243E1,1.27306E1,0E0,2.3067955E1,1.5590023E1,1.0507923E1,4.64174E0,2.2290453E1,2.1550219E1,0E0,0E0,0E0,0E0,0E0,0E0,0E0,0E0,0E0,0E0,0E0,0E0,0E0,0E0],"parents":[2147483647,0,0,1,1,2,2,3,3,4,4,5,5,6,6,7,7,9,9,10,10,11,11,12,12,13,13,14,14],"right_children":[2,4,6,8,10,12,14,16,-1,18,20,22,24,26,28,-1,-1,-1,-1,-1,-1,-1,-1,-1,-1,-1,-1,-1,-1],"split_conditions":[7.7326054E-4,3.8358266E-4,-7.65242E-4,4.554062E0,4.979253E-4,8.639309E-3,