{"learner":{"attributes":{"scikit_learn":"{\"_estimator_type\": \"classifier\"}"},"feature_names":["atr_pct","price_vs_ema_trend","hour_cos","hour_sin","ret_60","macd_hist","ret_5","rsi_14","volume_trend","day_of_week_sin","hl_ratio","trend_slope_pct","ret_1","volume_ratio","close_position_in_candle","ema_full_alignment","body_to_range_ratio","day_of_week_cos","ema_fast_above_slow","macd_cross_up"],"feature_types":["float","float","float","float","float","float","float","float","float","float","float","float","float","float","float","float","float","float","float","float"],"gradient_booster":{"model":{"gbtree_model_param":{"num_parallel_tree":"1","num_trees":"300"},"iteration_indptr":[0,1,2,3,4,5,6,7,8,9,10,11,12,13,14,15,16,17,18,19,20,21,22,23,24,25,26,27,28,29,30,31,32,33,34,35,36,37,38,39,40,41,42,43,44,45,46,47,48,49,50,51,52,53,54,55,56,57,58,59,60,61,62,63,64,65,66,67,68,69,70,71,72,73,74,75,76,77,78,79,80,81,82,83,84,85,86,87,88,89,90,91,92,93,94,95,96,97,98,99,100,101,102,103,104,105,106,107,108,109,110,111,112,113,114,115,116,117,118,119,120,121,122,123,124,125,126,127,128,129,130,131,132,133,134,135,136,137,138,139,140,141,142,143,144,145,146,147,148,149,150,151,152,153,154,155,156,157,158,159,160,161,162,163,164,165,166,167,168,169,170,171,172,173,174,175,176,177,178,179,180,181,182,183,184,185,186,187,188,189,190,191,192,193,194,195,196,197,198,199,200,201,202,203,204,205,206,207,208,209,210,211,212,213,214,215,216,217,218,219,220,221,222,223,224,225,226,227,228,229,230,231,232,233,234,235,236,237,238,239,240,241,242,243,244,245,246,247,248,249,250,251,252,253,254,255,256,257,258,259,260,261,262,263,264,265,266,267,268,269,270,271,272,273,274,275,276,277,278,279,280,281,282,283,284,285,286,287,288,289,290,291,292,293,294,295,296,297,298,299,300],"tree_info":[0,0,0,0,0,0,0,0,0,0,0,0,0,0,0,0,0,0,0,0,0,0,0,0,0,0,0,0,0,0,0,0,0,0,0,0,0,0,0,0,0,0,0,0,0,0,0,0,0,0,0,0,0,0,0,0,0,0,0,0,0,0,0,0,0,0,0,0,0,0,0,0,0,0,0,0,0,0,0,0,0,0,0,0,0,0,0,0,0,0,0,0,0,0,0,0,0,0,0,0,0,0,0,0,0,0,0,0,0,0,0,0,0,0,0,0,0,0,0,0,0,0,0,0,0,0,0,0,0,0,0,0,0,0,0,0,0,0,0,0,0,0,0,0,0,0,0,0,0,0,0,0,0,0,0,0,0,0,0,0,0,0,0,0,0,0,0,0,0,0,0,0,0,0,0,0,0,0,0,0,0,0,0,0,0,0,0,0,0,0,0,0,0,0,0,0,0,0,0,0,0,0,0,0,0,0,0,0,0,0,0,0,0,0,0,0,0,0,0,0,0,0,0,0,0,0,0,0,0,0,0,0,0,0,0,0,0,0,0,0,0,0,0,0,0,0,0,0,0,0,0,0,0,0,0,0,0,0,0,0,0,0,0,0,0,0,0,0,0,0,0,0,0,0,0,0,0,0,0,0,0,0,0,0,0,0,0,0,0,0,0,0,0,0,0,0,0,0,0,0],"trees":[{"base_weights":[1.2715313E-3,-2.9584897E-1,1.6865243E-1,-1.00056276E-1,-3.460535E-1,5.5925506E-1,1.2662998E-1,5.330437E-1,-1.21738166E-1,-4.368106E-1,-2.399552E-1,4.785898E-1,9.1935617E-1,8.068473E-2,3.5240126E-1,-1.570779E-2,3.5597306E-2,2.3553025E-3,-8.189673E-3,-1.6777199E-2,-2.5514528E-2,-1.2945917E-3,-1.3703543E-2,4.6940442E-2,2.2620356E-2,4.9155924E-2,1.4652091E-3,1.2454599E-3,7.2523816E-3,1.6451795E-2,3.8556915E-2],"categories":[],"categories_nodes":[],"categories_segments":[],"categories_sizes":[],"default_left":[0,0,0,0,0,0,0,0,0,0,0,0,0,0,0,0,0,0,0,0,0,0,0,0,0,0,0,0,0,0,0],"id":0,"left_children":[1,3,5,7,9,11,13,15,17,19,21,23,25,27,29,-1,-1,-1,-1,-1,-1,-1,-1,-1,-1,-1,-1,-1,-1,-1,-1],"loss_changes":[1.8335165E3,1.3051343E2,3.8694946E2,3.7325863E1,1.0161792E2,6.579291E1,2.2082254E2,1.400518E1,1.8657295E1,4.208789E1,3.559848E1,2.1877655E1,2.3593048E1,6.351111E1,3.478711E1,0E0,0E0,0E0,0E0,0E0,0E0,0E0,0E0,0E0,0E0,0E0,0E0,0E0,0E0,0E0,0E0],"parents":[2147483647,0,0,1,1,2,2,3,3,4,4,5,5,6,6,7,7,8,8,9,9,10,10,11,11,12,12,13,13,14,14],"right_children":[2,4,6,8,10,12,14,16,18,20,22,24,26,28,30,-1,-1,-1,-1,-1,-1,-1,-1,-1,-1,-1,-1,-1,-1,-1,-1],"split_conditions":[1.2267033E-3,-2.0248017E-3,-7.355476E-3,-1.783679E-1,9.2571374E-4,4.0774993E-3,2.9345984E-3,-7.0265E-3,3.0425198E1,1E0,-8.660254E-1,-1.581711E-2,1E0,1.8097683E-3,6.1293417E-3,-1.570779E-2,3.5597306E-2,2.3553025E-3,-8.189673E-3,-1.6777199E-2,-2.5514528E-2,-1.2945917E-3,-1.3703543E-2,4.6940442E-2,2.2620356E-2,4.9155924E-2,1.4652091E-3,1.2454599E-3,7.2523816E-3,1.6451795E-2,3.8556915E-2],"split_indices":[0,1,1,5,0,0,0,4,7,18,2,1,2,0,0,0,0,0,0,0,0,0,0,0,0,0,0,0,0,0,0],"split_type":[0,0,0,0,0,0,0,0,0,0,0,0,0,0,0,0,0,0,0,0,0,0,0,0,0,0,0,0,0,0,0],"sum_hessian":[3.6864844E4,1.3283551E4,2.3581291E4,2.7121025E3,1.0571448E4,2.2886282E3,2.1292664E4,8.855845E1,2.623544E3,5.6948726E3,4.876575E3,1.8727507E3,4.158774E2,1.7694107E4,3.5985552E3,1.5193851E1,7.33646E1,5.2288556E2,2.1006584E3,2.398458E3,3.2964146E3,6.7091705E2,4.205658E3,9.7891815E1,1.7748589E3,3.8787732E2,2.8000097E1,9.480964E3,8.213145E3,3.4110198E3,1.8753554E2],"tree_param":{"num_deleted":"0","num_feature":"20","num_nodes":"31","size_leaf_vector":"1"}},{"base_weights":[-3.7189524E-3,-2.9145736E-1,1.4901319E-1,-9.067003E-2,-3.42576E-1,5.231042E-1,1.09350085E-1,5.868923E-2,-1.5120864E-1,-4.3646708E-1,-2.4884833E-1,4.329798E-1,8.1966734E-1,6.762524E-2,3.2043925E-1,4.777422E-3,-1.6748225E-2,2.16651E-2,-8.1275E-3,-1.638824E-2,-2.5275802E-2,-1.4181847E-2,-8.339433E-4,2.0840421E-2,6.1808337E-2,-2.3167185E-2,4.281145E-2,8.045917E-3,1.3473494E-3,2.1889716E-2,1.2472596E-2],"categories":[],"categories_nodes":[],"categories_segments":[],"categories_sizes":[],"default_left":[0,0,0,0,0,0,0,0,0,0,0,0,0,0,0,0,0,0,0,0,0,0,0,0,0,0,0,0,0,0,0],"id":1,"left_children":[1,3,5,7,9,11,13,15,17,19,21,23,25,27,29,-1,-1,-1,-1,-1,-1,-1,-1,-1,-1,-1,-1,-1,-1,-1,-1],"loss_changes":[1.6269651E3,1.3169092E2,3.587149E2,2.3592505E1,8.9840454E1,6.1354004E1,1.9255109E2,1.0959247E1,1.2395226E1,3.8056458E1,4.136261E1,2.227594E1,2.587033E1,6.92834E1,2.9863037E1,0E0,0E0,0E0,0E0,0E0,0E0,0E0,0E0,0E0,0E0,0E0,0E0,0E0,0E0,0E0,0E0],"parents":[2147483647,0,0,1,1,2,2,3,3,4,4,5,5,6,6,7,7,8,8,9,9,10,10,11,11,12,12,13,13,14,14],"right_children":[2,4,6,8,10,12,14,16,18,20,22,24,26,28,30,-1,-1,-1,-1,-1,-1,-1,-1,-1,-1,-1,-1,-1,-1,-1,-1],"split_conditions":[1.20606E-3,-2.0248017E-3,-7.355476E-3,-2.6878327E-4,8.923535E-4,3.74744E-3,2.9345984E-3,-1.6723527E-4,-1.6901566E-1,-1.885058E-4,1E0,2.1620537E-1,-9.659258E-1,-2.0248017E-3,0E0,4.777422E-3,-1.6748225E-2,2.16651E-2,-8.1275E-3,-1.638824E-2,-2.5275802E-2,-1.4181847E-2,-8.339433E-4,2.0840421E-2,6.1808337E-2,-2.3167185E-2,4.281145E-2,8.045917E-3,1.3473494E-3,2.1889716E-2,1.2472596E-2],"split_indices":[0,1,1,11,0,0,0,4,5,1,17,5,2,1,9,0,0,0,0,0,0,0,0,0,0,0,0,0,0,0,0],"split_type":[0,0,0,0,0,0,0,0,0,0,0,0,0,0,0,0,0,0,0,0,0,0,0,0,0,0,0,0,0,0,0],"sum_hessian":[3.701801E4,1.2835552E4,2.418246E4,2.605729E3,1.0229823E4,2.3162944E3,2.1866166E4,7.513177E2,1.8544113E3,5.107448E3,5.1223745E3,1.7794E3,5.368945E2,1.825919E4,3.6069768E3,6.881469E2,6.317074E1,3.4150455E1,1.8202607E3,1.9876605E3,3.1197878E3,4.454377E3,6.679977E2,1.7465752E3,3.2824905E1,1.4352825E1,5.225416E2,5.5423906E3,1.2716798E4,1.3563032E3,2.2506736E3],"tree_param":{"num_deleted":"0","num_feature":"20","num_nodes":"31","size_leaf_vector":"1"}},{"base_weights":[2.5838749E-3,-2.734018E-1,1.5472744E-1,-3.6722824E-1,-1.7722873E-1,4.719246E-1,1.1321246E-1,-1.8498711E-1,-4.332052E-1,7.325029E-2,-2.0602627E-1,4.017219E-1,7.323399E-1,8.385046E-2,4.0336657E-1,9.966721E-3,-1.1775257E-2,-2.6674246E-2,-1.845945E-2,-5.365081E-3,1.0322576E-2,-7.8972906E-4,-1.1812407E-2,1.04561895E-2,2.2612322E-2,-2.6788998E-2,3.83257E-2,1.9284837E-3,7.9871E-3,2.8875932E-2,1.3846162E-2],"categories":[],"categories_nodes":[],"categories_segments":[],"categories_sizes":[],"default_left":[0,0,0,0,0,0,0,0,0,0,0,0,0,0,0,0,0,0,0,0,0,0,0,0,0,0,0,0,0,0,0],"id":2,"left_children":[1,3,5,7,9,11,13,15,17,19,21,23,25,27,29,-1,-1,-1,-1,-1,-1,-1,-1,-1,-1,-1,-1,-1,-1,-1,-1],"loss_changes":[1.5543693E3,1.1858026E2,3.1413196E2,7.98916E1,4.691078E1,4.998114E1,1.7971683E2,3.448143E1,3.10271E1,1.6178303E1,3.3498245E1,2.1022339E1,2.5950378E1,6.584445E1,4.240973E1,0E0,0E0,0E0,0E0,0E0,0E0,0E0,0E0,0E0,0E0,0E0,0E0,0E0,0E0,0E0,0E0],"parents":[2147483647,0,0,1,1,2,2,3,3,4,4,5,5,6,6,7,7,8,8,9,9,10,10,11,11,12,12,13,13,14,14],"right_children":[2,4,6,8,10,12,14,16,18,20,22,24,26,28,30,-1,-1,-1,-1,-1,-1,-1,-1,-1,-1,-1,-1,-1,-1,-1,-1],"split_conditions":[1.2267033E-3,9.2571374E-4,-6.730239E-3,-9.377476E-5,-3.644305E-3,3.74744E-3,3.5019924E-3,-8.660254E-1,1.2442791E-3,-1.8369701E-16,-8.660254E-1,1.8652432E-3,-9.659258E-1,2.0352325E-3,0E0,9.966721E-3,-1.1775257E-2,-2.6674246E-2,-1.845945E-2,-5.365081E-3,1.0322576E-2,-7.8972906E-4,-1.1812407E-2,1.04561895E-2,2.2612322E-2,-2.6788998E-2,3.83257E-2,1.9284837E-3,7.9871E-3,2.8875932E-2,1.3846162E-2],"split_indices":[0,0,1,11,1,0,0,2,5,2,2,0,2,0,9,0,0,0,0,0,0,0,0,0,0,0,0,0,0,0,0],"split_type":[0,0,0,0,0,0,0,0,0,0,0,0,0,0,0,0,0,0,0,0,0,0,0,0,0,0,0,0,0,0,0],"sum_hessian":[3.7015227E4,1.3153497E4,2.3861729E4,6.6555728E3,6.497924E3,2.7596604E3,2.1102068E4,1.7707852E3,4.8847876E3,6.6961395E2,5.82831E3,2.1768354E3,5.828249E2,1.9164803E4,1.9372664E3,2.0509482E2,1.5656903E3,1.8987157E3,2.986072E3,2.8424338E2,3.8537054E2,7.995395E2,5.0287705E3,4.541866E2,1.7226488E3,1.467803E1,5.6814685E2,1.2004951E4,7.159851E3,8.124801E2,1.1247863E3],"tree_param":{"num_deleted":"0","num_feature":"20","num_nodes":"31","size_leaf_vector":"1"}},{"base_weights":[-3.9709057E-3,-2.4786948E-1,1.3907826E-1,-3.4912497E-1,-1.6288036E-1,4.834414E-1,1.0544462E-1,-1.372971E-1,-4.0928233E-1,8.182585E-2,-1.9270647E-1,4.244236E-1,7.1395516E-1,6.420313E-2,2.7181756E-1,9.978111E-3,-9.259999E-3,-2.5002701E-2,-1.73281E-2,-3.469141E-2,4.732224E-3,-1.2044084E-3,-1.0992433E-2,3.7582748E-2,1.9396683E-2,4.3141346E-2,-1.3327897E-2,8.743071E-3,1.6715411E-3,1.2696809E-2,3.184521E-2],"categories":[],"categories_nodes":[],"categories_segments":[],"categories_sizes":[],"default_left":[0,0,0,0,0,0,0,0,0,0,0,0,0,0,0,0,0,0,0,0,0,0,0,0,0,0,0,0,0,0,0],"id":3,"left_children":[1,3,5,7,9,11,13,15,17,19,21,23,25,27,29,-1,-1,-1,-1,-1,-1,-1,-1,-1,-1,-1,-1,-1,-1,-1,-1],"loss_changes":[1.2870834E3,1.17251465E2,2.6920624E2,7.917285E1,5.4167435E1,2.762796E1,1.4531973E2,2.2300095E1,2.7279907E1,8.089828E0,3.024237E1,1.9215576E1,6.1573013E1,5.7798584E1,2.7181458E1,0E0,0E0,0E0,0E0,0E0,0E0,0E0,0E0,0E0,0E0,0E0,0E0,0E0,0E0,0E0,0E0],"parents":[2147483647,0,0,1,1,2,2,3,3,4,4,5,5,6,6,7,7,8,8,9,9,10,10,11,11,12,12,13,13,14,14],"right_children":[2,4,6,8,10,12,14,16,18,20,22,24,26,28,30,-1,-1,-1,-1,-1,-1,-1,-1,-1,-1,-1,-1,-1,-1,-1,-1],"split_conditions":[1.2548867E-3,9.0583577E-4,-7.851854E-3,-1.14247116E-4,-3.5767374E-3,4.0774993E-3,2.812105E-3,-8.660254E-1,1.2442791E-3,-2.728859E-1,-8.660254E-1,-1.5622167E-1,9.659258E-1,-7.569343E-3,6.1293417E-3,9.978111E-3,-9.259999E-3,-2.5002701E-2,-1.73281E-2,-3.469141E-2,4.732224E-3,-1.2044084E-3,-1.0992433E-2,3.7582748E-2,1.9396683E-2,4.3141346E-2,-1.3327897E-2,8.743071E-3,1.6715411E-3,1.2696809E-2,3.184521E-2],"split_indices":[0,0,1,11,1,0,0,2,5,8,2,8,3,4,0,0,0,0,0,0,0,0,0,0,0,0,0,0,0,0,0],"split_type":[0,0,0,0,0,0,0,0,0,0,0,0,0,0,0,0,0,0,0,0,0,0,0,0,0,0,0,0,0,0,0],"sum_hessian":[3.6887156E4,1.3636389E4,2.3250768E4,6.2203057E3,7.416083E3,2.0669045E3,2.1183861E4,1.3770723E3,4.8432334E3,8.0524164E2,6.6108413E3,1.6491549E3,4.1774976E2,1.6977709E4,4.2061533E3,1.7072426E2,1.206348E3,1.9744553E3,2.8687778E3,1.1732272E1,7.9350934E2,9.172412E2,5.6936E3,1.6236299E2,1.4867919E3,3.6288394E2,5.486581E1,3.6921084E3,1.3285601E4,4.012317E3,1.9383676E2],"tree_param":{"num_deleted":"0","num_feature":"20","num_nodes":"31","size_leaf_vector":"1"}},{"base_weights":[-1.2984757E-4,-2.6222607E-1,1.21256985E-1,-1.1884075E-1,-3.208693E-1,5.556453E-2,2.801146E-1,-1.3901391E-2,-1.994384E-1,-3.5591152E-1,-1.4013892E-1,3.3024657E-1,3.0963965E-2,4.9529487E-1,2.1319146E-1,-2.7388379E-3,1.5405259E-2,-5.093389E-3,-1.4159553E-2,-8.738669E-3,-1.9111803E-2,8.570953E-3,-9.5784245E-3,2.2681309E-2,1.07547E-2,-1.316522E-3,4.1459645E-3,2.337695E-2,5.573169E-2,1.6871093E-2,6.905312E-3],"categories":[],"categories_nodes":[],"categories_segments":[],"categories_sizes":[],"default_left":[0,0,0,0,0,0,0,0,0,0,0,0,0,0,0,0,0,0,0,0,0,0,0,0,0,0,0,0,0,0,0],"id":4,"left_children":[1,3,5,7,9,11,13,15,17,19,21,23,25,27,29,-1,-1,-1,-1,-1,-1,-1,-1,-1,-1,-1,-1,-1,-1,-1,-1],"loss_changes":[1.1748076E3,9.820532E1,2.633307E2,2.8703854E1,5.24317E1,1.2062716E2,1.0612018E2,1.9451725E1,1.5628189E1,3.2994507E1,2.167813E1,2.0668732E1,4.879593E1,2.9223328E1,5.2460205E1,0E0,0E0,0E0,0E0,0E0,0E0,0E0,0E0,0E0,0E0,0E0,0E0,0E0,0E0,0E0,0E0],"parents":[2147483647,0,0,1,1,2,2,3,3,4,4,5,5,6,6,7,7,8,8,9,9,10,10,11,11,12,12,13,13,14,14],"right_children":[2,4,6,8,10,12,14,16,18,20,22,24,26,28,30,-1,-1,-1,-1,-1,-1,-1,-1,-1,-1,-1,-1,-1,-1,-1,-1],"split_conditions":[1.1657261E-3,-1.3782236E-3,2.4743956E-3,2.5881904E-1,1.0703518E-3,-1.40179945E-2,-6.220212E-3,9.749279E-1,3.7189686E1,-3.1174577E-3,-8.660254E-1,4.3388373E-1,1.5979217E-3,1.0209591E-2,0E0,-2.7388379E-3,1.5405259E-2,-5.093389E-3,-1.4159553E-2,-8.738669E-3,-1.9111803E-2,8.570953E-3,-9.5784245E-3,2.2681309E-2,1.07547E-2,-1.316522E-3,4.1459645E-3,2.337695E-2,5.573169E-2,1.6871093E-2,6.905312E-3],"split_indices":[0,1,0,3,0,4,1,9,7,4,2,9,0,10,9,0,0,0,0,0,0,0,0,0,0,0,0,0,0,0,0],"split_type":[0,0,0,0,0,0,0,0,0,0,0,0,0,0,0,0,0,0,0,0,0,0,0,0,0,0,0,0,0,0,0],"sum_hessian":[3.6922965E4,1.1687089E4,2.5235875E4,3.3939995E3,8.293089E3,1.7854738E4,7.381138E3,1.4753938E3,1.9186057E3,6.944812E3,1.3482769E3,1.4659327E3,1.6388805E4,1.7485654E3,5.6325728E3,1.3104464E3,1.6494734E2,8.880093E2,1.0305964E3,8.829082E2,6.061904E3,1.9039578E2,1.1578811E3,7.0534796E2,7.605847E2,7.7938325E3,8.594973E3,1.6761608E3,7.2404655E1,2.119651E3,3.5129216E3],"tree_param":{"num_deleted":"0","num_feature":"20","num_nodes":"31","size_leaf_vector":"1"}},{"base_weights":[-1.7180245E-3,-2.349705E-1,1.2429677E-1,-3.872508E-2,-2.7264404E-1,4.0642443E-1,9.336314E-2,2.1509008E-2,-2.0173424E-1,-3.4541687E-1,-1.8901151E-1,3.429335E-1,6.833293E-1,6.3900836E-2,2.9672602E-1,3.1754028E-2,-3.7452744E-5,-3.0415902E-2,-6.4288224E-3,-7.2220103E-3,-1.9116458E-2,-9.1873744E-4,-1.08331675E-2,3.5166685E-2,1.6050115E-2,4.0955104E-2,-1.41897155E-2,-1.3450901E-4,5.01338E-3,8.110317E-3,1.7641457E-2],"categories":[],"categories_nodes":[],"categories_segments":[],"categories_sizes":[],"default_left":[0,0,0,0,0,0,0,0,0,0,0,0,0,0,0,0,0,0,0,0,0,0,0,0,0,0,0,0,0,0,0],"id":5,"left_children":[1,3,5,7,9,11,13,15,17,19,21,23,25,27,29,-1,-1,-1,-1,-1,-1,-1,-1,-1,-1,-1,-1,-1,-1,-1,-1],"loss_changes":[1.0850135E3,9.569464E1,2.09073E2,2.0509554E1,6.598328E1,4.12193E1,1.2936972E2,2.0862064E1,1.6608063E1,4.296228E1,2.3845856E1,1.48572235E1,5.8141174E1,4.569951E1,2.051181E1,0E0,0E0,0E0,0E0,0E0,0E0,0E0,0E0,0E0,0E0,0E0,0E0,0E0,0E0,0E0,0E0],"parents":[2147483647,0,0,1,1,2,2,3,3,4,4,5,5,6,6,7,7,8,8,9,9,10,10,11,11,12,12,13,13,14,14],"right_children":[2,4,6,8,10,12,14,16,18,20,22,24,26,28,30,-1,-1,-1,-1,-1,-1,-1,-1,-1,-1,-1,-1,-1,-1,-1,-1],"split_conditions":[1.2267033E-3,-2.4420302E-3,-7.355476E-3,8.660254E-1,9.2571374E-4,4.0774993E-3,3.219522E-3,-1.8369134E-1,-1.1968678E-1,-1.14247116E-4,-8.660254E-1,-1.581711E-2,9.659258E-1,1.5979217E-3,-7.0710677E-1,3.1754028E-2,-3.7452744E-5,-3.0415902E-2,-6.4288224E-3,-7.2220103E-3,-1.9116458E-2,-9.1873744E-4,-1.08331675E-2,3.5166685E-2,1.6050115E-2,4.0955104E-2,-1.41897155E-2,-1.3450901E-4,5.01338E-3,8.110317E-3,1.7641457E-2],"split_indices":[0,1,1,3,0,0,0,5,8,11,2,1,3,0,3,0,0,0,0,0,0,0,0,0,0,0,0,0,0,0,0],"split_type":[0,0,0,0,0,0,0,0,0,0,0,0,0,0,0,0,0,0,0,0,0,0,0,0,0,0,0,0,0,0,0],"sum_hessian":[3.6910508E4,1.29462295E4,2.396428E4,2.0857434E3,1.0860486E4,2.3659546E3,2.1598324E4,1.523708E3,5.620354E2,5.804451E3,5.056035E3,1.9275328E3,4.3842172E2,1.8867152E4,2.7311716E3,5.1972343E1,1.4717356E3,8.392961E1,4.7810577E2,9.020073E2,4.902444E3,7.05677E2,4.3503584E3,1.07762535E2,1.8197703E3,3.8469617E2,5.3725548E1,6.6642646E3,1.2202888E4,8.0580444E2,1.9253673E3],"tree_param":{"num_deleted":"0","num_feature":"20","num_nodes":"31","size_leaf_vector":"1"}},{"base_weights":[-7.464852E-4,-2.4215426E-1,1.0810468E-1,-2.045358E-2,-2.7465656E-1,3.0276278E-2,2.1570835E-1,5.7214344E-1,-4.456036E-2,-3.4578064E-1,-2.0056419E-1,2.6551452E-1,1.4443337E-2,1.6814983E-1,3.7924373E-1,3.927709E-2,-2.2118883E-2,-8.941484E-3,2.6113368E-3,-1.35169E-2,-2.1501444E-2,-1.1500326E-2,7.8092555E-5,4.9054264E-3,2.319081E-2,2.162681E-4,1.2205562E-2,1.3448295E-2,5.2086725E-3,2.7762583E-2,1.4485771E-2],"categories":[],"categories_nodes":[],"categories_segments":[],"categories_sizes":[],"default_left":[0,0,0,0,0,0,0,0,0,0,0,0,0,0,0,0,0,0,0,0,0,0,0,0,0,0,0,0,0,0,0],"id":6,"left_children":[1,3,5,7,9,11,13,15,17,19,21,23,25,27,29,-1,-1,-1,-1,-1,-1,-1,-1,-1,-1,-1,-1,-1,-1,-1,-1],"loss_changes":[9.6937274E2,8.25871E1,2.1290372E2,2.0978233E1,5.2557068E1,5.4938652E1,8.28689E1,1.2964838E1,1.836691E1,3.2198853E1,2.9177353E1,3.0784805E1,3.2117104E1,5.32771E1,3.75766E1,0E0,0E0,0E0,0E0,0E0,0E0,0E0,0E0,0E0,0E0,0E0,0E0,0E0,0E0,0E0,0E0],"parents":[2147483647,0,0,1,1,2,2,3,3,4,4,5,5,6,6,7,7,8,8,9,9,10,10,11,11,12,12,13,13,14,14],"right_children":[2,4,6,8,10,12,14,16,18,20,22,24,26,28,30,-1,-1,-1,-1,-1,-1,-1,-1,-1,-1,-1,-1,-1,-1,-1,-1],"split_conditions":[1.1590709E-3,3.6573017E1,2.1048798E-3,-1.8369134E-1,8.923535E-4,-1.40179945E-2,3.615256E-3,9.659258E-1,-2.0022248E-3,5.195541E1,1E0,6.234898E-1,1E0,-5.354666E-3,4.518562E1,3.927709E-2,-2.2118883E-2,-8.941484E-3,2.6113368E-3,-1.35169E-2,-2.1501444E-2,-1.1500326E-2,7.8092555E-5,4.9054264E-3,2.319081E-2,2.162681E-4,1.2205562E-2,1.3448295E-2,5.2086725E-3,2.7762583E-2,1.4485771E-2],"split_indices":[0,7,0,5,0,4,0,3,6,7,17,17,2,4,7,0,0,0,0,0,0,0,0,0,0,0,0,0,0,0,0],"split_type":[0,0,0,0,0,0,0,0,0,0,0,0,0,0,0,0,0,0,0,0,0,0,0,0,0,0,0,0,0,0,0],"sum_hessian":[3.6886562E4,1.1462936E4,2.5423627E4,1.466157E3,9.996778E3,1.4754364E4,1.0669264E4,5.5897617E1,1.4102594E3,5.0974087E3,4.8993696E3,9.2874243E2,1.3825622E4,8.268119E3,2.401144E3,4.6503685E1,9.393931E0,5.904266E2,8.1983276E2,2.6928872E3,2.4045215E3,4.276484E3,6.228859E2,5.0495465E2,4.2378775E2,1.324391E4,5.81712E2,3.207713E3,5.0604067E3,8.067517E2,1.5943923E3],"tree_param":{"num_deleted":"0","num_feature":"20","num_nodes":"31","size_leaf_vector":"1"}},{"base_weights":[-3.3548052E-4,-1.1119767E-1,1.2299233E-1,9.279922E-2,-1.5789354E-1,4.1242585E-1,8.836094E-2,2.9450467E-1,4.8464734E-2,-1.710036E-1,1.3632134E-1,-1.7374973E-1,4.3246588E-1,5.1731173E-2,2.0538215E-1,8.2376E-3,2.3031658E-2,9.636544E-3,-1.0170167E-3,-3.9627615E-5,-9.481802E-3,4.822934E-3,4.8828434E-2,3.0340662E-2,-2.2984957E-2,2.3564802E-2,5.7351547E-3,8.182189E-3,1.6558638E-3,1.608061E-2,6.5099746E-3],"categories":[],"categories_nodes":[],"categories_segments":[],"categories_sizes":[],"default_left":[0,0,0,0,0,0,0,0,0,0,0,0,0,0,0,0,0,0,0,0,0,0,0,0,0,0,0,0,0,0,0],"id":7,"left_children":[1,3,5,7,9,11,13,15,17,19,21,23,25,27,29,-1,-1,-1,-1,-1,-1,-1,-1,-1,-1,-1,-1,-1,-1,-1,-1],"loss_changes":[5.0408905E2,1.8497879E2,1.7486139E2,3.2309353E1,6.0980896E1,2.2028809E1,6.6797325E1,1.3894375E1,2.9470675E1,4.7964813E1,2.2403355E1,1.4389287E1,2.2141937E1,2.4720812E1,3.2384842E1,0E0,0E0,0E0,0E0,0E0,0E0,0E0,0E0,0E0,0E0,0E0,0E0,0E0,0E0,0E0,0E0],"parents":[2147483647,0,0,1,1,2,2,3,3,4,4,5,5,6,6,7,7,8,8,9,9,10,10,11,11,12,12,13,13,14,14],"right_children":[2,4,6,8,10,12,14,16,18,20,22,24,26,28,30,-1,-1,-1,-1,-1,-1,-1,-1,-1,-1,-1,-1,-1,-1,-1,-1],"split_conditions":[1.3197465E-3,-2.7462642E-3,-7.851854E-3,-1.40179945E-2,4.4477216E-4,-9.659258E-1,3.0944368E-3,6.234898E-1,-2.5881904E-1,-1.9398046E-4,1E0,2.901937E1,9.659258E-1,-4.322406E-3,0E0,8.2376E-3,2.3031658E-2,9.636544E-3,-1.0170167E-3,-3.9627615E-5,-9.481802E-3,4.822934E-3,4.8828434E-2,3.0340662E-2,-2.2984957E-2,2.3564802E-2,5.7351547E-3,8.182189E-3,1.6558638E-3,1.608061E-2,6.5099746E-3],"split_indices":[10,1,1,4,11,2,10,17,3,11,3,7,3,1,9,0,0,0,0,0,0,0,0,0,0,0,0,0,0,0,0],"split_type":[0,0,0,0,0,0,0,0,0,0,0,0,0,0,0,0,0,0,0,0,0,0,0,0,0,0,0,0,0,0,0],"sum_hessian":[3.6866164E4,1.9414541E4,1.7451623E4,3.6158196E3,1.5798722E4,1.8630751E3,1.5588547E4,6.4981415E2,2.9660054E3,1.5125534E4,6.731873E2,6.112599E1,1.801949E3,1.1874273E4,3.7142737E3,3.6669775E2,2.831164E2,9.5714636E2,2.008859E3,1.4927955E3,1.3632739E4,6.4435004E2,2.8837269E1,1.5890715E1,4.523528E1,1.604945E3,1.9700409E2,1.691296E3,1.0182978E4,1.4566919E3,2.2575815E3],"tree_param":{"num_deleted":"0","num_feature":"20","num_nodes":"31","size_leaf_vector":"1"}},{"base_weights":[-1.2220198E-4,-2.4169767E-1,9.826397E-2,-9.5645115E-2,-2.9309347E-1,2.3620306E-2,1.9391818E-1,6.7586946E-1,-1.0884559E-1,-3.6990595E-1,-2.154774E-1,2.3480263E-1,1.03401905E-2,1.5165119E-1,3.5198134E-1,4.300027E-2,-1.1419183E-2,6.798073E-3,-7.1272897E-3,-1.437885E-2,-2.3320025E-2,1.8057307E-3,-1.283468E-2,2.246132E-3,2.310512E-2,-1.5936953E-4,8.766558E-3,1.4663279E-2,5.490483E-3,1.53672E-2,3.2841317E-2],"categories":[],"categories_nodes":[],"categories_segments":[],"categories_sizes":[],"default_left":[0,0,0,0,0,0,0,0,0,0,0,0,0,0,0,0,0,0,0,0,0,0,0,0,0,0,0,0,0,0,0],"id":8,"left_children":[1,3,5,7,9,11,13,15,17,19,21,23,25,27,29,-1,-1,-1,-1,-1,-1,-1,-1,-1,-1,-1,-1,-1,-1,-1,-1],"loss_changes":[8.7756964E2,8.015021E1,1.8731282E2,2.8434795E1,4.6969177E1,4.131977E1,7.6720825E1,8.147963E0,2.2621983E1,3.1297974E1,4.08291E1,3.756677E1,3.0963379E1,5.3710663E1,3.264499E1,0E0,0E0,0E0,0E0,0E0,0E0,0E0,0E0,0E0,0E0,0E0,0E0,0E0,0E0,0E0,0E0],"parents":[2147483647,0,0,1,1,2,2,3,3,4,4,5,5,6,6,7,7,8,8,9,9,10,10,11,11,12,12,13,13,14,14],"right_children":[2,4,6,8,10,12,14,16,18,20,22,24,26,28,30,-1,-1,-1,-1,-1,-1,-1,-1,-1,-1,-1,-1,-1,-1,-1,-1],"split_conditions":[1.1248486E-3,-1.14247116E-4,2.0352325E-3,-1.8927346E-1,8.5709593E-4,-1.40179945E-2,3.615256E-3,9.659258E-1,-8.660254E-1,1E0,-8.660254E-1,6.234898E-1,4.1222663E-4,4.0460415E1,6.1293417E-3,4.300027E-2,-1.1419183E-2,6.798073E-3,-7.1272897E-3,-1.437885E-2,-2.3320025E-2,1.8057307E-3,-1.283468E-2,2.246132E-3,2.310512E-2,-1.5936953E-4,8.766558E-3,1.4663279E-2,5.490483E-3,1.53672E-2,3.2841317E-2],"split_indices":[0,11,0,5,0,4,0,3,2,15,2,17,11,7,0,0,0,0,0,0,0,0,0,0,0,0,0,0,0,0,0],"split_type":[0,0,0,0,0,0,0,0,0,0,0,0,0,0,0,0,0,0,0,0,0,0,0,0,0,0,0,0,0,0,0],"sum_hessian":[3.6919504E4,1.0684157E4,2.6235346E4,2.7824556E3,7.9017017E3,1.4737414E4,1.1497933E4,4.5476032E1,2.7369795E3,3.9682466E3,3.933455E3,8.7022253E2,1.3867191E4,9.07459E3,2.4233423E3,3.7889225E1,7.5868087E0,3.304523E2,2.406527E3,2.1447983E3,1.8234481E3,5.5353534E2,3.3799197E3,4.7523807E2,3.949845E2,1.2817459E4,1.0497332E3,2.0673499E3,7.00724E3,2.1165935E3,3.067488E2],"tree_param":{"num_deleted":"0","num_feature":"20","num_nodes":"31","size_leaf_vector":"1"}},{"base_weights":[2.2140017E-3,-9.232601E-2,1.0644976E-1,6.753009E-2,-1.4633201E-1,3.510103E-1,7.690311E-2,2.8618047E-1,3.1691365E-2,2.5185305E-1,-1.5459177E-1,3.2842848E-1,8.7517047E-1,3.9649244E-2,1.7712203E-1,2.2247199E-2,7.1082152E-3,5.637554E-3,-1.1863959E-3,1.7696166E-2,-1.2419352E-2,-8.32774E-3,3.3323974E-3,1.7461179E-2,-2.8683946E-3,3.7137162E-2,8.544469E-2,5.6934073E-3,4.961853E-4,4.2788252E-2,8.413924E-3],"categories":[],"categories_nodes":[],"categories_segments":[],"categories_sizes":[],"default_left":[0,0,0,0,0,0,0,0,0,0,0,0,0,0,0,0,0,0,0,0,0,0,0,0,0,0,0,0,0,0,0],"id":9,"left_children":[1,3,5,7,9,11,13,15,17,19,21,23,25,27,29,-1,-1,-1,-1,-1,-1,-1,-1,-1,-1,-1,-1,-1,-1,-1,-1],"loss_changes":[3.635852E2,1.6704793E2,1.26739944E2,3.8262016E1,4.7618835E1,2.18909E1,5.844101E1,1.5601212E1,1.8877146E1,1.5166555E1,3.7523895E1,1.4608566E1,6.4868927E0,2.5181631E1,2.5195038E1,0E0,0E0,0E0,0E0,0E0,0E0,0E0,0E0,0E0,0E0,0E0,0E0,0E0,0E0,0E0,0E0],"parents":[2147483647,0,0,1,1,2,2,3,3,4,4,5,5,6,6,7,7,8,8,9,9,10,10,11,11,12,12,13,13,14,14],"right_children":[2,4,6,8,10,12,14,16,18,20,22,24,26,28,30,-1,-1,-1,-1,-1,-1,-1,-1,-1,-1,-1,-1,-1,-1,-1,-1],"split_conditions":[1.3197465E-3,-2.0697098E-3,-7.851854E-3,-1.40179945E-2,-1.8369134E-1,1.0209591E-2,2.9248397E-3,4.3388373E-1,-2.6878327E-4,9.749279E-1,4.3326968E-4,1E0,1.73007E-2,-2.255051E-3,-7.044788E-1,2.2247199E-2,7.1082152E-3,5.637554E-3,-1.1863959E-3,1.7696166E-2,-1.2419352E-2,-8.32774E-3,3.3323974E-3,1.7461179E-2,-2.8683946E-3,3.7137162E-2,8.544469E-2,5.6934073E-3,4.961853E-4,4.2788252E-2,8.413924E-3],"split_indices":[10,1,1,4,5,10,10,9,11,9,11,2,5,1,5,0,0,0,0,0,0,0,0,0,0,0,0,0,0,0,0],"split_type":[0,0,0,0,0,0,0,0,0,0,0,0,0,0,0,0,0,0,0,0,0,0,0,0,0,0,0,0,0,0,0],"sum_hessian":[3.689247E4,1.934583E4,1.7546637E4,4.8850205E3,1.446081E4,1.8894512E3,1.5657187E4,6.862667E2,4.198754E3,2.928502E2,1.4167959E4,1.8138427E3,7.560854E1,1.1416121E4,4.2410645E3,3.247646E2,3.615021E2,1.7047012E3,2.4940525E3,2.4366986E2,4.9180332E1,1.3441726E4,7.2623395E2,1.7213315E3,9.251105E1,6.7744415E1,7.8641286E0,3.2630334E3,8.153088E3,5.26348E1,4.1884297E3],"tree_param":{"num_deleted":"0","num_feature":"20","num_nodes":"31","size_leaf_vector":"1"}},{"base_weights":[-8.7174855E-4,-1.9175442E-1,9.9182606E-2,-2.845151E-1,-1.3358594E-1,7.3252246E-2,3.2928452E-1,-1.8689114E-1,-3.909339E-1,3.809629E-2,-1.6068533E-1,2.0532474E-1,4.3794777E-2,4.687014E-1,2.3408562E-1,1.8186217E-2,-9.818732E-3,-2.8064964E-2,-1.48867145E-2,-8.252868E-3,9.088162E-3,-2.0091008E-2,-6.933417E-3,9.704788E-3,3.846133E-2,3.5651983E-3,-8.6334656E-4,2.6251039E-2,-5.266672E-3,2.697914E-2,6.822598E-3],"categories":[],"categories_nodes":[],"categories_segments":[],"categories_sizes":[],"default_left":[0,0,0,0,0,0,0,0,0,0,0,0,0,0,0,0,0,0,0,0,0,0,0,0,0,0,0,0,0,0,0],"id":10,"left_children":[1,3,5,7,9,11,13,15,17,19,21,23,25,27,29,-1,-1,-1,-1,-1,-1,-1,-1,-1,-1,-1,-1,-1,-1,-1,-1],"loss_changes":[7.037133E2,6.8295135E1,1.4418307E2,5.0580994E1,3.6263397E1,8.450794E1,3.2286987E1,1.3410843E1,3.6768463E1,3.1074121E1,3.5616837E1,2.4813797E1,2.9850346E1,3.215779E1,4.3334824E1,0E0,0E0,0E0,0E0,0E0,0E0,0E0,0E0,0E0,0E0,0E0,0E0,0E0,0E0,0E0,0E0],"parents":[2147483647,0,0,1,1,2,2,3,3,4,4,5,5,6,6,7,7,8,8,9,9,10,10,11,11,12,12,13,13,14,14],"right_children":[2,4,6,8,10,12,14,16,18,20,22,24,26,28,30,-1,-1,-1,-1,-1,-1,-1,-1,-1,-1,-1,-1,-1,-1,-1,-1],"split_conditions":[1.2267033E-3,8.497922E-4,3.615256E-3,1E0,-8.660254E-1,-4.777715E-3,0E0,-1.3583347E-1,7.248884E-3,0E0,-7.0710677E-1,2.4054852E-1,7.818315E-1,9.659258E-1,-9.164344E-3,1.8186217E-2,-9.818732E-3,-2.8064964E-2,-1.48867145E-2,-8.252868E-3,9.088162E-3,-2.0091008E-2,-6.933417E-3,9.704788E-3,3.846133E-2,3.5651983E-3,-8.6334656E-4,2.6251039E-2,-5.266672E-3,2.697914E-2,6.822598E-3],"split_indices":[0,0,0,18,2,1,9,5,5,9,2,5,9,3,1,0,0,0,0,0,0,0,0,0,0,0,0,0,0,0,0],"split_type":[0,0,0,0,0,0,0,0,0,0,0,0,0,0,0,0,0,0,0,0,0,0,0,0,0,0,0,0,0,0,0],"sum_hessian":[3.6843016E4,1.2670153E4,2.4172861E4,4.8805264E3,7.7896265E3,2.1726662E4,2.4461997E3,2.5478467E3,2.33268E3,1.0616052E3,6.7280215E3,3.9602473E3,1.7766414E4,9.899814E2,1.4562183E3,4.210169E1,2.5057449E3,8.2200867E2,1.5106711E3,4.395226E2,6.2208264E2,5.60555E2,6.1674663E3,3.8849907E3,7.525679E1,1.2248744E4,5.51767E3,9.0172687E2,8.825449E1,3.509109E2,1.1053074E3],"tree_param":{"num_deleted":"0","num_feature":"20","num_nodes":"31","size_leaf_vector":"1"}},{"base_weights":[3.2251305E-4,-2.1824984E-1,8.4648974E-2,-1.296408E-1,-2.8277478E-1,2.0405421E-2,1.7883354E-1,5.5793333E-1,-1.3684325E-1,-2.2256234E-1,-3.5805327E-1,1.0923332E-2,2.3537618E-1,3.04898E-1,1.2167175E-1,3.6535557E-2,-2.3615098E-2,-3.1336267E-3,-9.700499E-3,-6.701181E-3,-1.586867E-2,-2.5421426E-2,-1.37324175E-2,1.3497846E-3,-7.706678E-3,2.2924505E-2,2.2313332E-6,2.8900359E-2,1.37962345E-2,4.1052247E-3,1.3287044E-2],"categories":[],"categories_nodes":[],"categories_segments":[],"categories_sizes":[],"default_left":[0,0,0,0,0,0,0,0,0,0,0,0,0,0,0,0,0,0,0,0,0,0,0,0,0,0,0,0,0,0,0],"id":11,"left_children":[1,3,5,7,9,11,13,15,17,19,21,23,25,27,29,-1,-1,-1,-1,-1,-1,-1,-1,-1,-1,-1,-1,-1,-1,-1,-1],"loss_changes":[6.775407E2,5.843643E1,1.6049017E2,2.1463623E1,2.6685486E1,3.2132797E1,7.743268E1,8.5332E0,1.8081802E1,2.7561005E1,3.271277E1,4.0077587E1,3.4945515E1,2.6260834E1,4.2151764E1,0E0,0E0,0E0,0E0,0E0,0E0,0E0,0E0,0E0,0E0,0E0,0E0,0E0,0E0,0E0,0E0],"parents":[2147483647,0,0,1,1,2,2,3,3,4,4,5,5,6,6,7,7,8,8,9,9,10,10,11,11,12,12,13,13,14,14],"right_children":[2,4,6,8,10,12,14,16,18,20,22,24,26,28,30,-1,-1,-1,-1,-1,-1,-1,-1,-1,-1,-1,-1,-1,-1,-1,-1],"split_conditions":[1.110961E-3,-6.1464193E-4,2.1048798E-3,-1.8927346E-1,5E-1,1E0,-4.0047276E-3,9.659258E-1,2.5881904E-1,5E-1,-1.6593091E-3,9.659258E-1,4.986762E1,-1.581711E-2,3.615256E-3,3.6535557E-2,-2.3615098E-2,-3.1336267E-3,-9.700499E-3,-6.701181E-3,-1.586867E-2,-2.5421426E-2,-1.37324175E-2,1.3497846E-3,-7.706678E-3,2.2924505E-2,2.2313332E-6,2.8900359E-2,1.37962345E-2,4.1052247E-3,1.3287044E-2],"split_indices":[0,1,0,5,3,2,1,3,3,2,5,2,7,1,0,0,0,0,0,0,0,0,0,0,0,0,0,0,0,0,0],"split_type":[0,0,0,0,0,0,0,0,0,0,0,0,0,0,0,0,0,0,0,0,0,0,0,0,0,0,0,0,0,0,0],"sum_hessian":[3.6757426E4,1.023237E4,2.6525055E4,4.313766E3,5.918604E3,1.5770387E4,1.0754669E4,4.3458004E1,4.270308E3,3.292031E3,2.6265728E3,1.5105894E4,6.644931E2,3.3528743E3,7.4017944E3,3.7631554E1,5.826449E0,1.8604688E3,2.409839E3,1.7044698E3,1.5875613E3,9.341321E2,1.6924407E3,1.3766903E4,1.3389899E3,3.4026172E2,3.2423135E2,3.186887E2,3.0341855E3,5.809085E3,1.5927098E3],"tree_param":{"num_deleted":"0","num_feature":"20","num_nodes":"31","size_leaf_vector":"1"}},{"base_weights":[9.7082724E-4,-1.8499584E-1,8.386635E-2,-4.9953714E-2,-2.286133E-1,1.2995858E-2,1.566386E-1,1.2462156E-1,-8.443176E-2,-1.7715327E-1,-2.932221E-1,-5.0692238E-2,4.8619814E-2,2.734003E-1,1.08940445E-1,-3.473729E-3,1.2908255E-2,-6.5490305E-3,2.0607973E-3,2.2242766E-2,-9.282266E-3,-2.4472008E-2,-1.3373057E-2,6.7451893E-4,-8.172683E-3,3.8644508E-3,-3.3514712E-3,3.0797407E-2,1.2742678E-2,4.9372064E-4,7.162506E-3],"categories":[],"categories_nodes":[],"categories_segments":[],"categories_sizes":[],"default_left":[0,0,0,0,0,0,0,0,0,0,0,0,0,0,0,0,0,0,0,0,0,0,0,0,0,0,0,0,0,0,0],"id":12,"left_children":[1,3,5,7,9,11,13,15,17,19,21,23,25,27,29,-1,-1,-1,-1,-1,-1,-1,-1,-1,-1,-1,-1,-1,-1,-1,-1],"loss_changes":[5.683217E2,6.691977E1,1.3150235E2,1.6729675E1,2.846103E1,2.931857E1,7.000223E1,1.1918004E1,1.3583397E1,2.539235E1,1.900467E1,3.355589E1,2.7485338E1,2.2893951E1,3.0358696E1,0E0,0E0,0E0,0E0,0E0,0E0,0E0,0E0,0E0,0E0,0E0,0E0,0E0,0E0,0E0,0E0],"parents":[2147483647,0,0,1,1,2,2,3,3,4,4,5,5,6,6,7,7,8,8,9,9,10,10,11,11,12,12,13,13,14,14],"right_children":[2,4,6,8,10,12,14,16,18,20,22,24,26,28,30,-1,-1,-1,-1,-1,-1,-1,-1,-1,-1,-1,-1,-1,-1,-1,-1],"split_conditions":[1.1657261E-3,-3.8549476E-3,1.945218E-3,-2.6878327E-4,5E-1,-2.5881904E-1,-4.322406E-3,9.458497E-4,4.8171005E1,2.9974487E1,-7.0710677E-1,5E-1,9.659258E-1,-5.710624E-1,-7.0710677E-1,-3.473729E-3,1.2908255E-2,-6.5490305E-3,2.0607973E-3,2.2242766E-2,-9.282266E-3,-2.4472008E-2,-1.3373057E-2,6.7451893E-4,-8.172683E-3,3.8644508E-3,-3.3514712E-3,3.0797407E-2,1.2742678E-2,4.9372064E-4,7.162506E-3],"split_indices":[0,4,0,11,3,2,1,0,7,7,2,3,2,5,3,0,0,0,0,0,0,0,0,0,0,0,0,0,0,0,0],"split_type":[0,0,0,0,0,0,0,0,0,0,0,0,0,0,0,0,0,0,0,0,0,0,0,0,0,0,0,0,0,0,0],"sum_hessian":[3.6863492E4,1.1364987E4,2.5498504E4,2.7756826E3,8.589305E3,1.291929E4,1.2579214E4,4.5689255E2,2.31879E3,4.7847227E3,3.8045815E3,4.633512E3,8.285777E3,3.645977E3,8.933236E3,1.8636676E2,2.7052576E2,1.6922095E3,6.265805E2,6.332672E1,4.721396E3,4.3816797E2,3.3664136E3,2.9533652E3,1.6801472E3,6.6405337E3,1.6452441E3,1.8464673E2,3.4613303E3,2.2988647E3,6.634372E3],"tree_param":{"num_deleted":"0","num_feature":"20","num_nodes":"31","size_leaf_vector":"1"}},{"base_weights":[-1.542762E-3,-2.0142396E-1,7.495857E-2,-8.401205E-2,-2.5262228E-1,5.558624E-3,1.4285402E-1,7.11622E-1,-9.588004E-2,-3.9540833E-1,-2.3020871E-1,9.857163E-2,-2.0119013E-2,2.4144164E-1,8.663256E-2,4.882254E-3,4.887892E-2,-7.334934E-3,4.2026475E-4,-2.9278485E-2,-1.4013866E-2,-1.3757159E-2,-9.052955E-3,-7.277028E-3,6.05033E-3,-1.7729199E-3,9.707745E-3,1.6728787E-2,7.210705E-3,1.7199286E-3,8.38594E-3],"categories":[],"categories_nodes":[],"categories_segments":[],"categories_sizes":[],"default_left":[0,0,0,0,0,0,0,0,0,0,0,0,0,0,0,0,0,0,0,0,0,0,0,0,0,0,0,0,0,0,0],"id":13,"left_children":[1,3,5,7,9,11,13,15,17,19,21,23,25,27,29,-1,-1,-1,-1,-1,-1,-1,-1,-1,-1,-1,-1,-1,-1,-1,-1],"loss_changes":[5.621386E2,6.112036E1,1.2526399E2,2.9271595E1,2.250595E1,3.141223E1,7.443747E1,7.243479E0,1.6163725E1,2.0702896E1,1.3435059E1,1.5608559E1,3.3874622E1,4.4085754E1,3.623951E1,0E0,0E0,0E0,0E0,0E0,0E0,0E0,0E0,0E0,0E0,0E0,0E0,0E0,0E0,0E0,0E0],"parents":[2147483647,0,0,1,1,2,2,3,3,4,4,5,5,6,6,7,7,8,8,9,9,10,10,11,11,12,12,13,13,14,14],"right_children":[2,4,6,8,10,12,14,16,18,20,22,24,26,28,30,-1,-1,-1,-1,-1,-1,-1,-1,-1,-1,-1,-1,-1,-1,-1,-1],"split_conditions":[1.110961E-3,-1.3021289E-3,1.8765201E-3,-1.8927346E-1,6.088959E-4,-7.0265E-3,-2.7462642E-3,1.6687436E-2,-4.2817384E-4,-5.701175E-3,0E0,2.7125536E1,4.3326968E-4,4.3388373E-1,2.812105E-3,4.882254E-3,4.887892E-2,-7.334934E-3,4.2026475E-4,-2.9278485E-2,-1.4013866E-2,-1.3757159E-2,-9.052955E-3,-7.277028E-3,6.05033E-3,-1.7729199E-3,9.707745E-3,1.6728787E-2,7.210705E-3,1.7199286E-3,8.38594E-3],"split_indices":[0,1,0,5,0,4,1,8,6,5,9,7,11,9,0,0,0,0,0,0,0,0,0,0,0,0,0,0,0,0,0],"split_type":[0,0,0,0,0,0,0,0,0,0,0,0,0,0,0,0,0,0,0,0,0,0,0,0,0,0,0,0,0,0,0],"sum_hessian":[3.675889E4,1.0174185E4,2.6584707E4,3.090879E3,7.083305E3,1.3147861E4,1.3436846E4,4.4065403E1,3.0468135E3,9.57342E2,6.1259634E3,2.84392E3,1.0303941E4,4.8776943E3,8.559151E3,1.3995239E1,3.0070164E1,2.0484604E3,9.983531E2,3.5855502E2,5.987869E2,3.1960747E3,2.9298884E3,2.3848909E2,2.6054307E3,9.61697E3,6.8697186E2,2.4891584E3,2.388536E3,5.2074067E3,3.3517444E3],"tree_param":{"num_deleted":"0","num_feature":"20","num_nodes":"31","size_leaf_vector":"1"}},{"base_weights":[-7.391242E-4,-1.5732914E-1,8.5738614E-2,-2.4120797E-1,-1.0719612E-1,4.190601E-2,1.8129613E-1,-1.4506912E-2,-2.8099194E-1,8.812056E-2,-1.256966E-1,1.6188033E-1,1.729124E-2,1.3444062E-1,2.7464435E-1,4.1913897E-2,-1.7251059E-3,-8.084363E-3,-1.6227767E-2,9.171095E-3,-7.2996006E-3,-7.2101043E-3,-3.1054835E-4,1.2649114E-2,3.587162E-3,2.4626807E-3,-2.7287542E-3,1.043349E-2,2.587904E-3,2.1062382E-2,1.0030965E-2],"categories":[],"categories_nodes":[],"categories_segments":[],"categories_sizes":[],"default_left":[0,0,0,0,0,0,0,0,0,0,0,0,0,0,0,0,0,0,0,0,0,0,0,0,0,0,0,0,0,0,0],"id":14,"left_children":[1,3,5,7,9,11,13,15,17,19,21,23,25,27,29,-1,-1,-1,-1,-1,-1,-1,-1,-1,-1,-1,-1,-1,-1,-1,-1],"loss_changes":[4.988945E2,5.5062225E1,9.9387955E1,4.4189484E1,2.9674667E1,4.804299E1,3.256453E1,1.2511875E1,2.1568726E1,1.5900206E1,1.6570007E1,2.2700905E1,3.102415E1,3.0485641E1,2.6887909E1,0E0,0E0,0E0,0E0,0E0,0E0,0E0,0E0,0E0,0E0,0E0,0E0,0E0,0E0,0E0,0E0],"parents":[2147483647,0,0,1,1,2,2,3,3,4,4,5,5,6,6,7,7,8,8,9,9,10,10,11,11,12,12,13,13,14,14],"right_children":[2,4,6,8,10,12,14,16,18,20,22,24,26,28,30,-1,-1,-1,-1,-1,-1,-1,-1,-1,-1,-1,-1,-1,-1,-1,-1],"split_conditions":[1.2548867E-3,8.5709593E-4,2.4930174E-3,3.7769207E1,3.388284E1,-1.0420528E-2,3.615256E-3,-9.659258E-1,-2.5881904E-1,1.114604E-1,1E0,4.3388373E-1,7.818315E-1,4.3388373E-1,4.518562E1,4.1913897E-2,-1.7251059E-3,-8.084363E-3,-1.6227767E-2,9.171095E-3,-7.2996006E-3,-7.2101043E-3,-3.1054835E-4,1.2649114E-2,3.587162E-3,2.4626807E-3,-2.7287542E-3,1.043349E-2,2.587904E-3,2.1062382E-2,1.0030965E-2],"split_indices":[0,0,0,7,7,4,0,3,3,8,17,9,9,9,7,0,0,0,0,0,0,0,0,0,0,0,0,0,0,0,0],"split_type":[0,0,0,0,0,0,0,0,0,0,0,0,0,0,0,0,0,0,0,0,0,0,0,0,0,0,0,0,0,0,0],"sum_hessian":[3.6838496E4,1.3106031E4,2.3732465E4,4.9003745E3,8.205657E3,1.6271395E4,7.461071E3,7.3207776E2,4.1682964E3,7.092703E2,7.4963867E3,2.7682637E3,1.3503131E4,4.970406E3,2.4906653E3,1.5308121E1,7.1676965E2,1.117119E3,3.0511775E3,5.0445697E2,2.0481337E2,6.490443E3,1.00594366E3,1.3751396E3,1.393124E3,9.347168E3,4.155963E3,2.6175657E3,2.3528398E3,8.3307904E2,1.6575863E3],"tree_param":{"num_deleted":"0","num_feature":"20","num_nodes":"31","size_leaf_vector":"1"}},{"base_weights":[-6.232735E-4,-1.523104E-1,8.006748E-2,-4.319373E-2,-1.9949268E-1,2.767127E-1,6.0365967E-2,4.6306062E-1,-5.3232014E-2,-2.3961543E-1,-8.6561486E-2,-2.039452E-1,2.9323578E-1,3.4853954E-2,1.6252865E-1,3.105214E-2,-2.7223898E-2,-5.0886567E-3,2.3649877E-3,-1.957997E-2,-1.0672639E-2,-7.819996E-3,-4.651104E-4,7.44469E-4,-6.606917E-2,1.2134695E-2,2.4508813E-2,5.228506E-3,1.3225735E-4,1.3710602E-2,4.8092213E-3],"categories":[],"categories_nodes":[],"categories_segments":[],"categories_sizes":[],"default_left":[0,0,0,0,0,0,0,0,0,0,0,0,0,0,0,0,0,0,0,0,0,0,0,0,0,0,0,0,0,0,0],"id":15,"left_children":[1,3,5,7,9,11,13,15,17,19,21,23,25,27,29,-1,-1,-1,-1,-1,-1,-1,-1,-1,-1,-1,-1,-1,-1,-1,-1],"loss_changes":[4.5009937E2,6.571628E1,9.295436E1,1.9617176E1,4.03425E1,1.7449402E1,5.6853256E1,1.245673E1,1.8472622E1,2.5992401E1,1.2612349E1,1.8045624E1,2.0820663E1,3.920553E1,3.2242493E1,0E0,0E0,0E0,0E0,0E0,0E0,0E0,0E0,0E0,0E0,0E0,0E0,0E0,0E0,0E0,0E0],"parents":[2147483647,0,0,1,1,2,2,3,3,4,4,5,5,6,6,7,7,8,8,9,9,10,10,11,11,12,12,13,13,14,14],"right_children":[2,4,6,8,10,12,14,16,18,20,22,24,26,28,30,-1,-1,-1,-1,-1,-1,-1,-1,-1,-1,-1,-1,-1,-1,-1,-1],"split_conditions":[1.2409743E-3,-1.3782236E-3,-7.851854E-3,-1.9512679E-1,1.0703518E-3,-9.659258E-1,2.812105E-3,1.055112E-3,7.0710677E-1,6.088959E-4,3.0484807E-3,5.0978987E-3,4.0774993E-3,-2.0248017E-3,-5E-1,3.105214E-2,-2.7223898E-2,-5.0886567E-3,2.3649877E-3,-1.957997E-2,-1.0672639E-2,-7.819996E-3,-4.651104E-4,7.44469E-4,-6.606917E-2,1.2134695E-2,2.4508813E-2,5.228506E-3,1.3225735E-4,1.3710602E-2,4.8092213E-3],"split_indices":[0,1,1,5,0,2,0,4,2,0,4,0,0,1,2,0,0,0,0,0,0,0,0,0,0,0,0,0,0,0,0],"split_type":[0,0,0,0,0,0,0,0,0,0,0,0,0,0,0,0,0,0,0,0,0,0,0,0,0,0,0,0,0,0,0],"sum_hessian":[3.6770293E4,1.2767847E4,2.4002447E4,3.8554426E3,8.912404E3,2.183758E3,2.181869E4,7.354839E1,3.7818943E3,6.5744688E3,2.3379353E3,7.190811E1,2.11185E3,1.7460871E4,4.3578184E3,6.4119484E1,9.428911E0,2.5507568E3,1.2311376E3,9.621699E2,5.612299E3,1.2267932E3,1.1111421E3,6.1332306E1,1.0575805E1,1.6834259E3,4.284242E2,5.516168E3,1.1944703E4,1.6219636E3,2.7358547E3],"tree_param":{"num_deleted":"0","num_feature":"20","num_nodes":"31","size_leaf_vector":"1"}},{"base_weights":[3.7915101E-3,1.2820785E-1,-3.9002854E-2,2.2935711E-1,8.0309056E-2,-7.4826196E-2,9.12357E-2,2.495026E-1,-1.7636663E-1,4.6327406E-1,6.9688655E-2,-3.9643142E-2,-1.4665492E-1,1.8213566E-1,1.7428674E-2,-1.2333279E-2,1.3338703E-2,-1.7381525E-2,3.726895E-2,5.334282E-2,1.1596653E-2,1.9354426E-3,8.157743E-3,6.123402E-3,-2.673662E-3,-1.1875105E-2,-5.25642E-3,1.4353302E-2,3.501447E-3,8.48329E-3,-2.3649505E-3],"categories":[],"categories_nodes":[],"categories_segments":[],"categories_sizes":[],"default_left":[0,0,0,0,0,0,0,0,0,0,0,0,0,0,0,0,0,0,0,0,0,0,0,0,0,0,0,0,0,0,0],"id":16,"left_children":[1,3,5,7,9,11,13,15,17,19,21,23,25,27,29,-1,-1,-1,-1,-1,-1,-1,-1,-1,-1,-1,-1,-1,-1,-1,-1],"loss_changes":[1.9554063E2,4.549617E1,1.27500244E2,2.4749405E1,2.5879578E1,5.4144295E1,3.953633E1,2.4757645E1,2.3037132E1,2.3553043E1,1.796504E1,3.226506E1,2.6524582E1,3.1021881E1,3.209718E1,0E0,0E0,0E0,0E0,0E0,0E0,0E0,0E0,0E0,0E0,0E0,0E0,0E0,0E0,0E0,0E0],"parents":[2147483647,0,0,1,1,2,2,3,3,4,4,5,5,6,6,7,7,8,8,9,9,10,10,11,11,12,12,13,13,14,14],"right_children":[2,4,6,8,10,12,14,16,18,20,22,24,26,28,30,-1,-1,-1,-1,-1,-1,-1,-1,-1,-1,-1,-1,-1,-1,-1,-1],"split_conditions":[-2.7462642E-3,-1.40179945E-2,4.0578404E-3,1E0,-4.9173293E-1,5.4243603E1,6.3694744E1,-9.659258E-1,1.7535825E-1,-2.2252093E-1,4.0916737E1,-1.783679E-1,-4.3388373E-1,-1.8369701E-16,-2.2252093E-1,-1.2333279E-2,1.3338703E-2,-1.7381525E-2,3.726895E-2,5.334282E-2,1.1596653E-2,1.9354426E-3,8.157743E-3,6.123402E-3,-2.673662E-3,-1.1875105E-2,-5.25642E-3,1.4353302E-2,3.501447E-3,8.48329E-3,-2.3649505E-3],"split_indices":[1,4,1,2,5,7,7,2,5,17,7,5,9,2,17,0,0,0,0,0,0,0,0,0,0,0,0,0,0,0,0],"split_type":[0,0,0,0,0,0,0,0,0,0,0,0,0,0,0,0,0,0,0,0,0,0,0,0,0,0,0,0,0,0,0],"sum_hessian":[3.67222E4,9.397873E3,2.7324326E4,3.0179841E3,6.3798896E3,2.1430646E4,5.8936787E3,2.875888E3,1.4209624E2,1.7030098E2,6.2095884E3,1.4386764E4,7.043883E3,2.639733E3,3.253946E3,9.5973694E1,2.779914E3,1.2066479E2,2.1431444E1,4.562614E1,1.2467484E2,4.6657573E3,1.5438309E3,1.1296804E3,1.3257083E4,2.2071147E3,4.836768E3,1.3620682E3,1.2776646E3,9.702633E2,2.2836829E3],"tree_param":{"num_deleted":"0","num_feature":"20","num_nodes":"31","size_leaf_vector":"1"}},{"base_weights":[2.0546007E-3,-1.743309E-1,6.5756135E-2,-6.310321E-2,-2.2212143E-1,-1.4744467E-3,1.239966E-1,2.9809573E-1,-8.1234075E-2,-3.058441E-1,-1.7659928E-1,-1.2632217E-2,2.6059026E-1,2.0824826E-1,8.826609E-2,-2.0794418E-2,2.043967E-2,3.3430548E-3,-6.033981E-3,-1.07609015E-2,-2.1152072E-2,-3.069273E-3,-1.0776175E-2,2.420818E-4,-9.472112E-3,7.914804E-3,6.1612356E-2,1.2879933E-2,2.2753074E-3,4.044806E-3,2.3688285E-2],"categories":[],"categories_nodes":[],"categories_segments":[],"categories_sizes":[],"default_left":[0,0,0,0,0,0,0,0,0,0,0,0,0,0,0,0,0,0,0,0,0,0,0,0,0,0,0,0,0,0,0],"id":17,"left_children":[1,3,5,7,9,11,13,15,17,19,21,23,25,27,29,-1,-1,-1,-1,-1,-1,-1,-1,-1,-1,-1,-1,-1,-1,-1,-1],"loss_changes":[4.1257828E2,5.175232E1,1.0563656E2,1.9216087E1,2.5863281E1,3.6611088E1,4.347368E1,1.1339751E1,1.6322613E1,2.5295044E1,1.977797E1,3.712661E1,5.045892E1,3.45287E1,2.8762558E1,0E0,0E0,0E0,0E0,0E0,0E0,0E0,0E0,0E0,0E0,0E0,0E0,0E0,0E0,0E0,0E0],"parents":[2147483647,0,0,1,1,2,2,3,3,4,4,5,5,6,6,7,7,8,8,9,9,10,10,11,11,12,12,13,13,14,14],"right_children":[2,4,6,8,10,12,14,16,18,20,22,24,26,28,30,-1,-1,-1,-1,-1,-1,-1,-1,-1,-1,-1,-1,-1,-1,-1,-1],"split_conditions":[1.0975391E-3,-9.377476E-5,1.8097683E-3,-9.659258E-1,-2.7864575E-3,1E0,-3.9297543E-3,-6.896965E-3,-2.6878327E-4,5E-1,-2.857763E-3,9.659258E-1,1.0136559E-2,7.0710677E-1,6.1293417E-3,-2.0794418E-2,2.043967E-2,3.3430548E-3,-6.033981E-3,-1.07609015E-2,-2.1152072E-2,-3.069273E-3,-1.0776175E-2,2.420818E-4,-9.472112E-3,7.914804E-3,6.1612356E-2,1.2879933E-2,2.2753074E-3,4.044806E-3,2.3688285E-2],"split_indices":[0,11,0,2,5,2,1,4,11,3,4,2,4,3,0,0,0,0,0,0,0,0,0,0,0,0,0,0,0,0,0],"split_type":[0,0,0,0,0,0,0,0,0,0,0,0,0,0,0,0,0,0,0,0,0,0,0,0,0,0,0,0,0,0,0],"sum_hessian":[3.6716684E4,9.741021E3,2.697566E4,2.928878E3,6.8121436E3,1.2521696E4,1.4453965E4,1.38753E2,2.7901248E3,2.3959414E3,4.416202E3,1.2011892E4,5.0980453E2,4.301796E3,1.0152169E4,1.8009186E1,1.2074383E2,5.863627E2,2.2037622E3,1.3537772E3,1.0421643E3,1.1165166E3,3.2996855E3,1.0932614E4,1.0792767E3,4.6287027E2,4.6934277E1,3.2999329E3,1.0018633E3,9.963629E3,1.8853978E2],"tree_param":{"num_deleted":"0","num_feature":"20","num_nodes":"31","size_leaf_vector":"1"}},{"base_weights":[-1.3001645E-3,-6.819956E-2,7.06709E-2,4.4864748E-2,-1.08060665E-1,2.2436763E-1,4.8991542E-2,1.5825166E-1,-1.0220044E-2,-1.206334E-1,7.605598E-2,2.0461628E-1,7.413467E-1,2.280195E-2,1.18831925E-1,-2.8678558E-3,1.406163E-2,9.694934E-3,-1.9153467E-3,1.2866923E-3,-6.7590782E-3,2.216255E-2,2.497221E-3,2.2230024E-2,8.857935E-3,6.0541835E-2,2.8718054E-2,1.5709637E-4,5.9374925E-3,3.5719417E-2,5.5569927E-3],"categories":[],"categories_nodes":[],"categories_segments":[],"categories_sizes":[],"default_left":[0,0,0,0,0,0,0,0,0,0,0,0,0,0,0,0,0,0,0,0,0,0,0,0,0,0,0,0,0,0,0],"id":18,"left_children":[1,3,5,7,9,11,13,15,17,19,21,23,25,27,29,-1,-1,-1,-1,-1,-1,-1,-1,-1,-1,-1,-1,-1,-1,-1,-1],"loss_changes":[1.7680466E2,8.578224E1,5.891236E1,3.0998161E1,3.258931E1,2.2046707E1,2.8349033E1,4.3059933E1,1.9153446E1,2.8060593E1,8.572698E0,1.3739471E1,5.1220894E0,2.1269073E1,1.9207027E1,0E0,0E0,0E0,0E0,0E0,0E0,0E0,0E0,0E0,0E0,0E0,0E0,0E0,0E0,0E0,0E0],"parents":[2147483647,0,0,1,1,2,2,3,3,4,4,5,5,6,6,7,7,8,8,9,9,10,10,11,11,12,12,13,13,14,14],"right_children":[2,4,6,8,10,12,14,16,18,20,22,24,26,28,30,-1,-1,-1,-1,-1,-1,-1,-1,-1,-1,-1,-1,-1,-1,-1,-1],"split_conditions":[1.3197465E-3,-2.0248017E-3,-7.355476E-3,-2.5881904E-1,4.0229553E-4,1.0209591E-2,2.9248397E-3,-8.660254E-1,-1.437036E-2,-9.880019E-2,5.3877884E1,-1.5301703E-1,-2.2930407E-3,4.9671177E-3,-7.044788E-1,-2.8678558E-3,1.406163E-2,9.694934E-3,-1.9153467E-3,1.2866923E-3,-6.7590782E-3,2.216255E-2,2.497221E-3,2.2230024E-2,8.857935E-3,6.0541835E-2,2.8718054E-2,1.5709637E-4,5.9374925E-3,3.5719417E-2,5.5569927E-3],"split_indices":[10,1,1,3,11,10,10,3,4,5,7,8,8,1,5,0,0,0,0,0,0,0,0,0,0,0,0,0,0,0,0],"split_type":[0,0,0,0,0,0,0,0,0,0,0,0,0,0,0,0,0,0,0,0,0,0,0,0,0,0,0,0,0,0,0],"sum_hessian":[3.671794E4,1.9029857E4,1.7688084E4,4.9598926E3,1.4069966E4,2.1845188E3,1.5503566E4,1.6211025E3,3.33879E3,1.3171327E4,8.9863904E2,2.1062395E3,7.82792E1,1.1277354E4,4.226213E3,5.8895215E2,1.0321504E3,4.0256354E2,2.9362263E3,1.1903884E3,1.1980938E4,5.7942486E1,8.4069653E2,2.1371582E2,1.8925237E3,1.7998686E1,6.028051E1,9.3612705E3,1.9160831E3,5.204864E1,4.1741646E3],"tree_param":{"num_deleted":"0","num_feature":"20","num_nodes":"31","size_leaf_vector":"1"}},{"base_weights":[3.4930143E-3,-1.5379925E-1,6.2165946E-2,-4.885167E-2,-1.9124472E-1,4.53072E-2,2.254388E-1,3.8713965E-1,-7.0558004E-2,-3.6924747E-1,-1.70678E-1,1.2574826E-1,2.3922546E-2,3.1327352E-1,1.21879265E-1,2.2642283E-2,-3.3072677E-2,2.9707837E-3,-5.6537115E-3,-3.0031586E-2,-1.2990579E-2,-5.992082E-3,-1.0694283E-2,2.0816368E-3,8.236106E-3,-1.1735088E-3,2.9202069E-3,1.7034344E-2,-1.7152147E-2,-7.6216976E-3,1.066042E-2],"categories":[],"categories_nodes":[],"categories_segments":[],"categories_sizes":[],"default_left":[0,0,0,0,0,0,0,0,0,0,0,0,0,0,0,0,0,0,0,0,0,0,0,0,0,0,0,0,0,0,0],"id":19,"left_children":[1,3,5,7,9,11,13,15,17,19,21,23,25,27,29,-1,-1,-1,-1,-1,-1,-1,-1,-1,-1,-1,-1,-1,-1,-1,-1],"loss_changes":[3.3858994E2,3.9143707E1,7.352412E1,2.4853365E1,2.6769257E1,4.1656116E1,2.2663513E1,9.019657E0,1.3830277E1,1.8948364E1,1.4414627E1,1.6653633E1,3.1278728E1,2.4493225E1,2.8865753E1,0E0,0E0,0E0,0E0,0E0,0E0,0E0,0E0,0E0,0E0,0E0,0E0,0E0,0E0,0E0,0E0],"parents":[2147483647,0,0,1,1,2,2,3,3,4,4,5,5,6,6,7,7,8,8,9,9,10,10,11,11,12,12,13,13,14,14],"right_children":[2,4,6,8,10,12,14,16,18,20,22,24,26,28,30,-1,-1,-1,-1,-1,-1,-1,-1,-1,-1,-1,-1,-1,-1,-1,-1],"split_conditions":[1.110961E-3,-1.14247116E-4,3.615256E-3,-9.659258E-1,5.8180327E-4,-9.283611E-3,9.9979814E-5,1.077254E-3,-2.6878327E-4,6.2599254E-1,2.5881904E-1,4.117647E-1,1.5979217E-3,1E0,1E0,2.2642283E-2,-3.3072677E-2,2.9707837E-3,-5.6537115E-3,-3.0031586E-2,-1.2990579E-2,-5.992082E-3,-1.0694283E-2,2.0816368E-3,8.236106E-3,-1.1735088E-3,2.9202069E-3,1.7034344E-2,-1.7152147E-2,-7.6216976E-3,1.066042E-2],"split_indices":[0,11,0,2,0,4,11,0,11,13,3,16,0,2,15,0,0,0,0,0,0,0,0,0,0,0,0,0,0,0,0],"split_type":[0,0,0,0,0,0,0,0,0,0,0,0,0,0,0,0,0,0,0,0,0,0,0,0,0,0,0,0,0,0,0],"sum_hessian":[3.6685848E4,9.965835E3,2.6720014E4,2.6220012E3,7.343834E3,2.422127E4,2.4987456E3,1.2304167E2,2.4989595E3,7.577474E2,6.5860864E3,5.084737E3,1.9136531E4,1.3501155E3,1.14863E3,1.16633194E2,6.4084764E0,6.1551996E2,1.8834395E3,2.4100087E2,5.167465E2,3.0290483E3,3.5570383E3,1.611371E3,3.4733657E3,8.058994E3,1.1077538E4,1.2967498E3,5.3365757E1,2.8651422E2,8.621158E2],"tree_param":{"num_deleted":"0","num_feature":"20","num_nodes":"31","size_leaf_vector":"1"}},{"base_weights":[1.6106118E-3,-1.5243042E-1,5.867877E-2,-8.5128196E-2,-1.9976844E-1,1.633804E-2,1.1939157E-1,-1.2356106E-1,2.0445568E-2,-2.6253927E-1,-1.3558789E-1,1.2423654E-2,4.0162903E-1,1.10127926E-1,4.3076286E-1,2.078083E-2,-6.580112E-3,8.684428E-3,-2.9577764E-3,-9.766036E-3,-1.809803E-2,5.982555E-3,-8.975656E-3,8.1522856E-4,-2.2448048E-2,2.2938842E-2,-3.650498E-2,8.927781E-3,3.5838995E-3,-5.6967784E-2,2.3847837E-2],"categories":[],"categories_nodes":[],"categories_segments":[],"categories_sizes":[],"default_left":[0,0,0,0,0,0,0,0,0,0,0,0,0,0,0,0,0,0,0,0,0,0,0,0,0,0,0,0,0,0,0],"id":20,"left_children":[1,3,5,7,9,11,13,15,17,19,21,23,25,27,29,-1,-1,-1,-1,-1,-1,-1,-1,-1,-1,-1,-1,-1,-1,-1,-1],"loss_changes":[3.2306705E2,3.1611023E1,6.892533E1,1.6666056E1,2.3416702E1,2.3802258E1,3.1679901E1,1.311895E1,1.3397357E1,1.9552338E1,3.2396797E1,2.8000692E1,1.0755405E1,2.8123047E1,2.3819725E1,0E0,0E0,0E0,0E0,0E0,0E0,0E0,0E0,0E0,0E0,0E0,0E0,0E0,0E0,0E0,0E0],"parents":[2147483647,0,0,1,1,2,2,3,3,4,4,5,5,6,6,7,7,8,8,9,9,10,10,11,11,12,12,13,13,14,14],"right_children":[2,4,6,8,10,12,14,16,18,20,22,24,26,28,30,-1,-1,-1,-1,-1,-1,-1,-1,-1,-1,-1,-1,-1,-1,-1,-1],"split_conditions":[1.110961E-3,-6.857343E-4,2.1048798E-3,0E0,8.5709593E-4,3.1441468E-1,6.1293417E-3,-1.8927346E-1,0E0,5E-1,-8.660254E-1,2.2143422E-2,1E0,-3.0181876E-3,-9.659258E-1,2.078083E-2,-6.580112E-3,8.684428E-3,-2.9577764E-3,-9.766036E-3,-1.809803E-2,5.982555E-3,-8.975656E-3,8.1522856E-4,-2.2448048E-2,2.2938842E-2,-3.650498E-2,8.927781E-3,3.5838995E-3,-5.6967784E-2,2.3847837E-2],"split_indices":[0,1,0,6,0,5,0,5,3,2,2,4,3,1,2,0,0,0,0,0,0,0,0,0,0,0,0,0,0,0,0],"split_type":[0,0,0,0,0,0,0,0,0,0,0,0,0,0,0,0,0,0,0,0,0,0,0,0,0,0,0,0,0,0,0],"sum_hessian":[3.6747934E4,9.932981E3,2.6814951E4,4.1037627E3,5.829219E3,1.5799326E4,1.1015624E4,3.0086995E3,1.0950631E3,2.944237E3,2.8849822E3,1.5642088E4,1.5723851E2,1.0699494E4,3.161307E2,4.3003174E1,2.9656963E3,3.7397165E2,7.2109143E2,1.7595553E3,1.1846816E3,4.2304483E2,2.4619373E3,1.5513155E4,1.2893289E2,1.5057137E2,6.667142E0,3.8467795E3,6.8527144E3,7.989517E0,3.0814117E2],"tree_param":{"num_deleted":"0","num_feature":"20","num_nodes":"31","size_leaf_vector":"1"}},{"base_weights":[-1.0214972E-3,-1.4649504E-1,5.2737955E-2,-7.638082E-2,-1.943589E-1,2.1773344E-1,3.570502E-2,-1.07891314E-1,1.4642681E-1,-3.5691857E-1,-1.7070633E-1,2.016461E-1,7.1626306E-1,2.1673525E-2,1.4189182E-1,-3.3765074E-3,-1.6038785E-2,4.2438466E-2,3.941202E-3,-7.707444E-3,-2.7135441E-2,-5.507454E-3,-1.2476216E-2,-1.2615184E-2,1.084314E-2,4.3599598E-2,1.4398366E-2,2.8797202E-3,-9.7189564E-4,8.611112E-3,-3.5957077E-3],"categories":[],"categories_nodes":[],"categories_segments":[],"categories_sizes":[],"default_left":[0,0,0,0,0,0,0,0,0,0,0,0,0,0,0,0,0,0,0,0,0,0,0,0,0,0,0,0,0,0,0],"id":21,"left_children":[1,3,5,7,9,11,13,15,17,19,21,23,25,27,29,-1,-1,-1,-1,-1,-1,-1,-1,-1,-1,-1,-1,-1,-1,-1,-1],"loss_changes":[2.8707495E2,3.3204742E1,7.529908E1,2.8254854E1,2.2510254E1,1.984668E1,3.618756E1,3.0228657E1,2.3531399E1,2.7938988E1,2.447757E1,1.6873978E1,4.747635E0,3.169868E1,1.8408634E1,0E0,0E0,0E0,0E0,0E0,0E0,0E0,0E0,0E0,0E0,0E0,0E0,0E0,0E0,0E0,0E0],"parents":[2147483647,0,0,1,1,2,2,3,3,4,4,5,5,6,6,7,7,8,8,9,9,10,10,11,11,12,12,13,13,14,14],"right_children":[2,4,6,8,10,12,14,16,18,20,22,24,26,28,30,-1,-1,-1,-1,-1,-1,-1,-1,-1,-1,-1,-1,-1,-1,-1,-1],"split_conditions":[1.110961E-3,-1.5891603E-3,-7.355476E-3,9.749279E-1,6.088959E-4,1.0209591E-2,3.219522E-3,7.818315E-1,2.9974487E1,1E0,5E-1,-9.659258E-1,-1.9244434E-2,4.3388373E-1,9.749279E-1,-3.3765074E-3,-1.6038785E-2,4.2438466E-2,3.941202E-3,-7.707444E-3,-2.7135441E-2,-5.507454E-3,-1.2476216E-2,-1.2615184E-2,1.084314E-2,4.3599598E-2,1.4398366E-2,2.8797202E-3,-9.7189564E-4,8.611112E-3,-3.5957077E-3],"split_indices":[0,4,1,9,0,10,0,9,7,15,3,2,4,9,9,0,0,0,0,0,0,0,0,0,0,0,0,0,0,0,0],"split_type":[0,0,0,0,0,0,0,0,0,0,0,0,0,0,0,0,0,0,0,0,0,0,0,0,0,0,0,0,0,0,0],"sum_hessian":[3.6704062E4,9.903486E3,2.6800576E4,4.0198608E3,5.883625E3,2.5058801E3,2.4294695E4,3.5226667E3,4.971939E2,7.443815E2,5.1392437E3,2.4296824E3,7.619782E1,2.1461107E4,2.833588E3,2.963098E3,5.5956885E2,4.206784E1,4.5512607E2,3.5736752E2,3.8701392E2,2.9086824E3,2.2305615E3,7.7938446E1,2.351744E3,5.465464E1,2.154318E1,1.1453924E4,1.0007185E4,2.482016E3,3.515719E2],"tree_param":{"num_deleted":"0","num_feature":"20","num_nodes":"31","size_leaf_vector":"1"}},{"base_weights":[-1.1049042E-3,-1.356834E-1,4.935669E-2,9.6423745E-2,-1.5229052E-1,1.9460155E-1,3.409274E-2,2.0846047E-1,-2.179823E-1,-1.0465941E-1,-1.9855933E-1,-3.3231553E-1,2.1168813E-1,-1.5687415E-2,6.30829E-2,1.4441653E-2,-1.0786759E-2,-1.8144367E-2,1.5178396E-2,-5.83998E-3,6.3869E-3,-1.4058731E-2,-6.1815786E-3,-8.16718E-3,-6.39466E-2,9.644677E-3,3.0359445E-2,-4.2504887E-3,1.898347E-3,-5.384327E-3,3.6215743E-3],"categories":[],"categories_nodes":[],"categories_segments":[],"categories_sizes":[],"default_left":[0,0,0,0,0,0,0,0,0,0,0,0,0,0,0,0,0,0,0,0,0,0,0,0,0,0,0,0,0,0,0],"id":22,"left_children":[1,3,5,7,9,11,13,15,17,19,21,23,25,27,29,-1,-1,-1,-1,-1,-1,-1,-1,-1,-1,-1,-1,-1,-1,-1,-1],"loss_changes":[2.4904178E2,3.857422E1,5.9107758E1,2.361525E1,2.0523834E1,2.2928726E1,3.483606E1,1.693073E1,1.3487909E1,1.3008228E1,2.9222061E1,1.2432212E1,1.8048195E1,3.3049328E1,2.4362793E1,0E0,0E0,0E0,0E0,0E0,0E0,0E0,0E0,0E0,0E0,0E0,0E0,0E0,0E0,0E0,0E0],"parents":[2147483647,0,0,1,1,2,2,3,3,4,4,5,5,6,6,7,7,8,8,9,9,10,10,11,11,12,12,13,13,14,14],"right_children":[2,4,6,8,10,12,14,16,18,20,22,24,26,28,30,-1,-1,-1,-1,-1,-1,-1,-1,-1,-1,-1,-1,-1,-1,-1,-1],"split_conditions":[1.1182061E-3,-2.6878327E-4,-7.355476E-3,8.660254E-1,1E0,-9.659258E-1,1.5979217E-3,-5.568293E-4,-2.4420302E-3,1E0,8.5709593E-4,5.0978987E-3,6.1293417E-3,-1.8369701E-16,-9.659258E-1,1.4441653E-2,-1.0786759E-2,-1.8144367E-2,1.5178396E-2,-5.83998E-3,6.3869E-3,-1.4058731E-2,-6.1815786E-3,-8.16718E-3,-6.39466E-2,9.644677E-3,3.0359445E-2,-4.2504887E-3,1.898347E-3,-5.384327E-3,3.6215743E-3],"split_indices":[0,11,1,3,18,2,0,4,1,3,0,0,0,2,3,0,0,0,0,0,0,0,0,0,0,0,0,0,0,0,0],"split_type":[0,0,0,0,0,0,0,0,0,0,0,0,0,0,0,0,0,0,0,0,0,0,0,0,0,0,0,0,0,0,0],"sum_hessian":[3.6668465E4,9.9993E3,2.6669164E4,6.669897E2,9.33231E3,2.5341777E3,2.4134986E4,4.9224545E2,1.7474425E2,4.601401E3,4.730909E3,7.863476E1,2.455543E3,8.882116E3,1.525287E4,4.1433725E2,7.790819E1,1.3718234E2,3.75619E1,4.3738755E3,2.2752531E2,2.2477478E3,2.4831614E3,6.826164E1,1.0373116E1,2.346398E3,1.0914514E2,3.875264E3,5.0068525E3,7.905656E2,1.4462305E4],"tree_param":{"num_deleted":"0","num_feature":"20","num_nodes":"31","size_leaf_vector":"1"}},{"base_weights":[-8.80991E-5,-1.10558964E-1,5.425165E-2,4.4033233E-2,-1.340006E-1,1.8008897E-1,3.702565E-2,4.1315004E-1,2.5045885E-2,-2.8966925E-1,-1.18003406E-1,-3.095401E-1,1.9614683E-1,7.338399E-2,-5.3362716E-3,4.836188E-2,1.0532919E-2,-5.322212E-3,5.497012E-3,-2.3292473E-2,-8.786115E-3,-4.7723085E-4,-6.7990916E-3,8.623221E-3,-3.5171222E-2,8.992874E-3,2.9569224E-2,1.9807396E-3,7.714757E-3,-1.1034933E-3,5.6979028E-3],"categories":[],"categories_nodes":[],"categories_segments":[],"categories_sizes":[],"default_left":[0,0,0,0,0,0,0,0,0,0,0,0,0,0,0,0,0,0,0,0,0,0,0,0,0,0,0,0,0,0,0],"id":23,"left_children":[1,3,5,7,9,11,13,15,17,19,21,23,25,27,29,-1,-1,-1,-1,-1,-1,-1,-1,-1,-1,-1,-1,-1,-1,-1,-1],"loss_changes":[2.2017595E2,4.383795E1,5.3269676E1,1.1128298E1,2.6080002E1,2.3353401E1,3.331302E1,8.355166E0,1.6950993E1,1.946457E1,1.8565262E1,1.8141651E1,1.8256546E1,3.1781208E1,1.9939955E1,0E0,0E0,0E0,0E0,0E0,0E0,0E0,0E0,0E0,0E0,0E0,0E0,0E0,0E0,0E0,0E0],"parents":[2147483647,0,0,1,1,2,2,3,3,4,4,5,5,6,6,7,7,8,8,9,9,10,10,11,11,12,12,13,13,14,14],"right_children":[2,4,6,8,10,12,14,16,18,20,22,24,26,28,30,-1,-1,-1,-1,-1,-1,-1,-1,-1,-1,-1,-1,-1,-1,-1,-1],"split_conditions":[1.2201272E-3,3.6573017E1,-6.730239E-3,-9.659258E-1,6.088959E-4,-9.659258E-1,4.3388373E-1,2.901937E1,-1.8369701E-16,-5.701175E-3,-8.660254E-1,3.1971174E1,6.1293417E-3,2.435938E-3,3.219522E-3,4.836188E-2,1.0532919E-2,-5.322212E-3,5.497012E-3,-2.3292473E-2,-8.786115E-3,-4.7723085E-4,-6.7990916E-3,8.623221E-3,-3.5171222E-2,8.992874E-3,2.9569224E-2,1.9807396E-3,7.714757E-3,-1.1034933E-3,5.6979028E-3],"split_indices":[0,7,1,2,0,2,9,7,2,5,2,7,0,0,0,0,0,0,0,0,0,0,0,0,0,0,0,0,0,0,0],"split_type":[0,0,0,0,0,0,0,0,0,0,0,0,0,0,0,0,0,0,0,0,0,0,0,0,0,0,0,0,0,0,0],"sum_hessian":[3.6674438E4,1.20917295E4,2.4582709E4,1.5916583E3,1.0500071E4,2.9579033E3,2.1624805E4,7.621699E1,1.5154413E3,9.7579803E2,9.524273E3,9.295746E1,2.8649458E3,1.1637052E4,9.987754E3,1.8816517E1,5.740047E1,5.9417426E2,9.212671E2,3.8125134E2,5.945467E2,1.3550024E3,8.169271E3,4.212477E1,5.0832687E1,2.7537612E3,1.11184616E2,8.212375E3,3.4246763E3,8.760541E3,1.2272126E3],"tree_param":{"num_deleted":"0","num_feature":"20","num_nodes":"31","size_leaf_vector":"1"}},{"base_weights":[-7.5537694E-4,-1.3560814E-1,4.836824E-2,9.2589006E-2,-1.5179539E-1,3.5254392E-3,8.617134E-2,1.789723E-1,-1.6050166E-1,-1.0679267E-1,-1.9577587E-1,7.190056E-4,5.033967E-1,7.971756E-2,3.7013993E-1,1.2631232E-2,-1.6816424E-2,-2.0757167E-2,6.2073753E-3,-6.183456E-3,4.229489E-3,-1.3561964E-2,-6.2384503E-3,5.958171E-4,-5.0306004E-3,1.0836484E-2,4.392381E-2,6.832359E-4,5.2044853E-3,2.4305021E-2,3.6671106E-3],"categories":[],"categories_nodes":[],"categories_segments":[],"categories_sizes":[],"default_left":[0,0,0,0,0,0,0,0,0,0,0,0,0,0,0,0,0,0,0,0,0,0,0,0,0,0,0,0,0,0,0],"id":24,"left_children":[1,3,5,7,9,11,13,15,17,19,21,23,25,27,29,-1,-1,-1,-1,-1,-1,-1,-1,-1,-1,-1,-1,-1,-1,-1,-1],"loss_changes":[2.431616E2,3.6228394E1,4.5604088E1,1.4253189E1,1.806897E1,1.7241623E1,2.6685898E1,1.8545689E1,1.2125922E1,1.4641319E1,2.4720596E1,1.3887158E1,7.0376225E0,2.2973106E1,1.1062897E1,0E0,0E0,0E0,0E0,0E0,0E0,0E0,0E0,0E0,0E0,0E0,0E0,0E0,0E0,0E0,0E0],"parents":[2147483647,0,0,1,1,2,2,3,3,4,4,5,5,6,6,7,7,8,8,9,9,10,10,11,11,12,12,13,13,14,14],"right_children":[2,4,6,8,10,12,14,16,18,20,22,24,26,28,30,-1,-1,-1,-1,-1,-1,-1,-1,-1,-1,-1,-1,-1,-1,-1,-1],"split_conditions":[1.110961E-3,-2.6878327E-4,1.8097683E-3,8.660254E-1,1E0,3.1441468E-1,6.1293417E-3,8.387854E-5,-3.3293507E-4,5.843309E-2,8.5709593E-4,1.3317265E-1,5E-1,-7.0710677E-1,0E0,1.2631232E-2,-1.6816424E-2,-2.0757167E-2,6.2073753E-3,-6.183456E-3,4.229489E-3,-1.3561964E-2,-6.2384503E-3,5.958171E-4,-5.0306004E-3,1.0836484E-2,4.392381E-2,6.832359E-4,5.2044853E-3,2.4305021E-2,3.6671106E-3],"split_indices":[0,11,0,3,18,5,0,4,11,5,0,5,3,3,3,0,0,0,0,0,0,0,0,0,0,0,0,0,0,0,0],"split_type":[0,0,0,0,0,0,0,0,0,0,0,0,0,0,0,0,0,0,0,0,0,0,0,0,0,0,0,0,0,0,0],"sum_hessian":[3.6703016E4,9.799656E3,2.6903357E4,6.484247E2,9.151231E3,1.2307231E4,1.4596126E4,4.8389987E2,1.645248E2,4.526155E3,4.625076E3,1.2240114E4,6.711765E1,1.4273821E4,3.223053E2,4.2413904E2,5.976084E1,8.656944E1,7.795535E1,4.1601016E3,3.6605338E2,2.2397842E3,2.385292E3,1.1023775E4,1.2163384E3,3.9459476E1,2.7658176E1,3.848391E3,1.042543E4,2.3094762E2,9.135768E1],"tree_param":{"num_deleted":"0","num_feature":"20","num_nodes":"31","size_leaf_vector":"1"}},{"base_weights":[-9.964044E-4,9.3364656E-2,-2.8855592E-2,1.7196682E-1,3.678629E-2,-7.31896E-2,2.7184855E-2,1.182658E-1,4.4677827E-1,3.1676936E-1,1.3134657E-2,-8.057846E-2,1.2375106E-1,-4.0804848E-4,9.063717E-2,4.1905814E-3,1.750549E-2,1.9253163E-2,5.519805E-2,7.776262E-3,3.283229E-2,4.2121384E-2,3.807336E-4,3.1068446E-3,-4.4587073E-3,4.4833864E-3,5.025075E-2,1.6050246E-3,-3.7126024E-3,1.8394766E-3,1.021788E-2],"categories":[],"categories_nodes":[],"categories_segments":[],"categories_sizes":[],"default_left":[0,0,0,0,0,0,0,0,0,0,0,0,0,0,0,0,0,0,0,0,0,0,0,0,0,0,0,0,0,0,0],"id":25,"left_children":[1,3,5,7,9,11,13,15,17,19,21,23,25,27,29,-1,-1,-1,-1,-1,-1,-1,-1,-1,-1,-1,-1,-1,-1,-1,-1],"loss_changes":[9.6558205E1,3.721338E1,7.0464264E1,5.1594093E1,3.222975E1,2.3054443E1,2.1936506E1,2.3362103E1,2.2486885E1,2.0585083E1,2.051454E1,1.8733246E1,1.7019182E1,2.0965242E1,2.3227644E1,0E0,0E0,0E0,0E0,0E0,0E0,0E0,0E0,0E0,0E0,0E0,0E0,0E0,0E0,0E0,0E0],"parents":[2147483647,0,0,1,1,2,2,3,3,4,4,5,5,6,6,7,7,8,8,9,9,10,10,11,11,12,12,13,13,14,14],"right_children":[2,4,6,8,10,12,14,16,18,20,22,24,26,28,30,-1,-1,-1,-1,-1,-1,-1,-1,-1,-1,-1,-1,-1,-1,-1,-1],"split_conditions":[-3.194995E-3,-2.5881904E-1,1.3092248E-3,7.0710677E-1,-2.5564281E-2,4.6898765E-4,4.7389204E-3,1E0,1.13794014E-1,4.3388373E-1,-1.3766533E-3,-2.6878327E-4,1E0,7.619892E-2,5E-1,4.1905814E-3,1.750549E-2,1.9253163E-2,5.519805E-2,7.776262E-3,3.283229E-2,4.2121384E-2,3.807336E-4,3.1068446E-3,-4.4587073E-3,4.4833864E-3,5.025075E-2,1.6050246E-3,-3.7126024E-3,1.8394766E-3,1.021788E-2],"split_indices":[1,3,10,2,4,11,1,17,5,9,11,11,3,5,3,0,0,0,0,0,0,0,0,0,0,0,0,0,0,0,0],"split_type":[0,0,0,0,0,0,0,0,0,0,0,0,0,0,0,0,0,0,0,0,0,0,0,0,0,0,0,0,0,0,0],"sum_hessian":[3.672878E4,8.370837E3,2.8357945E4,3.501874E3,4.868963E3,1.5832874E4,1.2525071E4,2.9313794E3,5.7049457E2,3.7765533E2,4.4913076E3,1.5261434E4,5.714411E2,8.72961E3,3.7954602E3,2.5540776E3,3.773018E2,5.2376373E2,4.673087E1,2.5772092E2,1.1993441E2,2.8133959E1,4.463174E3,8.6611053E2,1.4395322E4,5.51809E2,1.9632133E1,6.061369E3,2.6682415E3,2.5774429E3,1.2180172E3],"tree_param":{"num_deleted":"0","num_feature":"20","num_nodes":"31","size_leaf_vector":"1"}},{"base_weights":[-6.165287E-3,-9.3993634E-2,5.6812633E-2,-1.5246096E-1,-5.6131523E-2,4.2484898E-2,1.6246215E-1,-3.0490205E-2,-1.8496764E-1,-1.1694375E-1,-1.2126236E-2,7.7911094E-2,2.4303608E-3,2.6017573E-1,9.51346E-2,1.716329E-2,-4.080246E-3,-4.7391877E-3,-1.1714515E-2,-1.2602727E-3,-1.1952441E-2,4.855565E-3,-3.1878408E-3,9.075345E-3,1.9481095E-3,1.0678264E-2,-4.2383885E-4,-6.864474E-3,1.666347E-2,9.476306E-3,-2.4435755E-3],"categories":[],"categories_nodes":[],"categories_segments":[],"categories_sizes":[],"default_left":[0,0,0,0,0,0,0,0,0,0,0,0,0,0,0,0,0,0,0,0,0,0,0,0,0,0,0,0,0,0,0],"id":26,"left_children":[1,3,5,7,9,11,13,15,17,19,21,23,25,27,29,-1,-1,-1,-1,-1,-1,-1,-1,-1,-1,-1,-1,-1,-1,-1,-1],"loss_changes":[2.0276181E2,3.3865387E1,3.229519E1,2.383194E1,2.4864038E1,2.6674782E1,1.6711288E1,2.4253162E1,2.1074966E1,4.3680508E1,3.0432919E1,4.0233086E1,2.033948E1,3.0248642E1,2.056708E1,0E0,0E0,0E0,0E0,0E0,0E0,0E0,0E0,0E0,0E0,0E0,0E0,0E0,0E0,0E0,0E0],"parents":[2147483647,0,0,1,1,2,2,3,3,4,4,5,5,6,6,7,7,8,8,9,9,10,10,11,11,12,12,13,13,14,14],"right_children":[2,4,6,8,10,12,14,16,18,20,22,24,26,28,30,-1,-1,-1,-1,-1,-1,-1,-1,-1,-1,-1,-1,-1,-1,-1,-1],"split_conditions":[1.3882621E-3,9.2571374E-4,3.615256E-3,-1.2883924E-4,-1.8369701E-16,4.3388373E-1,0E0,-8.660254E-1,0E0,5E-1,-3.487064E-3,-7.702597E-3,-6.3657197E-3,-2.7467588E-2,1.9553839E-4,1.716329E-2,-4.080246E-3,-4.7391877E-3,-1.1714515E-2,-1.2602727E-3,-1.1952441E-2,4.855565E-3,-3.1878408E-3,9.075345E-3,1.9481095E-3,1.0678264E-2,-4.2383885E-4,-6.864474E-3,1.666347E-2,9.476306E-3,-2.4435755E-3],"split_indices":[0,0,0,11,2,9,9,2,3,3,4,4,6,4,11,0,0,0,0,0,0,0,0,0,0,0,0,0,0,0,0],"split_type":[0,0,0,0,0,0,0,0,0,0,0,0,0,0,0,0,0,0,0,0,0,0,0,0,0,0,0,0,0,0,0],"sum_hessian":[3.6654242E4,1.5307132E4,2.134711E4,6.014136E3,9.292995E3,1.8800096E4,2.5470125E3,1.26649E3,4.7476465E3,3.8999355E3,5.3930596E3,9.975027E3,8.825069E3,1.0369829E3,1.5100297E3,1.512179E2,1.1152721E3,1.6804423E3,3.067204E3,2.2281396E3,1.6717958E3,1.7301664E3,3.6628933E3,2.7237249E3,7.2513022E3,4.3236072E2,8.392709E3,1.6076753E2,8.7621533E2,9.120696E2,5.979601E2],"tree_param":{"num_deleted":"0","num_feature":"20","num_nodes":"31","size_leaf_vector":"1"}},{"base_weights":[-9.3237706E-4,-1.055063E-1,4.072246E-2,-5.6638304E-2,-1.600912E-1,2.6321359E-2,1.7492947E-1,4.4511205E-1,-6.18095E-2,-2.3750965E-1,-9.76076E-2,7.288918E-2,4.148625E-4,2.9066584E-1,9.545151E-2,2.9418144E-2,-2.2608643E-2,1.9128438E-2,-3.3899322E-3,-2.157422E-2,-8.239314E-3,-1.3049006E-2,-1.2240567E-3,1.7165396E-3,6.9752294E-3,-8.4752636E-4,2.8956637E-3,1.1552426E-2,2.658478E-2,1.4372583E-2,-9.714789E-4],"categories":[],"categories_nodes":[],"categories_segments":[],"categories_sizes":[],"default_left":[0,0,0,0,0,0,0,0,0,0,0,0,0,0,0,0,0,0,0,0,0,0,0,0,0,0,0,0,0,0,0],"id":27,"left_children":[1,3,5,7,9,11,13,15,17,19,21,23,25,27,29,-1,-1,-1,-1,-1,-1,-1,-1,-1,-1,-1,-1,-1,-1,-1,-1],"loss_changes":[1.5956474E2,2.7810051E1,5.0611588E1,1.4314842E1,2.3786133E1,2.853869E1,2.3283943E1,7.6396523E0,1.4538086E1,3.0890305E1,3.2589027E1,2.1705044E1,1.5184539E1,1.4610863E1,3.3264843E1,0E0,0E0,0E0,0E0,0E0,0E0,0E0,0E0,0E0,0E0,0E0,0E0,0E0,0E0,0E0,0E0],"parents":[2147483647,0,0,1,1,2,2,3,3,4,4,5,5,6,6,7,7,8,8,9,9,10,10,11,11,12,12,13,13,14,14],"right_children":[2,4,6,8,10,12,14,16,18,20,22,24,26,28,30,-1,-1,-1,-1,-1,-1,-1,-1,-1,-1,-1,-1,-1,-1,-1,-1],"split_conditions":[1.1452179E-3,1E0,3.615256E-3,-1.8927346E-1,8.5709593E-4,-2.0248017E-3,0E0,1E0,4.2885763E-4,-3.7035334E-3,-4.3388373E-1,-2.1029934E-2,4.9671177E-3,6.234898E-1,4.530183E1,2.9418144E-2,-2.2608643E-2,1.9128438E-2,-3.3899322E-3,-2.157422E-2,-8.239314E-3,-1.3049006E-2,-1.2240567E-3,1.7165396E-3,6.9752294E-3,-8.4752636E-4,2.8956637E-3,1.1552426E-2,2.658478E-2,1.4372583E-2,-9.714789E-4],"split_indices":[0,18,0,5,0,1,9,17,0,5,9,5,1,17,7,0,0,0,0,0,0,0,0,0,0,0,0,0,0,0,0],"split_type":[0,0,0,0,0,0,0,0,0,0,0,0,0,0,0,0,0,0,0,0,0,0,0,0,0,0,0,0,0,0,0],"sum_hessian":[3.6627223E4,1.0433347E4,2.6193877E4,5.507048E3,4.9262983E3,2.3657477E4,2.5364016E3,5.477788E1,5.4522695E3,2.1979688E3,2.7283298E3,8.454883E3,1.5202593E4,1.0307709E3,1.5056307E3,4.772998E1,7.047901E0,7.1141E1,5.381129E3,5.9713794E2,1.6008309E3,8.422078E2,1.886122E3,5.357103E3,3.0977798E3,1.1676348E4,3.5262454E3,8.28894E2,2.0187689E2,5.6295276E2,9.426779E2],"tree_param":{"num_deleted":"0","num_feature":"20","num_nodes":"31","size_leaf_vector":"1"}},{"base_weights":[-6.0313166E-4,-1.127244E-1,3.9105725E-2,-1.9947555E-2,-1.4007877E-1,2.6111316E-2,1.6385587E-1,-6.886428E-2,3.3691597E-1,1.797865E-1,-1.4661655E-1,8.131057E-2,4.9077184E-3,1.9964215E-1,-3.9904445E-2,-2.3519085E-3,-2.7227176E-2,5.3152025E-2,1.365451E-2,2.648649E-3,4.0875193E-2,-7.1503446E-3,-3.035888E-2,-9.250538E-3,4.5451587E-3,-6.130037E-4,4.4461135E-3,3.1552303E-3,1.3181618E-2,3.7198987E-2,-4.48811E-3],"categories":[],"categories_nodes":[],"categories_segments":[],"categories_sizes":[],"default_left":[0,0,0,0,0,0,0,0,0,0,0,0,0,0,0,0,0,0,0,0,0,0,0,0,0,0,0,0,0,0,0],"id":28,"left_children":[1,3,5,7,9,11,13,15,17,19,21,23,25,27,29,-1,-1,-1,-1,-1,-1,-1,-1,-1,-1,-1,-1,-1,-1,-1,-1],"loss_changes":[1.6301653E2,2.4290642E1,4.3813843E1,3.812378E1,1.5502289E1,2.8657913E1,1.8614227E1,1.9875614E1,1.1698385E1,1.1912199E1,1.18815E1,1.7381355E1,2.5528017E1,1.8913994E1,1.4996783E1,0E0,0E0,0E0,0E0,0E0,0E0,0E0,0E0,0E0,0E0,0E0,0E0,0E0,0E0,0E0,0E0],"parents":[2147483647,0,0,1,1,2,2,3,3,4,4,5,5,6,6,7,7,8,8,9,9,10,10,11,11,12,12,13,13,14,14],"right_children":[2,4,6,8,10,12,14,16,18,20,22,24,26,28,30,-1,-1,-1,-1,-1,-1,-1,-1,-1,-1,-1,-1,-1,-1,-1,-1],"split_conditions":[1.1044997E-3,-4.141323E-3,3.615256E-3,9.749279E-1,3.0817915E1,-6.896965E-3,1E0,1E0,-9.6811995E-2,9.749279E-1,1.7535825E-1,-9.659258E-1,1E0,-7.0710677E-1,-7.044788E-1,-2.3519085E-3,-2.7227176E-2,5.3152025E-2,1.365451E-2,2.648649E-3,4.0875193E-2,-7.1503446E-3,-3.035888E-2,-9.250538E-3,4.5451587E-3,-6.130037E-4,4.4461135E-3,3.1552303E-3,1.3181618E-2,3.7198987E-2,-4.48811E-3],"split_indices":[0,4,0,9,7,4,17,2,5,9,5,2,17,3,5,0,0,0,0,0,0,0,0,0,0,0,0,0,0,0,0],"split_type":[0,0,0,0,0,0,0,0,0,0,0,0,0,0,0,0,0,0,0,0,0,0,0,0,0,0,0,0,0,0,0],"sum_hessian":[3.6610957E4,9.5746455E3,2.703631E4,2.1811926E3,7.393453E3,2.4487791E4,2.5485188E3,1.919438E3,2.6175446E2,1.4713986E2,7.246313E3,6.7941064E3,1.7693684E4,2.1680256E3,3.8049313E2,1.8369067E3,8.253136E1,1.9188372E1,2.425661E2,1.24154144E2,2.2985716E1,7.19202E3,5.4293304E1,2.3507346E2,6.559033E3,1.4692135E4,3.00155E3,6.930367E2,1.4749891E3,2.1444706E1,3.5904843E2],"tree_param":{"num_deleted":"0","num_feature":"20","num_nodes":"31","size_leaf_vector":"1"}},{"base_weights":[4.508656E-3,-9.1793604E-2,3.787691E-2,-4.3862585E-2,-1.4581893E-1,1.3589862E-1,2.5060903E-2,-9.241042E-2,1.9405508E-2,-2.1090417E-1,-6.450967E-2,-2.5697315E-1,1.4844194E-1,1.9044481E-2,1.7158192E-1,-2.8856343E-2,-4.1298848E-3,3.765907E-3,-4.8784046E-3,-1.783543E-2,-8.334209E-3,1.3965833E-3,-1.28318295E-2,-5.365501E-3,-6.4002655E-2,5.8961273E-3,1.6296586E-2,1.455249E-3,-4.5534777E-3,2.0444257E-2,1.7528018E-3],"categories":[],"categories_nodes":[],"categories_segments":[],"categories_sizes":[],"default_left":[0,0,0,0,0,0,0,0,0,0,0,0,0,0,0,0,0,0,0,0,0,0,0,0,0,0,0,0,0,0,0],"id":29,"left_children":[1,3,5,7,9,11,13,15,17,19,21,23,25,27,29,-1,-1,-1,-1,-1,-1,-1,-1,-1,-1,-1,-1,-1,-1,-1,-1],"loss_changes":[1.1756151E2,2.4358727E1,3.4120228E1,1.5336538E1,2.3380814E1,1.5530098E1,2.1170082E1,1.3331213E1,1.418794E1,1.5722572E1,3.5003468E1,1.4669605E1,1.6413689E1,2.5575188E1,3.0648266E1,0E0,0E0,0E0,0E0,0E0,0E0,0E0,0E0,0E0,0E0,0E0,0E0,0E0,0E0,0E0,0E0],"parents":[2147483647,0,0,1,1,2,2,3,3,4,4,5,5,6,6,7,7,8,8,9,9,10,10,11,11,12,12,13,13,14,14],"right_children":[2,4,6,8,10,12,14,16,18,20,22,24,26,28,30,-1,-1,-1,-1,-1,-1,-1,-1,-1,-1,-1,-1,-1,-1,-1,-1],"split_conditions":[1.0975391E-3,1E0,-6.549922E-3,-2.851982E-4,0E0,-9.659258E-1,1E0,-2.603273E-1,3.222176E-2,-1.1817816E-2,7.0710677E-1,4.845979E-3,4.1965074E-3,9.659258E-1,4.7358486E1,-2.8856343E-2,-4.1298848E-3,3.765907E-3,-4.8784046E-3,-1.783543E-2,-8.334209E-3,1.3965833E-3,-1.28318295E-2,-5.365501E-3,-6.4002655E-2,5.8961273E-3,1.6296586E-2,1.455249E-3,-4.5534777E-3,2.0444257E-2,1.7528018E-3],"split_indices":[0,18,1,6,9,2,2,8,8,5,2,0,0,2,7,0,0,0,0,0,0,0,0,0,0,0,0,0,0,0,0],"split_type":[0,0,0,0,0,0,0,0,0,0,0,0,0,0,0,0,0,0,0,0,0,0,0,0,0,0,0,0,0,0,0],"sum_hessian":[3.658205E4,9.412638E3,2.7169414E4,4.989564E3,4.4230737E3,3.1394438E3,2.4029969E4,2.8232693E3,2.1662947E3,2.454959E3,1.9681146E3,9.6105E1,3.0433389E3,2.3084129E4,9.4584045E2,5.4199043E1,2.7690703E3,1.4663503E3,6.9994446E2,5.6855597E2,1.8864031E3,1.3294669E3,6.386476E2,8.532874E1,1.0776264E1,2.5991865E3,4.4415225E2,2.115305E4,1.9310775E3,3.4420322E2,6.0163727E2],"tree_param":{"num_deleted":"0","num_feature":"20","num_nodes":"31","size_leaf_vector":"1"}},{"base_weights":[3.2976118E-3,-6.665057E-2,5.320466E-2,-1.2493552E-1,-2.95E-2,8.810288E-2,1.3163955E-2,-2.5040336E-2,-1.6439706E-1,6.61638E-1,-3.2916635E-2,1.6728757E-1,5.1331036E-2,3.9008415E-1,4.201816E-3,-1.3372871E-2,-1.0839412E-5,-1.3175631E-2,-5.1168753E-3,1.0639985E-2,9.0660855E-2,-1.8554399E-3,1.307814E-2,4.5399326E-3,1.2778764E-2,-1.0306891E-2,3.2572087E-3,2.4165364E-2,-1.0552596E-2,-2.3140472E-3,1.7264852E-3],"categories":[],"categories_nodes":[],"categories_segments":[],"categories_sizes":[],"default_left":[0,0,0,0,0,0,0,0,0,0,0,0,0,0,0,0,0,0,0,0,0,0,0,0,0,0,0,0,0,0,0],"id":30,"left_children":[1,3,5,7,9,11,13,15,17,19,21,23,25,27,29,-1,-1,-1,-1,-1,-1,-1,-1,-1,-1,-1,-1,-1,-1,-1,-1],"loss_changes":[1.2771295E2,3.297161E1,2.9828518E1,2.3356285E1,2.1975712E1,3.3191727E1,3.3573925E1,1.0102307E1,2.607965E1,2.2980349E1,1.1436781E1,2.4369347E1,2.7726646E1,1.310281E1,1.4877633E1,0E0,0E0,0E0,0E0,0E0,0E0,0E0,0E0,0E0,0E0,0E0,0E0,0E0,0E0,0E0,0E0],"parents":[2147483647,0,0,1,1,2,2,3,3,4,4,5,5,6,6,7,7,8,8,9,9,10,10,11,11,12,12,13,13,14,14],"right_children":[2,4,6,8,10,12,14,16,18,20,22,24,26,28,30,-1,-1,-1,-1,-1,-1,-1,-1,-1,-1,-1,-1,-1,-1,-1,-1],"split_conditions":[1.3882621E-3,9.2571374E-4,4.3388373E-1,-9.377476E-5,-1.6835095E-2,-2.7462642E-3,-1.3888764E-2,-4.080863E-3,1.2442791E-3,7.0710677E-1,4.827123E-4,-6.999622E-2,-9.659258E-1,-1.8555632E-2,4.75E-1,-1.3372871E-2,-1.0839412E-5,-1.3175631E-2,-5.1168753E-3,1.0639985E-2,9.0660855E-2,-1.8554399E-3,1.307814E-2,4.5399326E-3,1.2778764E-2,-1.0306891E-2,3.2572087E-3,2.4165364E-2,-1.0552596E-2,-2.3140472E-3,1.7264852E-3],"split_indices":[0,0,9,11,4,1,1,1,5,3,11,5,3,4,16,0,0,0,0,0,0,0,0,0,0,0,0,0,0,0,0],"split_type":[0,0,0,0,0,0,0,0,0,0,0,0,0,0,0,0,0,0,0,0,0,0,0,0,0,0,0,0,0,0,0],"sum_hessian":[3.6581625E4,1.5231758E4,2.134987E4,5.9274243E3,9.304334E3,1.1405844E4,9.944025E3,1.6795173E3,4.2479067E3,4.427611E1,9.260058E3,3.6148728E3,7.790971E3,2.293395E2,9.714686E3,1.5445865E2,1.5250587E3,1.6334473E3,2.6144595E3,3.3168854E1,1.1107257E1,9.131543E3,1.2851442E2,1.9387911E3,1.6760818E3,3.9545297E2,7.395518E3,1.9887543E2,3.0464064E1,3.6449648E3,6.0697207E3],"tree_param":{"num_deleted":"0","num_feature":"20","num_nodes":"31","size_leaf_vector":"1"}},{"base_weights":[-1.864142E-3,-8.045285E-2,3.8060896E-2,-1.303257E-1,-5.0235134E-2,2.6289873E-2,1.3741294E-1,-5.037602E-2,-2.1685724E-1,7.481129E-2,-7.022097E-2,6.457149E-2,4.1333693E-3,2.42879E-1,6.560234E-2,-4.6824243E-2,-2.1766208E-3,-6.523646E-3,-1.4014274E-2,-5.978797E-3,1.0339614E-2,-1.4345891E-2,-2.5565156E-3,9.4072847E-4,6.7934836E-3,-6.8393425E-4,2.921993E-3,1.0688913E-2,3.9689742E-2,1.2229142E-2,-1.9840177E-3],"categories":[],"categories_nodes":[],"categories_segments":[],"categories_sizes":[],"default_left":[0,0,0,0,0,0,0,0,0,0,0,0,0,0,0,0,0,0,0,0,0,0,0,0,0,0,0,0,0,0,0],"id":31,"left_children":[1,3,5,7,9,11,13,15,17,19,21,23,25,27,29,-1,-1,-1,-1,-1,-1,-1,-1,-1,-1,-1,-1,-1,-1,-1,-1],"loss_changes":[1.1473073E2,1.8545647E1,2.8342201E1,3.211296E1,1.9185827E1,1.8385298E1,1.9406498E1,1.4547953E1,1.214579E1,2.7181286E1,2.7336914E1,2.5914963E1,1.3289357E1,1.6356094E1,2.885269E1,0E0,0E0,0E0,0E0,0E0,0E0,0E0,0E0,0E0,0E0,0E0,0E0,0E0,0E0,0E0,0E0],"parents":[2147483647,0,0,1,1,2,2,3,3,4,4,5,5,6,6,7,7,8,8,9,9,10,10,11,11,12,12,13,13,14,14],"right_children":[2,4,6,8,10,12,14,16,18,20,22,24,26,28,30,-1,-1,-1,-1,-1,-1,-1,-1,-1,-1,-1,-1,-1,-1,-1,-1],"split_conditions":[1.2409743E-3,8.5709593E-4,3.615256E-3,-7.944696E-5,-8.660254E-1,-2.0248017E-3,0E0,2.0118484E1,6.123234E-17,0E0,-7.0710677E-1,-2.950493E-2,4.9671177E-3,7.191486E-1,4.518562E1,-4.6824243E-2,-2.1766208E-3,-6.523646E-3,-1.4014274E-2,-5.978797E-3,1.0339614E-2,-1.4345891E-2,-2.5565156E-3,9.4072847E-4,6.7934836E-3,-6.8393425E-4,2.921993E-3,1.0688913E-2,3.9689742E-2,1.2229142E-2,-1.9840177E-3],"split_indices":[0,0,0,1,2,1,9,7,2,9,2,5,1,5,7,0,0,0,0,0,0,0,0,0,0,0,0,0,0,0,0],"split_type":[0,0,0,0,0,0,0,0,0,0,0,0,0,0,0,0,0,0,0,0,0,0,0,0,0,0,0,0,0,0,0],"sum_hessian":[3.656209E4,1.2316986E4,2.4245105E4,4.6446294E3,7.6723564E3,2.167902E4,2.5660857E3,2.4156616E3,2.2289678E3,1.0563597E3,6.6159966E3,7.9456084E3,1.3733412E4,1.0377311E3,1.5283545E3,1.6896059E1,2.3987656E3,9.459845E2,1.2829834E3,4.2708823E2,6.2927155E2,5.337518E2,6.082245E3,4.841246E3,3.104362E3,1.0341645E4,3.3917676E3,9.877296E2,5.000153E1,5.654982E2,9.6285626E2],"tree_param":{"num_deleted":"0","num_feature":"20","num_nodes":"31","size_leaf_vector":"1"}},{"base_weights":[-1.0362031E-3,-9.590475E-2,3.1502485E-2,-2.5758017E-2,-1.2796263E-1,2.8014168E-2,3.1802568E-1,-5.821046E-2,1.9749776E-1,-3.8585544E-2,-1.5533847E-1,-1.6670931E-3,5.392735E-2,-5.212002E-2,3.532486E-1,-1.0213557E-3,-1.2279827E-2,3.4499247E-2,5.4107937E-3,1.910915E-2,-4.77884E-3,-2.216625E-3,-9.953544E-3,-5.6284457E-4,1.1253714E-2,-1.7043826E-4,3.7501443E-3,3.1751018E-2,1.10806255E-2],"categories":[],"categories_nodes":[],"categories_segments":[],"categories_sizes":[],"default_left":[0,0,0,0,0,0,0,0,0,0,0,0,0,0,0,0,0,0,0,0,0,0,0,0,0,0,0,0,0],"id":32,"left_children":[1,3,5,7,9,11,13,15,17,19,21,23,25,-1,27,-1,-1,-1,-1,-1,-1,-1,-1,-1,-1,-1,-1,-1,-1],"loss_changes":[1.1254419E2,2.0926323E1,2.7101639E1,2.1187973E1,1.5615791E1,2.0632212E1,1.6148994E1,1.8057354E1,1.616584E1,3.6027283E1,2.371656E1,2.717838E1,1.7308945E1,0E0,1.1582947E1,0E0,0E0,0E0,0E0,0E0,0E0,0E0,0E0,0E0,0E0,0E0,0E0,0E0,0E0],"parents":[2147483647,0,0,1,1,2,2,3,3,4,4,5,5,6,6,7,7,8,8,9,9,10,10,11,11,12,12,14,14],"right_children":[2,4,6,8,10,12,14,16,18,20,22,24,26,-1,28,-1,-1,-1,-1,-1,-1,-1,-1,-1,-1,-1,-1,-1,-1],"split_conditions":[1.0975391E-3,-2.857763E-3,6.1293417E-3,9.749279E-1,-8.5041975E-5,1.8097683E-3,-9.659258E-1,7.818315E-1,-2.5876847E-4,-8.660254E-1,-2.5881904E-1,1E0,-7.0710677E-1,-5.212002E-2,-5E-1,-1.0213557E-3,-1.2279827E-2,3.4499247E-2,5.4107937E-3,1.910915E-2,-4.77884E-3,-2.216625E-3,-9.953544E-3,-5.6284457E-4,1.1253714E-2,-1.7043826E-4,3.7501443E-3,3.1751018E-2,1.10806255E-2],"split_indices":[0,4,0,9,11,0,2,9,11,2,3,2,3,0,2,0,0,0,0,0,0,0,0,0,0,0,0,0,0],"split_type":[0,0,0,0,0,0,0,0,0,0,0,0,0,0,0,0,0,0,0,0,0,0,0,0,0,0,0,0,0],"sum_hessian":[3.6454656E4,9.309845E3,2.714481E4,2.9214983E3,6.388346E3,2.6820105E4,3.2470413E2,2.551889E3,3.6960953E2,1.4991931E3,4.8891533E3,1.2500902E4,1.4319204E4,7.0764675E0,3.1762766E2,2.1252893E3,4.2659955E2,5.508781E1,3.145217E2,1.7771088E2,1.3214822E3,1.3829572E3,3.506196E3,1.1995223E4,5.0567984E2,3.8484253E3,1.0470778E4,9.9190636E1,2.1843703E2],"tree_param":{"num_deleted":"0","num_feature":"20","num_nodes":"29","size_leaf_vector":"1"}},{"base_weights":[-2.384973E-3,-5.1987685E-2,4.840338E-2,-2.954862E-3,-8.8463426E-2,7.00537E-2,-9.0961164E-4,7.6365605E-2,-6.197415E-2,-1.0807967E-1,4.7548838E-2,4.6953242E-2,1.14957504E-1,1.4471255E-1,-6.568645E-2,1.1467077E-3,1.1004509E-2,-8.240159E-3,1.0109467E-3,-5.7259365E-3,1.11938855E-2,7.2073075E-4,6.50322E-2,3.2366074E-3,-8.779667E-3,4.8829624E-3,1.6904525E-2,1.12976665E-2,2.8942681E-3,1.594952E-2,-3.982032E-3],"categories":[],"categories_nodes":[],"categories_segments":[],"categories_sizes":[],"default_left":[0,0,0,0,0,0,0,0,0,0,0,0,0,0,0,0,0,0,0,0,0,0,0,0,0,0,0,0,0,0,0],"id":33,"left_children":[1,3,5,7,9,11,13,15,17,19,21,23,25,27,29,-1,-1,-1,-1,-1,-1,-1,-1,-1,-1,-1,-1,-1,-1,-1,-1],"loss_changes":[9.2162125E1,3.3096947E1,1.9301315E1,3.6976704E1,2.8325127E1,1.3013603E1,5.203628E1,2.5855793E1,3.829271E1,1.9859352E1,5.5475372E1,3.2842056E1,1.6391506E1,1.1945663E1,2.0523685E1,0E0,0E0,0E0,0E0,0E0,0E0,0E0,0E0,0E0,0E0,0E0,0E0,0E0,0E0,0E0,0E0],"parents":[2147483647,0,0,1,1,2,2,3,3,4,4,5,5,6,6,7,7,8,8,9,9,10,10,11,11,12,12,13,13,14,14],"right_children":[2,4,6,8,10,12,14,16,18,20,22,24,26,28,30,-1,-1,-1,-1,-1,-1,-1,-1,-1,-1,-1,-1,-1,-1,-1,-1],"split_conditions":[1.5798556E-3,-6.857343E-4,7.818315E-1,1.2246469E-16,1E0,5E-1,-5E-1,7.818315E-1,-2.5881904E-1,6.999464E-3,1E0,3.1441468E-1,3.1441468E-1,9.749279E-1,-1.2660219E-2,1.1467077E-3,1.1004509E-2,-8.240159E-3,1.0109467E-3,-5.7259365E-3,1.11938855E-2,7.2073075E-4,6.50322E-2,3.2366074E-3,-8.779667E-3,4.8829624E-3,1.6904525E-2,1.12976665E-2,2.8942681E-3,1.594952E-2,-3.982032E-3],"split_indices":[0,1,9,3,17,2,2,9,2,1,2,5,5,9,1,0,0,0,0,0,0,0,0,0,0,0,0,0,0,0,0],"split_type":[0,0,0,0,0,0,0,0,0,0,0,0,0,0,0,0,0,0,0,0,0,0,0,0,0,0,0,0,0,0,0],"sum_hessian":[3.6580234E4,1.8506607E4,1.8073627E4,7.8957163E3,1.0610891E4,1.2559779E4,5.5138486E3,3.3679656E3,4.527751E3,9.274028E3,1.3368623E3,8.296093E3,4.2636865E3,1.696775E3,3.8170737E3,2.4567314E3,9.1123413E2,2.0109806E3,2.5167703E3,9.098673E3,1.7535603E2,1.3039408E3,3.2921528E1,7.6835537E3,6.1253906E2,3.9591372E3,3.045493E2,8.75048E2,8.217271E2,1.3234451E2,3.6847292E3],"tree_param":{"num_deleted":"0","num_feature":"20","num_nodes":"31","size_leaf_vector":"1"}},{"base_weights":[-3.154674E-3,-5.271049E-2,4.9181305E-2,-1.0837275E-1,-2.7348718E-2,1.3611685E-1,3.2272536E-2,-6.459545E-2,-1.7497717E-1,-8.410171E-2,1.5115387E-2,-2.8317437E-1,1.496398E-1,-1.2034886E-1,4.056304E-2,3.537255E-2,-3.5057615E-3,-3.2456743E-4,-1.2095706E-2,-4.0417621E-4,-9.399099E-3,-1.5865586E-3,5.802592E-3,2.3557518E-2,-2.2999294E-2,1.5562843E-2,5.9288503E-3,-1.0670473E-2,2.0361522E-2,1.343818E-3,6.2186117E-3],"categories":[],"categories_nodes":[],"categories_segments":[],"categories_sizes":[],"default_left":[0,0,0,0,0,0,0,0,0,0,0,0,0,0,0,0,0,0,0,0,0,0,0,0,0,0,0,0,0,0,0],"id":34,"left_children":[1,3,5,7,9,11,13,15,17,19,21,23,25,27,29,-1,-1,-1,-1,-1,-1,-1,-1,-1,-1,-1,-1,-1,-1,-1,-1],"loss_changes":[9.4776276E1,2.6486927E1,2.6110077E1,1.7099197E1,3.1088242E1,1.645987E1,1.8832487E1,1.5159887E1,2.6244987E1,4.3584682E1,3.4898357E1,1.243349E1,1.3998112E1,3.7766678E1,1.6179243E1,0E0,0E0,0E0,0E0,0E0,0E0,0E0,0E0,0E0,0E0,0E0,0E0,0E0,0E0,0E0,0E0],"parents":[2147483647,0,0,1,1,2,2,3,3,4,4,5,5,6,6,7,7,8,8,9,9,10,10,11,11,12,12,13,13,14,14],"right_children":[2,4,6,8,10,12,14,16,18,20,22,24,26,28,30,-1,-1,-1,-1,-1,-1,-1,-1,-1,-1,-1,-1,-1,-1,-1,-1],"split_conditions":[1.5979217E-3,9.2571374E-4,-6.549922E-3,3.0524685E-4,-1.8369701E-16,-9.659258E-1,-9.659258E-1,-1.6901566E-1,-2.5881904E-1,5E-1,7.0710677E-1,2.8503117E1,-7.0710677E-1,2.1620537E-1,3.5019924E-3,3.537255E-2,-3.5057615E-3,-3.2456743E-4,-1.2095706E-2,-4.0417621E-4,-9.399099E-3,-1.5865586E-3,5.802592E-3,2.3557518E-2,-2.2999294E-2,1.5562843E-2,5.9288503E-3,-1.0670473E-2,2.0361522E-2,1.343818E-3,6.2186117E-3],"split_indices":[0,0,1,1,2,2,3,5,3,3,3,7,2,5,0,0,0,0,0,0,0,0,0,0,0,0,0,0,0,0,0],"split_type":[0,0,0,0,0,0,0,0,0,0,0,0,0,0,0,0,0,0,0,0,0,0,0,0,0,0,0,0,0,0,0],"sum_hessian":[3.6539973E4,1.8768977E4,1.7770996E4,5.8728257E3,1.289615E4,2.8914138E3,1.4879582E4,3.5459043E3,2.3269216E3,5.5193213E3,7.376829E3,8.9290016E1,2.8021238E3,7.6527045E2,1.4114312E4,2.375322E1,3.5221511E3,6.622857E2,1.6646359E3,3.1882795E3,2.3310417E3,5.038771E3,2.338058E3,1.6427237E1,7.286278E1,4.4930225E2,2.3528215E3,6.513634E2,1.1390707E2,1.213513E4,1.9791814E3],"tree_param":{"num_deleted":"0","num_feature":"20","num_nodes":"31","size_leaf_vector":"1"}},{"base_weights":[3.1157585E-3,7.1451925E-2,-2.104994E-2,1.0781711E-1,-2.5935657E-2,-3.9545726E-2,4.2453434E-2,-1.26786325E-2,1.3754486E-1,8.27043E-2,-1.6113684E-1,-5.4465353E-2,5.2132282E-2,8.211358E-2,-6.357849E-2,7.6172473E-3,-4.542073E-3,1.0511701E-2,3.8269663E-3,-2.1006854E-3,9.112079E-3,-8.687767E-3,6.2034573E-2,-1.4616809E-3,-5.425767E-3,1.5251084E-3,3.223994E-2,1.0863054E-3,8.627734E-3,-1.0025165E-2,3.8187616E-3],"categories":[],"categories_nodes":[],"categories_segments":[],"categories_sizes":[],"default_left":[0,0,0,0,0,0,0,0,0,0,0,0,0,0,0,0,0,0,0,0,0,0,0,0,0,0,0,0,0,0,0],"id":35,"left_children":[1,3,5,7,9,11,13,15,17,19,21,23,25,27,29,-1,-1,-1,-1,-1,-1,-1,-1,-1,-1,-1,-1,-1,-1,-1,-1],"loss_changes":[6.0220116E1,3.3747555E1,3.1642403E1,2.4858643E1,3.8081333E1,2.8541264E1,2.5561045E1,1.7738682E1,2.4638794E1,1.7862621E1,2.0702583E1,2.4460556E1,3.7374287E1,2.4142067E1,3.173622E1,0E0,0E0,0E0,0E0,0E0,0E0,0E0,0E0,0E0,0E0,0E0,0E0,0E0,0E0,0E0,0E0],"parents":[2147483647,0,0,1,1,2,2,3,3,4,4,5,5,6,6,7,7,8,8,9,9,10,10,11,11,12,12,13,13,14,14],"right_children":[2,4,6,8,10,12,14,16,18,20,22,24,26,28,30,-1,-1,-1,-1,-1,-1,-1,-1,-1,-1,-1,-1,-1,-1,-1,-1],"split_conditions":[-2.7462642E-3,7.0710677E-1,3.9756335E-3,-8.660254E-1,-9.113905E-3,1E0,7.0710677E-1,-7.134443E-3,-2.5881904E-1,-3.6940642E-4,4.7358486E1,5.4375957E1,1E0,2.5881904E-1,3.8333228E-4,7.6172473E-3,-4.542073E-3,1.0511701E-2,3.8269663E-3,-2.1006854E-3,9.112079E-3,-8.687767E-3,6.2034573E-2,-1.4616809E-3,-5.425767E-3,1.5251084E-3,3.223994E-2,1.0863054E-3,8.627734E-3,-1.0025165E-2,3.8187616E-3],"split_indices":[1,3,1,3,4,17,2,1,3,11,7,7,2,3,11,0,0,0,0,0,0,0,0,0,0,0,0,0,0,0,0],"split_type":[0,0,0,0,0,0,0,0,0,0,0,0,0,0,0,0,0,0,0,0,0,0,0,0,0,0,0,0,0,0,0],"sum_hessian":[3.6461906E4,9.525283E3,2.6936621E4,6.9357715E3,2.5895115E3,2.0861826E4,6.0747954E3,1.3723583E3,5.563413E3,1.4359093E3,1.1536023E3,1.7942955E4,2.9188718E3,4.42171E3,1.6530851E3,4.4042807E2,9.319302E2,2.536564E3,3.026849E3,6.375002E2,7.984091E2,1.1446486E3,8.95376E0,1.2234741E4,5.7082134E3,2.817698E3,1.011739E2,2.65283E3,1.7688799E3,8.35437E2,8.176481E2],"tree_param":{"num_deleted":"0","num_feature":"20","num_nodes":"31","size_leaf_vector":"1"}},{"base_weights":[9.1281545E-4,-4.244696E-2,4.6557028E-2,-1.5204056E-2,-9.0753116E-2,4.149402E-2,3.167091E-1,-6.1265558E-2,1.9248718E-2,-1.7492074E-1,-5.083628E-2,4.7512606E-2,-1.0741946E-1,-6.2314052E-2,3.5759687E-1,2.7495269E-3,-5.7697804E-3,-3.3769005E-3,3.2808313E-3,-2.389214E-2,-5.30049E-3,-3.7944776E-3,8.060361E-3,3.324028E-3,2.1265038E-4,-1.1174645E-2,1.0000784E-2,2.805574E-2,9.00293E-3],"categories":[],"categories_nodes":[],"categories_segments":[],"categories_sizes":[],"default_left":[0,0,0,0,0,0,0,0,0,0,0,0,0,0,0,0,0,0,0,0,0,0,0,0,0,0,0,0,0],"id":36,"left_children":[1,3,5,7,9,11,13,15,17,19,21,23,25,-1,27,-1,-1,-1,-1,-1,-1,-1,-1,-1,-1,-1,-1,-1,-1],"loss_changes":[7.234409E1,2.4661465E1,2.4320103E1,1.9028563E1,2.2682198E1,1.5673323E1,2.1534584E1,3.2300735E1,2.760752E1,4.5258644E1,2.438156E1,1.3785095E1,2.4308119E1,0E0,1.1375755E1,0E0,0E0,0E0,0E0,0E0,0E0,0E0,0E0,0E0,0E0,0E0,0E0,0E0,0E0],"parents":[2147483647,0,0,1,1,2,2,3,3,4,4,5,5,6,6,7,7,8,8,9,9,10,10,11,11,12,12,14,14],"right_children":[2,4,6,8,10,12,14,16,18,20,22,24,26,-1,28,-1,-1,-1,-1,-1,-1,-1,-1,-1,-1,-1,-1,-1,-1],"split_conditions":[1.5979217E-3,5.363794E1,6.1293417E-3,-1.8369701E-16,-4.3388373E-1,8.955009E-4,-9.659258E-1,-8.660254E-1,9.458497E-4,-7.9664553E-4,5.4719914E-3,7.818315E-1,1.7280508E-2,-6.2314052E-2,-2.5881904E-1,2.7495269E-3,-5.7697804E-3,-3.3769005E-3,3.2808313E-3,-2.389214E-2,-5.30049E-3,-3.7944776E-3,8.060361E-3,3.324028E-3,2.1265038E-4,-1.1174645E-2,1.0000784E-2,2.805574E-2,9.00293E-3],"split_indices":[0,7,0,2,9,11,2,2,0,5,1,9,1,0,2,0,0,0,0,0,0,0,0,0,0,0,0,0,0],"split_type":[0,0,0,0,0,0,0,0,0,0,0,0,0,0,0,0,0,0,0,0,0,0,0,0,0,0,0,0,0],"sum_hessian":[3.6550516E4,1.8743814E4,1.78067E4,1.1986739E4,6.7570747E3,1.7480998E4,3.2570148E2,5.129354E3,6.8573853E3,2.1716543E3,4.5854204E3,1.6803227E4,6.7777295E2,7.14463E0,3.1855682E2,1.6292457E3,3.5001082E3,2.387306E3,4.4700796E3,4.006835E2,1.7709708E3,4.101966E3,4.8345468E2,1.167997E4,5.1232563E3,4.924272E2,1.8534578E2,1.4677802E2,1.7177882E2],"tree_param":{"num_deleted":"0","num_feature":"20","num_nodes":"29","size_leaf_vector":"1"}},{"base_weights":[-2.7473327E-3,-6.713104E-2,2.8478784E-2,1.912997E-1,-7.457169E-2,2.5002018E-2,2.8033748E-1,2.7602488E-1,-2.668093E-1,-1.238139E-1,-4.5120377E-2,4.290304E-2,-1.4866394E-2,3.901252E-1,-1.2627034E-1,5.2396352E-3,2.925745E-2,-2.3328166E-2,5.0818153E-2,-2.8923934E-3,-1.0086873E-2,4.953285E-3,-3.0300503E-3,4.1406956E-3,8.4926403E-4,1.327997E-4,-6.928326E-3,4.1809853E-2,1.607004E-2,-4.3142647E-2,8.691422E-3],"categories":[],"categories_nodes":[],"categories_segments":[],"categories_sizes":[],"default_left":[0,0,0,0,0,0,0,0,0,0,0,0,0,0,0,0,0,0,0,0,0,0,0,0,0,0,0,0,0,0,0],"id":37,"left_children":[1,3,5,7,9,11,13,15,17,19,21,23,25,27,29,-1,-1,-1,-1,-1,-1,-1,-1,-1,-1,-1,-1,-1,-1,-1,-1],"loss_changes":[7.342369E1,2.2951668E1,2.1508438E1,1.3076385E1,1.679934E1,1.7315754E1,1.5020042E1,1.4839401E1,1.4219569E1,2.2268745E1,1.6209293E1,1.7312086E1,1.6301548E1,7.6278877E0,1.6209278E1,0E0,0E0,0E0,0E0,0E0,0E0,0E0,0E0,0E0,0E0,0E0,0E0,0E0,0E0,0E0,0E0],"parents":[2147483647,0,0,1,1,2,2,3,3,4,4,5,5,6,6,7,7,8,8,9,9,10,10,11,11,12,12,13,13,14,14],"right_children":[2,4,6,8,10,12,14,16,18,20,22,24,26,28,30,-1,-1,-1,-1,-1,-1,-1,-1,-1,-1,-1,-1,-1,-1,-1,-1],"split_conditions":[1.2267033E-3,-9.659258E-1,6.1293417E-3,6.850403E-2,8.497922E-4,7.818315E-1,1.2246469E-16,3.645106E-5,9.749279E-1,1E0,-8.13288E-3,5.188228E-1,6.302807E1,3.494036E1,3.7189686E1,5.2396352E-3,2.925745E-2,-2.3328166E-2,5.0818153E-2,-2.8923934E-3,-1.0086873E-2,4.953285E-3,-3.0300503E-3,4.1406956E-3,8.4926403E-4,1.327997E-4,-6.928326E-3,4.1809853E-2,1.607004E-2,-4.3142647E-2,8.691422E-3],"split_indices":[0,3,0,5,0,9,3,11,9,18,4,13,7,7,7,0,0,0,0,0,0,0,0,0,0,0,0,0,0,0,0],"split_type":[0,0,0,0,0,0,0,0,0,0,0,0,0,0,0,0,0,0,0,0,0,0,0,0,0,0,0,0,0,0,0],"sum_hessian":[3.651708E4,1.1926418E4,2.4590662E4,3.3254617E2,1.1593872E4,2.4257646E4,3.330156E2,2.8123785E2,5.1308304E1,4.3366113E3,7.2572607E3,1.6741713E4,7.515933E3,2.6235986E2,7.0655716E1,1.8238188E2,9.885598E1,4.525667E1,6.051633E0,2.3502593E3,1.986352E3,7.0253564E2,6.554725E3,6.589418E3,1.0152295E4,6.5843145E3,9.3161865E2,3.2691216E1,2.2966866E2,1.9687403E1,5.0968315E1],"tree_param":{"num_deleted":"0","num_feature":"20","num_nodes":"31","size_leaf_vector":"1"}},{"base_weights":[1.9265019E-3,-6.883523E-2,2.697252E-2,-1.779753E-2,-1.1148202E-1,2.4162127E-2,2.5933814E-1,2.9710978E-1,-3.5672195E-2,-4.268133E-2,-2.0144944E-1,1.3472825E-2,7.790632E-2,-4.7530565E-2,2.8978717E-1,-5.7740323E-3,2.5063867E-2,3.323263E-3,-3.648537E-3,-1.1977365E-2,-8.1898796E-4,-1.6746674E-2,-6.6065835E-3,2.617672E-4,5.023577E-3,5.1676957E-3,-1.7441075E-2,2.4582451E-2,5.6152493E-3],"categories":[],"categories_nodes":[],"categories_segments":[],"categories_sizes":[],"default_left":[0,0,0,0,0,0,0,0,0,0,0,0,0,0,0,0,0,0,0,0,0,0,0,0,0,0,0,0,0],"id":38,"left_children":[1,3,5,7,9,11,13,15,17,19,21,23,25,-1,27,-1,-1,-1,-1,-1,-1,-1,-1,-1,-1,-1,-1,-1,-1],"loss_changes":[6.4686905E1,2.0758121E1,1.7581467E1,2.446411E1,3.2144157E1,1.5297271E1,1.2235622E1,1.9769684E1,1.5679283E1,1.5241663E1,2.0742126E1,1.5919136E1,4.8019096E1,0E0,1.1175467E1,0E0,0E0,0E0,0E0,0E0,0E0,0E0,0E0,0E0,0E0,0E0,0E0,0E0,0E0],"parents":[2147483647,0,0,1,1,2,2,3,3,4,4,5,5,6,6,7,7,8,8,9,9,10,10,11,11,12,12,14,14],"right_children":[2,4,6,8,10,12,14,16,18,20,22,24,26,-1,28,-1,-1,-1,-1,-1,-1,-1,-1,-1,-1,-1,-1,-1,-1],"split_conditions":[1.110961E-3,2.5881904E-1,6.1293417E-3,-2.9019968E-4,6.234898E-1,1E0,-9.659258E-1,-7.1534696E-3,-5E-1,-1.3378248E-1,7.0710677E-1,3.615256E-3,2.0221425E-2,-4.7530565E-2,-2.5881904E-1,-5.7740323E-3,2.5063867E-2,3.323263E-3,-3.648537E-3,-1.1977365E-2,-8.1898796E-4,-1.6746674E-2,-6.6065835E-3,2.617672E-4,5.023577E-3,5.1676957E-3,-1.7441075E-2,2.4582451E-2,5.6152493E-3],"split_indices":[0,3,0,11,17,17,2,4,2,8,3,0,4,0,2,0,0,0,0,0,0,0,0,0,0,0,0,0,0],"split_type":[0,0,0,0,0,0,0,0,0,0,0,0,0,0,0,0,0,0,0,0,0,0,0,0,0,0,0,0,0],"sum_hessian":[3.6496965E4,9.5398125E3,2.6957152E4,4.344188E3,5.1956245E3,2.663686E4,3.2029367E2,2.3192981E2,4.1122583E3,2.9457168E3,2.2499077E3,2.2220234E4,4.4166255E3,6.7094445E0,3.1358423E2,7.691116E1,1.5501865E2,1.0993395E3,3.012919E3,3.4551224E2,2.6002046E3,7.668086E2,1.483099E3,2.0300266E4,1.9199677E3,4.169249E3,2.4737617E2,1.4534132E2,1.682429E2],"tree_param":{"num_deleted":"0","num_feature":"20","num_nodes":"29","size_leaf_vector":"1"}},{"base_weights":[-5.4762927E-3,-4.4956833E-2,3.5854075E-2,1.8478783E-2,-6.601627E-2,2.847676E-1,3.119766E-2,-1.6398987E-4,2.1131733E-1,-1.8708412E-1,-5.3719666E-2,3.5575628E-1,-4.6091673E-1,3.8309097E-2,-5.375624E-2,-1.9212769E-3,4.5689764E-3,-3.9282865E-3,1.806879E-2,-1.5499758E-2,-3.5042781E-3,3.1121576E-3,-3.6444713E-3,3.7011763E-3,2.462045E-2,1.3736161E-2,-3.1897217E-2,1.2244623E-3,5.6987666E-3,-2.1541988E-2,-6.460403E-4],"categories":[],"categories_nodes":[],"categories_segments":[],"categories_sizes":[],"default_left":[0,0,0,0,0,0,0,0,0,0,0,0,0,0,0,0,0,0,0,0,0,0,0,0,0,0,0,0,0,0,0],"id":39,"left_children":[1,3,5,7,9,11,13,15,17,19,21,23,25,27,29,-1,-1,-1,-1,-1,-1,-1,-1,-1,-1,-1,-1,-1,-1,-1,-1],"loss_changes":[5.9496803E1,2.4917397E1,2.0617016E1,1.672242E1,2.0817505E1,1.7536068E1,1.0567499E1,1.4853779E1,1.7892529E1,1.8499378E1,2.8268414E1,1.1437397E1,4.0567307E0,1.6864786E1,2.0771133E1,0E0,0E0,0E0,0E0,0E0,0E0,0E0,0E0,0E0,0E0,0E0,0E0,0E0,0E0,0E0,0E0],"parents":[2147483647,0,0,1,1,2,2,3,3,4,4,5,5,6,6,7,7,8,8,9,9,10,10,11,11,12,12,13,13,14,14],"right_children":[2,4,6,8,10,12,14,16,18,20,22,24,26,28,30,-1,-1,-1,-1,-1,-1,-1,-1,-1,-1,-1,-1,-1,-1,-1,-1],"split_conditions":[1.5979217E-3,-2.0248017E-3,-5.710624E-1,5.452253E-2,6.442542E-4,-2.6278445E-4,9.903771E-3,8.965517E-1,-2.5881904E-1,3.2995997E-3,-8.660254E-1,3.0944368E-3,2.2206652E-1,4.84581E-3,-8.660254E-1,-1.9212769E-3,4.5689764E-3,-3.9282865E-3,1.806879E-2,-1.5499758E-2,-3.5042781E-3,3.1121576E-3,-3.6444713E-3,3.7011763E-3,2.462045E-2,1.3736161E-2,-3.1897217E-2,1.2244623E-3,5.6987666E-3,-2.1541988E-2,-6.460403E-4],"split_indices":[0,1,5,5,0,6,1,16,2,5,2,10,13,1,2,0,0,0,0,0,0,0,0,0,0,0,0,0,0,0,0],"split_type":[0,0,0,0,0,0,0,0,0,0,0,0,0,0,0,0,0,0,0,0,0,0,0,0,0,0,0,0,0,0,0],"sum_hessian":[3.6458805E4,1.8647238E4,1.7811564E4,4.6470674E3,1.4000172E4,3.252274E2,1.7486338E4,4.2385435E3,4.0852408E2,1.2885173E3,1.2711654E4,2.9773465E2,2.7492727E1,1.6136937E4,1.3494011E3,2.9901826E3,1.2483608E3,1.3947247E2,2.690516E2,6.269661E2,6.615513E2,1.8024132E3,1.0909241E4,9.8120674E1,1.9961397E2,5.1173387E0,2.237539E1,1.3647054E4,2.4898828E3,1.3033238E2,1.2190687E3],"tree_param":{"num_deleted":"0","num_feature":"20","num_nodes":"31","size_leaf_vector":"1"}},{"base_weights":[1.4120976E-3,-3.5360236E-2,3.985849E-2,4.5002685E-3,-6.5866426E-2,1.312631E-1,3.0631954E-2,7.4639946E-2,-4.8168063E-2,-6.8766475E-2,6.12924E-1,1.8019174E-1,-2.439903E-3,5.043486E-2,-1.5037241E-2,1.6588683E-3,9.376693E-3,-6.2952465E-3,2.0371962E-3,-4.178823E-3,1.6295649E-3,-1.1811645E-2,5.6874108E-2,1.613894E-4,1.1757395E-2,1.1538123E-2,-7.014724E-3,6.318418E-3,1.4435119E-3,6.894027E-3,-4.085956E-3],"categories":[],"categories_nodes":[],"categories_segments":[],"categories_sizes":[],"default_left":[0,0,0,0,0,0,0,0,0,0,0,0,0,0,0,0,0,0,0,0,0,0,0,0,0,0,0,0,0,0,0],"id":40,"left_children":[1,3,5,7,9,11,13,15,17,19,21,23,25,27,29,-1,-1,-1,-1,-1,-1,-1,-1,-1,-1,-1,-1,-1,-1,-1,-1],"loss_changes":[5.160064E1,2.2687635E1,1.5034401E1,2.988548E1,2.0839787E1,1.0706116E1,1.466314E1,1.6221039E1,3.1943592E1,1.5805241E1,2.0509161E1,1.1631237E1,1.4165368E1,1.850389E1,5.001315E1,0E0,0E0,0E0,0E0,0E0,0E0,0E0,0E0,0E0,0E0,0E0,0E0,0E0,0E0,0E0,0E0],"parents":[2147483647,0,0,1,1,2,2,3,3,4,4,5,5,6,6,7,7,8,8,9,9,10,10,11,11,12,12,13,13,14,14],"right_children":[2,4,6,8,10,12,14,16,18,20,22,24,26,28,30,-1,-1,-1,-1,-1,-1,-1,-1,-1,-1,-1,-1,-1,-1,-1,-1],"split_conditions":[1.5979217E-3,-6.4995524E-4,-5.864226E-3,1.2246469E-16,8.989967E-3,5E-1,7.818315E-1,7.818315E-1,-1.8369701E-16,1E0,1.5024422E-2,-2.0910293E-2,-1.40179945E-2,3.2147384E-1,-5E-1,1.6588683E-3,9.376693E-3,-6.2952465E-3,2.0371962E-3,-4.178823E-3,1.6295649E-3,-1.1811645E-2,5.6874108E-2,1.613894E-4,1.1757395E-2,1.1538123E-2,-7.014724E-3,6.318418E-3,1.4435119E-3,6.894027E-3,-4.085956E-3],"split_indices":[0,1,6,3,1,3,9,9,2,17,4,4,4,13,2,0,0,0,0,0,0,0,0,0,0,0,0,0,0,0,0],"split_type":[0,0,0,0,0,0,0,0,0,0,0,0,0,0,0,0,0,0,0,0,0,0,0,0,0,0,0,0,0,0,0],"sum_hessian":[3.649562E4,1.8653328E4,1.7842293E4,8.0866523E3,1.0566677E4,1.6335845E3,1.6208708E4,3.468239E3,4.6184136E3,1.052314E4,4.3537228E1,1.1958247E3,4.377598E2,1.1306824E4,4.901885E3,2.538359E3,9.298802E2,2.4640242E3,2.1543894E3,9.182228E3,1.3409124E3,1.6903286E1,2.6633944E1,2.8395645E2,9.118683E2,1.621256E2,2.756342E2,2.4987168E3,8.808106E3,1.4877533E3,3.4141313E3],"tree_param":{"num_deleted":"0","num_feature":"20","num_nodes":"31","size_leaf_vector":"1"}},{"base_weights":[2.6933164E-3,-1.1206131E-2,5.8617096E-2,3.5182662E-2,-2.9129874E-2,1.10055216E-1,9.3533965E-3,-2.996163E-3,9.88779E-2,-4.0903326E-2,4.164714E-2,2.2284849E-1,7.779368E-2,-4.6239975E-3,1.5337537E-1,3.6653027E-2,-3.344372E-4,1.27442945E-2,1.3429251E-3,-2.6234826E-3,1.9077102E-3,3.0380632E-3,-3.0374179E-2,1.37835145E-2,-1.1817277E-2,2.150792E-3,6.969818E-3,-1.1045177E-3,9.406475E-3,1.8515032E-2,-6.148497E-3],"categories":[],"categories_nodes":[],"categories_segments":[],"categories_sizes":[],"default_left":[0,0,0,0,0,0,0,0,0,0,0,0,0,0,0,0,0,0,0,0,0,0,0,0,0,0,0,0,0,0,0],"id":41,"left_children":[1,3,5,7,9,11,13,15,17,19,21,23,25,27,29,-1,-1,-1,-1,-1,-1,-1,-1,-1,-1,-1,-1,-1,-1,-1,-1],"loss_changes":[2.8381006E1,2.4313688E1,1.8410774E1,1.9822533E1,1.757906E1,1.2895485E1,7.486574E0,1.3822055E1,3.4295555E1,1.654166E1,3.7355457E1,1.9250195E1,5.9100227E0,1.1401975E1,1.9802345E1,0E0,0E0,0E0,0E0,0E0,0E0,0E0,0E0,0E0,0E0,0E0,0E0,0E0,0E0,0E0,0E0],"parents":[2147483647,0,0,1,1,2,2,3,3,4,4,5,5,6,6,7,7,8,8,9,9,10,10,11,11,12,12,13,13,14,14],"right_children":[2,4,6,8,10,12,14,16,18,20,22,24,26,28,30,-1,-1,-1,-1,-1,-1,-1,-1,-1,-1,-1,-1,-1,-1,-1,-1],"split_conditions":[2.5243992E-3,-2.255051E-3,-3.2179346E-4,5E-1,1E0,-7.0710677E-1,6.5572383E-3,-1.581711E-2,-2.5881904E-1,4.7389204E-3,2.1127064E-2,7.3599E-4,1E0,2.7857488E-2,1.0443632E-2,3.6653027E-2,-3.344372E-4,1.27442945E-2,1.3429251E-3,-2.6234826E-3,1.9077102E-3,3.0380632E-3,-3.0374179E-2,1.37835145E-2,-1.1817277E-2,2.150792E-3,6.969818E-3,-1.1045177E-3,9.406475E-3,1.8515032E-2,-6.148497E-3],"split_indices":[10,1,12,2,17,2,10,1,3,1,4,11,15,4,1,0,0,0,0,0,0,0,0,0,0,0,0,0,0,0,0],"split_type":[0,0,0,0,0,0,0,0,0,0,0,0,0,0,0,0,0,0,0,0,0,0,0,0,0,0,0,0,0,0,0],"sum_hessian":[3.6506023E4,2.923915E4,7.2668726E3,8.1476978E3,2.1091453E4,3.5535789E3,3.713294E3,5.0946294E3,3.0530684E3,1.8084512E4,3.0069417E3,7.880333E2,2.7655454E3,3.3858047E3,3.2748914E2,2.3884144E1,5.070745E3,9.628486E2,2.0902197E3,1.5777376E4,2.3071348E3,2.9223281E3,8.461344E1,7.0737164E2,8.066169E1,1.769776E3,9.957694E2,3.105947E3,2.7985785E2,1.8328511E2,1.4420401E2],"tree_param":{"num_deleted":"0","num_feature":"20","num_nodes":"31","size_leaf_vector":"1"}},{"base_weights":[-7.6514727E-4,-5.9873845E-2,1.8741654E-2,1.2123995E-1,-6.91678E-2,6.9634564E-2,7.02102E-3,4.5830545E-1,-4.493467E-2,-4.8994157E-3,-9.531528E-2,6.0423635E-2,3.8140097E-1,8.6555265E-2,-1.0232741E-3,-5.7261717E-3,2.8678892E-2,-8.055429E-3,3.9491054E-2,1.0600249E-2,-2.0382775E-3,-6.028358E-3,4.017666E-3,-1.1239509E-2,3.494714E-3,2.7272884E-2,-1.3631785E-2,-1.1863433E-2,6.8054744E-3,2.774823E-4,-4.9793604E-3],"categories":[],"categories_nodes":[],"categories_segments":[],"categories_sizes":[],"default_left":[0,0,0,0,0,0,0,0,0,0,0,0,0,0,0,0,0,0,0,0,0,0,0,0,0,0,0,0,0,0,0],"id":42,"left_children":[1,3,5,7,9,11,13,15,17,19,21,23,25,27,29,-1,-1,-1,-1,-1,-1,-1,-1,-1,-1,-1,-1,-1,-1,-1,-1],"loss_changes":[4.2144646E1,1.527663E1,1.638721E1,2.486366E1,1.4493599E1,1.4712358E1,1.4296531E1,9.7957115E0,2.90557E1,1.943247E1,2.7219467E1,1.3514524E1,1.6025639E1,3.2978485E1,1.3148909E1,0E0,0E0,0E0,0E0,0E0,0E0,0E0,0E0,0E0,0E0,0E0,0E0,0E0,0E0,0E0,0E0],"parents":[2147483647,0,0,1,1,2,2,3,3,4,4,5,5,6,6,7,7,8,8,9,9,10,10,11,11,12,12,13,13,14,14],"right_children":[2,4,6,8,10,12,14,16,18,20,22,24,26,28,30,-1,-1,-1,-1,-1,-1,-1,-1,-1,-1,-1,-1,-1,-1,-1,-1],"split_conditions":[1.0910011E-3,-9.659258E-1,-4.777715E-3,-8.5041975E-5,-2.5881904E-1,2.2352363E-3,-1.783679E-1,-6.4001796E-3,6.796305E-3,-5E-1,9.749279E-1,-9.659258E-1,1.0932707E-1,-5.31047E-4,9.903771E-3,-5.7261717E-3,2.8678892E-2,-8.055429E-3,3.9491054E-2,1.0600249E-2,-2.0382775E-3,-6.028358E-3,4.017666E-3,-1.1239509E-2,3.494714E-3,2.7272884E-2,-1.3631785E-2,-1.1863433E-2,6.8054744E-3,2.774823E-4,-4.9793604E-3],"split_indices":[0,2,1,11,3,4,5,4,4,2,9,2,8,11,1,0,0,0,0,0,0,0,0,0,0,0,0,0,0,0,0],"split_type":[0,0,0,0,0,0,0,0,0,0,0,0,0,0,0,0,0,0,0,0,0,0,0,0,0,0,0,0,0,0,0],"sum_hessian":[3.6546734E4,9.068179E3,2.7478559E4,4.414804E2,8.626698E3,5.1415273E3,2.2337031E4,1.450096E2,2.9647083E2,2.495834E3,6.130864E3,4.9958784E3,1.4564877E2,2.050935E3,2.0286096E4,2.4221321E1,1.2078828E2,2.6136655E2,3.5104286E1,3.52896E2,2.142938E3,5.360991E3,7.698726E2,1.5929303E2,4.8365854E3,1.1670123E2,2.8947542E1,2.7130917E2,1.7796257E3,1.9018705E4,1.2673896E3],"tree_param":{"num_deleted":"0","num_feature":"20","num_nodes":"31","size_leaf_vector":"1"}},{"base_weights":[2.1717772E-3,5.9273634E-2,-9.226291E-3,-1.6362928E-2,9.5063865E-2,1.4238505E-2,-3.7753668E-2,5.981359E-2,-9.448833E-2,8.827873E-2,5.029972E-1,-5.7587247E-2,4.216885E-2,-5.5995572E-2,1.8562673E-1,-4.1826894E-3,7.824096E-3,-1.8744253E-3,-1.2940727E-2,4.7072764E-3,-2.1761542E-2,6.41416E-3,3.787141E-2,-5.477167E-3,2.785421E-3,3.4749191E-3,-2.4317496E-3,-3.2017615E-3,9.126102E-3,1.9534936E-2,9.486641E-5],"categories":[],"categories_nodes":[],"categories_segments":[],"categories_sizes":[],"default_left":[0,0,0,0,0,0,0,0,0,0,0,0,0,0,0,0,0,0,0,0,0,0,0,0,0,0,0,0,0,0,0],"id":43,"left_children":[1,3,5,7,9,11,13,15,17,19,21,23,25,27,29,-1,-1,-1,-1,-1,-1,-1,-1,-1,-1,-1,-1,-1,-1,-1,-1],"loss_changes":[2.3771626E1,1.6458345E1,2.0380075E1,1.1632657E1,1.1324318E1,3.351242E1,5.600065E1,1.3744839E1,9.0096655E0,1.2515532E1,6.20397E0,2.7542156E1,2.9855726E1,2.4373981E1,3.9070934E1,0E0,0E0,0E0,0E0,0E0,0E0,0E0,0E0,0E0,0E0,0E0,0E0,0E0,0E0,0E0,0E0],"parents":[2147483647,0,0,1,1,2,2,3,3,4,4,5,5,6,6,7,7,8,8,9,9,10,10,11,11,12,12,13,13,14,14],"right_children":[2,4,6,8,10,12,14,16,18,20,22,24,26,28,30,-1,-1,-1,-1,-1,-1,-1,-1,-1,-1,-1,-1,-1,-1,-1,-1],"split_conditions":[-9.827856E-3,4.117647E-1,2.5881904E-1,4.3388373E-1,1.0209591E-2,-4.3388373E-1,1.692783E-2,-3.852217E-4,-6.014963E-5,7.3599E-4,0E0,7.0710677E-1,8.660254E-1,5.650087E-4,-1.8369701E-16,-4.1826894E-3,7.824096E-3,-1.8744253E-3,-1.2940727E-2,4.7072764E-3,-2.1761542E-2,6.41416E-3,3.787141E-2,-5.477167E-3,2.785421E-3,3.4749191E-3,-2.4317496E-3,-3.2017615E-3,9.126102E-3,1.9534936E-2,9.486641E-5],"split_indices":[4,16,3,9,10,9,4,11,11,11,9,2,2,11,2,0,0,0,0,0,0,0,0,0,0,0,0,0,0,0,0],"split_type":[0,0,0,0,0,0,0,0,0,0,0,0,0,0,0,0,0,0,0,0,0,0,0,0,0,0,0,0,0,0,0],"sum_hessian":[3.6517316E4,6.075993E3,3.0441324E4,1.951419E3,4.124574E3,1.6702178E4,1.37391455E4,9.8788696E2,9.635319E2,4.059008E3,6.556608E1,4.6754346E3,1.2026744E4,1.2703119E4,1.0360265E3,3.9755402E2,5.9033295E2,7.169797E2,2.4655223E2,4.0153352E3,4.3672718E1,2.750735E1,3.8058727E1,3.2057878E3,1.4696466E3,9.245113E3,2.7816306E3,1.2290164E4,4.1295477E2,4.886507E2,5.473758E2],"tree_param":{"num_deleted":"0","num_feature":"20","num_nodes":"31","size_leaf_vector":"1"}},{"base_weights":[1.6958598E-3,-5.1846046E-2,2.0436298E-2,5.445175E-1,-5.4751877E-2,-9.033136E-2,2.4988083E-2,9.696393E-2,9.031721E-1,1.0494286E-1,-6.297477E-2,-2.2473282E-1,8.057308E-2,9.672696E-2,1.8351289E-2,-3.1065678E-2,3.2835495E-2,9.397852E-2,1.982175E-2,-6.7349835E-3,1.6643943E-2,1.5679214E-2,-3.3919946E-3,-1.7187953E-3,-2.1900328E-2,1.11633E-2,-2.628283E-2,2.3841714E-2,2.7111608E-3,8.002799E-4,1.3664474E-2],"categories":[],"categories_nodes":[],"categories_segments":[],"categories_sizes":[],"default_left":[0,0,0,0,0,0,0,0,0,0,0,0,0,0,0,0,0,0,0,0,0,0,0,0,0,0,0,0,0,0,0],"id":44,"left_children":[1,3,5,7,9,11,13,15,17,19,21,23,25,27,29,-1,-1,-1,-1,-1,-1,-1,-1,-1,-1,-1,-1,-1,-1,-1,-1],"loss_changes":[3.6602745E1,1.6409378E1,1.3624746E1,7.1883698E0,1.236861E1,2.4531893E1,1.23504925E1,9.526238E0,1.125923E1,2.5270502E1,1.6422173E1,2.4214083E1,4.0856033E1,3.543091E1,1.41888895E1,0E0,0E0,0E0,0E0,0E0,0E0,0E0,0E0,0E0,0E0,0E0,0E0,0E0,0E0,0E0,0E0],"parents":[2147483647,0,0,1,1,2,2,3,3,4,4,5,5,6,6,7,7,8,8,9,9,10,10,11,11,12,12,13,13,14,14],"right_children":[2,4,6,8,10,12,14,16,18,20,22,24,26,28,30,-1,-1,-1,-1,-1,-1,-1,-1,-1,-1,-1,-1,-1,-1,-1,-1],"split_conditions":[1.110961E-3,-1.8927346E-1,-9.659258E-1,