{"learner":{"attributes":{"scikit_learn":"{\"_estimator_type\": \"classifier\"}"},"feature_names":["ret_30","atr_pct","hour_cos","hour_sin","price_vs_ema_trend","ret_60","day_of_week_sin","trend_slope_pct","macd_hist","volume_trend","rsi_14","ret_1","hl_ratio","ret_5","volume_ratio","body_to_range_ratio","price_vs_ema_fast","day_of_week_cos","ret_15","close_position_in_candle","ema_full_alignment","ema_fast_above_slow"],"feature_types":["float","float","float","float","float","float","float","float","float","float","float","float","float","float","float","float","float","float","float","float","float","float"],"gradient_booster":{"model":{"gbtree_model_param":{"num_parallel_tree":"1","num_trees":"300"},"iteration_indptr":[0,1,2,3,4,5,6,7,8,9,10,11,12,13,14,15,16,17,18,19,20,21,22,23,24,25,26,27,28,29,30,31,32,33,34,35,36,37,38,39,40,41,42,43,44,45,46,47,48,49,50,51,52,53,54,55,56,57,58,59,60,61,62,63,64,65,66,67,68,69,70,71,72,73,74,75,76,77,78,79,80,81,82,83,84,85,86,87,88,89,90,91,92,93,94,95,96,97,98,99,100,101,102,103,104,105,106,107,108,109,110,111,112,113,114,115,116,117,118,119,120,121,122,123,124,125,126,127,128,129,130,131,132,133,134,135,136,137,138,139,140,141,142,143,144,145,146,147,148,149,150,151,152,153,154,155,156,157,158,159,160,161,162,163,164,165,166,167,168,169,170,171,172,173,174,175,176,177,178,179,180,181,182,183,184,185,186,187,188,189,190,191,192,193,194,195,196,197,198,199,200,201,202,203,204,205,206,207,208,209,210,211,212,213,214,215,216,217,218,219,220,221,222,223,224,225,226,227,228,229,230,231,232,233,234,235,236,237,238,239,240,241,242,243,244,245,246,247,248,249,250,251,252,253,254,255,256,257,258,259,260,261,262,263,264,265,266,267,268,269,270,271,272,273,274,275,276,277,278,279,280,281,282,283,284,285,286,287,288,289,290,291,292,293,294,295,296,297,298,299,300],"tree_info":[0,0,0,0,0,0,0,0,0,0,0,0,0,0,0,0,0,0,0,0,0,0,0,0,0,0,0,0,0,0,0,0,0,0,0,0,0,0,0,0,0,0,0,0,0,0,0,0,0,0,0,0,0,0,0,0,0,0,0,0,0,0,0,0,0,0,0,0,0,0,0,0,0,0,0,0,0,0,0,0,0,0,0,0,0,0,0,0,0,0,0,0,0,0,0,0,0,0,0,0,0,0,0,0,0,0,0,0,0,0,0,0,0,0,0,0,0,0,0,0,0,0,0,0,0,0,0,0,0,0,0,0,0,0,0,0,0,0,0,0,0,0,0,0,0,0,0,0,0,0,0,0,0,0,0,0,0,0,0,0,0,0,0,0,0,0,0,0,0,0,0,0,0,0,0,0,0,0,0,0,0,0,0,0,0,0,0,0,0,0,0,0,0,0,0,0,0,0,0,0,0,0,0,0,0,0,0,0,0,0,0,0,0,0,0,0,0,0,0,0,0,0,0,0,0,0,0,0,0,0,0,0,0,0,0,0,0,0,0,0,0,0,0,0,0,0,0,0,0,0,0,0,0,0,0,0,0,0,0,0,0,0,0,0,0,0,0,0,0,0,0,0,0,0,0,0,0,0,0,0,0,0,0,0,0,0,0,0,0,0,0,0,0,0,0,0,0,0,0,0],"trees":[{"base_weights":[8.847308E-4,3.8136095E-1,-6.534245E-2,1.242889E0,3.6007348E-1,-8.9842685E-2,3.3283475E-1,1.0408579E0,1.7640415E0,4.4436944E-1,2.596481E-1,6.3570954E-2,-1.357788E-1,-2.7831963E-1,3.8149658E-1,6.132279E-2,1.5234298E-2,1.0288846E-1,3.6662422E-2,1.6114807E-2,3.545804E-2,1.0987248E-2,2.9243797E-2,4.452041E-2,2.4887274E-3,1.982117E-3,-8.476509E-3,3.2610085E-2,-2.3975097E-2,3.1185959E-2,1.172066E-2],"categories":[],"categories_nodes":[],"categories_segments":[],"categories_sizes":[],"default_left":[0,0,0,0,0,0,0,0,0,0,0,0,0,0,0,0,0,0,0,0,0,0,0,0,0,0,0,0,0,0,0],"id":0,"left_children":[1,3,5,7,9,11,13,15,17,19,21,23,25,27,29,-1,-1,-1,-1,-1,-1,-1,-1,-1,-1,-1,-1,-1,-1,-1,-1],"loss_changes":[7.969958E2,8.5249756E1,2.6283966E2,8.94072E0,3.8550232E1,1.7887035E2,4.6610245E1,1.0940025E1,6.4302826E0,7.998627E1,2.6931778E1,6.6607376E1,1.1565918E2,2.2170614E1,5.1299347E1,0E0,0E0,0E0,0E0,0E0,0E0,0E0,0E0,0E0,0E0,0E0,0E0,0E0,0E0,0E0,0E0],"parents":[2147483647,0,0,1,1,2,2,3,3,4,4,5,5,6,6,7,7,8,8,9,9,10,10,11,11,12,12,13,13,14,14],"right_children":[2,4,6,8,10,12,14,16,18,20,22,24,26,28,30,-1,-1,-1,-1,-1,-1,-1,-1,-1,-1,-1,-1,-1,-1,-1,-1],"split_conditions":[-6.234229E-3,-7.2437227E-3,1.6692383E-2,2.6515398E1,-9.062254E-3,-4.0374678E-3,-8.660254E-1,-1.6619287E-2,-2.8787716E-3,5E-1,6.978142E-4,-2.5058962E-2,-1.4278285E-4,5.5188457E1,-2.5881904E-1,6.132279E-2,1.5234298E-2,1.0288846E-1,3.6662422E-2,1.6114807E-2,3.545804E-2,1.0987248E-2,2.9243797E-2,4.452041E-2,2.4887274E-3,1.982117E-3,-8.476509E-3,3.2610085E-2,-2.3975097E-2,3.1185959E-2,1.172066E-2],"split_indices":[0,16,5,10,0,5,2,18,5,2,16,5,7,10,2,0,0,0,0,0,0,0,0,0,0,0,0,0,0,0,0],"split_type":[0,0,0,0,0,0,0,0,0,0,0,0,0,0,0,0,0,0,0,0,0,0,0,0,0,0,0,0,0,0,0],"sum_hessian":[3.1625883E4,4.687832E3,2.693805E4,1.1090622E2,4.576926E3,2.5377816E4,1.5602346E3,8.323208E1,2.767414E1,2.4852217E3,2.0917039E3,5.8474204E3,1.9530396E4,1.14470314E2,1.4457643E3,6.562126E1,1.7610817E1,2.0336302E1,7.3378406E0,1.7034272E3,7.817945E2,1.8654888E3,2.2621515E2,9.4343666E1,5.7530767E3,3.1510784E3,1.6379318E4,1.9707344E1,9.476297E1,5.442581E2,9.015061E2],"tree_param":{"num_deleted":"0","num_feature":"22","num_nodes":"31","size_leaf_vector":"1"}},{"base_weights":[2.1450734E-3,-1.5201181E-1,3.1637716E-1,1.4290747E-1,-2.0661226E-1,1.854266E-1,4.8260006E-1,-3.9494734E-2,2.4531078E-1,-2.8476787E-1,-7.510409E-2,2.4622118E-1,2.5839439E-2,4.391534E-1,1.2259121E0,9.289393E-3,-6.6466914E-3,1.7025448E-2,5.175933E-3,-1.2610475E-2,-1.8895738E-2,3.017704E-3,-7.6868483E-3,2.8325567E-2,1.1415907E-2,7.4274107E-3,-5.4146517E-3,3.6784817E-2,2.0302279E-2,7.595746E-2,3.136593E-2],"categories":[],"categories_nodes":[],"categories_segments":[],"categories_sizes":[],"default_left":[0,0,0,0,0,0,0,0,0,0,0,0,0,0,0,0,0,0,0,0,0,0,0,0,0,0,0,0,0,0,0],"id":1,"left_children":[1,3,5,7,9,11,13,15,17,19,21,23,25,27,29,-1,-1,-1,-1,-1,-1,-1,-1,-1,-1,-1,-1,-1,-1,-1,-1],"loss_changes":[1.5395221E3,3.4337717E2,2.275144E2,6.225164E1,1.8486615E2,5.676631E1,1.4792603E2,2.5272697E1,2.8730347E1,3.4046387E1,7.1477325E1,2.4069E1,2.6634315E1,4.2262024E1,4.297235E1,0E0,0E0,0E0,0E0,0E0,0E0,0E0,0E0,0E0,0E0,0E0,0E0,0E0,0E0,0E0,0E0],"parents":[2147483647,0,0,1,1,2,2,3,3,4,4,5,5,6,6,7,7,8,8,9,9,10,10,11,11,12,12,13,13,14,14],"right_children":[2,4,6,8,10,12,14,16,18,20,22,24,26,28,30,-1,-1,-1,-1,-1,-1,-1,-1,-1,-1,-1,-1,-1,-1,-1,-1],"split_conditions":[1.5362387E-3,-2.7370478E-3,2.3021877E-3,9.769115E-4,1.0145183E-3,5.0872094E-3,5.0952747E-3,-4.1516675E-3,-5.6735524E-3,2.4418037E-3,-5.3871686E-6,-9.206745E-3,-2.5881904E-1,-7.818315E-1,9.894771E-3,9.289393E-3,-6.6466914E-3,1.7025448E-2,5.175933E-3,-1.2610475E-2,-1.8895738E-2,3.017704E-3,-7.6868483E-3,2.8325567E-2,1.1415907E-2,7.4274107E-3,-5.4146517E-3,3.6784817E-2,2.0302279E-2,7.595746E-2,3.136593E-2],"split_indices":[1,4,1,1,1,0,1,4,0,0,4,4,3,6,4,0,0,0,0,0,0,0,0,0,0,0,0,0,0,0,0],"split_type":[0,0,0,0,0,0,0,0,0,0,0,0,0,0,0,0,0,0,0,0,0,0,0,0,0,0,0,0,0,0,0],"sum_hessian":[3.17782E4,2.1319723E4,1.0458476E4,3.3299517E3,1.7989771E4,5.851853E3,4.6066226E3,1.1974574E3,2.1324944E3,1.1282453E4,6.7073174E3,4.236742E3,1.6151108E3,4.354552E3,2.5207053E2,3.5046506E2,8.469924E2,1.27441E3,8.580842E2,8.364753E3,2.9177007E3,2.4634058E3,4.2439116E3,2.2170058E2,4.0150417E3,8.435841E2,7.715268E2,4.3399216E2,3.9205598E3,1.6758444E2,8.448609E1],"tree_param":{"num_deleted":"0","num_feature":"22","num_nodes":"31","size_leaf_vector":"1"}},{"base_weights":[-1.0450442E-3,-1.4084618E-1,3.1373566E-1,-2.6230335E-1,-2.9811636E-3,1.8687229E-1,4.5313868E-1,-1.7980656E-1,-3.4052253E-1,1.2704948E-1,-1.3939416E-1,2.6867068E-1,9.9966556E-2,4.142807E-1,1.1004342E0,5.475447E-3,-1.0420634E-2,-1.7367994E-2,3.23721E-3,1.7900568E-2,3.9639706E-3,-1.2904398E-2,-2.1781796E-3,1.1414111E-2,3.0353656E-2,9.845725E-3,-4.6341922E-4,2.3700684E-2,1.1533928E-2,7.1098335E-2,3.2205943E-2],"categories":[],"categories_nodes":[],"categories_segments":[],"categories_sizes":[],"default_left":[0,0,0,0,0,0,0,0,0,0,0,0,0,0,0,0,0,0,0,0,0,0,0,0,0,0,0,0,0,0,0],"id":2,"left_children":[1,3,5,7,9,11,13,15,17,19,21,23,25,27,29,-1,-1,-1,-1,-1,-1,-1,-1,-1,-1,-1,-1,-1,-1,-1,-1],"loss_changes":[1.397509E3,3.682111E2,1.7256024E2,7.532068E1,1.8275038E2,3.6308823E1,1.1624939E2,4.7158005E1,1.6670654E1,5.8130867E1,5.7161034E1,3.5753387E1,2.6309336E1,4.7957092E1,3.703241E1,0E0,0E0,0E0,0E0,0E0,0E0,0E0,0E0,0E0,0E0,0E0,0E0,0E0,0E0,0E0,0E0],"parents":[2147483647,0,0,1,1,2,2,3,3,4,4,5,5,6,6,7,7,8,8,9,9,10,10,11,11,12,12,13,13,14,14],"right_children":[2,4,6,8,10,12,14,16,18,20,22,24,26,28,30,-1,-1,-1,-1,-1,-1,-1,-1,-1,-1,-1,-1,-1,-1,-1,-1],"split_conditions":[1.5995599E-3,9.769115E-4,2.3021877E-3,-2.4260068E-4,-5.3871686E-6,1.0234367E-4,5.0952747E-3,-3.7349113E-3,3.9286297E-3,-7.636656E-3,-1.8369701E-16,9.659258E-1,-2.5881904E-1,6.6539925E-3,5.4284863E1,5.475447E-3,-1.0420634E-2,-1.7367994E-2,3.23721E-3,1.7900568E-2,3.9639706E-3,-1.2904398E-2,-2.1781796E-3,1.1414111E-2,3.0353656E-2,9.845725E-3,-4.6341922E-4,2.3700684E-2,1.1533928E-2,7.1098335E-2,3.2205943E-2],"split_indices":[1,1,1,0,4,0,1,4,13,0,2,2,3,18,10,0,0,0,0,0,0,0,0,0,0,0,0,0,0,0,0],"split_type":[0,0,0,0,0,0,0,0,0,0,0,0,0,0,0,0,0,0,0,0,0,0,0,0,0,0,0,0,0,0,0],"sum_hessian":[3.1753924E4,2.1989074E4,9.76485E3,1.168927E4,1.0299804E4,5.1143853E3,4.6504644E3,5.6917925E3,5.997477E3,5.273127E3,5.026677E3,2.6326968E3,2.4816882E3,4.3894946E3,2.609697E2,5.116004E2,5.1801924E3,5.898303E3,9.917406E1,9.018784E2,4.3712485E3,2.2441084E3,2.7825684E3,2.3543625E3,2.7833432E2,1.314394E3,1.1672942E3,3.309983E3,1.0795121E3,1.5116838E2,1.09801315E2],"tree_param":{"num_deleted":"0","num_feature":"22","num_nodes":"31","size_leaf_vector":"1"}},{"base_weights":[-4.523832E-3,-1.4633767E-1,2.7962476E-1,-2.4843113E-1,-2.203985E-2,1.7081176E-1,4.1571388E-1,-1.7345476E-1,-3.123008E-1,9.934865E-2,-1.5146211E-1,2.1822299E-1,4.58759E-2,3.8448772E-1,9.305932E-1,-1.6762475E-2,-6.4139306E-3,-2.0596318E-2,-1.4429772E-2,7.736958E-3,-3.0881772E-3,-2.5303937E-3,-1.2696548E-2,2.9243847E-2,1.0166258E-2,7.7677555E-3,-3.7464157E-3,3.5439983E-2,1.7410373E-2,6.273197E-2,2.5237596E-2],"categories":[],"categories_nodes":[],"categories_segments":[],"categories_sizes":[],"default_left":[0,0,0,0,0,0,0,0,0,0,0,0,0,0,0,0,0,0,0,0,0,0,0,0,0,0,0,0,0,0,0],"id":3,"left_children":[1,3,5,7,9,11,13,15,17,19,21,23,25,27,29,-1,-1,-1,-1,-1,-1,-1,-1,-1,-1,-1,-1,-1,-1,-1,-1],"loss_changes":[1.2755677E3,2.6794397E2,1.5592316E2,5.541162E1,1.4965826E2,3.4676422E1,7.466046E1,3.8919647E1,1.4566162E1,4.3885197E1,4.761223E1,2.297815E1,2.1366669E1,5.1538208E1,3.5740036E1,0E0,0E0,0E0,0E0,0E0,0E0,0E0,0E0,0E0,0E0,0E0,0E0,0E0,0E0,0E0,0E0],"parents":[2147483647,0,0,1,1,2,2,3,3,4,4,5,5,6,6,7,7,8,8,9,9,10,10,11,11,12,12,13,13,14,14],"right_children":[2,4,6,8,10,12,14,16,18,20,22,24,26,28,30,-1,-1,-1,-1,-1,-1,-1,-1,-1,-1,-1,-1,-1,-1,-1,-1],"split_conditions":[1.5362387E-3,9.769115E-4,2.3021877E-3,-4.9055676E-4,1E0,5.0872094E-3,5.0952747E-3,6.001947E-4,2.4473813E-4,2.816505E-4,1.2246469E-16,2.6515398E1,-2.5881904E-1,-7.818315E-1,5.3801746E1,-1.6762475E-2,-6.4139306E-3,-2.0596318E-2,-1.4429772E-2,7.736958E-3,-3.0881772E-3,-2.5303937E-3,-1.2696548E-2,2.9243847E-2,1.0166258E-2,7.7677555E-3,-3.7464157E-3,3.5439983E-2,1.7410373E-2,6.273197E-2,2.5237596E-2],"split_indices":[1,1,1,0,21,0,1,1,12,5,3,10,3,6,10,0,0,0,0,0,0,0,0,0,0,0,0,0,0,0,0],"split_type":[0,0,0,0,0,0,0,0,0,0,0,0,0,0,0,0,0,0,0,0,0,0,0,0,0,0,0,0,0,0,0],"sum_hessian":[3.1651932E4,2.1114793E4,1.0537139E4,1.1591817E4,9.522976E3,5.857444E3,4.679695E3,5.335201E3,6.256616E3,4.9139844E3,4.608991E3,4.2450083E3,1.6124357E3,4.414673E3,2.6502188E2,1.1621863E3,4.173015E3,1.197454E3,5.0591626E3,3.6570554E3,1.2569291E3,2.3241711E3,2.28482E3,1.6337622E2,4.081632E3,8.4585846E2,7.6657715E2,4.4123727E2,3.9734358E3,1.4877443E2,1.1624745E2],"tree_param":{"num_deleted":"0","num_feature":"22","num_nodes":"31","size_leaf_vector":"1"}},{"base_weights":[8.997033E-4,-1.3240404E-1,2.6588273E-1,-2.2984023E-1,-1.33120725E-2,1.5616262E-1,4.0252805E-1,-7.438816E-2,-2.596384E-1,1.6465482E-1,-1.00376435E-1,2.0332545E-1,3.0200997E-2,3.6539236E-1,8.1198645E-1,1.7190214E-2,-5.0129853E-3,-1.166499E-2,-1.7208872E-2,1.4989831E-2,4.9230605E-3,-1.0373541E-2,-5.106399E-4,-6.92161E-4,1.1390617E-2,1.9998891E-2,-5.9917336E-4,2.1590339E-2,1.06348125E-2,4.5988187E-2,5.5114976E-3],"categories":[],"categories_nodes":[],"categories_segments":[],"categories_sizes":[],"default_left":[0,0,0,0,0,0,0,0,0,0,0,0,0,0,0,0,0,0,0,0,0,0,0,0,0,0,0,0,0,0,0],"id":4,"left_children":[1,3,5,7,9,11,13,15,17,19,21,23,25,27,29,-1,-1,-1,-1,-1,-1,-1,-1,-1,-1,-1,-1,-1,-1,-1,-1],"loss_changes":[1.1195159E3,2.4465839E2,1.5891534E2,5.3673462E1,1.4706851E2,3.4946854E1,7.131207E1,2.024757E1,2.1517334E1,2.7827713E1,6.1530968E1,2.278656E1,2.5071423E1,4.377307E1,2.9398865E1,0E0,0E0,0E0,0E0,0E0,0E0,0E0,0E0,0E0,0E0,0E0,0E0,0E0,0E0,0E0,0E0],"parents":[2147483647,0,0,1,1,2,2,3,3,4,4,5,5,6,6,7,7,8,8,9,9,10,10,11,11,12,12,13,13,14,14],"right_children":[2,4,6,8,10,12,14,16,18,20,22,24,26,28,30,-1,-1,-1,-1,-1,-1,-1,-1,-1,-1,-1,-1,-1,-1,-1,-1],"split_conditions":[1.5362387E-3,9.769115E-4,2.3021877E-3,-3.5223078E-3,-1.6872222E-3,5.0872094E-3,4.673311E-3,-3.1647382E-9,2.754821E-3,-6.8728523E-3,-1.8369701E-16,-8.660254E-1,-3.0164256E-9,4.9164207E-3,1E0,1.7190214E-2,-5.0129853E-3,-1.166499E-2,-1.7208872E-2,1.4989831E-2,4.9230605E-3,-1.0373541E-2,-5.106399E-4,-6.92161E-4,1.1390617E-2,1.9998891E-2,-5.9917336E-4,2.1590339E-2,1.06348125E-2,4.5988187E-2,5.5114976E-3],"split_indices":[1,1,1,0,4,0,1,8,0,0,2,2,8,18,17,0,0,0,0,0,0,0,0,0,0,0,0,0,0,0,0],"split_type":[0,0,0,0,0,0,0,0,0,0,0,0,0,0,0,0,0,0,0,0,0,0,0,0,0,0,0,0,0,0,0],"sum_hessian":[3.169029E4,2.108415E4,1.060614E4,1.1595428E4,9.488722E3,5.8846265E3,4.7215137E3,1.8662795E3,9.729148E3,3.1164744E3,6.372247E3,4.2805684E3,1.6040579E3,4.3316196E3,3.8989395E2,1.075445E2,1.758735E3,7.4227744E3,2.306374E3,1.0226233E3,2.093851E3,2.9115115E3,3.4607354E3,4.3360806E2,3.8469604E3,1.6307268E2,1.4409851E3,3.0165269E3,1.3150929E3,3.375197E2,5.237424E1],"tree_param":{"num_deleted":"0","num_feature":"22","num_nodes":"31","size_leaf_vector":"1"}},{"base_weights":[2.083118E-3,-1.22525476E-1,2.4927032E-1,-2.1651506E-1,-8.663214E-3,1.5517393E-1,3.782654E-1,-1.3325943E-1,-2.6922143E-1,8.8734984E-2,-1.4814593E-1,2.0524268E-1,2.9153949E-2,3.4164822E-1,7.5427866E-1,8.79265E-3,-7.60694E-3,-1.40868295E-2,-2.3647936E-3,7.438698E-3,-2.4732351E-3,-1.9896056E-3,-1.2898661E-2,1.1779148E-2,4.6573984E-4,5.1062614E-2,5.754523E-4,1.9969307E-2,8.66913E-3,5.148053E-2,1.9704448E-2],"categories":[],"categories_nodes":[],"categories_segments":[],"categories_sizes":[],"default_left":[0,0,0,0,0,0,0,0,0,0,0,0,0,0,0,0,0,0,0,0,0,0,0,0,0,0,0,0,0,0,0],"id":5,"left_children":[1,3,5,7,9,11,13,15,17,19,21,23,25,27,29,-1,-1,-1,-1,-1,-1,-1,-1,-1,-1,-1,-1,-1,-1,-1,-1],"loss_changes":[9.750572E2,2.2521887E2,1.2866516E2,5.051593E1,1.2933855E2,3.870456E1,6.1155273E1,2.6140144E1,1.9566101E1,4.652826E1,4.6554222E1,2.6091599E1,3.051533E1,3.9501923E1,3.8556366E1,0E0,0E0,0E0,0E0,0E0,0E0,0E0,0E0,0E0,0E0,0E0,0E0,0E0,0E0,0E0,0E0],"parents":[2147483647,0,0,1,1,2,2,3,3,4,4,5,5,6,6,7,7,8,8,9,9,10,10,11,11,12,12,13,13,14,14],"right_children":[2,4,6,8,10,12,14,16,18,20,22,24,26,28,30,-1,-1,-1,-1,-1,-1,-1,-1,-1,-1,-1,-1,-1,-1,-1,-1],"split_conditions":[1.5362387E-3,9.769115E-4,2.3535886E-3,-1.1060417E-3,5.1971188E1,6.790493E-3,4.673311E-3,2.7235254E1,1E0,2.2758306E-4,1.2246469E-16,5.193979E-3,-6.652925E-9,6.285219E-3,5.3801746E1,8.79265E-3,-7.60694E-3,-1.40868295E-2,-2.3647936E-3,7.438698E-3,-2.4732351E-3,-1.9896056E-3,-1.2898661E-2,1.1779148E-2,4.6573984E-4,5.1062614E-2,5.754523E-4,1.9969307E-2,8.66913E-3,5.148053E-2,1.9704448E-2],"split_indices":[1,1,1,0,10,5,1,10,3,5,3,0,8,18,10,0,0,0,0,0,0,0,0,0,0,0,0,0,0,0,0],"split_type":[0,0,0,0,0,0,0,0,0,0,0,0,0,0,0,0,0,0,0,0,0,0,0,0,0,0,0,0,0,0,0],"sum_hessian":[3.1652812E4,2.1044635E4,1.0608176E4,1.1527373E4,9.517262E3,6.135953E3,4.472223E3,4.471065E3,7.0563086E3,5.604165E3,3.9130974E3,4.3903086E3,1.7456443E3,4.0780845E3,3.9413876E2,2.564863E2,4.2145786E3,6.679026E3,3.77283E2,3.907048E3,1.6971167E3,1.97102E3,1.9420774E3,3.8011287E3,5.8918005E2,2.896411E1,1.7166802E3,3.034487E3,1.0435975E3,2.2172429E2,1.7241446E2],"tree_param":{"num_deleted":"0","num_feature":"22","num_nodes":"31","size_leaf_vector":"1"}},{"base_weights":[-2.0902418E-4,-1.1877557E-1,2.319965E-1,1.19426385E-1,-1.638277E-1,1.4516799E-1,3.5697445E-1,2.0389187E-1,2.1079646E-2,-2.3942196E-1,-7.5863436E-2,1.8625827E-1,2.7040036E-2,3.1861457E-1,7.390326E-1,1.9706918E-2,6.1277268E-3,-3.4848086E-3,4.8696804E-3,-1.0376527E-2,-1.7682917E-2,-8.0367075E-3,-9.8072145E-5,-2.285675E-3,1.0597638E-2,2.6057718E-2,-5.8167626E-4,1.8701866E-2,9.072039E-3,4.257899E-2,9.7574154E-4],"categories":[],"categories_nodes":[],"categories_segments":[],"categories_sizes":[],"default_left":[0,0,0,0,0,0,0,0,0,0,0,0,0,0,0,0,0,0,0,0,0,0,0,0,0,0,0,0,0,0,0],"id":6,"left_children":[1,3,5,7,9,11,13,15,17,19,21,23,25,27,29,-1,-1,-1,-1,-1,-1,-1,-1,-1,-1,-1,-1,-1,-1,-1,-1],"loss_changes":[8.714904E2,2.2490695E2,1.1600403E2,2.7674019E1,1.1714023E2,3.0639389E1,6.3857788E1,2.7645348E1,1.069491E1,3.4387024E1,5.1092842E1,2.7950134E1,3.1222406E1,3.0186157E1,3.222885E1,0E0,0E0,0E0,0E0,0E0,0E0,0E0,0E0,0E0,0E0,0E0,0E0,0E0,0E0,0E0,0E0],"parents":[2147483647,0,0,1,1,2,2,3,3,4,4,5,5,6,6,7,7,8,8,9,9,10,10,11,11,12,12,13,13,14,14],"right_children":[2,4,6,8,10,12,14,16,18,20,22,24,26,28,30,-1,-1,-1,-1,-1,-1,-1,-1,-1,-1,-1,-1,-1,-1,-1,-1],"split_conditions":[1.5362387E-3,-2.7370478E-3,2.3825227E-3,-5.6735524E-3,9.3428016E-4,5.514316E-3,4.673311E-3,-2.0083541E-9,-7.076623E-3,2.754821E-3,-1.8369701E-16,-8.660254E-1,-3.6066239E-9,3.3677867E-4,1E0,1.9706918E-2,6.1277268E-3,-3.4848086E-3,4.8696804E-3,-1.0376527E-2,-1.7682917E-2,-8.0367075E-3,-9.8072145E-5,-2.285675E-3,1.0597638E-2,2.6057718E-2,-5.8167626E-4,1.8701866E-2,9.072039E-3,4.257899E-2,9.7574154E-4],"split_indices":[1,4,1,0,1,0,1,8,5,0,2,2,8,7,17,0,0,0,0,0,0,0,0,0,0,0,0,0,0,0,0],"split_type":[0,0,0,0,0,0,0,0,0,0,0,0,0,0,0,0,0,0,0,0,0,0,0,0,0,0,0,0,0,0,0],"sum_hessian":[3.1651156E4,2.0953188E4,1.0697967E4,3.3320767E3,1.7621111E4,6.3145625E3,4.3834043E3,1.7914038E3,1.5406727E3,9.475207E3,8.1459043E3,4.6839746E3,1.6305883E3,3.9860715E3,3.973327E2,5.346005E2,1.2568033E3,7.0342285E2,8.3724994E2,7.410951E3,2.064256E3,3.7904395E3,4.3554653E3,4.667755E2,4.2171987E3,1.1709525E2,1.513493E3,2.836911E3,1.1491606E3,3.4329034E2,5.404235E1],"tree_param":{"num_deleted":"0","num_feature":"22","num_nodes":"31","size_leaf_vector":"1"}},{"base_weights":[-4.736502E-3,-1.2264313E-1,2.244059E-1,6.319523E-2,-1.7739621E-1,1.589941E-1,3.6676112E-1,-7.397551E-2,1.6079125E-1,-2.579214E-1,-1.0614052E-1,2.3526175E-1,7.6440185E-2,3.3365613E-1,7.3711216E-1,9.114648E-3,-6.4209574E-3,1.3700302E-2,5.208467E-3,-9.843669E-3,-1.5487686E-2,-9.1243815E-4,-9.40388E-3,7.016366E-3,1.6986135E-2,8.035967E-3,-1.1368626E-3,2.3713676E-2,1.2972307E-2,4.7235165E-2,1.644317E-2],"categories":[],"categories_nodes":[],"categories_segments":[],"categories_sizes":[],"default_left":[0,0,0,0,0,0,0,0,0,0,0,0,0,0,0,0,0,0,0,0,0,0,0,0,0,0,0,0,0,0,0],"id":7,"left_children":[1,3,5,7,9,11,13,15,17,19,21,23,25,27,29,-1,-1,-1,-1,-1,-1,-1,-1,-1,-1,-1,-1,-1,-1,-1,-1],"loss_changes":[8.548618E2,2.1259921E2,9.998456E1,6.3683525E1,9.25372E1,4.634932E1,4.105432E1,2.762542E1,1.7753922E1,2.3851593E1,6.1662834E1,3.787552E1,2.9608795E1,3.221405E1,2.2879623E1,0E0,0E0,0E0,0E0,0E0,0E0,0E0,0E0,0E0,0E0,0E0,0E0,0E0,0E0,0E0,0E0],"parents":[2147483647,0,0,1,1,2,2,3,3,4,4,5,5,6,6,7,7,8,8,9,9,10,10,11,11,12,12,13,13,14,14],"right_children":[2,4,6,8,10,12,14,16,18,20,22,24,26,28,30,-1,-1,-1,-1,-1,-1,-1,-1,-1,-1,-1,-1,-1,-1,-1,-1],"split_conditions":[1.5362387E-3,-2.0414414E-3,2.6256768E-3,9.769115E-4,8.744911E-4,5.3667227E-5,5.0952747E-3,-4.1516675E-3,-2.5881904E-1,1.1924536E-4,1.2246469E-16,1.9531362E-3,-2.5881904E-1,-1.8201677E-9,9.894771E-3,9.114648E-3,-6.4209574E-3,1.3700302E-2,5.208467E-3,-9.843669E-3,-1.5487686E-2,-9.1243815E-4,-9.40388E-3,7.016366E-3,1.6986135E-2,8.035967E-3,-1.1368626E-3,2.3713676E-2,1.2972307E-2,4.7235165E-2,1.644317E-2],"split_indices":[1,4,1,1,1,4,1,4,3,4,3,1,3,8,4,0,0,0,0,0,0,0,0,0,0,0,0,0,0,0,0],"split_type":[0,0,0,0,0,0,0,0,0,0,0,0,0,0,0,0,0,0,0,0,0,0,0,0,0,0,0,0,0,0,0],"sum_hessian":[3.1638312E4,2.08901E4,1.0748214E4,4.753846E3,1.6136254E4,7.3667437E3,3.38147E3,1.9761824E3,2.7776638E3,7.573219E3,8.563034E3,3.827405E3,3.5393386E3,3.10675E3,2.747201E2,3.4549277E2,1.6306896E3,9.238319E2,1.853832E3,3.4812126E3,4.0920066E3,4.1325747E3,4.43046E3,2.0072257E3,1.8201793E3,1.9131512E3,1.6261874E3,1.0701699E3,2.03658E3,1.8072792E2,9.399218E1],"tree_param":{"num_deleted":"0","num_feature":"22","num_nodes":"31","size_leaf_vector":"1"}},{"base_weights":[-1.7335296E-3,-1.109165E-1,2.0917583E-1,-1.945848E-1,1.7792791E-3,1.2023541E-1,3.0803818E-1,-1.2757632E-1,-2.5917423E-1,1.08223885E-1,-1.14985965E-1,1.7256474E-1,-2.2385716E-2,2.760907E-1,6.6512537E-1,-1.0838551E-2,-3.784059E-3,-1.32602295E-2,9.7353775E-3,1.4146E-2,3.205786E-3,-1.1583927E-2,-1.0763215E-3,-2.2891948E-3,9.825001E-3,2.1974334E-2,-2.8795756E-3,2.1813892E-2,1.1740803E-2,3.834633E-2,1.4977166E-4],"categories":[],"categories_nodes":[],"categories_segments":[],"categories_sizes":[],"default_left":[0,0,0,0,0,0,0,0,0,0,0,0,0,0,0,0,0,0,0,0,0,0,0,0,0,0,0,0,0,0,0],"id":8,"left_children":[1,3,5,7,9,11,13,15,17,19,21,23,25,27,29,-1,-1,-1,-1,-1,-1,-1,-1,-1,-1,-1,-1,-1,-1,-1,-1],"loss_changes":[7.29615E2,1.9686133E2,9.495062E1,5.1789093E1,1.1059553E2,4.2493385E1,5.805191E1,2.7197128E1,1.6774963E1,3.5824818E1,4.6256E1,2.1785583E1,2.4879833E1,3.0884003E1,2.8201797E1,0E0,0E0,0E0,0E0,0E0,0E0,0E0,0E0,0E0,0E0,0E0,0E0,0E0,0E0,0E0,0E0],"parents":[2147483647,0,0,1,1,2,2,3,3,4,4,5,5,6,6,7,7,8,8,9,9,10,10,11,11,12,12,13,13,14,14],"right_children":[2,4,6,8,10,12,14,16,18,20,22,24,26,28,30,-1,-1,-1,-1,-1,-1,-1,-1,-1,-1,-1,-1,-1,-1,-1,-1],"split_conditions":[1.5362387E-3,1.0040661E-3,2.250956E-3,-2.4260068E-4,1E0,5.0872094E-3,4.673311E-3,6.927465E-4,4.167514E-3,-7.0710677E-1,-1.8369701E-16,-8.660254E-1,-3.6066239E-9,-3.414327E-9,1E0,-1.0838551E-2,-3.784059E-3,-1.32602295E-2,9.7353775E-3,1.4146E-2,3.205786E-3,-1.1583927E-2,-1.0763215E-3,-2.2891948E-3,9.825001E-3,2.1974334E-2,-2.8795756E-3,2.1813892E-2,1.1740803E-2,3.834633E-2,1.4977166E-4],"split_indices":[1,1,1,0,21,0,1,1,13,3,2,2,8,8,17,0,0,0,0,0,0,0,0,0,0,0,0,0,0,0,0],"split_type":[0,0,0,0,0,0,0,0,0,0,0,0,0,0,0,0,0,0,0,0,0,0,0,0,0,0,0,0,0,0,0],"sum_hessian":[3.1681418E4,2.0875562E4,1.0805855E4,1.1980374E4,8.895188E3,5.690389E3,5.115466E3,5.8826445E3,6.097729E3,4.653521E3,4.241668E3,4.16298E3,1.5274095E3,4.6979546E3,4.1751123E2,2.1616252E3,3.7210193E3,6.0185E3,7.9229294E1,9.3622504E2,3.717296E3,1.8851439E3,2.356524E3,4.109198E2,3.75206E3,1.06858925E2,1.4205505E3,9.5930865E2,3.738646E3,3.6160257E2,5.5908646E1],"tree_param":{"num_deleted":"0","num_feature":"22","num_nodes":"31","size_leaf_vector":"1"}},{"base_weights":[1.3813927E-3,-1.5287064E-1,1.3220933E-1,-5.5234842E-2,-2.0508015E-1,4.7794417E-2,2.651523E-1,-1.9008325E-1,4.933245E-3,-4.8755676E-2,-2.217656E-1,8.230847E-2,-1.22735776E-1,2.4125381E-1,6.207605E-1,-1.1175696E-2,3.8924192E-3,4.3608148E-2,-2.034924E-4,-9.970211E-3,1.1808045E-2,3.4029756E-3,-1.14558665E-2,9.168207E-3,1.1581001E-3,-9.422059E-3,1.0666076E-2,1.5176857E-2,7.850391E-3,3.899015E-2,1.6190426E-2],"categories":[],"categories_nodes":[],"categories_segments":[],"categories_sizes":[],"default_left":[0,0,0,0,0,0,0,0,0,0,0,0,0,0,0,0,0,0,0,0,0,0,0,0,0,0,0,0,0,0,0],"id":9,"left_children":[1,3,5,7,9,11,13,15,17,19,21,23,25,27,29,-1,-1,-1,-1,-1,-1,-1,-1,-1,-1,-1,-1,-1,-1,-1,-1],"loss_changes":[6.38816E2,7.402127E1,1.9218515E2,4.1096962E1,2.4657013E1,6.1684868E1,5.626013E1,1.4030251E1,2.7397312E1,3.9342304E1,1.8251282E1,5.207746E1,3.901196E1,3.2622528E1,1.929686E1,0E0,0E0,0E0,0E0,0E0,0E0,0E0,0E0,0E0,0E0,0E0,0E0,0E0,0E0,0E0,0E0],"parents":[2147483647,0,0,1,1,2,2,3,3,4,4,5,5,6,6,7,7,8,8,9,9,10,10,11,11,12,12,13,13,14,14],"right_children":[2,4,6,8,10,12,14,16,18,20,22,24,26,28,30,-1,-1,-1,-1,-1,-1,-1,-1,-1,-1,-1,-1,-1,-1,-1,-1],"split_conditions":[1.1267258E-3,-1.594434E-3,1.9893819E-3,7.239915E-4,-1.2271196E-4,8.660254E-1,4.673311E-3,3.0277799E-5,-5.118447E-4,9.3428016E-4,-1.421874E-3,-2.4398179E-3,9.749279E-1,4.3388373E-1,1.2898686E-2,-1.1175696E-2,3.8924192E-3,4.3608148E-2,-2.034924E-4,-9.970211E-3,1.1808045E-2,3.4029756E-3,-1.14558665E-2,9.168207E-3,1.1581001E-3,-9.422059E-3,1.0666076E-2,1.5176857E-2,7.850391E-3,3.899015E-2,1.6190426E-2],"split_indices":[1,0,1,1,7,3,1,7,7,1,16,0,6,6,0,0,0,0,0,0,0,0,0,0,0,0,0,0,0,0,0],"split_type":[0,0,0,0,0,0,0,0,0,0,0,0,0,0,0,0,0,0,0,0,0,0,0,0,0,0,0,0,0,0,0],"sum_hessian":[3.16522E4,1.4525429E4,1.7126771E4,5.0623984E3,9.46303E3,1.0476753E4,6.6500176E3,1.5611498E3,3.5012485E3,9.134914E2,8.549539E3,8.714145E3,1.7626094E3,6.23374E3,4.162774E2,1.3883556E3,1.7279419E2,3.4553974E1,3.4666946E3,5.9795215E2,3.155392E2,2.1102899E2,8.338511E3,3.215778E3,5.498366E3,1.4750228E3,2.8758646E2,3.581459E3,2.6522812E3,2.6938947E2,1.4688794E2],"tree_param":{"num_deleted":"0","num_feature":"22","num_nodes":"31","size_leaf_vector":"1"}},{"base_weights":[-1.17702155E-4,-8.2299076E-2,2.3823495E-1,-1.8902566E-1,6.7559996E-4,7.231011E-1,2.2324151E-1,-7.50962E-2,-2.1727347E-1,2.2349566E-1,-3.1157035E-2,1.770039E-2,8.3686066E-1,4.4226703E-1,1.995236E-1,-8.258614E-3,9.5138664E-4,3.3443782E-3,-1.1304175E-2,3.5533752E-2,1.027614E-2,4.493336E-3,-4.143976E-3,6.204782E-2,-1.3777961E-2,7.2939E-2,3.4343172E-2,1.6439438E-2,3.7209623E-2,1.0563977E-2,-1.4158373E-2],"categories":[],"categories_nodes":[],"categories_segments":[],"categories_sizes":[],"default_left":[0,0,0,0,0,0,0,0,0,0,0,0,0,0,0,0,0,0,0,0,0,0,0,0,0,0,0,0,0,0,0],"id":10,"left_children":[1,3,5,7,9,11,13,15,17,19,21,23,25,27,29,-1,-1,-1,-1,-1,-1,-1,-1,-1,-1,-1,-1,-1,-1,-1,-1],"loss_changes":[6.191338E2,2.0815337E2,5.8623474E1,3.3047577E1,9.382268E1,1.937909E1,4.0682343E1,1.7352379E1,2.0652039E1,1.4213432E1,7.245211E1,1.3204054E1,1.7845703E1,2.58526E1,4.0361633E1,0E0,0E0,0E0,0E0,0E0,0E0,0E0,0E0,0E0,0E0,0E0,0E0,0E0,0E0,0E0,0E0],"parents":[2147483647,0,0,1,1,2,2,3,3,4,4,5,5,6,6,7,7,8,8,9,9,10,10,11,11,12,12,13,13,14,14],"right_children":[2,4,6,8,10,12,14,16,18,20,22,24,26,28,30,-1,-1,-1,-1,-1,-1,-1,-1,-1,-1,-1,-1,-1,-1,-1,-1],"split_conditions":[1.8100397E-3,9.3428016E-4,-8.336908E-9,-4.0374678E-3,-6.8728523E-3,-7.818315E-1,-7.818315E-1,5E-1,-2.812951E-9,-9.659258E-1,-5E-1,-5E-1,-4.3388373E-1,3.3268388E-3,1E0,-8.258614E-3,9.5138664E-4,3.3443782E-3,-1.1304175E-2,3.5533752E-2,1.027614E-2,4.493336E-3,-4.143976E-3,6.204782E-2,-1.3777961E-2,7.2939E-2,3.4343172E-2,1.6439438E-2,3.7209623E-2,1.0563977E-2,-1.4158373E-2],"split_indices":[1,1,8,5,0,6,6,3,8,3,3,3,6,1,3,0,0,0,0,0,0,0,0,0,0,0,0,0,0,0,0],"split_type":[0,0,0,0,0,0,0,0,0,0,0,0,0,0,0,0,0,0,0,0,0,0,0,0,0,0,0,0,0,0,0],"sum_hessian":[3.1604965E4,2.3502688E4,8.102277E3,1.027942E4,1.3223268E4,2.4080524E2,7.8614717E3,2.0437599E3,8.23566E3,1.6520303E3,1.1571237E4,3.37432E1,2.0706204E2,7.653344E2,7.096137E3,1.044029E3,9.9973083E2,2.4718901E2,7.9884717E3,5.662189E1,1.5954084E3,3.4639595E3,8.1072783E3,5.6207604E0,2.8122437E1,3.762784E1,1.694342E2,5.586613E2,2.066731E2,6.9283447E3,1.6779291E2],"tree_param":{"num_deleted":"0","num_feature":"22","num_nodes":"31","size_leaf_vector":"1"}},{"base_weights":[-2.6589537E-3,-1.4556399E-1,1.1733854E-1,1.945648E-1,-1.6719225E-1,3.7709977E-2,2.3738556E-1,5.0054934E-2,3.5239226E-1,-1.23787425E-1,-2.360386E-1,1.04318395E-1,-4.074013E-2,2.1645126E-1,5.6187534E-1,-1.2070741E-2,7.785742E-3,-1.5188456E-2,2.002009E-2,-7.332958E-3,1.955738E-3,-2.0848088E-2,-1.0764918E-2,6.969475E-2,5.0731185E-3,3.7587904E-3,-6.6251047E-3,1.4543377E-2,7.3081525E-3,3.825897E-2,1.4155376E-2],"categories":[],"categories_nodes":[],"categories_segments":[],"categories_sizes":[],"default_left":[0,0,0,0,0,0,0,0,0,0,0,0,0,0,0,0,0,0,0,0,0,0,0,0,0,0,0,0,0,0,0],"id":11,"left_children":[1,3,5,7,9,11,13,15,17,19,21,23,25,27,29,-1,-1,-1,-1,-1,-1,-1,-1,-1,-1,-1,-1,-1,-1,-1,-1],"loss_changes":[5.407491E2,1.05929565E2,1.6382178E2,1.959256E1,4.038025E1,5.386854E1,4.6207977E1,1.3954251E1,1.3139664E1,3.0953857E1,1.9462585E1,2.0246174E1,5.0367237E1,3.35119E1,2.3037384E1,0E0,0E0,0E0,0E0,0E0,0E0,0E0,0E0,0E0,0E0,0E0,0E0,0E0,0E0,0E0,0E0],"parents":[2147483647,0,0,1,1,2,2,3,3,4,4,5,5,6,6,7,7,8,8,9,9,10,10,11,11,12,12,13,13,14,14],"right_children":[2,4,6,8,10,12,14,16,18,20,22,24,26,28,30,-1,-1,-1,-1,-1,-1,-1,-1,-1,-1,-1,-1,-1,-1,-1,-1],"split_conditions":[1.1267258E-3,-3.7349113E-3,1.9721296E-3,5E-1,5.343213E1,2.6945348E-4,4.673311E-3,-2.2252093E-1,-4.3468837E-9,1E0,-8.660254E-1,-2.7218664E-2,-2.5881904E-1,-6.242999E-4,5.4414906E1,-1.2070741E-2,7.785742E-3,-1.5188456E-2,2.002009E-2,-7.332958E-3,1.955738E-3,-2.0848088E-2,-1.0764918E-2,6.969475E-2,5.0731185E-3,3.7587904E-3,-6.6251047E-3,1.4543377E-2,7.3081525E-3,3.825897E-2,1.4155376E-2],"split_indices":[1,4,1,3,10,4,1,17,8,17,3,5,3,4,10,0,0,0,0,0,0,0,0,0,0,0,0,0,0,0,0],"split_type":[0,0,0,0,0,0,0,0,0,0,0,0,0,0,0,0,0,0,0,0,0,0,0,0,0,0,0,0,0,0,0],"sum_hessian":[3.1530709E4,1.4391713E4,1.7138996E4,8.5957794E2,1.3532135E4,1.0305576E4,6.8334194E3,4.499174E2,4.0966058E2,8.302604E3,5.2295312E3,5.5735073E3,4.732069E3,6.421777E3,4.116429E2,1.1906589E2,3.308515E2,2.7314367E1,3.8234622E2,7.2808213E3,1.0217821E3,5.3464026E2,4.694891E3,1.0663232E1,5.562844E3,2.090732E3,2.6413372E3,3.1166575E3,3.3051191E3,2.3642363E2,1.7521927E2],"tree_param":{"num_deleted":"0","num_feature":"22","num_nodes":"31","size_leaf_vector":"1"}},{"base_weights":[2.8045957E-3,-7.6612845E-2,1.4087173E-1,1.3026494E-1,-1.06111966E-1,2.725538E-1,8.221781E-2,1.441824E-1,-4.9390727E-1,-7.149993E-2,-1.7095277E-1,1.9834974E-1,4.3762568E-1,4.3263454E-2,1.9224547E-1,1.0133622E-2,1.1047887E-3,1.6229404E-2,-3.0594973E-2,-1.117166E-2,-2.6447E-3,-1.0392573E-2,1.1862534E-3,2.1947412E-2,5.3094574E-3,3.169786E-2,1.1994968E-2,6.9883834E-3,5.8968936E-4,1.4511558E-2,4.42884E-3],"categories":[],"categories_nodes":[],"categories_segments":[],"categories_sizes":[],"default_left":[0,0,0,0,0,0,0,0,0,0,0,0,0,0,0,0,0,0,0,0,0,0,0,0,0,0,0,0,0,0,0],"id":12,"left_children":[1,3,5,7,9,11,13,15,17,19,21,23,25,27,29,-1,-1,-1,-1,-1,-1,-1,-1,-1,-1,-1,-1,-1,-1,-1,-1],"loss_changes":[3.4682257E2,1.22559494E2,8.915924E1,2.1861584E1,3.941208E1,4.342517E1,3.4235752E1,1.749789E1,5.6168785E0,3.236819E1,4.394185E1,5.4402267E1,4.2510956E1,1.7925016E1,2.1165253E1,0E0,0E0,0E0,0E0,0E0,0E0,0E0,0E0,0E0,0E0,0E0,0E0,0E0,0E0,0E0,0E0],"parents":[2147483647,0,0,1,1,2,2,3,3,4,4,5,5,6,6,7,7,8,8,9,9,10,10,11,11,12,12,13,13,14,14],"right_children":[2,4,6,8,10,12,14,16,18,20,22,24,26,28,30,-1,-1,-1,-1,-1,-1,-1,-1,-1,-1,-1,-1,-1,-1,-1,-1],"split_conditions":[1.2970169E-3,-3.31121E-3,-3.2519791E-3,1.2738854E-3,5.5060505E1,5E-1,2.7157513E-3,-5.6735524E-3,-7.0710677E-1,3.8368202E1,1.7729051E-3,-7.0710677E-1,-6.252281E-3,4.4444445E-1,1.1253976E0,1.0133622E-2,1.1047887E-3,1.6229404E-2,-3.0594973E-2,-1.117166E-2,-2.6447E-3,-1.0392573E-2,1.1862534E-3,2.1947412E-2,5.3094574E-3,3.169786E-2,1.1994968E-2,6.9883834E-3,5.8968936E-4,1.4511558E-2,4.42884E-3],"split_indices":[12,4,4,12,10,2,12,0,2,10,16,2,4,15,14,0,0,0,0,0,0,0,0,0,0,0,0,0,0,0,0],"split_type":[0,0,0,0,0,0,0,0,0,0,0,0,0,0,0,0,0,0,0,0,0,0,0,0,0,0,0,0,0,0,0],"sum_hessian":[3.1626873E4,2.0078086E4,1.1548787E4,2.5048337E3,1.7573252E4,3.5569246E3,7.991863E3,2.4514072E3,5.3426567E1,1.1459886E4,6.113366E3,2.4563413E3,1.1005833E3,5.9041074E3,2.0877551E3,1.656433E3,7.9497424E2,6.3471456E0,4.7079422E1,1.2481855E3,1.02117E4,5.1394116E3,9.739545E2,6.7859216E2,1.7777491E3,5.50452E2,5.501312E2,1.450201E3,4.4539062E3,1.0716602E3,1.0160949E3],"tree_param":{"num_deleted":"0","num_feature":"22","num_nodes":"31","size_leaf_vector":"1"}},{"base_weights":[-7.049465E-3,-9.455227E-2,1.5206154E-1,5.4666523E-2,-1.3173431E-1,8.608311E-2,2.3601031E-1,-2.722998E-1,7.634136E-2,-1.9277075E-1,-7.079966E-2,-1.1752109E-1,1.0823813E-1,2.8992128E-1,9.757275E-2,-1.6476473E-2,2.287813E-2,1.5208592E-2,2.5079292E-3,-6.3955844E-3,-1.1764209E-2,-7.297901E-3,-2.6550397E-4,-8.048003E-3,2.8573433E-2,1.1686455E-2,3.6736398E-3,1.8984195E-2,8.397146E-3,7.6639513E-3,-1.4200583E-2],"categories":[],"categories_nodes":[],"categories_segments":[],"categories_sizes":[],"default_left":[0,0,0,0,0,0,0,0,0,0,0,0,0,0,0,0,0,0,0,0,0,0,0,0,0,0,0,0,0,0,0],"id":13,"left_children":[1,3,5,7,9,11,13,15,17,19,21,23,25,27,29,-1,-1,-1,-1,-1,-1,-1,-1,-1,-1,-1,-1,-1,-1,-1,-1],"loss_changes":[4.3898138E2,1.128822E2,6.1917633E1,2.8784863E1,6.0536743E1,2.8287205E1,3.6672455E1,1.0767033E1,2.2672916E1,2.2367401E1,4.0118282E1,1.8538548E1,2.4620552E1,3.8652588E1,2.9436369E1,0E0,0E0,0E0,0E0,0E0,0E0,0E0,0E0,0E0,0E0,0E0,0E0,0E0,0E0,0E0,0E0],"parents":[2147483647,0,0,1,1,2,2,3,3,4,4,5,5,6,6,7,7,8,8,9,9,10,10,11,11,12,12,13,13,14,14],"right_children":[2,4,6,8,10,12,14,16,18,20,22,24,26,28,30,-1,-1,-1,-1,-1,-1,-1,-1,-1,-1,-1,-1,-1,-1,-1,-1],"split_conditions":[1.5168908E-3,-3.820598E-3,2.3021877E-3,6.4245804E-4,8.988873E-4,-8.660254E-1,5.8139535E-3,1E0,-3.1647382E-9,-3.36984E-4,-1.8369701E-16,6.915855E1,-5E-1,4.3388373E-1,1E0,-1.6476473E-2,2.287813E-2,1.5208592E-2,2.5079292E-3,-6.3955844E-3,-1.1764209E-2,-7.297901E-3,-2.6550397E-4,-8.048003E-3,2.8573433E-2,1.1686455E-2,3.6736398E-3,1.8984195E-2,8.397146E-3,7.6639513E-3,-1.4200583E-2],"split_indices":[1,0,1,1,1,2,18,17,8,0,2,10,2,6,17,0,0,0,0,0,0,0,0,0,0,0,0,0,0,0,0],"split_type":[0,0,0,0,0,0,0,0,0,0,0,0,0,0,0,0,0,0,0,0,0,0,0,0,0,0,0,0,0,0,0],"sum_hessian":[3.1527154E4,2.0341375E4,1.118578E4,4.057158E3,1.6284217E4,6.2652915E3,4.9204883E3,2.5100967E2,3.8061482E3,8.1332827E3,8.1509346E3,6.139933E2,5.6512983E3,3.539945E3,1.3805435E3,2.3358517E2,1.7424507E1,3.9048572E2,3.4156624E3,3.223166E3,4.9101167E3,3.7940876E3,4.3568467E3,5.7872815E2,3.5265118E1,1.2237948E3,4.4275034E3,2.0372068E3,1.5027382E3,1.2055741E3,1.7496935E2],"tree_param":{"num_deleted":"0","num_feature":"22","num_nodes":"31","size_leaf_vector":"1"}},{"base_weights":[-2.17213E-3,-1.3237855E-1,1.0549228E-1,2.1312937E-1,-1.5448348E-1,2.4306253E-2,1.9362336E-1,1.0299284E-1,3.339648E-1,-1.1176877E-1,-1.9517453E-1,-3.7267283E-2,1.245651E-1,6.346269E-1,1.8032026E-1,-1.1394489E-2,9.870739E-3,2.3465104E-2,-1.0648464E-2,-8.801243E-3,-2.8710186E-3,-1.0885616E-2,-1.0325677E-3,2.2315283E-3,-6.979681E-3,-2.2959544E-3,8.503672E-3,6.870868E-2,2.3857357E-2,8.3477665E-3,2.342083E-2],"categories":[],"categories_nodes":[],"categories_segments":[],"categories_sizes":[],"default_left":[0,0,0,0,0,0,0,0,0,0,0,0,0,0,0,0,0,0,0,0,0,0,0,0,0,0,0,0,0,0,0],"id":14,"left_children":[1,3,5,7,9,11,13,15,17,19,21,23,25,27,29,-1,-1,-1,-1,-1,-1,-1,-1,-1,-1,-1,-1,-1,-1,-1,-1],"loss_changes":[4.4288654E2,1.09258606E2,1.2371445E2,1.1376347E1,2.3313385E1,5.5590885E1,4.8430695E1,1.4202696E1,3.0463825E1,2.28871E1,2.7046112E1,4.6764057E1,2.659975E1,2.711792E1,3.084964E1,0E0,0E0,0E0,0E0,0E0,0E0,0E0,0E0,0E0,0E0,0E0,0E0,0E0,0E0,0E0,0E0],"parents":[2147483647,0,0,1,1,2,2,3,3,4,4,5,5,6,6,7,7,8,8,9,9,10,10,11,11,12,12,13,13,14,14],"right_children":[2,4,6,8,10,12,14,16,18,20,22,24,26,28,30,-1,-1,-1,-1,-1,-1,-1,-1,-1,-1,-1,-1,-1,-1,-1,-1],"split_conditions":[1.1267258E-3,-3.7349113E-3,1.7951768E-3,3.0088423E1,-3.2646934E-5,5E-1,-8.336908E-9,-2.5881904E-1,9.659258E-1,7.689909E-4,8.0507025E-3,2.6945348E-4,1.2295275E-3,-7.0710677E-1,4.673311E-3,-1.1394489E-2,9.870739E-3,2.3465104E-2,-1.0648464E-2,-8.801243E-3,-2.8710186E-3,-1.0885616E-2,-1.0325677E-3,2.2315283E-3,-6.979681E-3,-2.2959544E-3,8.503672E-3,6.870868E-2,2.3857357E-2,8.3477665E-3,2.342083E-2],"split_indices":[1,4,1,10,4,2,8,3,2,1,5,4,1,2,1,0,0,0,0,0,0,0,0,0,0,0,0,0,0,0,0],"split_type":[0,0,0,0,0,0,0,0,0,0,0,0,0,0,0,0,0,0,0,0,0,0,0,0,0,0,0,0,0,0,0],"sum_hessian":[3.1589697E4,1.4298093E4,1.7291605E4,8.5884344E2,1.3439249E4,9.001728E3,8.289877E3,4.5098312E2,4.0786032E2,6.559928E3,6.879321E3,5.5770503E3,3.4246775E3,2.4058415E2,8.0492935E3,9.9534546E1,3.5144858E2,3.2719992E2,8.066038E1,3.0040095E3,3.5559185E3,6.091953E3,7.873678E2,3.0979412E3,2.4791091E3,7.213247E2,2.7033528E3,4.014609E1,2.0043805E2,7.6948667E3,3.5442633E2],"tree_param":{"num_deleted":"0","num_feature":"22","num_nodes":"31","size_leaf_vector":"1"}},{"base_weights":[1.5737009E-3,-1.04453705E-1,1.12271845E-1,2.167788E-1,-1.2393165E-1,6.880221E-2,2.5986826E-1,8.668948E-1,1.9700655E-1,-5.962459E-2,-1.709521E-1,-1.155991E-1,9.178772E-2,2.3283517E-1,5.6189084E-1,8.213981E-2,2.716348E-2,1.1090843E-2,-1.1246192E-2,-5.1209335E-3,3.8624567E-3,-2.0523916E-3,-9.244885E-3,2.1551934E-3,-1.4362256E-2,5.929168E-3,-3.7760707E-5,1.7347494E-2,8.593245E-3,3.9768778E-2,1.0814679E-2],"categories":[],"categories_nodes":[],"categories_segments":[],"categories_sizes":[],"default_left":[0,0,0,0,0,0,0,0,0,0,0,0,0,0,0,0,0,0,0,0,0,0,0,0,0,0,0,0,0,0,0],"id":15,"left_children":[1,3,5,7,9,11,13,15,17,19,21,23,25,27,29,-1,-1,-1,-1,-1,-1,-1,-1,-1,-1,-1,-1,-1,-1,-1,-1],"loss_changes":[3.699343E2,1.00764206E2,9.888988E1,1.152602E1,4.5871933E1,5.0512733E1,2.8400421E1,5.2464523E0,9.4497795E0,3.7582157E1,1.5859497E1,3.601292E1,2.627787E1,2.2301682E1,2.2844276E1,0E0,0E0,0E0,0E0,0E0,0E0,0E0,0E0,0E0,0E0,0E0,0E0,0E0,0E0,0E0,0E0],"parents":[2147483647,0,0,1,1,2,2,3,3,4,4,5,5,6,6,7,7,8,8,9,9,10,10,11,11,12,12,13,13,14,14],"right_children":[2,4,6,8,10,12,14,16,18,20,22,24,26,28,30,-1,-1,-1,-1,-1,-1,-1,-1,-1,-1,-1,-1,-1,-1,-1,-1],"split_conditions":[1.2295275E-3,-4.056947E-3,2.6256768E-3,-5.7281204E-4,-4.0701515E-4,-8.660254E-1,5.0952747E-3,6.123234E-17,1.2074242E-3,1.0145183E-3,-8.5633044E-5,4.9608646E1,3.5261968E-3,-1.8201677E-9,5.4414906E1,8.213981E-2,2.716348E-2,1.1090843E-2,-1.1246192E-2,-5.1209335E-3,3.8624567E-3,-2.0523916E-3,-9.244885E-3,2.1551934E-3,-1.4362256E-2,5.929168E-3,-3.7760707E-5,1.7347494E-2,8.593245E-3,3.9768778E-2,1.0814679E-2],"split_indices":[1,4,1,7,4,2,1,2,1,1,7,10,4,8,10,0,0,0,0,0,0,0,0,0,0,0,0,0,0,0,0],"split_type":[0,0,0,0,0,0,0,0,0,0,0,0,0,0,0,0,0,0,0,0,0,0,0,0,0,0,0,0,0,0,0],"sum_hessian":[3.151551E4,1.609717E4,1.5418341E4,9.1923737E2,1.5177933E4,1.1912459E4,3.5058823E3,2.5160471E1,8.940769E2,6.4124595E3,8.765473E3,1.3193947E3,1.0593064E4,3.220452E3,2.854306E2,5.560398E0,1.9600073E1,8.4520703E2,4.8869858E1,4.8856772E3,1.5267823E3,8.506947E2,7.914778E3,6.8597656E2,6.3341815E2,8.214646E3,2.3784172E3,1.1187305E3,2.1017214E3,1.6909415E2,1.16336464E2],"tree_param":{"num_deleted":"0","num_feature":"22","num_nodes":"31","size_leaf_vector":"1"}},{"base_weights":[-6.9521847E-3,-6.8618365E-2,1.2401351E-1,7.947906E-2,-1.00242935E-1,5.2387375E-1,1.1038158E-1,1.3412009E-1,1.1251634E-3,-4.5592096E-3,-1.3615021E-1,-1.523425E-1,6.287118E-1,7.0745826E-2,1.9046806E-1,8.582008E-3,-2.6063004E-4,-4.217664E-4,6.055048E-2,-9.345424E-3,4.3522283E-3,-2.5203477E-3,-7.6598614E-3,3.2741882E-2,-2.6645472E-2,8.384716E-3,3.7196457E-2,3.0693172E-3,2.3303429E-2,1.708999E-2,7.848128E-3],"categories":[],"categories_nodes":[],"categories_segments":[],"categories_sizes":[],"default_left":[0,0,0,0,0,0,0,0,0,0,0,0,0,0,0,0,0,0,0,0,0,0,0,0,0,0,0,0,0,0,0],"id":16,"left_children":[1,3,5,7,9,11,13,15,17,19,21,23,25,27,29,-1,-1,-1,-1,-1,-1,-1,-1,-1,-1,-1,-1,-1,-1,-1,-1],"loss_changes":[2.5439438E2,1.00315575E2,5.4846024E1,1.612943E1,6.0627975E1,2.3697914E1,3.0926231E1,1.1615971E1,1.8008947E1,8.050375E1,1.8734879E1,1.4554223E1,1.5050102E1,2.408099E1,1.6260132E1,0E0,0E0,0E0,0E0,0E0,0E0,0E0,0E0,0E0,0E0,0E0,0E0,0E0,0E0,0E0,0E0],"parents":[2147483647,0,0,1,1,2,2,3,3,4,4,5,5,6,6,7,7,8,8,9,9,10,10,11,11,12,12,13,13,14,14],"right_children":[2,4,6,8,10,12,14,16,18,20,22,24,26,28,30,-1,-1,-1,-1,-1,-1,-1,-1,-1,-1,-1,-1,-1,-1,-1,-1],"split_conditions":[1.4522822E-3,-2.7370478E-3,-7.3112236E-9,-5.6735524E-3,-5E-1,-7.818315E-1,2.7157513E-3,8.660254E-1,3.908431E-3,-4.3388373E-1,2.4979153E-1,-1.2008281E-2,2.777778E-1,7.140812E-9,-3.0898557E-9,8.582008E-3,-2.6063004E-4,-4.217664E-4,6.055048E-2,-9.345424E-3,4.3522283E-3,-2.5203477E-3,-7.6598614E-3,3.2741882E-2,-2.6645472E-2,8.384716E-3,3.7196457E-2,3.0693172E-3,2.3303429E-2,1.708999E-2,7.848128E-3],"split_indices":[12,4,8,0,3,6,12,3,18,6,14,5,15,8,8,0,0,0,0,0,0,0,0,0,0,0,0,0,0,0,0],"split_type":[0,0,0,0,0,0,0,0,0,0,0,0,0,0,0,0,0,0,0,0,0,0,0,0,0,0,0,0,0,0,0],"sum_hessian":[3.1496707E4,2.1414584E4,1.0082122E4,3.767514E3,1.764707E4,3.3041367E2,9.751709E3,2.2186243E3,1.5488896E3,4.8162036E3,1.2830867E4,4.4194992E1,2.862187E2,6.5255737E3,3.226135E3,1.7479423E3,4.7068192E2,1.5381832E3,1.0706487E1,1.6100916E3,3.2061123E3,2.129376E3,1.0701491E4,1.377208E1,3.042291E1,5.805223E1,2.2816646E2,6.376467E3,1.491069E2,5.8203015E2,2.6441047E3],"tree_param":{"num_deleted":"0","num_feature":"22","num_nodes":"31","size_leaf_vector":"1"}},{"base_weights":[2.4583917E-3,-1.132345E-1,9.4155096E-2,1.6793011E-1,-1.3122836E-1,3.432242E-2,1.8896905E-1,1.1553659E-1,5.0305164E-1,8.163815E-2,-1.407483E-1,1.1380309E-1,-2.48652E-2,2.6338726E-1,1.1766555E-1,4.359309E-3,3.0030623E-2,3.402081E-2,-1.5134036E-2,1.3929645E-2,-2.3729883E-3,-9.057279E-3,-5.1782154E-3,7.569503E-3,-6.401128E-4,2.3949845E-3,-8.1528025E-3,1.8827785E-2,6.115438E-3,5.2042734E-3,2.2531936E-2],"categories":[],"categories_nodes":[],"categories_segments":[],"categories_sizes":[],"default_left":[0,0,0,0,0,0,0,0,0,0,0,0,0,0,0,0,0,0,0,0,0,0,0,0,0,0,0,0,0,0,0],"id":17,"left_children":[1,3,5,7,9,11,13,15,17,19,21,23,25,27,29,-1,-1,-1,-1,-1,-1,-1,-1,-1,-1,-1,-1,-1,-1,-1,-1],"loss_changes":[3.34028E2,7.046297E1,9.9625015E1,1.4592842E1,2.653685E1,5.067975E1,3.599193E1,9.879846E0,1.6434004E1,1.4292382E1,1.8772858E1,2.1890991E1,6.210643E1,5.2966858E1,1.5607479E1,0E0,0E0,0E0,0E0,0E0,0E0,0E0,0E0,0E0,0E0,0E0,0E0,0E0,0E0,0E0,0E0],"parents":[2147483647,0,0,1,1,2,2,3,3,4,4,5,5,6,6,7,7,8,8,9,9,10,10,11,11,12,12,13,13,14,14],"right_children":[2,4,6,8,10,12,14,16,18,20,22,24,26,28,30,-1,-1,-1,-1,-1,-1,-1,-1,-1,-1,-1,-1,-1,-1,-1,-1],"split_conditions":[1.114325E-3,-3.7349113E-3,1.9893819E-3,3.526056E1,-2.574183E-9,-2.5881904E-1,-6.242999E-4,-2.253175E-3,1.0830378E-3,-4.1356494E-4,7.7876874E-4,1.6753158E-9,1.3397863E-3,4.3388373E-1,4.6025105E-2,4.359309E-3,3.0030623E-2,3.402081E-2,-1.5134036E-2,1.3929645E-2,-2.3729883E-3,-9.057279E-3,-5.1782154E-3,7.569503E-3,-6.401128E-4,2.3949845E-3,-8.1528025E-3,1.8827785E-2,6.115438E-3,5.2042734E-3,2.2531936E-2],"split_indices":[1,4,1,10,8,3,4,5,1,5,1,8,4,6,5,0,0,0,0,0,0,0,0,0,0,0,0,0,0,0,0],"split_type":[0,0,0,0,0,0,0,0,0,0,0,0,0,0,0,0,0,0,0,0,0,0,0,0,0,0,0,0,0,0,0],"sum_hessian":[3.1483445E4,1.3919917E4,1.756353E4,8.363397E2,1.3083577E4,1.0769787E4,6.793742E3,7.2513684E2,1.1120291E2,5.5937244E2,1.2524204E4,4.596625E3,6.173162E3,3.321944E3,3.4717979E3,6.868654E2,3.8271385E1,9.138239E1,1.9820515E1,2.209446E2,3.3842783E2,5.9993115E3,6.524893E3,3.544442E3,1.0521831E3,4.0442605E3,2.1289016E3,1.8417201E3,1.480224E3,3.3377874E3,1.3401038E2],"tree_param":{"num_deleted":"0","num_feature":"22","num_nodes":"31","size_leaf_vector":"1"}},{"base_weights":[4.684617E-3,-6.751765E-2,1.3837962E-1,4.0886763E-2,-1.0911907E-1,3.5448495E-1,1.178939E-1,-3.9987955E-2,1.0395495E-1,-1.650961E-1,-6.214228E-2,3.107938E-1,9.4204456E-1,8.197702E-2,2.0221733E-1,1.3641725E-2,-3.2092668E-3,1.2867504E-3,8.963444E-3,-9.8651275E-3,-3.590074E-3,-3.6523456E-4,-7.568153E-3,7.160239E-3,2.2530604E-2,2.5860205E-2,5.620859E-2,-4.941983E-3,5.038046E-3,2.136794E-2,8.637476E-3],"categories":[],"categories_nodes":[],"categories_segments":[],"categories_sizes":[],"default_left":[0,0,0,0,0,0,0,0,0,0,0,0,0,0,0,0,0,0,0,0,0,0,0,0,0,0,0,0,0,0,0],"id":18,"left_children":[1,3,5,7,9,11,13,15,17,19,21,23,25,27,29,-1,-1,-1,-1,-1,-1,-1,-1,-1,-1,-1,-1,-1,-1,-1,-1],"loss_changes":[3.0408594E2,9.225477E1,4.8818436E1,2.8947351E1,3.8845505E1,2.4028168E1,3.052803E1,1.8837542E1,1.8765762E1,2.0227997E1,3.932862E1,2.076847E1,4.0998535E0,2.4064762E1,1.9851074E1,0E0,0E0,0E0,0E0,0E0,0E0,0E0,0E0,0E0,0E0,0E0,0E0,0E0,0E0,0E0,0E0],"parents":[2147483647,0,0,1,1,2,2,3,3,4,4,5,5,6,6,7,7,8,8,9,9,10,10,11,11,12,12,13,13,14,14],"right_children":[2,4,6,8,10,12,14,16,18,20,22,24,26,28,30,-1,-1,-1,-1,-1,-1,-1,-1,-1,-1,-1,-1,-1,-1,-1,-1],"split_conditions":[1.5362387E-3,-1.6872222E-3,-3.4307227E-3,9.769115E-4,8.697086E-4,9.55414E-3,2.6256768E-3,-3.2452487E-9,-7.076623E-3,8.660254E-1,5E-1,-5E-1,3.4827134E-3,-8.660254E-1,-7.818315E-1,1.3641725E-2,-3.2092668E-3,1.2867504E-3,8.963444E-3,-9.8651275E-3,-3.590074E-3,-3.6523456E-4,-7.568153E-3,7.160239E-3,2.2530604E-2,2.5860205E-2,5.620859E-2,-4.941983E-3,5.038046E-3,2.136794E-2,8.637476E-3],"split_indices":[1,4,16,1,1,12,1,8,5,3,3,3,1,2,6,0,0,0,0,0,0,0,0,0,0,0,0,0,0,0,0],"split_type":[0,0,0,0,0,0,0,0,0,0,0,0,0,0,0,0,0,0,0,0,0,0,0,0,0,0,0,0,0,0,0],"sum_hessian":[3.1498115E4,2.045287E4,1.1045247E4,5.671909E3,1.4780959E4,9.5404614E2,1.0091201E4,2.4850244E3,3.1868845E3,6.742197E3,8.0387627E3,8.9022705E2,6.3819103E1,7.0793574E3,3.0118438E3,1.7716501E2,2.3078594E3,1.5645953E3,1.6222893E3,5.0103535E3,1.7318434E3,4.980061E3,3.0587017E3,4.064463E2,4.8378076E2,2.0960247E1,4.2858856E1,6.6536804E2,6.4139893E3,3.460425E2,2.6658013E3],"tree_param":{"num_deleted":"0","num_feature":"22","num_nodes":"31","size_leaf_vector":"1"}},{"base_weights":[-3.0126057E-3,-6.078367E-2,1.4318767E-1,-1.2984534E-1,-7.860324E-3,5.863655E-1,1.3607082E-1,-1.0217059E-1,-2.2835189E-1,5.413043E-2,-7.985128E-2,5.8323935E-2,7.375838E-1,1.7870139E-1,7.810886E-2,-5.854132E-3,1.4681075E-3,-1.2759349E-2,4.452591E-3,1.0783247E-2,1.3915581E-3,-7.988058E-3,-1.4251751E-4,7.276599E-2,-1.3893624E-2,3.1777605E-2,7.265262E-2,1.141818E-2,-8.5241813E-4,2.310992E-3,1.6979909E-2],"categories":[],"categories_nodes":[],"categories_segments":[],"categories_sizes":[],"default_left":[0,0,0,0,0,0,0,0,0,0,0,0,0,0,0,0,0,0,0,0,0,0,0,0,0,0,0,0,0,0,0],"id":19,"left_children":[1,3,5,7,9,11,13,15,17,19,21,23,25,27,29,-1,-1,-1,-1,-1,-1,-1,-1,-1,-1,-1,-1,-1,-1,-1,-1],"loss_changes":[2.6565265E2,8.2392E1,2.7941086E1,2.6611694E1,5.697811E1,1.1092926E1,2.1635284E1,1.4991943E1,1.8299873E1,2.9120754E1,3.63403E1,1.6127102E1,6.453434E0,4.9122696E1,3.0973848E1,0E0,0E0,0E0,0E0,0E0,0E0,0E0,0E0,0E0,0E0,0E0,0E0,0E0,0E0,0E0,0E0],"parents":[2147483647,0,0,1,1,2,2,3,3,4,4,5,5,6,6,7,7,8,8,9,9,10,10,11,11,12,12,13,13,14,14],"right_children":[2,4,6,8,10,12,14,16,18,20,22,24,26,28,30,-1,-1,-1,-1,-1,-1,-1,-1,-1,-1,-1,-1,-1,-1,-1,-1],"split_conditions":[1.7375358E-3,9.240833E-4,-7.2437227E-3,2.4418037E-3,1.1924536E-4,4.9685664E-3,4.3388373E-1,1E0,5.261899E-3,-8.378378E-3,6.123234E-17,2.698244E-3,7.317073E-4,6.377945E-3,3.5725113E-3,-5.854132E-3,1.4681075E-3,-1.2759349E-2,4.452591E-3,1.0783247E-2,1.3915581E-3,-7.988058E-3,-1.4251751E-4,7.276599E-2,-1.3893624E-2,3.1777605E-2,7.265262E-2,1.141818E-2,-8.5241813E-4,2.310992E-3,1.6979909E-2],"split_indices":[1,1,16,0,4,12,6,17,18,0,2,1,11,4,1,0,0,0,0,0,0,0,0,0,0,0,0,0,0,0,0],"split_type":[0,0,0,0,0,0,0,0,0,0,0,0,0,0,0,0,0,0,0,0,0,0,0,0,0,0,0,0,0,0,0],"sum_hessian":[3.1449977E4,2.2543232E4,8.906744E3,9.779053E3,1.276418E4,1.387294E2,8.768015E3,7.6370405E3,2.142012E3,6.8582666E3,5.905913E3,3.1420576E1,1.0730882E2,5.0498794E3,3.7181348E3,6.859872E3,7.7716846E2,1.975448E3,1.6656389E2,9.584716E2,5.899795E3,2.8971023E3,3.008811E3,5.1551113E0,2.6265465E1,9.645577E1,1.0853046E1,4.0279773E3,1.02190216E3,3.3157324E3,4.0240228E2],"tree_param":{"num_deleted":"0","num_feature":"22","num_nodes":"31","size_leaf_vector":"1"}},{"base_weights":[1.237873E-3,-1.1002518E-1,7.803302E-2,1.3407438E-1,-1.2489238E-1,3.8859535E-2,1.838867E-1,9.136308E-2,5.7534546E-1,8.7685175E-2,-1.3154551E-1,6.6241875E-2,-9.514619E-2,1.6391727E-1,5.1529604E-1,1.334461E-3,2.1739256E-2,4.0697884E-2,-3.0138468E-2,2.2142682E-2,2.9879599E-5,-4.8909024E-3,-8.149156E-3,5.401139E-3,-9.373675E-4,8.928031E-4,-8.728197E-3,1.0614048E-2,3.5103466E-3,3.49189E-2,6.8660565E-3],"categories":[],"categories_nodes":[],"categories_segments":[],"categories_sizes":[],"default_left":[0,0,0,0,0,0,0,0,0,0,0,0,0,0,0,0,0,0,0,0,0,0,0,0,0,0,0,0,0,0,0],"id":20,"left_children":[1,3,5,7,9,11,13,15,17,19,21,23,25,27,29,-1,-1,-1,-1,-1,-1,-1,-1,-1,-1,-1,-1,-1,-1,-1,-1],"loss_changes":[2.692049E2,4.6715286E1,7.727531E1,1.3818695E1,1.7172287E1,4.994099E1,3.3156982E1,1.4969398E1,1.8974672E1,1.1382534E1,1.24331665E1,4.0134182E1,2.0735619E1,2.149401E1,1.9555061E1,0E0,0E0,0E0,0E0,0E0,0E0,0E0,0E0,0E0,0E0,0E0,0E0,0E0,0E0,0E0,0E0],"parents":[2147483647,0,0,1,1,2,2,3,3,4,4,5,5,6,6,7,7,8,8,9,9,10,10,11,11,12,12,13,13,14,14],"right_children":[2,4,6,8,10,12,14,16,18,20,22,24,26,28,30,-1,-1,-1,-1,-1,-1,-1,-1,-1,-1,-1,-1,-1,-1,-1,-1],"split_conditions":[1.0654441E-3,-3.7349113E-3,2.3021877E-3,3.5971962E1,-2.875687E-9,8.660254E-1,5.0952747E-3,2.5606852E0,1.0387811E-3,-7.0710677E-1,-3.2646934E-5,5.4669445E1,-1.5062557E-3,3.8256317E-3,9.894771E-3,1.334461E-3,2.1739256E-2,4.0697884E-2,-3.0138468E-2,2.2142682E-2,2.9879599E-5,-4.8909024E-3,-8.149156E-3,5.401139E-3,-9.373675E-4,8.928031E-4,-8.728197E-3,1.0614048E-2,3.5103466E-3,3.49189E-2,6.8660565E-3],"split_indices":[1,4,1,10,8,3,1,14,13,3,4,10,4,18,4,0,0,0,0,0,0,0,0,0,0,0,0,0,0,0,0],"split_type":[0,0,0,0,0,0,0,0,0,0,0,0,0,0,0,0,0,0,0,0,0,0,0,0,0,0,0,0,0,0,0],"sum_hessian":[3.1503537E4,1.2864203E4,1.8639334E4,7.3764606E2,1.2126557E4,1.36064795E4,5.0328535E3,6.743031E2,6.3342937E1,3.672301E2,1.1759327E4,1.129884E4,2.3076401E3,4.749085E3,2.8376862E2,5.689244E2,1.05378716E2,5.3095257E1,1.0247681E1,7.099402E1,2.9623608E2,5.6767983E3,6.082529E3,7.575089E3,3.7237505E3,9.526553E2,1.3549849E3,3.1308367E3,1.6182484E3,1.9022456E2,9.354404E1],"tree_param":{"num_deleted":"0","num_feature":"22","num_nodes":"31","size_leaf_vector":"1"}},{"base_weights":[1.8047271E-3,-7.92363E-2,8.720853E-2,-1.1193754E-2,-1.3833323E-1,5.115426E-1,7.943801E-2,-1.6751829E-1,2.704671E-2,-1.5448779E-1,-8.120234E-3,-2.169193E-1,6.200084E-1,2.5782693E-2,1.2647195E-1,-1.0105256E-2,1.0837853E-2,2.757665E-3,-7.639716E-3,-8.27252E-3,2.5274407E-3,8.7837055E-3,-1.4318921E-2,5.2136827E-2,-2.6028156E-2,3.427832E-2,-2.322705E-2,-1.9198479E-3,6.531006E-3,1.5450343E-2,5.3156884E-3],"categories":[],"categories_nodes":[],"categories_segments":[],"categories_sizes":[],"default_left":[0,0,0,0,0,0,0,0,0,0,0,0,0,0,0,0,0,0,0,0,0,0,0,0,0,0,0,0,0,0,0],"id":21,"left_children":[1,3,5,7,9,11,13,15,17,19,21,23,25,27,29,-1,-1,-1,-1,-1,-1,-1,-1,-1,-1,-1,-1,-1,-1,-1,-1],"loss_changes":[2.1773247E2,6.489621E1,5.0415306E1,4.4877155E1,1.8160324E1,2.1955238E1,3.7952263E1,1.9675537E1,3.0491983E1,1.7290344E1,4.8937183E1,1.4825065E1,1.7543068E1,4.7310444E1,2.9424088E1,0E0,0E0,0E0,0E0,0E0,0E0,0E0,0E0,0E0,0E0,0E0,0E0,0E0,0E0,0E0,0E0],"parents":[2147483647,0,0,1,1,2,2,3,3,4,4,5,5,6,6,7,7,8,8,9,9,10,10,11,11,12,12,13,13,14,14],"right_children":[2,4,6,8,10,12,14,16,18,20,22,24,26,28,30,-1,-1,-1,-1,-1,-1,-1,-1,-1,-1,-1,-1,-1,-1,-1,-1],"split_conditions":[1.2447641E-3,-3.7895667E-4,-8.336908E-9,6.543014E-4,8.405439E-3,-7.818315E-1,1.8100397E-3,4.8685493E-4,9.659258E-1,1E0,5E-1,-5E-1,1E0,5E-1,-7.818315E-1,-1.0105256E-2,1.0837853E-2,2.757665E-3,-7.639716E-3,-8.27252E-3,2.5274407E-3,8.7837055E-3,-1.4318921E-2,5.2136827E-2,-2.6028156E-2,3.427832E-2,-2.322705E-2,-1.9198479E-3,6.531006E-3,1.5450343E-2,5.3156884E-3],"split_indices":[1,4,8,1,5,6,1,18,2,3,3,3,2,2,6,0,0,0,0,0,0,0,0,0,0,0,0,0,0,0,0],"split_type":[0,0,0,0,0,0,0,0,0,0,0,0,0,0,0,0,0,0,0,0,0,0,0,0,0,0,0,0,0,0,0],"sum_hessian":[3.1455662E4,1.6139838E4,1.5315824E4,7.503337E3,8.636501E3,2.7355972E2,1.5042265E4,1.4739916E3,6.029345E3,7.682701E3,9.537994E2,3.5199207E1,2.3836052E2,7.0281206E3,8.0141445E3,1.353051E3,1.2094058E2,5.2155474E3,8.137978E2,7.2932876E3,3.8941373E2,5.746238E2,3.7917563E2,6.095685E0,2.9103521E1,2.2533742E2,1.3023098E1,4.3596763E3,2.6684443E3,7.946365E2,7.219508E3],"tree_param":{"num_deleted":"0","num_feature":"22","num_nodes":"31","size_leaf_vector":"1"}},{"base_weights":[5.083154E-3,-8.424742E-2,7.687888E-2,-4.4877186E-2,-1.5437639E-1,2.5047733E-2,1.4080817E-1,2.522145E-1,-5.471115E-2,-1.7420027E-1,-3.6150122E-5,5.4767366E-2,-1.2161742E-1,1.2660462E-1,3.8261637E-1,3.4492355E-2,7.90199E-3,-3.7271224E-3,4.3092915E-3,-8.869286E-3,3.6670577E-2,8.990013E-3,-1.7029276E-2,-5.2529587E-3,4.1488437E-3,2.3359278E-2,-7.4103647E-3,7.584152E-3,5.8190007E-4,5.090668E-3,2.6957333E-2],"categories":[],"categories_nodes":[],"categories_segments":[],"categories_sizes":[],"default_left":[0,0,0,0,0,0,0,0,0,0,0,0,0,0,0,0,0,0,0,0,0,0,0,0,0,0,0,0,0,0,0],"id":22,"left_children":[1,3,5,7,9,11,13,15,17,19,21,23,25,27,29,-1,-1,-1,-1,-1,-1,-1,-1,-1,-1,-1,-1,-1,-1,-1,-1],"loss_changes":[2.016339E2,3.865683E1,5.774231E1,2.6230019E1,1.5398399E1,4.1974567E1,2.6703552E1,1.1648956E1,2.4285233E1,1.30681E1,3.531216E1,3.6113758E1,2.548971E1,2.1247108E1,1.8874104E1,0E0,0E0,0E0,0E0,0E0,0E0,0E0,0E0,0E0,0E0,0E0,0E0,0E0,0E0,0E0,0E0],"parents":[2147483647,0,0,1,1,2,2,3,3,4,4,5,5,6,6,7,7,8,8,9,9,10,10,11,11,12,12,13,13,14,14],"right_children":[2,4,6,8,10,12,14,16,18,20,22,24,26,28,30,-1,-1,-1,-1,-1,-1,-1,-1,-1,-1,-1,-1,-1,-1,-1,-1],"split_conditions":[1.1267258E-3,5.343213E1,1.8718066E-3,-3.745451E-4,8.405439E-3,8.660254E-1,4.673311E-3,-1.0638298E-2,1E0,8.114829E1,7.0710677E-1,-8.660254E-1,-5.118447E-4,4.7415783E-4,-6.7594156E-2,3.4492355E-2,7.90199E-3,-3.7271224E-3,4.3092915E-3,-8.869286E-3,3.6670577E-2,8.990013E-3,-1.7029276E-2,-5.2529587E-3,4.1488437E-3,2.3359278E-2,-7.4103647E-3,7.584152E-3,5.8190007E-4,5.090668E-3,2.6957333E-2],"split_indices":[1,10,1,7,5,3,1,5,17,10,3,2,7,7,9,0,0,0,0,0,0,0,0,0,0,0,0,0,0,0,0],"split_type":[0,0,0,0,0,0,0,0,0,0,0,0,0,0,0,0,0,0,0,0,0,0,0,0,0,0,0,0,0,0,0],"sum_hessian":[3.1435758E4,1.4006929E4,1.742883E4,8.972797E3,5.0341323E3,9.626743E3,7.8020864E3,2.8614282E2,8.686653E3,4.4606743E3,5.734581E2,8.005768E3,1.6209757E3,7.37158E3,4.3050638E2,4.889723E1,2.3724559E2,7.6157896E3,1.0708639E3,4.446331E3,1.4343305E1,3.756481E2,1.9781003E2,1.2001606E3,6.8056074E3,6.888388E1,1.5520918E3,6.050772E3,1.320808E3,1.550872E2,2.7541916E2],"tree_param":{"num_deleted":"0","num_feature":"22","num_nodes":"31","size_leaf_vector":"1"}},{"base_weights":[1.7299657E-4,-4.802856E-2,8.1396215E-2,3.1889763E-3,-1.0004953E-1,2.8132352E-1,6.1788965E-2,1.00211464E-1,-2.0473547E-2,-1.1690827E-1,4.326868E-2,6.2318265E-1,2.0203465E-1,-7.004697E-2,7.72371E-2,5.808382E-3,-2.6813079E-2,-8.3056195E-3,5.627376E-4,3.3180483E-3,-6.4001046E-3,4.2529672E-2,1.3368852E-3,4.243958E-2,1.15202805E-2,8.480857E-3,3.1892765E-2,1.6980503E-2,-6.20768E-3,3.4065668E-3,1.6530683E-2],"categories":[],"categories_nodes":[],"categories_segments":[],"categories_sizes":[],"default_left":[0,0,0,0,0,0,0,0,0,0,0,0,0,0,0,0,0,0,0,0,0,0,0,0,0,0,0,0,0,0,0],"id":23,"left_children":[1,3,5,7,9,11,13,15,17,19,21,23,25,27,29,-1,-1,-1,-1,-1,-1,-1,-1,-1,-1,-1,-1,-1,-1,-1,-1],"loss_changes":[1.2311578E2,5.2585022E1,4.586741E1,2.2838516E1,2.3667625E1,2.8105186E1,2.1735043E1,1.9881575E1,3.695832E1,1.7828499E1,1.36853285E1,1.7018478E1,1.1818977E1,2.4863573E1,2.1980099E1,0E0,0E0,0E0,0E0,0E0,0E0,0E0,0E0,0E0,0E0,0E0,0E0,0E0,0E0,0E0,0E0],"parents":[2147483647,0,0,1,1,2,2,3,3,4,4,5,5,6,6,7,7,8,8,9,9,10,10,11,11,12,12,13,13,14,14],"right_children":[2,4,6,8,10,12,14,16,18,20,22,24,26,28,30,-1,-1,-1,-1,-1,-1,-1,-1,-1,-1,-1,-1,-1,-1,-1,-1],"split_conditions":[1.2970169E-3,-1.2819571E-4,-3.4307227E-3,-3.80989E-3,1.7325436E-3,-7.0710677E-1,-8.660254E-1,1.2738854E-3,3.8013268E1,-2.574183E-9,-9.517096E-3,-8.938869E-3,9.55414E-3,-3.0164256E-9,8.028544E-9,5.808382E-3,-2.6813079E-2,-8.3056195E-3,5.627376E-4,3.3180483E-3,-6.4001046E-3,4.2529672E-2,1.3368852E-3,4.243958E-2,1.15202805E-2,8.480857E-3,3.1892765E-2,1.6980503E-2,-6.20768E-3,3.4065668E-3,1.6530683E-2],"split_indices":[12,4,16,4,16,2,2,12,10,8,5,5,12,8,8,0,0,0,0,0,0,0,0,0,0,0,0,0,0,0,0],"split_type":[0,0,0,0,0,0,0,0,0,0,0,0,0,0,0,0,0,0,0,0,0,0,0,0,0,0,0,0,0,0,0],"sum_hessian":[3.1443088E4,1.9732764E4,1.1710322E4,9.943392E3,9.789373E3,1.0438662E3,1.0666456E4,1.9490485E3,7.9943433E3,8.759594E3,1.0297786E3,1.944711E2,8.493951E2,1.1178738E3,9.548583E3,1.9026543E3,4.6394146E1,1.4292126E3,6.565131E3,4.9929498E2,8.260299E3,1.9083622E1,1.0106949E3,1.2233421E2,7.2136894E1,7.9263525E2,5.6759846E1,1.2938947E2,9.884843E2,9.219361E3,3.292217E2],"tree_param":{"num_deleted":"0","num_feature":"22","num_nodes":"31","size_leaf_vector":"1"}},{"base_weights":[1.2593105E-3,-4.276635E-2,1.337319E-1,2.7914755E-2,-8.241192E-2,1.4226303E-1,-2.0051436E-1,-1.0735556E-1,6.0528304E-2,7.8081605E-3,-1.167286E-1,6.889031E-2,1.7999461E-1,4.9105036E-1,-4.6117714E-1,1.7688854E-2,-6.344075E-3,6.4563416E-2,2.9240204E-3,-9.079224E-3,4.728918E-3,-6.0055456E-3,1.5385059E-2,-4.633665E-3,7.5091445E-3,1.3651057E-2,4.897732E-3,3.9900538E-2,-3.5330188E-2,6.841146E-2,-3.0330557E-2],"categories":[],"categories_nodes":[],"categories_segments":[],"categories_sizes":[],"default_left":[0,0,0,0,0,0,0,0,0,0,0,0,0,0,0,0,0,0,0,0,0,0,0,0,0,0,0,0,0,0,0],"id":24,"left_children":[1,3,5,7,9,11,13,15,17,19,21,23,25,27,29,-1,-1,-1,-1,-1,-1,-1,-1,-1,-1,-1,-1,-1,-1,-1,-1],"loss_changes":[1.8357626E2,6.62054E1,2.2428497E1,3.7461876E1,4.686763E1,2.1167526E1,3.5649906E1,1.4908297E1,1.7063755E1,6.857771E1,1.5787598E1,3.4215134E1,3.852333E1,2.0811436E1,3.9277466E1,0E0,0E0,0E0,0E0,0E0,0E0,0E0,0E0,0E0,0E0,0E0,0E0,0E0,0E0,0E0,0E0],"parents":[2147483647,0,0,1,1,2,2,3,3,4,4,5,5,6,6,7,7,8,8,9,9,10,10,11,11,12,12,13,13,14,14],"right_children":[2,4,6,8,10,12,14,16,18,20,22,24,26,28,30,-1,-1,-1,-1,-1,-1,-1,-1,-1,-1,-1,-1,-1,-1,-1,-1],"split_conditions":[1.8718066E-3,-2.4872932E-3,1E0,7.641065E-4,-5E-1,-7.0710677E-1,-4.3388373E-1,-1.8539694E-3,-2.7218664E-2,-4.3388373E-1,2.077922E-2,-1.0638298E-2,-8.5336005E-4,1.20005645E-2,-3.4158416E-2,1.7688854E-2,-6.344075E-3,6.4563416E-2,2.9240204E-3,-9.079224E-3,4.728918E-3,-6.0055456E-3,1.5385059E-2,-4.633665E-3,7.5091445E-3,1.3651057E-2,4.897732E-3,3.9900538E-2,-3.5330188E-2,6.841146E-2,-3.0330557E-2],"split_indices":[1,5,3,1,3,3,6,16,5,6,5,5,4,5,5,0,0,0,0,0,0,0,0,0,0,0,0,0,0,0,0],"split_type":[0,0,0,0,0,0,0,0,0,0,0,0,0,0,0,0,0,0,0,0,0,0,0,0,0,0,0,0,0,0,0],"sum_hessian":[3.1472615E4,2.3622576E4,7.850039E3,8.488411E3,1.5134165E4,7.6556514E3,1.9438757E2,1.6480148E3,6.840396E3,4.1702065E3,1.0963959E4,2.6017876E3,5.053864E3,5.279623E1,1.4159134E2,6.580069E1,1.5822141E3,9.753987E0,6.830642E3,1.3095803E3,2.860626E3,1.0878461E4,8.549808E1,8.706344E2,1.7311532E3,2.3664287E3,2.687435E3,4.245678E1,1.033945E1,9.473171E0,1.3211816E2],"tree_param":{"num_deleted":"0","num_feature":"22","num_nodes":"31","size_leaf_vector":"1"}},{"base_weights":[3.5676674E-3,-4.3588717E-2,1.2122848E-1,-9.50927E-2,4.3071383E-3,1.1066078E-1,4.3922144E-1,-7.188429E-2,-1.7685781E-1,7.354781E-2,-3.561983E-2,1.1850946E-1,-1.9615906E-1,6.348973E-1,1.05035275E-1,-4.006341E-3,3.7169196E-3,-1.0634612E-2,7.6816295E-4,1.1077144E-3,8.671337E-3,-5.9272435E-5,-6.609395E-3,7.872871E-3,3.3890412E-3,-2.5191407E-3,-4.8133597E-2,8.072879E-4,3.948332E-2,-1.6960932E-2,1.835399E-2],"categories":[],"categories_nodes":[],"categories_segments":[],"categories_sizes":[],"default_left":[0,0,0,0,0,0,0,0,0,0,0,0,0,0,0,0,0,0,0,0,0,0,0,0,0,0,0,0,0,0,0],"id":25,"left_children":[1,3,5,7,9,11,13,15,17,19,21,23,25,27,29,-1,-1,-1,-1,-1,-1,-1,-1,-1,-1,-1,-1,-1,-1,-1,-1],"loss_changes":[1.7455202E2,5.540476E1,3.0147339E1,2.0504517E1,3.217837E1,2.1014793E1,1.8751503E1,1.0172207E1,1.648491E1,2.1837355E1,2.4539251E1,1.6761871E1,2.4207827E1,1.7349174E1,1.2826441E1,0E0,0E0,0E0,0E0,0E0,0E0,0E0,0E0,0E0,0E0,0E0,0E0,0E0,0E0,0E0,0E0],"parents":[2147483647,0,0,1,1,2,2,3,3,4,4,5,5,6,6,7,7,8,8,9,9,10,10,11,11,12,12,13,13,14,14],"right_children":[2,4,6,8,10,12,14,16,18,20,22,24,26,28,30,-1,-1,-1,-1,-1,-1,-1,-1,-1,-1,-1,-1,-1,-1,-1,-1],"split_conditions":[1.7375358E-3,9.769115E-4,5.0952747E-3,2.4418037E-3,-2.4398179E-3,1E0,8.969641E-3,1E0,1.5177854E-3,7.818315E-1,7.0710677E-1,4.3388373E-1,1.20005645E-2,2.6919478E-1,3.629119E-2,-4.006341E-3,3.7169196E-3,-1.0634612E-2,7.6816295E-4,1.1077144E-3,8.671337E-3,-5.9272435E-5,-6.609395E-3,7.872871E-3,3.3890412E-3,-2.5191407E-3,-4.8133597E-2,8.072879E-4,3.948332E-2,-1.6960932E-2,1.835399E-2],"split_indices":[1,1,1,0,0,3,5,3,16,6,3,6,5,14,5,0,0,0,0,0,0,0,0,0,0,0,0,0,0,0,0],"split_type":[0,0,0,0,0,0,0,0,0,0,0,0,0,0,0,0,0,0,0,0,0,0,0,0,0,0,0,0,0,0,0],"sum_hessian":[3.1455922E4,2.2456336E4,8.999585E3,1.0820386E4,1.163595E4,8.712235E3,2.873501E2,8.430797E3,2.3895886E3,4.255728E3,7.380222E3,8.495985E3,2.162499E2,1.8028725E2,1.0706287E2,7.981881E3,4.4891663E2,2.0141963E3,3.7539224E2,2.8114214E3,1.4443068E3,5.44181E3,1.9384122E3,4.803702E3,3.6922827E3,1.8309291E2,3.3156986E1,3.646866E1,1.4381859E2,3.9486813E1,6.757605E1],"tree_param":{"num_deleted":"0","num_feature":"22","num_nodes":"31","size_leaf_vector":"1"}},{"base_weights":[4.1890648E-4,-7.572263E-2,5.916236E-2,1.5103278E-1,-9.065755E-2,4.4103554E-1,5.3069256E-2,1.082224E-1,4.5772088E-1,-4.9610488E-2,-1.207188E-1,2.3229018E-1,7.439497E-1,1.8824339E-2,1.0495024E-1,6.436652E-3,-1.7889714E-2,1.0304039E-2,4.078034E-2,-8.051908E-3,-9.942788E-4,-4.9705553E-4,-6.926179E-3,8.6829744E-2,3.8692185E-3,4.244299E-2,-2.6301166E-2,-1.6501151E-3,3.175888E-3,1.5206057E-2,4.1692248E-3],"categories":[],"categories_nodes":[],"categories_segments":[],"categories_sizes":[],"default_left":[0,0,0,0,0,0,0,0,0,0,0,0,0,0,0,0,0,0,0,0,0,0,0,0,0,0,0,0,0,0,0],"id":26,"left_children":[1,3,5,7,9,11,13,15,17,19,21,23,25,27,29,-1,-1,-1,-1,-1,-1,-1,-1,-1,-1,-1,-1,-1,-1,-1,-1],"loss_changes":[1.4050809E2,4.634809E1,4.1201912E1,1.1001396E1,1.5821693E1,1.72813E1,3.1005356E1,7.1713657E0,8.971649E0,1.79709E1,1.4601913E1,3.8614307E1,1.5702469E1,2.4367687E1,2.9752205E1,0E0,0E0,0E0,0E0,0E0,0E0,0E0,0E0,0E0,0E0,0E0,0E0,0E0,0E0,0E0,0E0],"parents":[2147483647,0,0,1,1,2,2,3,3,4,4,5,5,6,6,7,7,8,8,9,9,10,10,11,11,12,12,13,13,14,14],"right_children":[2,4,6,8,10,12,14,16,18,20,22,24,26,28,30,-1,-1,-1,-1,-1,-1,-1,-1,-1,-1,-1,-1,-1,-1,-1,-1],"split_conditions":[1.114325E-3,-3.7349113E-3,-8.336908E-9,3.5507362E1,-4.0701515E-4,6.234898E-1,1.9531362E-3,3.451489E-10,6.234898E-1,6.1848434E-4,2.4979153E-1,-8.660254E-1,1E0,-1.8369701E-16,-7.818315E-1,6.436652E-3,-1.7889714E-2,1.0304039E-2,4.078034E-2,-8.051908E-3,-9.942788E-4,-4.9705553E-4,-6.926179E-3,8.6829744E-2,3.8692185E-3,4.244299E-2,-2.6301166E-2,-1.6501151E-3,3.175888E-3,1.5206057E-2,4.1692248E-3],"split_indices":[1,4,8,10,4,17,1,8,17,1,14,2,2,2,6,0,0,0,0,0,0,0,0,0,0,0,0,0,0,0,0],"split_type":[0,0,0,0,0,0,0,0,0,0,0,0,0,0,0,0,0,0,0,0,0,0,0,0,0,0,0,0,0,0,0],"sum_hessian":[3.1410965E4,1.3679158E4,1.7731807E4,8.442333E2,1.2834925E4,2.7667172E2,1.7455135E4,7.427462E2,1.01487076E2,5.4283867E3,7.406538E3,1.6546275E2,1.11208984E2,1.051653E4,6.938605E3,7.125767E2,3.0169477E1,6.1058502E1,4.0428574E1,1.1413987E3,4.2869883E3,1.026294E3,6.380244E3,1.3987741E1,1.51475E2,1.0321902E2,7.9899645E0,4.869322E3,5.6472085E3,6.7574805E2,6.262857E3],"tree_param":{"num_deleted":"0","num_feature":"22","num_nodes":"31","size_leaf_vector":"1"}},{"base_weights":[-5.940932E-3,-8.546606E-2,4.7991946E-2,1.290934E-1,-9.8869644E-2,1.8316919E-2,1.2223921E-1,8.13948E-2,6.256596E-1,-6.431732E-2,-1.3284904E-1,6.365251E-2,-3.6141302E-2,1.5565819E-1,2.0006826E-2,4.2526674E-2,2.7136416E-3,4.0556412E-2,-1.8970994E-2,-4.4377483E-3,2.7886275E-3,-2.1040173E-2,-6.2345034E-3,3.011766E-3,3.7717264E-2,-9.363515E-3,-8.417039E-4,1.0682574E-2,3.7406252E-3,-1.3580195E-2,3.9420975E-3],"categories":[],"categories_nodes":[],"categories_segments":[],"categories_sizes":[],"default_left":[0,0,0,0,0,0,0,0,0,0,0,0,0,0,0,0,0,0,0,0,0,0,0,0,0,0,0,0,0,0,0],"id":27,"left_children":[1,3,5,7,9,11,13,15,17,19,21,23,25,27,29,-1,-1,-1,-1,-1,-1,-1,-1,-1,-1,-1,-1,-1,-1,-1,-1],"loss_changes":[1.347303E2,3.6525833E1,4.1230343E1,1.7577602E1,1.4006638E1,3.3026737E1,1.8244759E1,1.4137585E1,1.262528E1,1.7407104E1,1.4043289E1,1.7120737E1,1.7716152E1,1.8842033E1,2.264675E1,0E0,0E0,0E0,0E0,0E0,0E0,0E0,0E0,0E0,0E0,0E0,0E0,0E0,0E0,0E0,0E0],"parents":[2147483647,0,0,1,1,2,2,3,3,4,4,5,5,6,6,7,7,8,8,9,9,10,10,11,11,12,12,13,13,14,14],"right_children":[2,4,6,8,10,12,14,16,18,20,22,24,26,28,30,-1,-1,-1,-1,-1,-1,-1,-1,-1,-1,-1,-1,-1,-1,-1,-1],"split_conditions":[1.0654441E-3,-3.7349113E-3,2.250956E-3,3.5971962E1,-3.2646934E-5,2.6945348E-4,6.6539925E-3,-5.118447E-4,1.0387811E-3,6.4690027E-4,1.3993842E-4,5.696689E-9,-8.660254E-1,4.3388373E-1,-7.0710677E-1,4.2526674E-2,2.7136416E-3,4.0556412E-2,-1.8970994E-2,-4.4377483E-3,2.7886275E-3,-2.1040173E-2,-6.2345034E-3,3.011766E-3,3.7717264E-2,-9.363515E-3,-8.417039E-4,1.0682574E-2,3.7406252E-3,-1.3580195E-2,3.9420975E-3],"split_indices":[1,4,1,10,4,4,18,7,13,13,12,8,2,6,2,0,0,0,0,0,0,0,0,0,0,0,0,0,0,0,0],"split_type":[0,0,0,0,0,0,0,0,0,0,0,0,0,0,0,0,0,0,0,0,0,0,0,0,0,0,0,0,0,0,0],"sum_hessian":[3.1409479E4,1.2693179E4,1.87163E4,7.4534247E2,1.1947836E4,1.3373675E4,5.3426255E3,6.817065E2,6.3636032E1,5.9268574E3,6.020979E3,7.298476E3,6.0751987E3,4.0254607E3,1.3171649E3,2.1606121E1,6.6010034E2,5.40089E1,9.627132E0,4.9253774E3,1.0014799E3,1.6363998E2,5.857339E3,7.2642397E3,3.4236515E1,6.864343E2,5.388764E3,2.3422236E3,1.6832369E3,2.2008081E2,1.0970841E3],"tree_param":{"num_deleted":"0","num_feature":"22","num_nodes":"31","size_leaf_vector":"1"}},{"base_weights":[-4.5403633E-3,-5.182635E-2,8.057108E-2,2.331198E-3,-9.8874725E-2,2.2518013E-1,6.6201136E-2,-1.5557049E-1,2.432705E-2,-1.08265124E-1,1.3123666E-1,3.873286E-1,1.4648654E-1,5.76083E-2,2.4572645E-1,-9.521588E-3,2.2619773E-2,2.275385E-3,-5.3083883E-3,-1.4243649E-2,-4.942089E-3,4.6233863E-2,3.5875347E-3,1.699986E-2,6.0526397E-2,9.105038E-3,-6.43417E-3,3.9313724E-3,-4.0437276E-3,7.002265E-2,7.544994E-3],"categories":[],"categories_nodes":[],"categories_segments":[],"categories_sizes":[],"default_left":[0,0,0,0,0,0,0,0,0,0,0,0,0,0,0,0,0,0,0,0,0,0,0,0,0,0,0,0,0,0,0],"id":28,"left_children":[1,3,5,7,9,11,13,15,17,19,21,23,25,27,29,-1,-1,-1,-1,-1,-1,-1,-1,-1,-1,-1,-1,-1,-1,-1,-1],"loss_changes":[1.26250175E2,5.1389996E1,2.3244324E1,3.256347E1,2.334011E1,1.2798031E1,1.5688145E1,2.4411528E1,2.2754772E1,1.7196686E1,1.9844267E1,1.2141888E1,6.7388334E0,2.8331242E1,5.050968E1,0E0,0E0,0E0,0E0,0E0,0E0,0E0,0E0,0E0,0E0,0E0,0E0,0E0,0E0,0E0,0E0],"parents":[2147483647,0,0,1,1,2,2,3,3,4,4,5,5,6,6,7,7,8,8,9,9,10,10,11,11,12,12,13,13,14,14],"right_children":[2,4,6,8,10,12,14,16,18,20,22,24,26,28,30,-1,-1,-1,-1,-1,-1,-1,-1,-1,-1,-1,-1,-1,-1,-1,-1],"split_conditions":[1.5362387E-3,-4.0701515E-4,-2.5592523E-3,6.1848434E-4,4.4378964E-4,-3.0898557E-9,7.140812E-9,7.11575E-4,9.659258E-1,-9.659258E-1,1E0,-3.2452487E-9,1.8909974E-1,4.7415783E-4,-9.659258E-1,-9.521588E-3,2.2619773E-2,2.275385E-3,-5.3083883E-3,-1.4243649E-2,-4.942089E-3,4.6233863E-2,3.5875347E-3,1.699986E-2,6.0526397E-2,9.105038E-3,-6.43417E-3,3.9313724E-3,-4.0437276E-3,7.002265E-2,7.544994E-3],"split_indices":[1,4,11,1,7,8,8,18,2,2,20,8,9,7,3,0,0,0,0,0,0,0,0,0,0,0,0,0,0,0,0],"split_type":[0,0,0,0,0,0,0,0,0,0,0,0,0,0,0,0,0,0,0,0,0,0,0,0,0,0,0,0,0,0,0],"sum_hessian":[3.136709E4,2.016503E4,1.120206E4,9.37444E3,1.0790589E4,1.01023834E3,1.0191821E4,1.1448097E3,8.229631E3,1.0368483E4,4.2210617E2,3.2795905E2,6.822793E2,9.7284375E3,4.6338416E2,1.0837775E3,6.1032246E1,7.081578E3,1.1480529E3,5.227221E2,9.845761E3,2.785891E1,3.9424725E2,3.121894E2,1.5769661E1,6.047038E2,7.757552E1,8.447302E3,1.2811354E3,3.3558155E1,4.29826E2],"tree_param":{"num_deleted":"0","num_feature":"22","num_nodes":"31","size_leaf_vector":"1"}},{"base_weights":[6.484493E-4,9.271248E-2,-2.2938175E-2,3.986936E-1,7.909311E-2,6.0044967E-2,-5.9775077E-2,6.84185E-1,3.1440324E-1,4.3285273E-2,1.7751953E-1,2.292419E-1,-8.678326E-3,2.0347452E-2,-7.787976E-2,3.8921926E-2,6.625477E-3,2.0837424E-2,-2.4535132E-3,8.106168E-3,8.5733445E-5,1.917806E-2,3.4259197E-3,1.0438206E-2,6.728066E-2,-6.7084073E-3,1.9295266E-3,1.2968508E-4,1.7851394E-2,-4.829977E-3,-1.6889538E-4],"categories":[],"categories_nodes":[],"categories_segments":[],"categories_sizes":[],"default_left":[0,0,0,0,0,0,0,0,0,0,0,0,0,0,0,0,0,0,0,0,0,0,0,0,0,0,0,0,0,0,0],"id":29,"left_children":[1,3,5,7,9,11,13,15,17,19,21,23,25,27,29,-1,-1,-1,-1,-1,-1,-1,-1,-1,-1,-1,-1,-1,-1,-1,-1],"loss_changes":[6.814713E1,2.6601566E1,7.636741E1,6.1782227E0,2.1581581E1,8.931849E1,2.510329E1,2.9529305E0,7.9756393E0,2.220736E1,3.6642597E1,5.0222504E1,3.2418125E1,1.9046377E1,1.9678368E1,0E0,0E0,0E0,0E0,0E0,0E0,0E0,0E0,0E0,0E0,0E0,0E0,0E0,0E0,0E0,0E0],"parents":[2147483647,0,0,1,1,2,2,3,3,4,4,5,5,6,6,7,7,8,8,9,9,10,10,11,11,12,12,13,13,14,14],"right_children":[2,4,6,8,10,12,14,16,18,20,22,24,26,28,30,-1,-1,-1,-1,-1,-1,-1,-1,-1,-1,-1,-1,-1,-1,-1,-1],"split_conditions":[-3.1896858E-3,-7.3112236E-9,-5E-1,-3.2051282E-3,7.0710677E-1,-2.5881904E-1,-4.0374678E-3,-4.1242116E-3,7.0710677E-1,-7.0710677E-1,-6.0707075E-3,4.6025105E-2,-4.3388373E-1,5.0994258E-9,1.2800802E-3,3.8921926E-2,6.625477E-3,2.0837424E-2,-2.4535132E-3,8.106168E-3,8.5733445E-5,1.917806E-2,3.4259197E-3,1.0438206E-2,6.728066E-2,-6.7084073E-3,1.9295266E-3,1.2968508E-4,1.7851394E-2,-4.829977E-3,-1.6889538E-4],"split_indices":[4,8,3,11,2,2,5,5,3,2,4,5,6,8,16,0,0,0,0,0,0,0,0,0,0,0,0,0,0,0,0],"split_type":[0,0,0,0,0,0,0,0,0,0,0,0,0,0,0,0,0,0,0,0,0,0,0,0,0,0,0,0,0,0,0],"sum_hessian":[3.1378232E4,6.3990376E3,2.4979195E4,2.70723E2,6.1283145E3,7.6787764E3,1.7300418E4,5.9141632E1,2.1158136E2,4.495504E3,1.6328108E3,2.217214E3,5.4615625E3,3.188171E3,1.4112247E4,4.9907722E1,9.233909E0,1.6503052E2,4.6550846E1,1.1635901E3,3.3319136E3,5.634675E2,1.0693434E3,2.1790684E3,3.8145706E1,1.4938842E3,3.9676782E3,3.030051E3,1.5811986E2,1.1277482E4,2.8347651E3],"tree_param":{"num_deleted":"0","num_feature":"22","num_nodes":"31","size_leaf_vector":"1"}},{"base_weights":[1.3166833E-3,-8.054887E-2,4.3672327E-2,-2.0147663E-1,-6.874722E-2,8.5526556E-2,-1.8361561E-3,-9.74214E-2,-4.7780377E-1,2.8923573E-2,-8.476848E-2,8.046867E-2,7.4767274E-1,8.337308E-2,-5.6862995E-2,2.0430697E-2,-6.482093E-3,-1.949091E-2,-4.4138726E-2,9.29661E-3,-1.9374386E-3,-4.425292E-3,1.8718109E-2,5.0935727E-3,6.709287E-4,6.9765754E-2,2.640467E-2,6.2128976E-3,-6.102979E-3,-3.4754467E-3,1.4049696E-2],"categories":[],"categories_nodes":[],"categories_segments":[],"categories_sizes":[],"default_left":[0,0,0,0,0,0,0,0,0,0,0,0,0,0,0,0,0,0,0,0,0,0,0,0,0,0,0,0,0,0,0],"id":30,"left_children":[1,3,5,7,9,11,13,15,17,19,21,23,25,27,29,-1,-1,-1,-1,-1,-1,-1,-1,-1,-1,-1,-1,-1,-1,-1,-1],"loss_changes":[1.0877415E2,1.5230431E1,3.93835E1,2.7213566E1,1.525959E1,3.5938423E1,4.645171E1,1.1349195E1,8.660442E0,1.4620192E1,1.4405991E1,1.5333427E1,1.0372936E1,3.2671234E1,2.5739689E1,0E0,0E0,0E0,0E0,0E0,0E0,0E0,0E0,0E0,0E0,0E0,0E0,0E0,0E0,0E0,0E0],"parents":[2147483647,0,0,1,1,2,2,3,3,4,4,5,5,6,6,7,7,8,8,9,9,10,10,11,11,12,12,13,13,14,14],"right_children":[2,4,6,8,10,12,14,16,18,20,22,24,26,28,30,-1,-1,-1,-1,-1,-1,-1,-1,-1,-1,-1,-1,-1,-1,-1,-1],"split_conditions":[9.769115E-4,-8.660254E-1,-5.3871686E-6,5.6636124E1,2.5466293E-1,9.55414E-3,-5E-1,-2.812951E-9,7.818315E-1,0E0,4.167514E-3,7.0710677E-1,1.1710409E0,9.749279E-1,8.028544E-9,2.0430697E-2,-6.482093E-3,-1.949091E-2,-4.4138726E-2,9.29661E-3,-1.9374386E-3,-4.425292E-3,1.8718109E-2,5.0935727E-3,6.709287E-4,6.9765754E-2,2.640467E-2,6.2128976E-3,-6.102979E-3,-3.4754467E-3,1.4049696E-2],"split_indices":[1,3,4,10,14,12,3,8,6,3,13,3,14,6,8,0,0,0,0,0,0,0,0,0,0,0,0,0,0,0,0],"split_type":[0,0,0,0,0,0,0,0,0,0,0,0,0,0,0,0,0,0,0,0,0,0,0,0,0,0,0,0,0,0,0],"sum_hessian":[3.1367416E4,1.069447E4,2.0672947E4,9.483792E2,9.746091E3,1.0768719E4,9.904229E3,6.9055133E2,2.578279E2,1.37279E3,8.373301E3,1.0688828E4,7.989008E1,3.8856326E3,6.0185957E3,4.019519E1,6.5035614E2,2.1432925E2,4.3498676E1,4.1290784E2,9.5988226E2,8.307001E3,6.62997E1,8.1013164E3,2.5875117E3,1.8136776E1,6.1753307E1,3.2413755E3,6.4425726E2,5.8027393E3,2.1585638E2],"tree_param":{"num_deleted":"0","num_feature":"22","num_nodes":"31","size_leaf_vector":"1"}},{"base_weights":[-1.1021385E-3,8.6371824E-2,-2.30713E-2,9.544403E-3,1.2819193E-1,5.8040414E-2,-5.9340104E-2,-1.438767E-1,1.8256178E-1,2.9256484E-1,6.36756E-2,2.0466635E-1,-2.089679E-3,1.5548629E-2,-7.6600194E-2,-1.4457488E-2,7.971307E-5,5.1219195E-2,6.180297E-3,1.9632673E-2,6.6543757E-3,1.7970545E-3,2.265676E-2,9.402083E-3,5.446529E-2,-6.9818385E-3,2.4518163E-3,-9.839655E-3,1.7480396E-3,-3.753319E-2,-3.7467766E-3],"categories":[],"categories_nodes":[],"categories_segments":[],"categories_sizes":[],"default_left":[0,0,0,0,0,0,0,0,0,0,0,0,0,0,0,0,0,0,0,0,0,0,0,0,0,0,0,0,0,0,0],"id":31,"left_children":[1,3,5,7,9,11,13,15,17,19,21,23,25,27,29,-1,-1,-1,-1,-1,-1,-1,-1,-1,-1,-1,-1,-1,-1,-1,-1],"loss_changes":[6.024741E1,2.0210472E1,7.3724815E1,5.8975014E1,4.3162056E1,6.827994E1,2.2389088E1,2.4897429E1,5.1579952E1,1.821637E1,3.1578773E1,3.275155E1,3.8639587E1,1.3375566E1,1.5667236E1,0E0,0E0,0E0,0E0,0E0,0E0,0E0,0E0,0E0,0E0,0E0,0E0,0E0,0E0,0E0,0E0],"parents":[2147483647,0,0,1,1,2,2,3,3,4,4,5,5,6,6,7,7,8,8,9,9,10,10,11,11,12,12,13,13,14,14],"right_children":[2,4,6,8,10,12,14,16,18,20,22,24,26,28,30,-1,-1,-1,-1,-1,-1,-1,-1,-1,-1,-1,-1,-1,-1,-1,-1],"split_conditions":[-3.2519791E-3,-5E-1,-5E-1,-1.8369701E-16,-6.8675447E-3,-2.5881904E-1,-4.0374678E-3,-1.46186445E-2,-2.0851819E-2,7.0710677E-1,5.0070474E-4,4.6025105E-2,-4.3388373E-1,-1.2343097E-2,-1.0854176E-2,-1.4457488E-2,7.971307E-5,5.1219195E-2,6.180297E-3,1.9632673E-2,6.6543757E-3,1.7970545E-3,2.265676E-2,9.402083E-3,5.446529E-2,-6.9818385E-3,2.4518163E-3,-9.839655E-3,1.7480396E-3,-3.753319E-2,-3.7467766E-3],"split_indices":[4,3,3,2,4,2,5,5,0,3,16,5,6,5,0,0,0,0,0,0,0,0,0,0,0,0,0,0,0,0,0],"split_type":[0,0,0,0,0,0,0,0,0,0,0,0,0,0,0,0,0,0,0,0,0,0,0,0,0,0,0,0,0,0,0],"sum_hessian":[3.1349207E4,6.291571E3,2.5057635E4,2.2186826E3,4.0728884E3,7.7417256E3,1.731591E4,1.1759165E3,1.0427662E3,1.1463002E3,2.9265881E3,2.2506907E3,5.4910347E3,3.2428713E3,1.4073038E4,5.877891E2,5.881273E2,6.65858E1,9.761804E2,7.0274664E2,4.435535E2,2.733682E3,1.9290634E2,2.2110154E3,3.9675415E1,1.4875035E3,4.0035312E3,2.7026547E2,2.972606E3,3.2932446E1,1.4040105E4],"tree_param":{"num_deleted":"0","num_feature":"22","num_nodes":"31","size_leaf_vector":"1"}},{"base_weights":[-4.3269014E-3,5.2407146E-2,-3.3432942E-2,1.7169158E-1,3.0461475E-2,4.559122E-2,-6.999165E-2,2.8479254E-1,2.9607834E-2,1.3546312E-2,1.6922759E-1,-8.7092735E-2,9.538952E-2,-7.5025186E-2,2.4022739E-1,2.4471106E-3,1.7780032E-2,5.7961927E-3,-1.7671267E-2,-3.0236572E-3,2.3039985E-3,2.9457418E-2,6.17987E-3,-5.124966E-3,5.4463457E-2,-1.6333805E-5,8.289267E-3,-2.1262034E-3,-6.0237125E-3,1.806326E-2,-2.610642E-2],"categories":[],"categories_nodes":[],"categories_segments":[],"categories_sizes":[],"default_left":[0,0,0,0,0,0,0,0,0,0,0,0,0,0,0,0,0,0,0,0,0,0,0,0,0,0,0,0,0,0,0],"id":32,"left_children":[1,3,5,7,9,11,13,15,17,19,21,23,25,27,29,-1,-1,-1,-1,-1,-1,-1,-1,-1,-1,-1,-1,-1,-1,-1,-1],"loss_changes":[5.1574104E1,2.7703518E1,5.9644485E1,2.6404064E1,2.098676E1,4.3158604E1,2.2058952E1,1.5241997E1,2.4214115E1,1.9211277E1,1.8471863E1,3.242318E1,3.200655E1,2.0502754E1,2.1088577E1,0E0,0E0,0E0,0E0,0E0,0E0,0E0,0E0,0E0,0E0,0E0,0E0,0E0,0E0,0E0,0E0],"parents":[2147483647,0,0,1,1,2,2,3,3,4,4,5,5,6,6,7,7,8,8,9,9,10,10,11,11,12,12,13,13,14,14],"right_children":[2,4,6,8,10,12,14,16,18,20,22,24,26,28,30,-1,-1,-1,-1,-1,-1,-1,-1,-1,-1,-1,-1,-1,-1,-1,-1],"split_conditions":[-1.6177368E-3,-3.5094136E-9,-5E-1,4.3388373E-1,4.590311E-4,-4.3388373E-1,8.028544E-9,-7.0710677E-1,4.959088E-4,-1.0638298E-2,-2.7218664E-2,4.6025105E-2,-8.660254E-1,4.3388373E-1,1E0,2.4471106E-3,1.7780032E-2,5.7961927E-3,-1.7671267E-2,-3.0236572E-3,2.3039985E-3,2.9457418E-2,6.17987E-3,-5.124966E-3,5.4463457E-2,-1.6333805E-5,8.289267E-3,-2.1262034E-3,-6.0237125E-3,1.806326E-2,-2.610642E-2],"split_indices":[4,8,3,6,16,6,8,3,5,5,5,5,3,6,17,0,0,0,0,0,0,0,0,0,0,0,0,0,0,0,0],"split_type":[0,0,0,0,0,0,0,0,0,0,0,0,0,0,0,0,0,0,0,0,0,0,0,0,0,0,0,0,0,0,0],"sum_hessian":[3.1229844E4,1.0588201E4,2.0641643E4,1.6433505E3,8.944851E3,6.5283745E3,1.4113268E4,9.1396277E2,7.2938763E2,7.974759E3,9.7009186E2,1.7809733E3,4.7474014E3,1.3889203E4,2.2406416E2,2.1178477E2,7.02178E2,5.962092E2,1.331784E2,2.4340552E3,5.5407036E3,9.322329E1,8.768686E2,1.7593433E3,2.162997E1,2.0122102E3,2.735191E3,8.100472E3,5.7887314E3,1.9410176E2,2.9962408E1],"tree_param":{"num_deleted":"0","num_feature":"22","num_nodes":"31","size_leaf_vector":"1"}},{"base_weights":[-2.0109157E-3,-6.546104E-2,4.050721E-2,1.1966522E-1,-7.7009864E-2,1.7784101E-1,3.126713E-2,7.355904E-2,4.700581E-1,9.274928E-2,-8.4522985E-2,3.0475655E-1,1.2224227E-1,-8.61844E-4,7.5761184E-2,2.1971174E-2,1.0948924E-3,3.5666194E-2,1.7658736E-3,9.6838055E-3,-1.2639075E-2,-7.862371E-3,-3.3130255E-3,3.7730485E-2,1.3193764E-2,-1.5695112E-2,7.468226E-3,-2.1811312E-3,2.3614715E-3,1.3074149E-2,2.9420073E-3],"categories":[],"categories_nodes":[],"categories_segments":[],"categories_sizes":[],"default_left":[0,0,0,0,0,0,0,0,0,0,0,0,0,0,0,0,0,0,0,0,0,0,0,0,0,0,0,0,0,0,0],"id":33,"left_children":[1,3,5,7,9,11,13,15,17,19,21,23,25,27,29,-1,-1,-1,-1,-1,-1,-1,-1,-1,-1,-1,-1,-1,-1,-1,-1],"loss_changes":[8.460478E1,2.691475E1,2.3808899E1,1.1863431E1,1.5119492E1,8.270821E0,2.5157537E1,1.2345957E1,8.97294E0,1.7593346E1,1.5040329E1,6.2546616E0,9.826462E0,2.101614E1,2.3149258E1,0E0,0E0,0E0,0E0,0E0,0E0,0E0,0E0,0E0,0E0,0E0,0E0,0E0,0E0,0E0,0E0],"parents":[2147483647,0,0,1,1,2,2,3,3,4,4,5,5,6,6,7,7,8,8,9,9,10,10,11,11,12,12,13,13,14,14],"right_children":[2,4,6,8,10,12,14,16,18,20,22,24,26,28,30,-1,-1,-1,-1,-1,-1,-1,-1,-1,-1,-1,-1,-1,-1,-1,-1],"split_conditions":[1.0654441E-3,-3.7349113E-3,-2.5592523E-3,3.526056E1,-2.574183E-9,-3.0898557E-9,2.5881904E-1,-3.709283E-9,1.009313E-3,8.660254E-1,-7.818315E-1,-8.660254E-1,2.7235254E1,1.8100397E-3,-5.118447E-4,2.1971174E-2,1.0948924E-3,3.5666194E-2,1.7658736E-3,9.6838055E-3,-1.2639075E-2,-7.862371E-3,-3.3130255E-3,3.7730485E-2,1.3193764E-2,-1.5695112E-2,7.468226E-3,-2.1811312E-3,2.3614715E-3,1.3074149E-2,2.9420073E-3],"split_indices":[1,4,11,10,8,8,2,8,1,2,6,2,10,1,7,0,0,0,0,0,0,0,0,0,0,0,0,0,0,0,0],"split_type":[0,0,0,0,0,0,0,0,0,0,0,0,0,0,0,0,0,0,0,0,0,0,0,0,0,0,0,0,0,0,0],"sum_hessian":[3.135745E4,1.258184E4,1.877561E4,7.377307E2,1.1844109E4,1.1815562E3,1.7594053E4,6.53675E2,8.405573E1,5.0097183E2,1.1343138E4,3.5761197E2,8.2394415E2,1.0216854E4,7.3771997E3,7.936755E1,5.7430743E2,5.3206825E1,3.0848906E1,3.8834363E2,1.126282E2,2.273902E3,9.069235E3,2.7507818E1,3.3010416E2,4.720185E1,7.767423E2,5.408774E3,4.8080796E3,6.1395245E2,6.7632476E3],"tree_param":{"num_deleted":"0","num_feature":"22","num_nodes":"31","size_leaf_vector":"1"}},{"base_weights":[9.601666E-4,-2.832548E-2,8.7789424E-2,2.238999E-2,-5.6624226E-2,1.3079704E-1,2.7766876E-2,-8.078012E-2,4.8658136E-2,-2.0827595E-2,-1.131875E-1,1.9752619E-1,1.9980969E-2,-1.0494367E-1,7.643319E-2,-1.5589215E-3,-1.0195173E-2,-9.384838E-5,4.8096166E-3,-5.9198183E-3,8.6354057E-4,-6.85442E-3,3.7518225E-3,-2.212092E-3,1.2305333E-2,5.7989336E-3,-4.830659E-3,-1.1360518E-2,1.3962141E-2,4.5055686E-3,-3.820431E-2],"categories":[],"categories_nodes":[],"categories_segments":[],"categories_sizes":[],"default_left":[0,0,0,0,0,0,0,0,0,0,0,0,0,0,0,0,0,0,0,0,0,0,0,0,0,0,0,0,0,0,0],"id":34,"left_children":[1,3,5,7,9,11,13,15,17,19,21,23,25,27,29,-1,-1,-1,-1,-1,-1,-1,-1,-1,-1,-1,-1,-1,-1,-1,-1],"loss_changes":[7.9665665E1,3.3624763E1,2.0384472E1,2.2743376E1,3.043697E1,3.401687E1,2.1328966E1,1.0378839E1,1.6073147E1,3.4249523E1,2.6233719E1,3.3761116E1,1.9400911E1,4.1711544E1,2.7849136E1,0E0,0E0,0E0,0E0,0E0,0E0,0E0,0E0,0E0,0E0,0E0,0E0,0E0,0E0,0E0,0E0],"parents":[2147483647,0,0,1,1,2,2,3,3,4,4,5,5,6,6,7,7,8,8,9,9,10,10,11,11,12,12,13,13,14,14],"right_children":[2,4,6,8,10,12,14,16,18,20,22,24,26,28,30,-1,-1,-1,-1,-1,-1,-1,-1,-1,-1,-1,-1,-1,-1,-1,-1],"split_conditions":[1.8718066E-3,-2.5720166E-3,4.3388373E-1,7.7876874E-4,5E-1,5.4176014E1,-1.337426E-2,8.660254E-1,-7.076623E-3,7.9805445E-4,1E0,-8.660254E-1,6.234898E-1,3.4827134E-3,1E0,-1.5589215E-3,-1.0195173E-2,-9.384838E-5,4.8096166E-3,-5.9198183E-3,8.6354057E-4,-6.85442E-3,3.7518225E-3,-2.212092E-3,1.2305333E-2,5.7989336E-3,-4.830659E-3,-1.1360518E-2,1.3962141E-2,4.5055686E-3,-3.820431E-2],"split_indices":[1,5,6,1,3,10,5,3,5,1,3,3,17,1,3,0,0,0,0,0,0,0,0,0,0,0,0,0,0,0,0],"split_type":[0,0,0,0,0,0,0,0,0,0,0,0,0,0,0,0,0,0,0,0,0,0,0,0,0,0,0,0,0,0,0],"sum_hessian":[3.1325133E4,2.3424863E4,7.9002695E3,8.389036E3,1.5035827E4,4.6009644E3,3.2993052E3,1.7014496E3,6.687587E3,9.210075E3,5.8257515E3,2.8707095E3,1.730255E3,8.845153E2,2.4147898E3,1.2144714E3,4.8697815E2,3.2416624E3,3.4459243E3,2.585878E3,6.6241973E3,5.1699395E3,6.55812E2,4.8017102E2,2.3905383E3,9.491828E2,7.810722E2,6.7154144E2,2.1297386E2,2.3774983E3,3.729154E1],"tree_param":{"num_deleted":"0","num_feature":"22","num_nodes":"31","size_leaf_vector":"1"}},{"base_weights":[-1.7174208E-3,-2.8413959E-2,8.90803E-2,-9.3049765E-2,-7.812416E-3,4.4183517E-1,8.180151E-2,3.7753296E-1,-9.92647E-2,1.8730137E-2,-5.35032E-2,6.26997E-2,3.6715877E-1,1.3666773E-1,3.923379E-2,-1.987401E-2,2.7178297E-2,-4.2073918E-3,-1.1739322E-2,8.371626E-4,2.9281855E-2,-5.1768185E-3,-2.439033E-4,4.5712247E-2,1.4004707E-2,1.1244366E-2,1.827926E-4,3.1649813E-3,-1.2472513E-2],"categories":[],"categories_nodes":[],"categories_segments":[],"categories_sizes":[],"default_left":[0,0,0,0,0,0,0,0,0,0,0,0,0,0,0,0,0,0,0,0,0,0,0,0,0,0,0,0,0],"id":35,"left_children":[1,3,5,7,9,11,13,15,17,19,21,-1,23,25,27,-1,-1,-1,-1,-1,-1,-1,-1,-1,-1,-1,-1,-1,-1],"loss_changes":[7.581889E1,3.2182495E1,1.8167366E1,1.712743E1,2.2236177E1,7.9132366E0,1.62505E1,1.0156398E1,1.1768925E1,1.3017393E1,1.6385338E1,0E0,5.9063797E0,3.5681496E1,2.7281498E1,0E0,0E0,0E0,0E0,0E0,0E0,0E0,0E0,0E0,0E0,0E0,0E0,0E0,0E0],"parents":[2147483647,0,0,1,1,2,2,3,3,4,4,5,5,6,6,7,7,8,8,9,9,10,10,12,12,13,13,14,14],"right_children":[2,4,6,8,10,12,14,16,18,20,22,-1,24,26,28,-1,-1,-1,-1,-1,-1,-1,-1,-1,-1,-1,-1,-1,-1],"split_conditions":[1.9721296E-3,7.689909E-4,-7.2437227E-3,-3.146973E-4,8.8430557E-4,-8.660254E-1,0E0,6.4245804E-4,3.914345E-3,5.696689E-9,6.123234E-17,6.26997E-2,2.698244E-3,5.4045006E1,9.659258E-1,-1.987401E-2,2.7178297E-2,-4.2073918E-3,-1.1739322E-2,8.371626E-4,2.9281855E-2,-5.1768185E-3,-2.439033E-4,4.5712247E-2,1.4004707E-2,1.1244366E-2,1.827926E-4,3.1649813E-3,-1.2472513E-2],"split_indices":[1,1,16,7,4,2,6,1,0,8,2,0,1,10,2,0,0,0,0,0,0,0,0,0,0,0,0,0,0],"split_type":[0,0,0,0,0,0,0,0,0,0,0,0,0,0,0,0,0,0,0,0,0,0,0,0,0,0,0,0,0],"sum_hessian":[3.1276805E4,2.4171445E4,7.1053584E3,5.8402847E3,1.833116E4,1.416994E2,6.963659E3,7.485361E1,5.765431E3,1.1595139E4,6.7360225E3,9.880785E0,1.3181862E2,3.0403772E3,3.923282E3,1.2784705E1,6.2068905E1,5.189379E3,5.760525E2,1.1556269E4,3.8869736E1,3.3186018E3,3.4174204E3,1.606237E1,1.15756256E2,1.8271293E3,1.2132479E3,3.6226296E3,3.0065234E2],"tree_param":{"num_deleted":"0","num_feature":"22","num_nodes":"29","size_leaf_vector":"1"}},{"base_weights":[-2.3757229E-3,-5.561085E-2,3.919545E-2,2.2298736E-2,-7.268688E-2,4.784027E-1,3.5554126E-2,-7.1276873E-3,2.6215467E-1,2.6754754E-2,-8.921126E-2,6.2714174E-2,3.380957E-1,6.1441943E-2,-1.5617569E-2,-1.4613342E-3,1.7556522E-2,1.9709222E-2,-1.3803616E-2,-1.766511E-2,2.3209932E-3,-5.717062E-3,-1.7675929E-3,7.573551E-2,1.2792475E-2,2.8454263E-3,2.2563139E-2,-1.0126017E-2,1.8723072E-4],"categories":[],"categories_nodes":[],"categories_segments":[],"categories_sizes":[],"default_left":[0,0,0,0,0,0,0,0,0,0,0,0,0,0,0,0,0,0,0,0,0,0,0,0,0,0,0,0,0],"id":36,"left_children":[1,3,5,7,9,11,13,15,17,19,21,-1,23,25,27,-1,-1,-1,-1,-1,-1,-1,-1,-1,-1,-1,-1,-1,-1],"loss_changes":[6.9399345E1,1.8298939E1,2.810914E1,1.7468016E1,1.8541637E1,1.5020012E1,2.313991E1,1.7446716E1,1.9386686E1,1.2027257E1,1.3078964E1,0E0,1.1380216E1,2.043335E1,2.1245777E1,0E0,0E0,0E0,0E0,0E0,0E0,0E0,0E0,0E0,0E0,0E0,0E0,0E0,0E0],"parents":[2147483647,0,0,1,1,2,2,3,3,4,4,5,5,6,6,7,7,8,8,9,9,10,10,12,12,13,13,14,14],"right_children":[2,4,6,8,10,12,14,16,18,20,22,-1,24,26,28,-1,-1,-1,-1,-1,-1,-1,-1,-1,-1,-1,-1,-1,-1],"split_conditions":[1.1267258E-3,-2.6826249E-3,-1.02866045E-8,-2.445354E-10,2.4979153E-1,-7.0710677E-1,5.4669445E1,1E0,5.1755566E-10,3.7812546E1,7.715169E-2,6.2714174E-2,2.133708E-3,5.0952747E-3,-8.660254E-1,-1.4613342E-3,1.7556522E-2,1.9709222E-2,-1.3803616E-2,-1.766511E-2,2.3209932E-3,-5.717062E-3,-1.7675929E-3,7.573551E-2,1.2792475E-2,2.8454263E-3,2.2563139E-2,-1.0126017E-2,1.8723072E-4],"split_indices":[1,18,8,8,14,2,10,2,8,10,9,0,1,1,2,0,0,0,0,0,0,0,0,0,0,0,0,0,0],"split_type":[0,0,0,0,0,0,0,0,0,0,0,0,0,0,0,0,0,0,0,0,0,0,0,0,0,0,0,0,0],"sum_hessian":[3.135584E4,1.3749381E4,1.7606459E4,2.4711848E3,1.1278196E4,1.4304822E2,1.746341E4,2.2022515E3,2.689335E2,1.606504E3,9.671692E3,2.0028322E1,1.230199E2,1.15971E4,5.86631E3,2.0757283E3,1.265232E2,2.1635487E2,5.257861E1,7.765801E1,1.5288461E3,6.592923E3,3.0787695E3,6.290787E0,1.1672911E2,1.1465608E4,1.3149193E2,5.4958356E2,5.316726E3],"tree_param":{"num_deleted":"0","num_feature":"22","num_nodes":"29","size_leaf_vector":"1"}},{"base_weights":[3.841304E-3,-5.680325E-2,3.4961E-2,-6.115229E-2,2.0514883E-1,7.1424864E-2,-5.023921E-3,1.602908E-2,-7.587131E-2,5.5523064E-2,1.4992344E-1,6.760329E-2,5.8342314E-1,-8.131571E-2,2.8026426E-2,-2.0824012E-3,6.3439645E-3,5.476536E-3,-4.1291155E-3,-8.6241765E-3,1.4555742E-2,1.8895449E-3,6.369743E-3,4.9833395E-2,1.6527403E-2,-7.24638E-3,-1.5929785E-3,-9.033474E-3,2.4443776E-3],"categories":[],"categories_nodes":[],"categories_segments":[],"categories_sizes":[],"default_left":[0,0,0,0,0,0,0,0,0,0,0,0,0,0,0,0,0,0,0,0,0,0,0,0,0,0,0,0,0],"id":37,"left_children":[1,3,5,7,9,11,13,15,17,-1,19,21,23,25,27,-1,-1,-1,-1,-1,-1,-1,-1,-1,-1,-1,-1,-1,-1],"loss_changes":[5.913094E1,1.2116268E1,3.019516E1,1.1879787E1,8.370592E0,2.1101135E1,2.4911953E1,1.0720545E1,1.0936138E1,0E0,7.6140985E0,1.9151707E1,7.7944374E0,9.379679E0,3.0014263E1,0E0,0E0,0E0,0E0,0E0,0E0,0E0,0E0,0E0,0E0,0E0,0E0,0E0,0E0],"parents":[2147483647,0,0,1,1,2,2,3,3,4,4,5,5,6,6,7,7,8,8,10,10,11,11,12,12,13,13,14,14],"right_children":[2,4,6,8,10,12,14,16,18,-1,20,22,24,26,28,-1,-1,-1,-1,-1,-1,-1,-1,-1,-1,-1,-1,-1,-1],"split_conditions":[9.769115E-4,3.5172566E-3,-5.3871686E-6,-1.19585924E-1,3.0329014E-4,9.55414E-3,1.3243904E-3,2.4733425E-4,-4.1516675E-3,5.5523064E-2,7.9805445E-4,5E-1,1.2814903E-1,-1.8369701E-16,-8.660254E-1,-2.0824012E-3,6.3439645E-3,5.476536E-3,-4.1291155E-3,-8.6241765E-3,1.4555742E-2,1.8895449E-3,6.369743E-3,4.9833395E-2,1.6527403E-2,-7.24638E-3,-1.5929785E-3,-9.033474E-3,2.4443776E-3],"split_indices":[1,13,4,9,4,12,1,16,4,0,1,2,9,2,2,0,0,0,0,0,0,0,0,0,0,0,0,0,0],"split_type":[0,0,0,0,0,0,0,0,0,0,0,0,0,0,0,0,0,0,0,0,0,0,0,0,0,0,0,0,0],"sum_hessian":[3.1329463E4,1.0623689E4,2.0705773E4,1.045151E4,1.7217982E2,1.0829755E4,9.876019E3,1.6733768E3,8.778133E3,8.19941E0,1.6398042E2,1.0751303E4,7.84524E1,2.984974E3,6.891045E3,1.1009965E3,5.723804E2,3.055798E2,8.472553E3,4.973202E1,1.142484E2,7.1763975E3,3.5749055E3,2.8032446E1,5.0419956E1,1.3039237E3,1.6810504E3,6.249655E2,6.266079E3],"tree_param":{"num_deleted":"0","num_feature":"22","num_nodes":"29","size_leaf_vector":"1"}},{"base_weights":[-2.3723619E-4,-5.7261005E-2,3.25606E-2,9.5769994E-2,-6.603644E-2,1.4758601E-2,8.987021E-2,-1.7155832E-1,2.144737E-1,-7.853585E-2,3.155632E-2,5.9273567E-2,-2.0154292E-2,2.7637783E-1,6.7583635E-2,2.5094032E-2,-1.4086957E-2,1.9902682E-2,3.4298692E-3,-1.4066711E-3,-5.9004244E-3,1.9010428E-2,-1.2214314E-3,-3.0577786E-3,3.9430014E-3,8.3890315E-3,-1.6837225E-3,-1.97143E-2,1.6751783E-2,9.530812E-3,1.575704E-3],"categories":[],"categories_nodes":[],"categories_segments":[],"categories_sizes":[],"default_left":[0,0,0,0,0,0,0,0,0,0,0,0,0,0,0,0,0,0,0,0,0,0,0,0,0,0,0,0,0,0,0],"id":38,"left_children":[1,3,5,7,9,11,13,15,17,19,21,23,25,27,29,-1,-1,-1,-1,-1,-1,-1,-1,-1,-1,-1,-1,-1,-1,-1,-1],"loss_changes":[5.8543118E1,1.5357681E1,2.0266098E1,1.9738268E1,1.3194389E1,2.3571127E1,1.9527073E1,1.44041395E1,1.1458889E1,1.905688E1,2.4003334E1,1.5732941E1,2.1597445E1,1.9938972E1,1.8655321E1,0E0,0E0,0E0,0E0,0E0,0E0,0E0,0E0,0E0,0E0,0E0,0E0,0E0,0E0,0E0,0E0],"parents":[2147483647,0,0,1,1,2,2,3,3,4,4,5,5,6,6,7,7,8,8,9,9,10,10,11,11,12,12,13,13,14,14],"right_children":[2,4,6,8,10,12,14,16,18,20,22,24,26,28,30,-1,-1,-1,-1,-1,-1,-1,-1,-1,-1,-1,-1,-1,-1,-1,-1],"split_conditions":[1.0145183E-3,-3.7349113E-3,2.3825227E-3,0E0,1E0,-2.5881904E-1,-7.818315E-1,2.8338662E-1,0E0,-1.8369701E-16,-7.0710677E-1,-1.0388531E-2,-6.6485396E-3,-7.3112236E-9,-3.3280108E-9,2.5094032E-2,-1.4086957E-2,1.9902682E-2,3.4298692E-3,-1.4066711E-3,-5.9004244E-3,1.9010428E-2,-1.2214314E-3,-3.0577786E-3,3.9430014E-3,8.3890315E-3,-1.6837225E-3,-1.97143E-2,1.6751783E-2,9.530812E-3,1.575704E-3],"split_indices":[1,4,1,3,17,3,6,14,6,2,3,5,4,8,8,0,0,0,0,0,0,0,0,0,0,0,0,0,0,0,0],"split_type":[0,0,0,0,0,0,0,0,0,0,0,0,0,0,0,0,0,0,0,0,0,0,0,0,0,0,0,0,0,0,0],"sum_hessian":[3.1298533E4,1.1428626E4,1.9869906E4,6.187066E2,1.0809919E4,1.5162697E4,4.7072095E3,1.8991556E2,4.2879105E2,9.58332E3,1.2265994E3,6.6650054E3,8.497692E3,5.0037982E2,4.2068296E3,2.5889473E1,1.6402608E2,1.8855975E2,2.4023128E2,4.2106265E3,5.3726934E3,1.6863197E2,1.0579674E3,9.315496E2,5.7334556E3,5.6890466E2,7.928788E3,3.9485657E1,4.6089417E2,9.5194604E2,3.2548835E3],"tree_param":{"num_deleted":"0","num_feature":"22","num_nodes":"31","size_leaf_vector":"1"}},{"base_weights":[-4.2268564E-3,-3.0733285E-2,6.6290945E-2,1.1664398E-1,-3.8516965E-2,5.5195212E-2,2.7367613E-1,8.607965E-1,9.234154E-2,-6.508684E-2,-1.3457989E-2,1.9802235E-1,4.0061615E-2,1.6686018E-1,8.1713355E-1,6.4011075E-2,-2.334406E-2,9.629693E-3,-2.420168E-3,-2.5557922E-3,-8.44711E-3,-3.3973567E-3,2.1272087E-3,1.0663331E-4,1.5928075E-2,2.466631E-3,-1.7486846E-2,1.5596571E-2,-7.451107E-3,-1.9478671E-2,5.250298E-2],"categories":[],"categories_nodes":[],"categories_segments":[],"categories_sizes":[],"default_left":[0,0,0,0,0,0,0,0,0,0,0,0,0,0,0,0,0,0,0,0,0,0,0,0,0,0,0,0,0,0,0],"id":39,"left_children":[1,3,5,7,9,11,13,15,17,19,21,23,25,27,29,-1,-1,-1,-1,-1,-1,-1,-1,-1,-1,-1,-1,-1,-1,-1,-1],"loss_changes":[5.841069E1,2.605814E1,1.9605148E1,2.0440088E1,1.4359936E1,1.7496107E1,2.487883E1,2.0867546E1,1.5615264E1,1.5168526E1,3.38964E1,1.8302792E1,2.6504255E1,1.6748789E1,2.0506027E1,0E0,0E0,0E0,0E0,0E0,0E0,0E0,0E0,0E0,0E0,0E0,0E0,0E0,0E0,0E0,0E0],"parents":[2147483647,0,0,1,1,2,2,3,3,4,4,5,5,6,6,7,7,8,8,9,9,10,10,11,11,12,12,13,13,14,14],"right_children":[2,4,6,8,10,12,14,16,18,20,22,24,26,28,30,-1,-1,-1,-1,-1,-1,-1,-1,-1,-1,-1,-1,-1,-1,-1,-1],"split_conditions":[1.7951768E-3,-8.378378E-3,4.673311E-3,-9.659258E-1,9.769115E-4,-7.818315E-1,7.818315E-1,-4.2098444E-3,-7.000372E-10,3.914345E-3,6.123234E-17,-1.1202711E-9,1E0,0E0,-2.5881904E-1,6.4011075E-2,-2.334406E-2,9.629693E-3,-2.420168E-3,-2.5557922E-3,-8.44711E-3,-3.3973567E-3,2.1272087E-3,1.0663331E-4,1.5928075E-2,2.466631E-3,-1.7486846E-2,1.5596571E-2,-7.451107E-3,-1.9478671E-2,5.250298E-2],"split_indices":[1,0,1,3,1,6,6,18,8,0,2,8,3,6,2,0,0,0,0,0,0,0,0,0,0,0,0,0,0,0,0],"split_type":[0,0,0,0,0,0,0,0,0,0,0,0,0,0,0,0,0,0,0,0,0,0,0,0,0,0,0,0,0,0,0],"sum_hessian":[3.1247264E4,2.2711832E4,8.535432E3,1.1379689E3,2.1573863E4,8.103985E3,4.3144724E2,3.4290455E1,1.1036783E3,1.0469125E4,1.1104738E4,7.7435785E2,7.329627E3,3.6229175E2,6.9155495E1,2.6127748E1,8.162707E0,6.4444446E2,4.592339E2,9.230169E3,1.2389554E3,5.6286914E3,5.4760474E3,2.9572034E2,4.7863748E2,7.1607534E3,1.6887355E2,2.4839265E2,1.1389909E2,1.09910965E1,5.8164394E1],"tree_param":{"num_deleted":"0","num_feature":"22","num_nodes":"31","size_leaf_vector":"1"}},{"base_weights":[3.5113932E-3,-4.988736E-2,3.407122E-2,3.9372735E-2,-6.4870104E-2,6.9726445E-2,4.0598138E-4,-2.5858613E-2,1.3876736E-1,-8.8331684E-2,-1.7897369E-3,1.789424E-1,5.1803067E-2,6.626552E-2,-6.517249E-2,-2.339307E-3,6.981455E-2,3.579891E-3,1.330587E-2,-3.61384E-3,-1.045365E-2,-9.816947E-4,7.2638723E-3,2.5914231E-2,7.01285E-3,3.9217714E-4,5.0101825E-3,7.075604E-3,7.275704E-4,-7.215091E-3,-2.4090905E-5],"categories":[],"categories_nodes":[],"categories_segments":[],"categories_sizes":[],"default_left":[0,0,0,0,0,0,0,0,0,0,0,0,0,0,0,0,0,0,0,0,0,0,0,0,0,0,0,0,0,0,0],"id":40,"left_children":[1,3,5,7,9,11,13,15,17,19,21,23,25,27,29,-1,-1,-1,-1,-1,-1,-1,-1,-1,-1,-1,-1,-1,-1,-1,-1],"loss_changes":[5.107585E1,1.5240501E1,2.3892282E1,1.0630176E1,1.4433491E1,1.8898449E1,4.424026E1,2.9489635E1,5.5105143E0,1.3746658E1,6.9442587E0,1.7735634E1,1.7667841E1,1.9877747E1,2.6263994E1,0E0,0E0,0E0,0E0,0E0,0E0,0E0,0E0,0E0,0E0,0E0,0E0,0E0,0E0,0E0,0E0],"parents":[2147483647,0,0,1,1,2,2,3,3,4,4,5,5,6,6,7,7,8,8,9,9,10,10,11,11,12,12,13,13,14,14],"right_children":[2,4,6,8,10,12,14,16,18,20,22,24,26,28,30,-1,-1,-1,-1,-1,-1,-1,-1,-1,-1,-1,-1,-1,-1,-1,-1],"split_conditions":[1.0145183E-3,2.5466293E-1,-9.5900265E-4,8.2205166E-4,9.8284006E-2,-3.1647382E-9,-2.5881904E-1,3.2873097E-4,5.124701E-4,3.914345E-3,1E0,-8.660254E-1,-7.802051E-3,-2.5881904E-1,-1.8369701E-16,-2.339307E-3,6.981455E-2,3.579891E-3,1.330587E-2,-3.61384E-3,-1.045365E-2,-9.816947E-4,7.2638723E-3,2.5914231E-2,7.01285E-3,3.9217714E-4,5.0101825E-3,7.075604E-3,7.275704E-4,-7.215091E-3,-2.4090905E-5],"split_indices":[1,14,5,1,9,8,3,7,13,0,17,2,5,2,2,0,0,0,0,0,0,0,0,0,0,0,0,0,0,0,0],"split_type":[0,0,0,0,0,0,0,0,0,0,0,0,0,0,0,0,0,0,0,0,0,0,0,0,0,0,0,0,0,0,0],"sum_hessian":[3.1296652E4,1.1390632E4,1.9906021E4,1.636336E3,9.754295E3,9.665786E3,1.0240235E4,9.8832104E2,6.48015E2,7.108884E3,2.6454116E3,1.3603346E3,8.305451E3,5.109541E3,5.130694E3,9.7545264E2,1.2868383E1,4.260402E2,2.2197482E2,6.277042E3,8.3184174E2,2.3606284E3,2.8478326E2,1.371743E2,1.2231603E3,4.3538604E3,3.9515908E3,2.0797837E3,3.0297576E3,2.306624E3,2.8240698E3],"tree_param":{"num_deleted":"0","num_feature":"22","num_nodes":"31","size_leaf_vector":"1"}},{"base_weights":[2.1249782E-3,-2.13222E-2,5.931277E-2,1.3768785E-1,-2.9376302E-2,2.1965101E-1,5.033444E-2,1.4857455E-1,-5.764312E-1,-7.4416003E-3,-6.419375E-2,5.039922E-1,1.5988933E-1,8.4391385E-2,4.3228087E-3,5.2924927E-2,7.069327E-3,-4.960945E-2,3.4226563E-3,-2.8959265E-2,-2.6570517E-4,-4.649347E-3,9.388175E-4,2.9203167E-2,-9.74901E-3,-1.3430925E-2,1.0424149E-2,6.566208E-3,-5.1900824E-3,-1.8644797E-3,1.0730395E-2],"categories":[],"categories_nodes":[],"categories_segments":[],"categories_sizes":[],"default_left":[0,0,0,0,0,0,0,0,0,0,0,0,0,0,0,0,0,0,0,0,0,0,0,0,0,0,0,0,0,0,0],"id":41,"left_children":[1,3,5,7,9,11,13,15,17,19,21,23,25,27,29,-1,-1,-1,-1,-1,-1,-1,-1,-1,-1,-1,-1,-1,-1,-1,-1],"loss_changes":[4.19481E1,2.8413197E1,1.3065582E1,8.421921E0,1.612331E1,8.03031E0,1.3497665E1,6.6139526E0,4.517898E0,1.5728211E1,1.95023E1,4.82473E0,8.417064E0,4.3750755E1,3.2111744E1,0E0,0E0,0E0,0E0,0E0,0E0,0E0,0E0,0E0,0E0,0E0,0E0,0E0,0E0,0E0,0E0],"parents":[2147483647,0,0,1,1,2,2,3,3,4,4,5,5,6,6,7,7,8,8,9,9,10,10,11,11,12,12,13,13,14,14],"right_children":[2,4,6,8,10,12,14,16,18,20,22,24,26,28,30,-1,-1,-1,-1,-1,-1,-1,-1,-1,-1,-1,-1,-1,-1,-1,-1],"split_conditions":[1.7375358E-3,-8.378378E-3,-3.48964E-3,2.2545091E-3,5.306186E1,-1.6619287E-2,4.3388373E-1,7.1366463E-4,1.4126863E-4,-1.8876472E-2,1.5177854E-3,-3.1152647E-3,2.6515398E1,6.377945E-3,6.858114E-3,5.2924927E-2,7.069327E-3,-4.960945E-2,3.4226563E-3,-2.8959265E-2,-2.6570517E-4,-4.649347E-3,9.388175E-4,2.9203167E-2,-9.74901E-3,-1.3430925E-2,1.0424149E-2,6.566208E-3,-5.1900824E-3,-1.8644797E-3,1.0730395E-2],"split_indices":[1,0,11,18,10,18,6,1,7,5,16,5,10,4,4,0,0,0,0,0,0,0,0,0,0,0,0,0,0,0,0],"split_type":[0,0,0,0,0,0,0,0,0,0,0,0,0,0,0,0,0,0,0,0,0,0,0,0,0,0,0,0,0,0,0],"sum_hessian":[3.127939E4,2.218396E4,9.09543E3,1.0680173E3,2.1115943E4,4.8014056E2,8.615289E3,1.0532191E3,1.4798313E1,1.2956631E4,8.159313E3,8.1306114E1,3.9883444E2,4.949456E3,3.6658325E3,6.4807587E0,1.0467383E3,8.553539E0,6.244775E0,4.6438313E1,1.2910193E4,6.05757E3,2.101743E3,7.3234795E1,8.071324E0,3.9825462E1,3.59009E2,3.9620852E3,9.873711E2,3.0610842E3,6.047484E2],"tree_param":{"num_deleted":"0","num_feature":"22","num_nodes":"31","size_leaf_vector":"1"}},{"base_weights":[1.2368485E-3,-7.055811E-2,1.8274514E-2,-9.993561E-2,7.737303E-2,5.130735E-2,-2.033503E-2,-1.3083747E-1,-3.0035771E-2,1.867728E-1,-1.084955E-1,4.642477E-2,4.46961E-1,7.4085124E-2,-7.610529E-2,-5.6309286E-3,-1.702741E-2,6.857048E-4,-8.597863E-3,-5.824064E-4,1.7214589E-2,-1.1816952E-2,2.1388682E-2,3.0089312E-3,-3.04119E-3,1.0352999E-2,4.465059E-2,-5.2024925E-4,6.7086816E-3,-3.9890897E-3,2.7458403E-2],"categories":[],"categories_nodes":[],"categories_segments":[],"categories_sizes":[],"default_left":[0,0,0,0,0,0,0,0,0,0,0,0,0,0,0,0,0,0,0,0,0,0,0,0,0,0,0,0,0,0,0],"id":42,"left_children":[1,3,5,7,9,11,13,15,17,19,21,23,25,27,29,-1,-1,-1,-1,-1,-1,-1,-1,-1,-1,-1,-1,-1,-1,-1,-1],"loss_changes":[3.8313683E1,2.6119396E1,3.2291748E1,1.0814064E1,2.0284538E1,2.630352E1,6.147901E1,1.319746E1,9.568395E0,1.9638895E1,2.5492512E1,1.9890055E1,1.743459E1,2.2017246E1,1.6915157E1,0E0,0E0,0E0,0E0,0E0,0E0,0E0,0E0,0E0,0E0,0E0,0E0,0E0,0E0,0E0,0E0],"parents":[2147483647,0,0,1,1,2,2,3,3,4,4,5,5,6,6,7,7,8,8,9,9,10,10,11,11,12,12,13,13,14,14],"right_children":[2,4,6,8,10,12,14,16,18,20,22,24,26,28,30,-1,-1,-1,-1,-1,-1,-1,-1,-1,-1,-1,-1,-1,-1,-1,-1],"split_conditions":[7.7876874E-4,3.7772804E-3,3.8812342E-4,2.484472E-4,6.234898E-1,5.0952747E-3,-5E-1,1.4143796E-3,7.788162E-4,2.5881904E-1,1E0,8.8430557E-4,-2.5058962E-2,-8.660254E-1,6.2339194E-3,-5.6309286E-3,-1.702741E-2,6.857048E-4,-8.597863E-3,-5.824064E-4,1.7214589E-2,-1.1816952E-2,2.1388682E-2,3.0089312E-3,-3.04119E-3,1.0352999E-2,4.465059E-2,-5.2024925E-4,6.7086816E-3,-3.9890897E-3,2.7458403E-2],"split_indices":[1,5,5,11,17,1,3,4,12,3,17,4,5,3,1,0,0,0,0,0,0,0,0,0,0,0,0,0,0,0,0],"split_type":[0,0,0,0,0,0,0,0,0,0,0,0,0,0,0,0,0,0,0,0,0,0,0,0,0,0,0,0,0,0,0],"sum_hessian":[3.1321086E4,6.0057656E3,2.531532E4,5.011384E3,9.943816E2,1.3643376E4,1.1671944E4,3.4736868E3,1.5376971E3,6.261183E2,3.6826328E2,1.3478842E4,1.6453384E2,4.3336313E3,7.338313E3,3.1983682E3,2.753186E2,1.176135E3,3.6156216E2,2.77559E2,3.485593E2,2.981243E2,7.013898E1,1.1947754E4,1.5310881E3,1.0849175E2,5.6042084E1,1.801276E3,2.5323555E3,7.2967974E3,4.151538E1],"tree_param":{"num_deleted":"0","num_feature":"22","num_nodes":"31","size_leaf_vector":"1"}},{"base_weights":[7.644966E-4,-1.3662435E-2,6.9838636E-2,2.7337588E-2,-3.712303E-2,3.007839E-2,1.448589E-1,-1.9329254E-1,4.1294158E-2,2.5550303E-1,-4.1920114E-2,-1.3968126E-1,8.127876E-2,3.582634E-1,4.8675705E-2,1.5066141E-2,-1.41836135E-2,-1.3365414E-3,3.8909267E-3,9.20954E-3,5.3780455E-2,-2.5269631E-3,4.086578E-3,1.3500171E-2,-1.3403225E-2,6.642443E-3,-2.754088E-3,-3.0756688E-3,2.2312423E-2,9.5808655E-3,-7.8003705E-3],"categories":[],"categories_nodes":[],"categories_segments":[],"categories_sizes":[],"default_left":[0,0,0,0,0,0,0,0,0,0,0,0,0,0,0,0,0,0,0,0,0,0,0,0,0,0,0,0,0,0,0],"id":43,"left_children":[1,3,5,7,9,11,13,15,17,19,21,23,25,27,29,-1,-1,-1,-1,-1,-1,-1,-1,-1,-1,-1,-1,-1,-1,-1,-1],"loss_changes":[3.1185352E1,2.4899738E1,1.6112679E1,2.9013102E1,2.311825E1,3.0750725E1,3.83811E1,2.5184883E1,2.202322E1,1.5173386E1,1.7271164E1,4.3224453E1,1.9128504E1,2.1528168E1,3.785945E1,0E0,0E0,0E0,0E0,0E0,0E0,0E0,0E0,0E0,0E0,0E0,0E0,0E0,0E0,0E0,0E0],"parents":[2147483647,0,0,1,1,2,2,3,3,4,4,5,5,6,6,7,7,8,8,9,9,10,10,11,11,12,12,13,13,14,14],"right_children":[2,4,6,8,10,12,14,16,18,20,22,24,26,28,30,-1,-1,-1,-1,-1,-1,-1,-1,-1,-1,-1,-1,-1,-1,-1,-1],"split_conditions":[2.250956E-3,-2.5881904E-1,2.5881904E-1,5.8066123E-4,-7.966154E-3,-1.1239841E-2,-3.2080957E-4,-1.8369701E-16,-8.660254E-1,1E0,1E0,-7.0710677E-1,4.4378964E-4,-2.3773395E-2,6.234898E-1,1.5066141E-2,-1.41836135E-2,-1.3365414E-3,3.8909267E-3,9.20954E-3,5.3780455E-2,-2.5269631E-3,4.086578E-3,1.3500171E-2,-1.3403225E-2,6.642443E-3,-2.754088E-3,-3.0756688E-3,2.2312423E-2,9.5808655E-3,-7.8003705E-3],"split_indices":[1,3,2,1,4,0,7,2,3,2,2,2,7,0,17,0,0,0,0,0,0,0,0,0,0,0,0,0,0,0,0],"split_type":[0,0,0,0,0,0,0,0,0,0,0,0,0,0,0,0,0,0,0,0,0,0,0,0,0,0,0,0,0,0,0],"sum_hessian":[3.1288252E4,2.5882809E4,5.405444E3,9.419243E3,1.6463564E4,3.534794E3,1.8706498E3,5.590314E2,8.860212E3,2.6410532E2,1.6199459E4,8.182478E2,2.7165461E3,5.797451E2,1.2909047E3,8.574208E1,4.732893E2,3.0949822E3,5.7652295E3,2.447233E2,1.9382032E1,1.51450625E4,1.0543964E3,1.9474655E2,6.235013E2,1.9713921E3,7.451542E2,1.0043807E2,4.7930704E2,7.6029114E2,5.306135E2],"tree_param":{"num_deleted":"0","num_feature":"22","num_nodes":"31","size_leaf_vector":"1"}},{"base_weights":[-1.2748777E-3,-3.5864066E-2,2.5514372E-2,1.959603E-1,-4.4146985E-2,4.620292E-3,8.377861E-2,1.5841939E-1,9.1433585E-1,-4.6370436E-2,4.668571E-1,4.540602E-1,1.268541E-3,3.194228E-1,5.0323844E-2,1.06681585E-2,-1.1511973E-2,1.2901633E-2,6.0607344E-2,-8.408186E-5,-3.5839274E-3,2.0464195E-3,3.7438102E-2,5.59324E-2,1.2755779E-2,-3.4778303E-4,7.3972284E-3,3.485218E-4,2.170229E-2,1.6675078E-3,1.8167019E-2],"categories":[],"categories_nodes":[],"categories_segments":[],"categories_sizes":[],"default_left":[0,0,0,0,0,0,0,0,0,0,0,0,0,0,0,0,0,0,0,0,0,0,0,0,0,0,0,0,0,0,0],"id":44,"left_children":[1,3,5,7,9,11,13,15,17,19,21,23,25,27,29,-1,-1,-1,-1,-1,-1,-1,-1,-1,-1,-1,-1,-1,-1,-1,-1],"loss_changes":[2.894348E1,2.618447E1,2.1422564E1,1.2414621E1,1.4969147E1,1.9495966E1,3.6577682E1,9.658909E0,3.948883E0,1.48225E1,6.7672205E0,1.217001E1,1.5525604E1,2.0639473E1,2.158445E1,0E0,0E0,0E0,0E0,0E0,0E0,0E0,0E0,0E0,0E0,0E0,0E0,0E0,0E0,0E0,0E0],"parents":[2147483647,0,0,1,1,2,2,3,3,4,4,5,5,6,6,7,7,8,8,9,9,10,10,11,11,12,12,13,13,14,14],"right_children":[2,4,6,8,10,12,14,16,18,20,22,24,26,28,30,-1,-1,-1,-1,-1,